{"learner":{"attributes":{"best_iteration":"9","best_ntree_limit":"10"},"feature_names":[],"feature_types":[],"gradient_booster":{"model":{"gbtree_model_param":{"num_parallel_tree":"1","num_trees":"20","size_leaf_vector":"0"},"tree_info":[0,1,0,1,0,1,0,1,0,1,0,1,0,1,0,1,0,1,0,1],"trees":[{"base_weights":[-4.9751243E-1,4.6031746E-1,-9.2805755E-1,8.636364E-1,-4.5E-1,5E-1,-9.632353E-1,-6E-1,9.2941177E-1,-9.230769E-1,3.75E-1,-0E0,6.666667E-1,-0E0,-9.7761196E-1,9.7590363E-1,-5E-1,8.181818E-1,-4.2857143E-1,5E-1,-5E-1,-9.849624E-1,-0E0,-6E-1,-0E0,-0E0,-9.9242425E-1],"categories":[],"categories_nodes":[],"categories_segments":[],"categories_sizes":[],"default_left":[1,1,1,1,1,1,1,0,1,0,1,0,0,1,1,0,0,0,1,0,0,1,0,0,0,0,0],"id":0,"left_children":[1,3,5,7,9,11,13,-1,15,-1,17,-1,-1,19,21,-1,-1,-1,23,-1,-1,25,-1,-1,-1,-1,-1],"loss_changes":[8.331739E1,2.3518974E1,7.4644012E0,4.7935867E0,8.151923E0,3.3333337E-1,1.8833466E0,0E0,3.3123322E0,0E0,3.1996756E0,0E0,0E0,1E0,9.629059E-1,0E0,0E0,0E0,2.5714284E-1,0E0,0E0,9.774933E-1,0E0,0E0,0E0,0E0,0E0],"parents":[2147483647,0,0,1,1,2,2,3,3,4,4,5,5,6,6,8,8,10,10,13,13,14,14,18,18,21,21],"right_children":[2,4,6,8,10,12,14,-1,16,-1,18,-1,-1,20,22,-1,-1,-1,24,-1,-1,26,-1,-1,-1,-1,-1],"split_conditions":[1.835E2,1.9E1,6.8E1,1.35E2,1.205E2,1.3E1,5.35E1,-1.8E-1,1.745E2,-2.769231E-1,7.85E1,-0E0,2.0000002E-1,1.4E1,5.15E1,2.927711E-1,-1.5E-1,2.4545455E-1,6.85E1,1.5E-1,-1.5E-1,6.15E1,-0E0,-1.8E-1,-0E0,-0E0,-2.977273E-1],"split_indices":[1102,303,1110,2120,2101,1,2100,0,1022,0,2201,0,0,3,201,0,0,0,12,0,0,322,0,0,0,0,0],"split_type":[0,0,0,0,0,0,0,0,0,0,0,0,0,0,0,0,0,0,0,0,0,0,0,0,0,0,0],"sum_hessian":[2E2,6.2E1,1.38E2,4.3E1,1.9E1,3E0,1.35E2,1.5E0,4.15E1,1.2E1,7E0,1E0,2E0,2E0,1.33E2,4.05E1,1E0,4.5E0,2.5E0,1E0,1E0,1.32E2,1E0,1.5E0,1E0,1E0,1.31E2],"tree_param":{"num_deleted":"0","num_feature":"3333","num_nodes":"27","size_leaf_vector":"0"}},{"base_weights":[4.9751243E-1,-4.6031746E-1,9.2805755E-1,-8.636364E-1,4.5E-1,-5E-1,9.632353E-1,6E-1,-9.2941177E-1,9.230769E-1,-3.75E-1,-0E0,-6.666667E-1,-0E0,9.7761196E-1,-9.7590363E-1,5E-1,-8.181818E-1,4.2857143E-1,-5E-1,5E-1,9.849624E-1,-0E0,6E-1,-0E0,-0E0,9.9242425E-1],"categories":[],"categories_nodes":[],"categories_segments":[],"categories_sizes":[],"default_left":[1,1,1,1,1,1,1,0,1,0,1,0,0,1,1,0,0,0,1,0,0,1,0,0,0,0,0],"id":1,"left_children":[1,3,5,7,9,11,13,-1,15,-1,17,-1,-1,19,21,-1,-1,-1,23,-1,-1,25,-1,-1,-1,-1,-1],"loss_changes":[8.331739E1,2.3518974E1,7.4644012E0,4.7935867E0,8.151923E0,3.3333337E-1,1.8833466E0,0E0,3.3123322E0,0E0,3.1996756E0,0E0,0E0,1E0,9.629059E-1,0E0,0E0,0E0,2.5714284E-1,0E0,0E0,9.774933E-1,0E0,0E0,0E0,0E0,0E0],"parents":[2147483647,0,0,1,1,2,2,3,3,4,4,5,5,6,6,8,8,10,10,13,13,14,14,18,18,21,21],"right_children":[2,4,6,8,10,12,14,-1,16,-1,18,-1,-1,20,22,-1,-1,-1,24,-1,-1,26,-1,-1,-1,-1,-1],"split_conditions":[1.835E2,1.9E1,6.8E1,1.35E2,1.205E2,1.3E1,5.35E1,1.8E-1,1.745E2,2.769231E-1,7.85E1,-0E0,-2.0000002E-1,1.4E1,5.15E1,-2.927711E-1,1.5E-1,-2.4545455E-1,6.85E1,-1.5E-1,1.5E-1,6.15E1,-0E0,1.8E-1,-0E0,-0E0,2.977273E-1],"split_indices":[1102,303,1110,2120,2101,1,2100,0,1022,0,2201,0,0,3,201,0,0,0,12,0,0,322,0,0,0,0,0],"split_type":[0,0,0,0,0,0,0,0,0,0,0,0,0,0,0,0,0,0,0,0,0,0,0,0,0,0,0],"sum_hessian":[2E2,6.2E1,1.38E2,4.3E1,1.9E1,3E0,1.35E2,1.5E0,4.15E1,1.2E1,7E0,1E0,2E0,2E0,1.33E2,4.05E1,1E0,4.5E0,2.5E0,1E0,1E0,1.32E2,1E0,1.5E0,1E0,1E0,1.31E2],"tree_param":{"num_deleted":"0","num_feature":"3333","num_nodes":"27","size_leaf_vector":"0"}},{"base_weights":[-3.840372E-1,3.2032284E-1,-7.3404425E-1,7.053095E-1,-3.2812E-1,3.498226E-1,-7.586622E-1,7.450447E-1,-2.0245944E-1,5.03797E-1,-6.703494E-1,-0E0,4.9310064E-1,-0E0,-7.710521E-1,7.6533085E-1,1.2665196E-1,-1.5599379E-1,6.781687E-1,-7.5230646E-1,1.5553723E-1],"categories":[],"categories_nodes":[],"categories_segments":[],"categories_sizes":[],"default_left":[1,1,1,1,1,1,1,1,0,1,1,0,0,0,0,0,0,0,0,0,0],"id":2,"left_children":[1,3,5,7,9,11,13,15,-1,17,19,-1,-1,-1,-1,-1,-1,-1,-1,-1,-1],"loss_changes":[4.593794E1,1.5768146E1,3.57798E0,1.570879E0,7.132945E0,1.7249775E-1,1.1439972E0,3.7891006E-1,0E0,9.718318E-1,1.2907E0,0E0,0E0,0E0,0E0,0E0,0E0,0E0,0E0,0E0,0E0],"parents":[2147483647,0,0,1,1,2,2,3,3,4,4,5,5,6,6,7,7,9,9,10,10],"right_children":[2,4,6,8,10,12,14,16,-1,18,20,-1,-1,-1,-1,-1,-1,-1,-1,-1,-1],"split_conditions":[1.875E2,2.55E1,6.8E1,1.71E2,1.115E2,1.3E1,5.35E1,7.05E1,-6.0737833E-2,1.105E2,1.155E2,-0E0,1.479302E-1,-0E0,-2.3131564E-1,2.2959927E-1,3.7995588E-2,-4.679814E-2,2.0345062E-1,-2.2569194E-1,4.6661172E-2],"split_indices":[1102,301,1110,1022,221,1,2100,220,0,112,211,0,0,0,0,0,0,0,0,0,0],"split_type":[0,0,0,0,0,0,0,0,0,0,0,0,0,0,0,0,0,0,0,0,0],"sum_hessian":[1.8438362E2,6.123603E1,1.2314758E2,3.8368557E1,2.2867476E1,2.4415646E0,1.20706024E2,3.6931244E1,1.4373109E0,6.5275984E0,1.6339878E1,1E0,1.4415646E0,1.9556665E0,1.1875036E2,3.5528145E1,1.4030991E0,1.386548E0,5.1410503E0,1.4945819E1,1.3940588E0],"tree_param":{"num_deleted":"0","num_feature":"3333","num_nodes":"21","size_leaf_vector":"0"}},{"base_weights":[3.840373E-1,-3.2032275E-1,7.340444E-1,-7.0530945E-1,3.2812E-1,-3.4982255E-1,7.586623E-1,-7.4504465E-1,2.0245945E-1,-5.0379694E-1,6.703494E-1,-0E0,-4.931006E-1,-0E0,7.710522E-1,-7.653308E-1,-1.2665193E-1,1.5599382E-1,-6.7816865E-1,7.5230646E-1,-1.5553722E-1],"categories":[],"categories_nodes":[],"categories_segments":[],"categories_sizes":[],"default_left":[1,1,1,1,1,1,1,1,0,1,1,0,0,0,0,0,0,0,0,0,0],"id":3,"left_children":[1,3,5,7,9,11,13,15,-1,17,19,-1,-1,-1,-1,-1,-1,-1,-1,-1,-1],"loss_changes":[4.5937946E1,1.5768143E1,3.5779724E0,1.5708809E0,7.1329446E0,1.7249775E-1,1.1440048E0,3.7890816E-1,0E0,9.718317E-1,1.2906995E0,0E0,0E0,0E0,0E0,0E0,0E0,0E0,0E0,0E0,0E0],"parents":[2147483647,0,0,1,1,2,2,3,3,4,4,5,5,6,6,7,7,9,9,10,10],"right_children":[2,4,6,8,10,12,14,16,-1,18,20,-1,-1,-1,-1,-1,-1,-1,-1,-1,-1],"split_conditions":[1.875E2,2.55E1,6.8E1,1.71E2,1.115E2,1.3E1,5.35E1,7.05E1,6.0737837E-2,1.105E2,1.155E2,-0E0,-1.4793019E-1,-0E0,2.3131566E-1,-2.2959925E-1,-3.799558E-2,4.6798147E-2,-2.034506E-1,2.2569194E-1,-4.666117E-2],"split_indices":[1102,301,1110,1022,221,1,2100,220,0,112,211,0,0,0,0,0,0,0,0,0,0],"split_type":[0,0,0,0,0,0,0,0,0,0,0,0,0,0,0,0,0,0,0,0,0],"sum_hessian":[1.8438362E2,6.123603E1,1.2314759E2,3.8368553E1,2.2867476E1,2.4415643E0,1.2070603E2,3.6931244E1,1.4373109E0,6.527598E0,1.6339878E1,1E0,1.4415644E0,1.9556665E0,1.1875037E2,3.5528145E1,1.403099E0,1.386548E0,5.14105E0,1.494582E1,1.3940588E0],"tree_param":{"num_deleted":"0","num_feature":"3333","num_nodes":"21","size_leaf_vector":"0"}},{"base_weights":[-3.2686746E-1,3.5872978E-1,-5.978357E-1,6.10636E-1,-3.3393338E-1,-6.3200843E-1,5.338052E-1,6.586334E-1,-3.7559006E-1,-6.276065E-1,3.1581667E-1,-6.496704E-1,4.564877E-1,6.7456955E-1,1.2208301E-1,-1.1333189E-1,4.9556082E-1,-1.1980026E-1,-6.703433E-1,4.441266E-1,-4.904229E-1,-1.1865007E-1,-6.7532945E-1],"categories":[],"categories_nodes":[],"categories_segments":[],"categories_sizes":[],"default_left":[1,0,1,1,1,1,0,1,0,0,1,1,0,0,0,0,0,1,1,0,0,0,0],"id":4,"left_children":[1,3,5,7,9,11,-1,13,-1,-1,15,17,-1,-1,-1,-1,-1,19,21,-1,-1,-1,-1],"loss_changes":[2.943928E1,8.088474E0,4.7120743E0,1.8326645E0,2.6210577E0,2.416462E0,0E0,1.9382E-1,0E0,0E0,4.1236264E-1,1.112793E0,0E0,0E0,0E0,0E0,0E0,1.3271041E0,2.076416E-1,0E0,0E0,0E0,0E0],"parents":[2147483647,0,0,1,1,2,2,3,3,4,4,5,5,7,7,10,10,11,11,17,17,18,18],"right_children":[2,4,6,8,10,12,-1,14,-1,-1,16,18,-1,-1,-1,-1,-1,20,22,-1,-1,-1,-1],"split_conditions":[1.56E2,2.1E1,1.515E2,9.15E1,1.21E2,1.095E2,1.6014156E-1,1.545E2,-1.1267702E-1,-1.8828197E-1,2.85E1,4.55E1,1.369463E-1,2.0237087E-1,3.6624905E-2,-3.399957E-2,1.4866826E-1,4.85E1,9.5E0,1.3323799E-1,-1.4712688E-1,-3.5595022E-2,-2.0259884E-1],"split_indices":[1022,303,2101,1110,112,2021,0,1022,0,0,2,222,0,0,0,0,0,111,302,0,0,0,0],"split_type":[0,0,0,0,0,0,0,0,0,0,0,0,0,0,0,0,0,0,0,0,0,0,0],"sum_hessian":[1.563129E2,4.418733E1,1.1212557E2,3.24899E1,1.169743E1,1.0926749E2,2.8580923E0,3.129882E1,1.1910763E0,8.079671E0,3.6177585E0,1.07919525E2,1.3479612E0,3.014621E1,1.152611E0,1.1770271E0,2.4407315E0,4.3075247E0,1.03612E2,1.6296217E0,2.677903E0,1.150142E0,1.0246185E2],"tree_param":{"num_deleted":"0","num_feature":"3333","num_nodes":"23","size_leaf_vector":"0"}},{"base_weights":[3.2686746E-1,-3.5872978E-1,5.978357E-1,-6.10636E-1,3.3393344E-1,6.3200843E-1,-5.338052E-1,-6.586334E-1,3.7559006E-1,6.276066E-1,-3.1581664E-1,6.496704E-1,-4.564877E-1,-6.7456955E-1,-1.2208301E-1,1.1333192E-1,-4.9556082E-1,1.1980028E-1,6.703433E-1,-4.441266E-1,4.904229E-1,1.1865007E-1,6.7532945E-1],"categories":[],"categories_nodes":[],"categories_segments":[],"categories_sizes":[],"default_left":[1,0,1,1,1,1,0,1,0,0,1,1,0,0,0,0,0,1,1,0,0,0,0],"id":5,"left_children":[1,3,5,7,9,11,-1,13,-1,-1,15,17,-1,-1,-1,-1,-1,19,21,-1,-1,-1,-1],"loss_changes":[2.9439278E1,8.088474E0,4.7120743E0,1.8326645E0,2.6210577E0,2.416462E0,0E0,1.9382E-1,0E0,0E0,4.1236266E-1,1.112793E0,0E0,0E0,0E0,0E0,0E0,1.327104E0,2.076416E-1,0E0,0E0,0E0,0E0],"parents":[2147483647,0,0,1,1,2,2,3,3,4,4,5,5,7,7,10,10,11,11,17,17,18,18],"right_children":[2,4,6,8,10,12,-1,14,-1,-1,16,18,-1,-1,-1,-1,-1,20,22,-1,-1,-1,-1],"split_conditions":[1.56E2,2.1E1,1.515E2,9.15E1,1.21E2,1.095E2,-1.6014156E-1,1.545E2,1.1267702E-1,1.8828198E-1,2.85E1,4.55E1,-1.369463E-1,-2.0237087E-1,-3.6624905E-2,3.3999577E-2,-1.4866826E-1,4.85E1,9.5E0,-1.3323799E-1,1.4712688E-1,3.5595022E-2,2.0259884E-1],"split_indices":[1022,303,2101,1110,112,2021,0,1022,0,0,2,222,0,0,0,0,0,111,302,0,0,0,0],"split_type":[0,0,0,0,0,0,0,0,0,0,0,0,0,0,0,0,0,0,0,0,0,0,0],"sum_hessian":[1.563129E2,4.418733E1,1.1212558E2,3.24899E1,1.169743E1,1.0926749E2,2.8580923E0,3.129882E1,1.1910763E0,8.079671E0,3.6177583E0,1.07919525E2,1.3479612E0,3.014621E1,1.152611E0,1.1770271E0,2.440731E0,4.3075247E0,1.03612E2,1.6296217E0,2.677903E0,1.150142E0,1.0246185E2],"tree_param":{"num_deleted":"0","num_feature":"3333","num_nodes":"23","size_leaf_vector":"0"}},{"base_weights":[-2.915776E-1,2.4790339E-1,-5.7298243E-1,5.463905E-1,-2.4198192E-1,-6.074065E-1,1.3801187E-1,-9.461761E-2,5.8633196E-1,4.280039E-1,-4.8490986E-1,-6.132512E-1,-7.168318E-2,5.143121E-1,-3.7923402E-1,3.7177294E-2,6.072111E-1,6.533369E-2,5.009717E-1,-5.865071E-1,3.453958E-1],"categories":[],"categories_nodes":[],"categories_segments":[],"categories_sizes":[],"default_left":[1,1,1,1,1,1,1,0,1,1,1,0,0,0,0,0,0,0,0,0,0],"id":6,"left_children":[1,3,5,7,9,11,13,-1,15,17,19,-1,-1,-1,-1,-1,-1,-1,-1,-1,-1],"loss_changes":[1.964185E1,6.67288E0,2.1572857E0,7.749634E-1,3.076725E0,2.0963097E-1,1.1151302E0,0E0,2.823305E-1,1.0546422E-1,1.333492E0,0E0,0E0,0E0,0E0,0E0,0E0,0E0,0E0,0E0,0E0],"parents":[2147483647,0,0,1,1,2,2,3,3,4,4,5,5,6,6,8,8,9,9,10,10],"right_children":[2,4,6,8,10,12,14,-1,16,18,20,-1,-1,-1,-1,-1,-1,-1,-1,-1,-1],"split_conditions":[1.875E2,2.55E1,1.055E2,2.6E1,1.295E2,1.505E2,1.7E1,-2.8385285E-2,7.95E1,4.2E1,1.62E2,-1.8397537E-1,-2.1504955E-2,1.5429363E-1,-1.1377021E-1,1.11531885E-2,1.8216334E-1,1.9600106E-2,1.502915E-1,-1.7595214E-1,1.0361875E-1],"split_indices":[1102,301,2021,1010,1022,312,3,0,210,31,212,0,0,0,0,0,0,0,0,0,0],"split_type":[0,0,0,0,0,0,0,0,0,0,0,0,0,0,0,0,0,0,0,0,0],"sum_hessian":[1.274466E2,4.373031E1,8.371629E1,2.7101824E1,1.6628483E1,7.9989174E1,3.727121E0,1.5093801E0,2.5592443E1,4.222137E0,1.2406346E1,7.898275E1,1.0064213E0,2.160797E0,1.566324E0,1.0392427E0,2.4553202E1,1.0246613E0,3.197476E0,1.1315405E1,1.0909413E0],"tree_param":{"num_deleted":"0","num_feature":"3333","num_nodes":"21","size_leaf_vector":"0"}},{"base_weights":[2.9157767E-1,-2.4790336E-1,5.729825E-1,-5.463905E-1,2.4198194E-1,6.074065E-1,-1.3801186E-1,9.461763E-2,-5.8633196E-1,-4.280039E-1,4.8490986E-1,6.1325127E-1,7.168318E-2,-5.143121E-1,3.7923405E-1,-3.7177254E-2,-6.072111E-1,-6.533372E-2,-5.009717E-1,5.865071E-1,-3.4539577E-1],"categories":[],"categories_nodes":[],"categories_segments":[],"categories_sizes":[],"default_left":[1,1,1,1,1,1,1,0,1,1,1,0,0,0,0,0,0,0,0,0,0],"id":7,"left_children":[1,3,5,7,9,11,13,-1,15,17,19,-1,-1,-1,-1,-1,-1,-1,-1,-1,-1],"loss_changes":[1.9641853E1,6.672882E0,2.1572838E0,7.749624E-1,3.076725E0,2.0963097E-1,1.1151303E0,0E0,2.823305E-1,1.0546422E-1,1.3334925E0,0E0,0E0,0E0,0E0,0E0,0E0,0E0,0E0,0E0,0E0],"parents":[2147483647,0,0,1,1,2,2,3,3,4,4,5,5,6,6,8,8,9,9,10,10],"right_children":[2,4,6,8,10,12,14,-1,16,18,20,-1,-1,-1,-1,-1,-1,-1,-1,-1,-1],"split_conditions":[1.875E2,2.55E1,1.055E2,2.6E1,1.295E2,1.505E2,1.7E1,2.8385289E-2,7.95E1,4.2E1,1.62E2,1.8397538E-1,2.1504955E-2,-1.5429363E-1,1.1377022E-1,-1.1153176E-2,-1.8216334E-1,-1.9600116E-2,-1.502915E-1,1.7595214E-1,-1.0361873E-1],"split_indices":[1102,301,2021,1010,1022,312,3,0,210,31,212,0,0,0,0,0,0,0,0,0,0],"split_type":[0,0,0,0,0,0,0,0,0,0,0,0,0,0,0,0,0,0,0,0,0],"sum_hessian":[1.274466E2,4.373031E1,8.371629E1,2.7101822E1,1.6628485E1,7.9989174E1,3.727121E0,1.5093801E0,2.5592442E1,4.2221375E0,1.2406347E1,7.898275E1,1.0064214E0,2.160797E0,1.566324E0,1.0392427E0,2.45532E1,1.0246613E0,3.197476E0,1.1315406E1,1.0909413E0],"tree_param":{"num_deleted":"0","num_feature":"3333","num_nodes":"21","size_leaf_vector":"0"}},{"base_weights":[-2.6635307E-1,2.9572564E-1,-5.0124896E-1,5.082872E-1,-2.6439282E-1,5.6929093E-2,-5.609513E-1,5.6989443E-1,-1.2721327E-1,-5.120041E-1,2.4249162E-1,4.0314585E-1,-4.4704413E-1,1.7582962E-2,-5.721209E-1,3.7233123E-1,-2.0533377E-2,4.8983228E-1,1.9523235E-2,-5.7644635E-1,-1.6404615E-1],"categories":[],"categories_nodes":[],"categories_segments":[],"categories_sizes":[],"default_left":[1,0,1,1,1,1,1,0,0,0,1,1,0,0,1,0,0,0,0,0,0],"id":8,"left_children":[1,3,5,7,9,11,13,-1,-1,-1,15,17,-1,-1,19,-1,-1,-1,-1,-1,-1],"loss_changes":[1.3728521E1,3.818644E0,2.4617271E0,9.641342E-1,1.2751591E0,1.5679021E0,4.3629456E-1,0E0,0E0,0E0,1.3360173E-1,1.6469902E-1,0E0,0E0,1.9708633E-2,0E0,0E0,0E0,0E0,0E0,0E0],"parents":[2147483647,0,0,1,1,2,2,3,3,4,4,5,5,6,6,10,10,11,11,14,14],"right_children":[2,4,6,8,10,12,14,-1,-1,-1,16,18,-1,-1,20,-1,-1,-1,-1,-1,-1],"split_conditions":[1.56E2,2.1E1,7.75E1,8.9E1,1.21E2,1.2E1,6.25E1,1.7096834E-1,-3.8163982E-2,-1.5360123E-1,1.7E1,2.8E1,-1.3411325E-1,5.274889E-3,5.5E1,1.1169937E-1,-6.1600134E-3,1.469497E-1,5.856971E-3,-1.729339E-1,-4.921385E-2],"split_indices":[1022,303,1110,1110,112,30,322,0,0,0,1130,31,0,0,2020,0,0,0,0,0,0],"split_type":[0,0,0,0,0,0,0,0,0,0,0,0,0,0,0,0,0,0,0,0,0],"sum_hessian":[1.0185762E2,2.9944624E1,7.1912994E1,2.1774044E1,8.170582E0,6.9530406E0,6.495995E1,1.9943865E1,1.830179E0,5.4823656E0,2.688216E0,4.2401977E0,2.712843E0,1.2195336E0,6.3740417E1,1.5215465E0,1.1666695E0,3.2328234E0,1.0073743E0,6.266361E1,1.0768093E0],"tree_param":{"num_deleted":"0","num_feature":"3333","num_nodes":"21","size_leaf_vector":"0"}},{"base_weights":[2.6635313E-1,-2.957256E-1,5.01249E-1,-5.082872E-1,2.6439288E-1,-5.6929033E-2,5.6095135E-1,-5.6989443E-1,1.2721325E-1,5.120041E-1,-2.4249165E-1,-4.0314582E-1,4.4704416E-1,-1.7582962E-2,5.7212096E-1,-3.7233123E-1,2.0533357E-2,-4.8983228E-1,-1.952319E-2,5.7644635E-1,1.6404615E-1],"categories":[],"categories_nodes":[],"categories_segments":[],"categories_sizes":[],"default_left":[1,0,1,1,1,1,1,0,0,0,1,1,0,0,1,0,0,0,0,0,0],"id":9,"left_children":[1,3,5,7,9,11,13,-1,-1,-1,15,17,-1,-1,19,-1,-1,-1,-1,-1,-1],"loss_changes":[1.3728523E1,3.8186445E0,2.4617271E0,9.6413374E-1,1.2751591E0,1.5679022E0,4.3629265E-1,0E0,0E0,0E0,1.3360168E-1,1.6469902E-1,0E0,0E0,1.9708633E-2,0E0,0E0,0E0,0E0,0E0,0E0],"parents":[2147483647,0,0,1,1,2,2,3,3,4,4,5,5,6,6,10,10,11,11,14,14],"right_children":[2,4,6,8,10,12,14,-1,-1,-1,16,18,-1,-1,20,-1,-1,-1,-1,-1,-1],"split_conditions":[1.56E2,2.1E1,7.75E1,8.9E1,1.21E2,1.2E1,6.25E1,-1.7096834E-1,3.816398E-2,1.5360123E-1,1.7E1,2.8E1,1.3411325E-1,-5.274889E-3,5.5E1,-1.1169937E-1,6.1600073E-3,-1.469497E-1,-5.8569573E-3,1.729339E-1,4.921385E-2],"split_indices":[1022,303,1110,1110,112,30,322,0,0,0,1130,31,0,0,2020,0,0,0,0,0,0],"split_type":[0,0,0,0,0,0,0,0,0,0,0,0,0,0,0,0,0,0,0,0,0],"sum_hessian":[1.0185762E2,2.9944626E1,7.1912994E1,2.1774044E1,8.170582E0,6.9530406E0,6.495995E1,1.9943865E1,1.830179E0,5.4823666E0,2.6882157E0,4.2401977E0,2.7128432E0,1.2195336E0,6.374042E1,1.5215464E0,1.1666694E0,3.2328234E0,1.0073743E0,6.2663612E1,1.0768092E0],"tree_param":{"num_deleted":"0","num_feature":"3333","num_nodes":"21","size_leaf_vector":"0"}},{"base_weights":[-2.4713293E-1,2.152637E-1,-5.0713325E-1,-2.1197307E-1,4.6635038E-1,-5.427705E-1,1.06165685E-1,3.2915545E-1,-3.7767684E-1,-4.6426997E-2,5.173664E-1,-1.0219607E-1,-5.5012524E-1,3.9446807E-1,-3.0267045E-1,1.8665822E-1,-4.8484308E-1,5.417042E-1,8.9081615E-2],"categories":[],"categories_nodes":[],"categories_segments":[],"categories_sizes":[],"default_left":[1,1,1,0,1,0,1,0,1,0,1,0,0,0,0,0,0,0,0],"id":10,"left_children":[1,3,5,7,9,11,13,-1,15,-1,17,-1,-1,-1,-1,-1,-1,-1,-1],"loss_changes":[9.957535E0,3.3369195E0,1.2101536E0,1.1878349E0,5.2954245E-1,1.0579395E-1,5.5930996E-1,0E0,6.6781425E-1,0E0,1.358037E-1,0E0,0E0,0E0,0E0,0E0,0E0,0E0,0E0],"parents":[2147483647,0,0,1,1,2,2,3,3,4,4,5,5,6,6,8,8,10,10],"right_children":[2,4,6,8,10,12,14,-1,16,-1,18,-1,-1,-1,-1,-1,-1,-1,-1],"split_conditions":[1.875E2,1.455E2,1.055E2,1.5E1,9.05E1,1.5E0,1.7E1,9.8746635E-2,1.06E2,-1.39281E-2,9.9E1,-3.065882E-2,-1.6503757E-1,1.18340425E-1,-9.0801135E-2,5.599747E-2,-1.4545293E-1,1.6251126E-1,2.6724486E-2],"split_indices":[1102,212,2021,303,2021,330,3,0,221,0,322,0,0,0,0,0,0,0,0],"split_type":[0,0,0,0,0,0,0,0,0,0,0,0,0,0,0,0,0,0,0],"sum_hessian":[8.091732E1,2.9185152E1,5.1732166E1,1.0860773E1,1.8324379E1,4.89999E1,2.7322643E0,2.3148623E0,8.545911E0,1.6662586E0,1.6658121E1,1.0491177E0,4.7950783E1,1.6229436E0,1.1093208E0,1.2454793E0,7.3004313E0,1.5511821E1,1.1463003E0],"tree_param":{"num_deleted":"0","num_feature":"3333","num_nodes":"19","size_leaf_vector":"0"}},{"base_weights":[2.4713297E-1,-2.1526363E-1,5.0713325E-1,2.1197312E-1,-4.6635035E-1,5.427705E-1,-1.0616569E-1,-3.2915536E-1,3.7767684E-1,4.642701E-2,-5.1736635E-1,1.02196045E-1,5.5012524E-1,-3.944681E-1,3.0267048E-1,-1.8665819E-1,4.8484308E-1,-5.417042E-1,-8.9081615E-2],"categories":[],"categories_nodes":[],"categories_segments":[],"categories_sizes":[],"default_left":[1,1,1,0,1,0,1,0,1,0,1,0,0,0,0,0,0,0,0],"id":11,"left_children":[1,3,5,7,9,11,13,-1,15,-1,17,-1,-1,-1,-1,-1,-1,-1,-1],"loss_changes":[9.957531E0,3.336919E0,1.2101536E0,1.1878341E0,5.2954197E-1,1.0579395E-1,5.593101E-1,0E0,6.67814E-1,0E0,1.3580418E-1,0E0,0E0,0E0,0E0,0E0,0E0,0E0,0E0],"parents":[2147483647,0,0,1,1,2,2,3,3,4,4,5,5,6,6,8,8,10,10],"right_children":[2,4,6,8,10,12,14,-1,16,-1,18,-1,-1,-1,-1,-1,-1,-1,-1],"split_conditions":[1.875E2,1.455E2,1.055E2,1.5E1,9.05E1,1.5E0,1.7E1,-9.874661E-2,1.06E2,1.3928104E-2,9.9E1,3.0658815E-2,1.6503757E-1,-1.1834043E-1,9.080115E-2,-5.5997457E-2,1.4545293E-1,-1.6251126E-1,-2.6724486E-2],"split_indices":[1102,212,2021,303,2021,330,3,0,221,0,322,0,0,0,0,0,0,0,0],"split_type":[0,0,0,0,0,0,0,0,0,0,0,0,0,0,0,0,0,0,0],"sum_hessian":[8.0917305E1,2.9185146E1,5.1732162E1,1.0860771E1,1.8324375E1,4.8999897E1,2.7322645E0,2.3148613E0,8.54591E0,1.6662583E0,1.6658115E1,1.0491177E0,4.795078E1,1.6229438E0,1.1093209E0,1.2454792E0,7.3004303E0,1.5511816E1,1.1463002E0],"tree_param":{"num_deleted":"0","num_feature":"3333","num_nodes":"19","size_leaf_vector":"0"}},{"base_weights":[-2.2865571E-1,2.4429798E-1,-4.605889E-1,-1.665895E-1,4.896893E-1,5.5371147E-2,-5.260893E-1,-4.24006E-1,1.6309875E-1,6.5874316E-2,5.188624E-1,-3.6668676E-1,3.3977905E-1,-1.5547614E-1,-5.3179383E-1,3.9532748E-1,-2.3003238E-1,3.8858983E-1,9.812614E-2],"categories":[],"categories_nodes":[],"categories_segments":[],"categories_sizes":[],"default_left":[1,1,1,1,1,1,1,0,1,0,0,0,1,0,0,0,0,0,0],"id":12,"left_children":[1,3,5,7,9,11,13,-1,15,-1,-1,-1,17,-1,-1,-1,-1,-1,-1],"loss_changes":[7.262038E0,2.3097844E0,1.5187759E0,8.337476E-1,1.4002633E-1,8.292176E-1,2.1076202E-4,0E0,5.1750433E-1,0E0,0E0,0E0,9.356439E-3,0E0,0E0,0E0,0E0,0E0,0E0],"parents":[2147483647,0,0,1,1,2,2,3,3,4,4,5,5,6,6,8,8,12,12],"right_children":[2,4,6,8,10,12,14,-1,16,-1,-1,-1,18,-1,-1,-1,-1,-1,-1],"split_conditions":[1.575E2,1.445E2,7.75E1,1.205E2,7.1E1,9.2E1,1.605E2,-1.272018E-1,1.85E1,1.9762296E-2,1.5565874E-1,-1.10006034E-1,1.5E0,-4.6642844E-2,-1.5953815E-1,1.18598245E-1,-6.900972E-2,1.16576955E-1,2.9437844E-2],"split_indices":[1022,212,1110,2101,1220,2021,1022,0,1130,0,0,0,1300,0,0,0,0,0,0],"split_type":[0,0,0,0,0,0,0,0,0,0,0,0,0,0,0,0,0,0,0],"sum_hessian":[6.417713E1,2.1099047E1,4.3078083E1,8.009286E0,1.3089761E1,4.8700857E0,3.8207996E1,4.33696E0,3.672326E0,1.0528252E0,1.2036936E1,1.844126E0,3.0259597E0,1.0074931E0,3.7200504E1,2.3050876E0,1.3672384E0,2.011594E0,1.0143656E0],"tree_param":{"num_deleted":"0","num_feature":"3333","num_nodes":"19","size_leaf_vector":"0"}},{"base_weights":[2.2865559E-1,-2.4429797E-1,4.6058884E-1,1.6658944E-1,-4.896893E-1,-5.537122E-2,5.260893E-1,4.24006E-1,-1.6309883E-1,-6.587429E-2,-5.188624E-1,3.6668673E-1,-3.3977908E-1,1.5547606E-1,5.317938E-1,-3.9532754E-1,2.3003238E-1,-3.885898E-1,-9.8126225E-2],"categories":[],"categories_nodes":[],"categories_segments":[],"categories_sizes":[],"default_left":[1,1,1,1,1,1,1,0,1,0,0,0,1,0,0,0,0,0,0],"id":13,"left_children":[1,3,5,7,9,11,13,-1,15,-1,-1,-1,17,-1,-1,-1,-1,-1,-1],"loss_changes":[7.262035E0,2.309784E0,1.5187759E0,8.3374774E-1,1.4002633E-1,8.2921755E-1,2.1076202E-4,0E0,5.1750445E-1,0E0,0E0,0E0,9.35635E-3,0E0,0E0,0E0,0E0,0E0,0E0],"parents":[2147483647,0,0,1,1,2,2,3,3,4,4,5,5,6,6,8,8,12,12],"right_children":[2,4,6,8,10,12,14,-1,16,-1,-1,-1,18,-1,-1,-1,-1,-1,-1],"split_conditions":[1.575E2,1.445E2,7.75E1,1.205E2,7.1E1,9.2E1,1.605E2,1.272018E-1,1.85E1,-1.9762289E-2,-1.5565874E-1,1.1000603E-1,1.5E0,4.664282E-2,1.5953813E-1,-1.1859827E-1,6.900972E-2,-1.1657695E-1,-2.9437868E-2],"split_indices":[1022,212,1110,2101,1220,2021,1022,0,1130,0,0,0,1300,0,0,0,0,0,0],"split_type":[0,0,0,0,0,0,0,0,0,0,0,0,0,0,0,0,0,0,0],"sum_hessian":[6.41771E1,2.1099045E1,4.3078056E1,8.009286E0,1.3089759E1,4.870085E0,3.820797E1,4.33696E0,3.6723263E0,1.0528249E0,1.2036934E1,1.8441255E0,3.0259595E0,1.0074928E0,3.7200478E1,2.305088E0,1.3672383E0,2.011594E0,1.0143654E0],"tree_param":{"num_deleted":"0","num_feature":"3333","num_nodes":"19","size_leaf_vector":"0"}},{"base_weights":[-2.1365906E-1,1.9184758E-1,-4.6711108E-1,4.3268728E-1,-1.8221581E-1,-5.0595576E-1,8.8922136E-2,2.2072164E-2,4.9658725E-1,2.976799E-1,-3.8518113E-1,-1.1459488E-1,-5.1557535E-1,-4.5178154E-1,-6.788573E-3],"categories":[],"categories_nodes":[],"categories_segments":[],"categories_sizes":[],"default_left":[1,1,1,1,1,1,0,0,0,0,1,0,0,0,0],"id":14,"left_children":[1,3,5,7,9,11,-1,-1,-1,-1,13,-1,-1,-1,-1],"loss_changes":[5.404711E0,1.9346633E0,7.38647E-1,3.2561827E-1,9.690734E-1,5.449152E-2,0E0,0E0,0E0,0E0,1.6327673E-1,0E0,0E0,0E0,0E0],"parents":[2147483647,0,0,1,1,2,2,3,3,4,4,5,5,10,10],"right_children":[2,4,6,8,10,12,-1,-1,-1,-1,14,-1,-1,-1,-1],"split_conditions":[1.875E2,2.55E1,1.055E2,2.95E1,1.295E2,4.05E1,2.6676642E-2,6.6216495E-3,1.4897618E-1,8.930397E-2,9.85E1,-3.4378465E-2,-1.5467261E-1,-1.3553447E-1,-2.036572E-3],"split_indices":[1102,301,2021,1010,1022,22,0,0,0,0,1220,0,0,0,0],"split_type":[0,0,0,0,0,0,0,0,0,0,0,0,0,0,0],"sum_hessian":[5.0715107E1,1.9599789E1,3.1115318E1,1.1827782E1,7.7720075E0,2.9167715E1,1.9476037E0,1.7739514E0,1.005383E1,2.1713548E0,5.6006527E0,1.0095166E0,2.8158197E1,4.5975027E0,1.0031501E0],"tree_param":{"num_deleted":"0","num_feature":"3333","num_nodes":"15","size_leaf_vector":"0"}},{"base_weights":[2.1365921E-1,-1.9184762E-1,4.6711117E-1,-4.326873E-1,1.8221581E-1,5.059558E-1,-8.892215E-2,-2.2072222E-2,-4.9658725E-1,-2.9767984E-1,3.8518113E-1,1.1459505E-1,5.155754E-1,4.5178154E-1,6.7885434E-3],"categories":[],"categories_nodes":[],"categories_segments":[],"categories_sizes":[],"default_left":[1,1,1,1,1,1,0,0,0,0,1,0,0,0,0],"id":15,"left_children":[1,3,5,7,9,11,-1,-1,-1,-1,13,-1,-1,-1,-1],"loss_changes":[5.404714E0,1.9346633E0,7.3864746E-1,3.2561827E-1,9.690732E-1,5.4491043E-2,0E0,0E0,0E0,0E0,1.6327679E-1,0E0,0E0,0E0,0E0],"parents":[2147483647,0,0,1,1,2,2,3,3,4,4,5,5,10,10],"right_children":[2,4,6,8,10,12,-1,-1,-1,-1,14,-1,-1,-1,-1],"split_conditions":[1.875E2,2.55E1,1.055E2,2.95E1,1.295E2,4.05E1,-2.6676646E-2,-6.6216667E-3,-1.4897618E-1,-8.9303955E-2,9.85E1,3.4378517E-2,1.5467262E-1,1.3553447E-1,2.0365631E-3],"split_indices":[1102,301,2021,1010,1022,22,0,0,0,0,1220,0,0,0,0],"split_type":[0,0,0,0,0,0,0,0,0,0,0,0,0,0,0],"sum_hessian":[5.071513E1,1.9599789E1,3.111534E1,1.1827783E1,7.7720065E0,2.9167736E1,1.9476036E0,1.7739518E0,1.0053831E1,2.1713543E0,5.600652E0,1.0095172E0,2.8158218E1,4.5975018E0,1.0031501E0],"tree_param":{"num_deleted":"0","num_feature":"3333","num_nodes":"15","size_leaf_vector":"0"}},{"base_weights":[-1.9812746E-1,2.1559356E-1,-4.2143235E-1,-1.5221679E-1,4.4647136E-1,6.636665E-2,-4.962949E-1,-3.6827406E-1,1.3596271E-1,4.7507083E-1,1.1435823E-1,-2.460302E-1,3.5709935E-1,3.3079097E-1,-1.8067549E-1],"categories":[],"categories_nodes":[],"categories_segments":[],"categories_sizes":[],"default_left":[1,1,1,1,1,1,0,0,1,0,0,0,0,0,0],"id":16,"left_children":[1,3,5,7,9,11,-1,-1,13,-1,-1,-1,-1,-1,-1],"loss_changes":[3.9219995E0,1.3585789E0,1.0288057E0,4.6143067E-1,3.6773443E-2,4.9751294E-1,0E0,0E0,2.794598E-1,0E0,0E0,0E0,0E0,0E0,0E0],"parents":[2147483647,0,0,1,1,2,2,3,3,4,4,5,5,8,8],"right_children":[2,4,6,8,10,12,-1,-1,14,-1,-1,-1,-1,-1,-1],"split_conditions":[1.575E2,1.445E2,7.75E1,1.205E2,9.25E1,9.85E1,-1.4888847E-1,-1.1048222E-1,2.65E1,1.4252126E-1,3.4307472E-2,-7.3809065E-2,1.0712981E-1,9.923729E-2,-5.420265E-2],"split_indices":[1022,212,1110,2101,322,2021,0,0,1030,0,0,0,0,0,0],"split_type":[0,0,0,0,0,0,0,0,0,0,0,0,0,0,0],"sum_hessian":[4.0468887E1,1.4198185E1,2.62707E1,5.60677E0,8.591414E0,3.5104356E0,2.2760265E1,3.045517E0,2.5612533E0,7.513916E0,1.077499E0,1.7662888E0,1.7441468E0,1.5579474E0,1.0033059E0],"tree_param":{"num_deleted":"0","num_feature":"3333","num_nodes":"15","size_leaf_vector":"0"}},{"base_weights":[1.9812761E-1,-2.155935E-1,4.2143244E-1,1.5221676E-1,-4.4647133E-1,-6.63666E-2,4.9629492E-1,3.682741E-1,-1.3596275E-1,-4.750708E-1,-1.1435823E-1,2.4603018E-1,-3.5709932E-1,-3.30791E-1,1.8067548E-1],"categories":[],"categories_nodes":[],"categories_segments":[],"categories_sizes":[],"default_left":[1,1,1,1,1,1,0,0,1,0,0,0,0,0,0],"id":17,"left_children":[1,3,5,7,9,11,-1,-1,13,-1,-1,-1,-1,-1,-1],"loss_changes":[3.922E0,1.3585784E0,1.0288053E0,4.6143085E-1,3.6773324E-2,4.9751285E-1,0E0,0E0,2.7945974E-1,0E0,0E0,0E0,0E0,0E0,0E0],"parents":[2147483647,0,0,1,1,2,2,3,3,4,4,5,5,8,8],"right_children":[2,4,6,8,10,12,-1,-1,14,-1,-1,-1,-1,-1,-1],"split_conditions":[1.575E2,1.445E2,7.75E1,1.205E2,9.25E1,9.85E1,1.4888848E-1,1.1048223E-1,2.65E1,-1.4252125E-1,-3.4307472E-2,7.380906E-2,-1.07129805E-1,-9.92373E-2,5.4202646E-2],"split_indices":[1022,212,1110,2101,322,2021,0,0,1030,0,0,0,0,0,0],"split_type":[0,0,0,0,0,0,0,0,0,0,0,0,0,0,0],"sum_hessian":[4.0468895E1,1.4198182E1,2.6270712E1,5.60677E0,8.591412E0,3.5104353E0,2.2760277E1,3.045517E0,2.5612533E0,7.5139127E0,1.077499E0,1.766289E0,1.7441463E0,1.5579476E0,1.0033057E0],"tree_param":{"num_deleted":"0","num_feature":"3333","num_nodes":"15","size_leaf_vector":"0"}},{"base_weights":[-1.8185075E-1,1.7556489E-1,-4.302696E-1,3.9193162E-1,-1.534798E-1,1.4198798E-1,-4.7300088E-1,2.3883514E-2,4.596852E-1,2.5401282E-1,-3.2940128E-1,-4.904977E-1,-8.120097E-2,-3.94895E-1,-4.8792053E-2],"categories":[],"categories_nodes":[],"categories_segments":[],"categories_sizes":[],"default_left":[1,1,0,1,1,0,1,0,0,0,1,0,0,0,0],"id":18,"left_children":[1,3,5,7,9,-1,11,-1,-1,-1,13,-1,-1,-1,-1],"loss_changes":[3.030024E0,1.0821195E0,5.5429006E-1,2.1199095E-1,5.434076E-1,0E0,8.882761E-2,0E0,0E0,0E0,7.105553E-2,0E0,0E0,0E0,0E0],"parents":[2147483647,0,0,1,1,2,2,3,3,4,4,6,6,10,10],"right_children":[2,4,6,8,10,-1,12,-1,-1,-1,14,-1,-1,-1,-1],"split_conditions":[1.875E2,2.55E1,7E0,2.95E1,1.065E2,4.2596396E-2,1.055E2,7.1650543E-3,1.3790557E-1,7.620385E-2,1.445E2,-1.4714932E-1,-2.4360294E-2,-1.184685E-1,-1.4637616E-2],"split_indices":[1102,301,33,1010,221,0,2021,0,0,0,212,0,0,0,0],"split_type":[0,0,0,0,0,0,0,0,0,0,0,0,0,0,0],"sum_hessian":[3.227542E1,1.3354599E1,1.892082E1,7.9414787E0,5.4131207E0,1.1532797E0,1.7767542E1,1.4449251E0,6.4965534E0,1.4984088E0,3.914712E0,1.6766865E1,1.0006766E0,2.8437161E0,1.0709958E0],"tree_param":{"num_deleted":"0","num_feature":"3333","num_nodes":"15","size_leaf_vector":"0"}},{"base_weights":[1.8185082E-1,-1.7556486E-1,4.3026963E-1,-3.919316E-1,1.5347989E-1,-1.4198795E-1,4.7300088E-1,-2.3883514E-2,-4.596852E-1,-2.5401282E-1,3.2940134E-1,4.904977E-1,8.1200995E-2,3.9489502E-1,4.8792098E-2],"categories":[],"categories_nodes":[],"categories_segments":[],"categories_sizes":[],"default_left":[1,1,0,1,1,0,1,0,0,0,1,0,0,0,0],"id":19,"left_children":[1,3,5,7,9,-1,11,-1,-1,-1,13,-1,-1,-1,-1],"loss_changes":[3.0300245E0,1.0821201E0,5.542903E-1,2.1199107E-1,5.4340774E-1,0E0,8.882761E-2,0E0,0E0,0E0,7.105553E-2,0E0,0E0,0E0,0E0],"parents":[2147483647,0,0,1,1,2,2,3,3,4,4,6,6,10,10],"right_children":[2,4,6,8,10,-1,12,-1,-1,-1,14,-1,-1,-1,-1],"split_conditions":[1.875E2,2.55E1,7E0,2.95E1,1.065E2,-4.2596385E-2,1.055E2,-7.1650543E-3,-1.3790557E-1,-7.620385E-2,1.445E2,1.4714932E-1,2.43603E-2,1.1846851E-1,1.46376295E-2],"split_indices":[1102,301,33,1010,221,0,2021,0,0,0,212,0,0,0,0],"split_type":[0,0,0,0,0,0,0,0,0,0,0,0,0,0,0],"sum_hessian":[3.2275433E1,1.3354601E1,1.892083E1,7.9414797E0,5.413121E0,1.1532799E0,1.7767551E1,1.4449254E0,6.4965544E0,1.4984087E0,3.9147127E0,1.6766874E1,1.0006766E0,2.843717E0,1.0709956E0],"tree_param":{"num_deleted":"0","num_feature":"3333","num_nodes":"15","size_leaf_vector":"0"}}]},"name":"gbtree"},"learner_model_param":{"base_score":"5E-1","num_class":"2","num_feature":"3333","num_target":"1"},"objective":{"name":"multi:softprob","softmax_multiclass_param":{"num_class":"2"}}},"version":[1,6,1]}