{"learner":{"attributes":{"best_iteration":"9","best_ntree_limit":"10"},"feature_names":[],"feature_types":[],"gradient_booster":{"model":{"gbtree_model_param":{"num_parallel_tree":"1","num_trees":"20","size_leaf_vector":"0"},"tree_info":[0,1,0,1,0,1,0,1,0,1,0,1,0,1,0,1,0,1,0,1],"trees":[{"base_weights":[-1.992032E-1,7.711443E-1,-8.4158415E-1,-7.5E-1,9.6648043E-1,1.25E-1,-9.4871795E-1,5E-1,-9.0909094E-1,9.8870057E-1,-5E-1,8E-1,-8.5714287E-1,6E-1,-9.7037035E-1,-0E0,8.888889E-1,2E-1,-9.8501873E-1,-9.9242425E-1,-2E-1],"categories":[],"categories_nodes":[],"categories_segments":[],"categories_sizes":[],"default_left":[1,1,1,1,1,1,1,0,0,0,0,1,0,0,1,0,0,0,1,0,0],"id":0,"left_children":[1,3,5,7,9,11,13,-1,-1,-1,-1,15,-1,-1,17,-1,-1,-1,19,-1,-1],"loss_changes":[1.571055E2,3.0586872E1,1.5806992E1,2.840909E0,3.4107437E0,1.1292857E1,5.1595383E0,0E0,0E0,0E0,0E0,7.1111107E-1,0E0,0E0,2.5114594E0,0E0,0E0,0E0,5.776062E-1,0E0,0E0],"parents":[2147483647,0,0,1,1,2,2,3,3,4,4,5,5,6,6,11,11,14,14,18,18],"right_children":[2,4,6,8,10,12,14,-1,-1,-1,-1,16,-1,-1,18,-1,-1,-1,20,-1,-1],"split_conditions":[6.75E1,1.17E2,6.45E1,5.95E1,9.75E1,8.95E1,4.3E1,1.5E-1,-2.7272728E-1,2.9661018E-1,-1.5E-1,4.2E1,-2.5714287E-1,1.8E-1,6.2E1,-0E0,2.6666668E-1,6.0000002E-2,9.7E1,-2.977273E-1,-6.0000002E-2],"split_indices":[320,1122,1310,113,113,3110,220,0,0,0,0,3,0,0,322,0,0,0,132,0,0],"split_type":[0,0,0,0,0,0,0,0,0,0,0,0,0,0,0,0,0,0,0,0,0],"sum_hessian":[2.5E2,9.95E1,1.505E2,1.1E1,8.85E1,1.5E1,1.355E2,1E0,1E1,8.75E1,1E0,9E0,6E0,1.5E0,1.34E2,1E0,8E0,1.5E0,1.325E2,1.31E2,1.5E0],"tree_param":{"num_deleted":"0","num_feature":"3333","num_nodes":"21","size_leaf_vector":"0"}},{"base_weights":[1.992032E-1,-7.711443E-1,8.4158415E-1,7.5E-1,-9.6648043E-1,-1.25E-1,9.4871795E-1,-5E-1,9.0909094E-1,-9.8870057E-1,5E-1,-8E-1,8.5714287E-1,-6E-1,9.7037035E-1,-0E0,-8.888889E-1,-2E-1,9.8501873E-1,9.9242425E-1,2E-1],"categories":[],"categories_nodes":[],"categories_segments":[],"categories_sizes":[],"default_left":[1,1,1,1,1,1,1,0,0,0,0,1,0,0,1,0,0,0,1,0,0],"id":1,"left_children":[1,3,5,7,9,11,13,-1,-1,-1,-1,15,-1,-1,17,-1,-1,-1,19,-1,-1],"loss_changes":[1.571055E2,3.0586872E1,1.5806992E1,2.840909E0,3.4107437E0,1.1292857E1,5.1595383E0,0E0,0E0,0E0,0E0,7.1111107E-1,0E0,0E0,2.5114594E0,0E0,0E0,0E0,5.776062E-1,0E0,0E0],"parents":[2147483647,0,0,1,1,2,2,3,3,4,4,5,5,6,6,11,11,14,14,18,18],"right_children":[2,4,6,8,10,12,14,-1,-1,-1,-1,16,-1,-1,18,-1,-1,-1,20,-1,-1],"split_conditions":[6.75E1,1.17E2,6.45E1,5.95E1,9.75E1,8.95E1,4.3E1,-1.5E-1,2.7272728E-1,-2.9661018E-1,1.5E-1,4.2E1,2.5714287E-1,-1.8E-1,6.2E1,-0E0,-2.6666668E-1,-6.0000002E-2,9.7E1,2.977273E-1,6.0000002E-2],"split_indices":[320,1122,1310,113,113,3110,220,0,0,0,0,3,0,0,322,0,0,0,132,0,0],"split_type":[0,0,0,0,0,0,0,0,0,0,0,0,0,0,0,0,0,0,0,0,0],"sum_hessian":[2.5E2,9.95E1,1.505E2,1.1E1,8.85E1,1.5E1,1.355E2,1E0,1E1,8.75E1,1E0,9E0,6E0,1.5E0,1.34E2,1E0,8E0,1.5E0,1.325E2,1.31E2,1.5E0],"tree_param":{"num_deleted":"0","num_feature":"3333","num_nodes":"21","size_leaf_vector":"0"}},{"base_weights":[-1.5369157E-1,-6.263244E-1,6.4909303E-1,4.3692732E-1,-7.054422E-1,7.732159E-1,-6.795528E-1,-5.190559E-1,6.973931E-1,2.8811616E-1,-7.459848E-1,6.099669E-1,-4.5984945E-1,-7.6926446E-1,-1.4410298E-1,-7.750578E-1,-2.4516559E-1,5.5269957E-1,-5.912924E-1],"categories":[],"categories_nodes":[],"categories_segments":[],"categories_sizes":[],"default_left":[1,1,1,1,1,0,0,0,0,1,1,0,0,1,1,0,0,0,0],"id":2,"left_children":[1,3,5,7,9,-1,-1,-1,-1,11,13,-1,-1,15,17,-1,-1,-1,-1],"loss_changes":[8.806799E1,1.2584309E1,1.4725899E1,3.0323727E0,5.7015533E0,0E0,0E0,0E0,0E0,1.7396936E0,1.7267075E0,0E0,0E0,1.9264984E-1,2.2319736E0,0E0,0E0,0E0,0E0],"parents":[2147483647,0,0,1,1,2,2,3,3,4,4,9,9,10,10,13,13,14,14],"right_children":[2,4,6,8,10,-1,-1,-1,-1,12,14,-1,-1,16,18,-1,-1,-1,-1],"split_conditions":[1.425E2,6.15E1,6.95E1,3.45E1,5.95E1,2.3196478E-1,-2.0386584E-1,-1.5571678E-1,2.0921795E-1,6.6E1,1.415E2,1.8299007E-1,-1.3795485E-1,1.025E2,8.3E1,-2.3251735E-1,-7.354968E-2,1.6580987E-1,-1.7738771E-1],"split_indices":[1201,1310,220,302,320,0,0,0,0,2,312,0,0,2010,320,0,0,0,0],"split_type":[0,0,0,0,0,0,0,0,0,0,0,0,0,0,0,0,0,0,0],"sum_hessian":[2.3003923E2,1.4493169E2,8.510754E1,9.724403E0,1.3520729E2,7.821837E1,6.8891664E0,1.8696092E0,7.854794E0,5.061484E0,1.301458E2,3.667746E0,1.3937377E0,1.25031715E2,5.114089E0,1.2319113E2,1.8405824E0,1.9068807E0,3.2072082E0],"tree_param":{"num_deleted":"0","num_feature":"3333","num_nodes":"19","size_leaf_vector":"0"}},{"base_weights":[1.5369166E-1,6.263245E-1,-6.490929E-1,-4.3692726E-1,7.0544225E-1,-7.7321583E-1,6.7955285E-1,5.1905596E-1,-6.9739306E-1,-2.8811613E-1,7.459849E-1,-6.099668E-1,4.5984945E-1,7.692645E-1,1.4410305E-1,7.750579E-1,2.4516566E-1,-5.526995E-1,5.9129244E-1],"categories":[],"categories_nodes":[],"categories_segments":[],"categories_sizes":[],"default_left":[1,1,1,1,1,0,0,0,0,1,1,0,0,1,1,0,0,0,0],"id":3,"left_children":[1,3,5,7,9,-1,-1,-1,-1,11,13,-1,-1,15,17,-1,-1,-1,-1],"loss_changes":[8.8068E1,1.2584309E1,1.4725899E1,3.0323725E0,5.701561E0,0E0,0E0,0E0,0E0,1.7396934E0,1.7266998E0,0E0,0E0,1.9265747E-1,2.2319736E0,0E0,0E0,0E0,0E0],"parents":[2147483647,0,0,1,1,2,2,3,3,4,4,9,9,10,10,13,13,14,14],"right_children":[2,4,6,8,10,-1,-1,-1,-1,12,14,-1,-1,16,18,-1,-1,-1,-1],"split_conditions":[1.425E2,6.15E1,6.95E1,3.45E1,5.95E1,-2.3196475E-1,2.0386587E-1,1.5571679E-1,-2.0921792E-1,6.6E1,1.415E2,-1.8299004E-1,1.3795485E-1,1.025E2,8.3E1,2.3251738E-1,7.35497E-2,-1.6580985E-1,1.7738774E-1],"split_indices":[1201,1310,220,302,320,0,0,0,0,2,312,0,0,2010,320,0,0,0,0],"split_type":[0,0,0,0,0,0,0,0,0,0,0,0,0,0,0,0,0,0,0],"sum_hessian":[2.3003923E2,1.449317E2,8.510754E1,9.724403E0,1.3520729E2,7.821837E1,6.889167E0,1.8696094E0,7.854794E0,5.061484E0,1.3014581E2,3.667746E0,1.3937377E0,1.2503172E2,5.114089E0,1.2319114E2,1.8405824E0,1.9068807E0,3.2072084E0],"tree_param":{"num_deleted":"0","num_feature":"3333","num_nodes":"19","size_leaf_vector":"0"}},{"base_weights":[-1.32679E-1,-5.37343E-1,5.5785894E-1,3.6371633E-1,-6.065958E-1,6.682493E-1,-5.859659E-1,-4.5056185E-1,5.995922E-1,2.3731041E-1,-6.429502E-1,5.271135E-1,-4.0318492E-1,-6.644992E-1,-1.16738945E-1,-1.8989743E-1,-6.7062235E-1,4.748796E-1,-5.116E-1],"categories":[],"categories_nodes":[],"categories_segments":[],"categories_sizes":[],"default_left":[1,1,1,1,1,0,0,0,0,1,1,0,0,1,1,0,0,0,0],"id":4,"left_children":[1,3,5,7,9,-1,-1,-1,-1,11,13,-1,-1,15,17,-1,-1,-1,-1],"loss_changes":[5.4752544E1,7.9193497E0,9.544888E0,2.0814853E0,3.679039E0,0E0,0E0,0E0,0E0,1.2292567E0,1.1750526E0,0E0,0E0,1.8042374E-1,1.5415531E0,0E0,0E0,0E0,0E0],"parents":[2147483647,0,0,1,1,2,2,3,3,4,4,9,9,10,10,13,13,14,14],"right_children":[2,4,6,8,10,-1,-1,-1,-1,12,14,-1,-1,16,18,-1,-1,-1,-1],"split_conditions":[1.425E2,6.15E1,6.95E1,3.45E1,5.95E1,2.004748E-1,-1.7578977E-1,-1.3516857E-1,1.7987767E-1,6.6E1,1.415E2,1.5813406E-1,-1.2095548E-1,6.25E1,8.3E1,-5.6969233E-2,-2.0118672E-1,1.4246388E-1,-1.5348001E-1],"split_indices":[1201,1310,220,302,320,0,0,0,0,2,312,0,0,1310,320,0,0,0,0],"split_type":[0,0,0,0,0,0,0,0,0,0,0,0,0,0,0,0,0,0,0],"sum_hessian":[1.9386684E2,1.2237524E2,7.14916E1,8.430651E0,1.1394458E2,6.557841E1,5.913188E0,1.6891818E0,6.741469E0,4.477567E0,1.0946702E2,3.2046092E0,1.2729582E0,1.0490809E2,4.558926E0,1.7440002E0,1.0316409E2,1.7436993E0,2.8152268E0],"tree_param":{"num_deleted":"0","num_feature":"3333","num_nodes":"19","size_leaf_vector":"0"}},{"base_weights":[1.3267891E-1,5.3734297E-1,-5.5785894E-1,-3.637163E-1,6.0659575E-1,-6.6824937E-1,5.8596593E-1,4.5056185E-1,-5.995922E-1,-2.3731045E-1,6.429501E-1,-5.2711356E-1,4.0318492E-1,6.6449916E-1,1.1673887E-1,1.8989746E-1,6.706223E-1,-4.7487962E-1,5.1159996E-1],"categories":[],"categories_nodes":[],"categories_segments":[],"categories_sizes":[],"default_left":[1,1,1,1,1,0,0,0,0,1,1,0,0,1,1,0,0,0,0],"id":5,"left_children":[1,3,5,7,9,-1,-1,-1,-1,11,13,-1,-1,15,17,-1,-1,-1,-1],"loss_changes":[5.475254E1,7.9193497E0,9.544889E0,2.081485E0,3.679039E0,0E0,0E0,0E0,0E0,1.2292569E0,1.1750526E0,0E0,0E0,1.8042374E-1,1.541553E0,0E0,0E0,0E0,0E0],"parents":[2147483647,0,0,1,1,2,2,3,3,4,4,9,9,10,10,13,13,14,14],"right_children":[2,4,6,8,10,-1,-1,-1,-1,12,14,-1,-1,16,18,-1,-1,-1,-1],"split_conditions":[1.425E2,6.15E1,6.95E1,3.45E1,5.95E1,-2.0047481E-1,1.7578979E-1,1.3516857E-1,-1.7987767E-1,6.6E1,1.415E2,-1.5813407E-1,1.2095548E-1,6.25E1,8.3E1,5.696924E-2,2.011867E-1,-1.424639E-1,1.5348E-1],"split_indices":[1201,1310,220,302,320,0,0,0,0,2,312,0,0,1310,320,0,0,0,0],"split_type":[0,0,0,0,0,0,0,0,0,0,0,0,0,0,0,0,0,0,0],"sum_hessian":[1.9386682E2,1.2237522E2,7.149161E1,8.430651E0,1.13944565E2,6.5578415E1,5.9131885E0,1.6891819E0,6.7414684E0,4.477567E0,1.09467E2,3.2046092E0,1.2729582E0,1.0490807E2,4.5589256E0,1.7440003E0,1.0316408E2,1.7436993E0,2.8152263E0],"tree_param":{"num_deleted":"0","num_feature":"3333","num_nodes":"19","size_leaf_vector":"0"}},{"base_weights":[-1.2039659E-1,-5.6780833E-1,3.9489803E-1,1.6154276E-2,-5.9062344E-1,5.833879E-1,-5.7639277E-1,3.9824522E-1,-3.9907476E-1,-6.0728055E-1,-9.462968E-2,-3.7575203E-1,6.1393285E-1,-1.5317295E-1,-6.1266094E-1,-4.0647265E-1,3.5140744E-1],"categories":[],"categories_nodes":[],"categories_segments":[],"categories_sizes":[],"default_left":[1,1,1,1,1,1,0,0,0,1,1,0,0,0,0,0,0],"id":6,"left_children":[1,3,5,7,9,11,-1,-1,-1,13,15,-1,-1,-1,-1,-1,-1],"loss_changes":[3.6623745E1,1.1409092E0,1.3877564E1,8.1993634E-1,6.179466E-1,2.0600014E0,0E0,0E0,0E0,9.895706E-2,6.7707646E-1,0E0,0E0,0E0,0E0,0E0,0E0],"parents":[2147483647,0,0,1,1,2,2,3,3,4,4,5,5,9,9,10,10],"right_children":[2,4,6,8,10,12,-1,-1,-1,14,16,-1,-1,-1,-1,-1,-1],"split_conditions":[1.315E2,6.15E1,7.35E1,5.95E1,1.415E2,6.8E1,-1.7291784E-1,1.1947357E-1,-1.1972243E-1,8.75E1,8.15E1,-1.12725616E-1,1.8417986E-1,-4.5951888E-2,-1.8379828E-1,-1.219418E-1,1.05422236E-1],"split_indices":[1201,1310,220,22,312,1112,0,0,0,1031,132,0,0,0,0,0,0],"split_type":[0,0,0,0,0,0,0,0,0,0,0,0,0,0,0,0,0],"sum_hessian":[1.5688202E2,8.3917534E1,7.2964485E1,3.166308E0,8.075123E1,6.1440613E1,1.152387E1,1.670254E0,1.496054E0,7.791037E1,2.840861E0,1.5474559E0,5.9893154E1,1.2573634E0,7.6653E1,1.7241433E0,1.1167177E0],"tree_param":{"num_deleted":"0","num_feature":"3333","num_nodes":"17","size_leaf_vector":"0"}},{"base_weights":[1.2039661E-1,5.6780833E-1,-3.9489803E-1,-1.6154332E-2,5.9062344E-1,-5.833879E-1,5.7639277E-1,-3.9824525E-1,3.9907473E-1,6.0728055E-1,9.4629735E-2,3.7575203E-1,-6.1393285E-1,1.5317298E-1,6.1266094E-1,4.064727E-1,-3.5140744E-1],"categories":[],"categories_nodes":[],"categories_segments":[],"categories_sizes":[],"default_left":[1,1,1,1,1,1,0,0,0,1,1,0,0,0,0,0,0],"id":7,"left_children":[1,3,5,7,9,11,-1,-1,-1,13,15,-1,-1,-1,-1,-1,-1],"loss_changes":[3.6623745E1,1.1409111E0,1.3877563E1,8.1993634E-1,6.179466E-1,2.0600014E0,0E0,0E0,0E0,9.895706E-2,6.7707664E-1,0E0,0E0,0E0,0E0,0E0,0E0],"parents":[2147483647,0,0,1,1,2,2,3,3,4,4,5,5,9,9,10,10],"right_children":[2,4,6,8,10,12,-1,-1,-1,14,16,-1,-1,-1,-1,-1,-1],"split_conditions":[1.315E2,6.15E1,7.35E1,5.95E1,1.415E2,6.8E1,1.7291784E-1,-1.1947358E-1,1.19722426E-1,8.75E1,8.15E1,1.12725616E-1,-1.8417986E-1,4.5951895E-2,1.8379828E-1,1.2194182E-1,-1.05422236E-1],"split_indices":[1201,1310,220,22,312,1112,0,0,0,1031,132,0,0,0,0,0,0],"split_type":[0,0,0,0,0,0,0,0,0,0,0,0,0,0,0,0,0],"sum_hessian":[1.5688202E2,8.391754E1,7.2964485E1,3.1663082E0,8.0751236E1,6.1440613E1,1.152387E1,1.6702542E0,1.496054E0,7.791037E1,2.8408613E0,1.547456E0,5.9893154E1,1.2573636E0,7.665301E1,1.7241436E0,1.1167178E0],"tree_param":{"num_deleted":"0","num_feature":"3333","num_nodes":"17","size_leaf_vector":"0"}},{"base_weights":[-1.1374269E-1,4.058853E-1,-4.9399537E-1,-4.5686197E-1,5.5650014E-1,-5.565776E-1,-4.270891E-3,-2.0532828E-2,-5.1325303E-1,5.713916E-1,-3.745767E-2,3.1873707E-2,-5.6986386E-1,-4.7207066E-1,5.033112E-1,-1.0317909E-1,-5.760236E-1],"categories":[],"categories_nodes":[],"categories_segments":[],"categories_sizes":[],"default_left":[1,1,1,1,1,1,1,0,0,0,0,0,1,0,0,0,0],"id":8,"left_children":[1,3,5,7,9,11,13,-1,-1,-1,-1,-1,15,-1,-1,-1,-1],"loss_changes":[2.4905756E1,7.190935E0,2.2242088E0,1.9819558E-1,4.273758E-1,5.217438E-1,2.4315536E0,0E0,0E0,0E0,0E0,0E0,1.21788025E-1,0E0,0E0,0E0,0E0],"parents":[2147483647,0,0,1,1,2,2,3,3,4,4,5,5,6,6,12,12],"right_children":[2,4,6,8,10,12,14,-1,-1,-1,-1,-1,16,-1,-1,-1,-1],"split_conditions":[6.95E1,8.65E1,9.25E1,6.15E1,9.3E1,5.95E1,1.18E2,-6.1598485E-3,-1.5397592E-1,1.7141747E-1,-1.1237302E-2,9.562112E-3,4.85E1,-1.416212E-1,1.5099338E-1,-3.0953728E-2,-1.7280708E-1],"split_indices":[320,2011,211,22,113,1310,112,0,0,0,0,0,220,0,0,0,0],"split_type":[0,0,0,0,0,0,0,0,0,0,0,0,0,0,0,0,0],"sum_hessian":[1.2403294E2,5.238275E1,7.165019E1,7.4833794E0,4.4899372E1,6.3410416E1,8.239776E0,1.0125822E0,6.4707975E0,4.3838272E1,1.0610979E0,1.3691967E0,6.2041218E1,4.3243313E0,3.9154444E0,1.0394462E0,6.1001774E1],"tree_param":{"num_deleted":"0","num_feature":"3333","num_nodes":"17","size_leaf_vector":"0"}},{"base_weights":[1.1374271E-1,-4.0588525E-1,4.9399534E-1,4.56862E-1,-5.5650014E-1,5.565776E-1,4.2708544E-3,2.053291E-2,5.1325303E-1,-5.713915E-1,3.745769E-2,-3.1873707E-2,5.698638E-1,4.7207063E-1,-5.033112E-1,1.0317909E-1,5.760236E-1],"categories":[],"categories_nodes":[],"categories_segments":[],"categories_sizes":[],"default_left":[1,1,1,1,1,1,1,0,0,0,0,0,1,0,0,0,0],"id":9,"left_children":[1,3,5,7,9,11,13,-1,-1,-1,-1,-1,15,-1,-1,-1,-1],"loss_changes":[2.4905748E1,7.190935E0,2.2242088E0,1.9819546E-1,4.2737675E-1,5.217438E-1,2.4315531E0,0E0,0E0,0E0,0E0,0E0,1.2178612E-1,0E0,0E0,0E0,0E0],"parents":[2147483647,0,0,1,1,2,2,3,3,4,4,5,5,6,6,12,12],"right_children":[2,4,6,8,10,12,14,-1,-1,-1,-1,-1,16,-1,-1,-1,-1],"split_conditions":[6.95E1,8.65E1,9.25E1,6.15E1,9.3E1,5.95E1,1.18E2,6.159873E-3,1.5397592E-1,-1.7141746E-1,1.1237307E-2,-9.562112E-3,4.85E1,1.416212E-1,-1.5099338E-1,3.0953728E-2,1.7280708E-1],"split_indices":[320,2011,211,22,113,1310,112,0,0,0,0,0,220,0,0,0,0],"split_type":[0,0,0,0,0,0,0,0,0,0,0,0,0,0,0,0,0],"sum_hessian":[1.2403292E2,5.2382744E1,7.165018E1,7.4833794E0,4.489936E1,6.3410404E1,8.239774E0,1.0125822E0,6.4707975E0,4.3838264E1,1.0610977E0,1.3691967E0,6.204121E1,4.3243303E0,3.915444E0,1.039446E0,6.1001762E1],"tree_param":{"num_deleted":"0","num_feature":"3333","num_nodes":"17","size_leaf_vector":"0"}},{"base_weights":[-1.0785508E-1,-5.0165737E-1,3.4876683E-1,-5.3842336E-1,-9.7880326E-2,5.244124E-1,-4.721919E-1,-1.881617E-1,-5.5001616E-1,-4.2097294E-1,3.8256586E-1,-1.7987892E-1,5.480533E-1,-1.7448489E-3,-2.8524044E-1],"categories":[],"categories_nodes":[],"categories_segments":[],"categories_sizes":[],"default_left":[1,1,1,1,1,1,0,1,0,0,0,0,0,0,0],"id":10,"left_children":[1,3,5,7,9,11,-1,13,-1,-1,-1,-1,-1,-1,-1],"loss_changes":[1.7860437E1,7.373419E-1,6.899925E0,9.366608E-2,1.040201E0,7.392168E-1,0E0,5.5160932E-2,0E0,0E0,0E0,0E0,0E0,0E0,0E0],"parents":[2147483647,0,0,1,1,2,2,3,3,4,4,5,5,7,7],"right_children":[2,4,6,8,10,12,-1,14,-1,-1,-1,-1,-1,-1,-1],"split_conditions":[1.315E2,7.25E1,7.15E1,6.6E1,1.21E2,1.185E2,-1.4165758E-1,1.335E2,-1.6500485E-1,-1.2629189E-1,1.14769764E-1,-5.396368E-2,1.64416E-1,-5.234547E-4,-8.557214E-2],"split_indices":[1201,2130,220,1331,112,112,0,110,0,0,0,0,0,0,0],"split_type":[0,0,0,0,0,0,0,0,0,0,0,0,0,0,0],"sum_hessian":[9.735168E1,5.2218494E1,4.513318E1,4.755491E1,4.663589E0,3.7476284E1,7.6568975E0,2.0755532E0,4.5479355E1,2.8624341E0,1.8011551E0,1.0024791E0,3.6473804E1,1.0593309E0,1.0162222E0],"tree_param":{"num_deleted":"0","num_feature":"3333","num_nodes":"15","size_leaf_vector":"0"}},{"base_weights":[1.0785524E-1,5.0165737E-1,-3.487667E-1,5.3842336E-1,9.7880326E-2,-5.2441233E-1,4.721919E-1,1.8816173E-1,5.5001616E-1,4.2097294E-1,-3.825659E-1,1.79879E-1,-5.480533E-1,1.7448887E-3,2.8524044E-1],"categories":[],"categories_nodes":[],"categories_segments":[],"categories_sizes":[],"default_left":[1,1,1,1,1,1,0,1,0,0,0,0,0,0,0],"id":11,"left_children":[1,3,5,7,9,11,-1,13,-1,-1,-1,-1,-1,-1,-1],"loss_changes":[1.7860432E1,7.373419E-1,6.8999243E0,9.366512E-2,1.0402011E0,7.3921776E-1,0E0,5.5160895E-2,0E0,0E0,0E0,0E0,0E0,0E0,0E0],"parents":[2147483647,0,0,1,1,2,2,3,3,4,4,5,5,7,7],"right_children":[2,4,6,8,10,12,-1,14,-1,-1,-1,-1,-1,-1,-1],"split_conditions":[1.315E2,7.25E1,7.15E1,6.6E1,1.21E2,1.185E2,1.4165758E-1,1.335E2,1.6500485E-1,1.2629189E-1,-1.1476977E-1,5.3963702E-2,-1.64416E-1,5.234666E-4,8.557214E-2],"split_indices":[1201,2130,220,1331,112,112,0,110,0,0,0,0,0,0,0],"split_type":[0,0,0,0,0,0,0,0,0,0,0,0,0,0,0],"sum_hessian":[9.735166E1,5.2218502E1,4.5133163E1,4.7554913E1,4.6635895E0,3.7476265E1,7.6568975E0,2.0755532E0,4.547936E1,2.8624344E0,1.8011552E0,1.0024792E0,3.6473785E1,1.0593309E0,1.0162222E0],"tree_param":{"num_deleted":"0","num_feature":"3333","num_nodes":"15","size_leaf_vector":"0"}},{"base_weights":[-1.046813E-1,3.9783442E-1,-4.285358E-1,-2.287426E-1,5.140341E-1,2.552473E-1,-4.8278573E-1,1.9731459E-1,-4.235637E-1,5.229379E-1,1.463186E-1,3.7449795E-1,-5.6473296E-2,1.6671102E-1,-5.0383073E-1,-5.210564E-1,7.054307E-2,-5.3106797E-1,-1.6201338E-1],"categories":[],"categories_nodes":[],"categories_segments":[],"categories_sizes":[],"default_left":[1,1,1,1,1,1,1,0,0,0,0,0,0,0,1,1,0,0,0],"id":12,"left_children":[1,3,5,7,9,11,13,-1,-1,-1,-1,-1,-1,-1,15,17,-1,-1,-1],"loss_changes":[1.2664428E1,2.3458943E0,1.8728685E0,5.384363E-1,9.020805E-3,1.7434433E-1,6.860304E-1,0E0,0E0,0E0,0E0,0E0,0E0,0E0,4.6131992E-1,6.414604E-2,0E0,0E0,0E0],"parents":[2147483647,0,0,1,1,2,2,3,3,4,4,5,5,6,6,14,14,15,15],"right_children":[2,4,6,8,10,12,14,-1,-1,-1,-1,-1,-1,-1,16,18,-1,-1,-1],"split_conditions":[6.65E1,1.28E2,5.95E1,8.6E1,9.5E1,6.65E1,6.3E1,5.919438E-2,-1.2706912E-1,1.5688138E-1,4.389558E-2,1.1234939E-1,-1.6941989E-2,5.0013307E-2,1.79E2,7.05E1,2.1162923E-2,-1.593204E-1,-4.8604015E-2],"split_indices":[1310,1201,320,1110,311,22,322,0,0,0,0,0,0,0,1021,231,0,0,0],"split_type":[0,0,0,0,0,0,0,0,0,0,0,0,0,0,0,0,0,0,0],"sum_hessian":[7.577148E1,2.9605318E1,4.6166157E1,4.4799275E0,2.5125391E1,3.1211545E0,4.3045002E1,1.4017093E0,3.078218E0,2.4119246E1,1.006144E0,2.1118596E0,1.0092949E0,1.1337328E0,4.191127E1,4.078106E1,1.1302114E0,3.9208645E1,1.5724155E0],"tree_param":{"num_deleted":"0","num_feature":"3333","num_nodes":"19","size_leaf_vector":"0"}},{"base_weights":[1.04681246E-1,-3.9783448E-1,4.285358E-1,2.2874264E-1,-5.1403415E-1,-2.552473E-1,4.8278576E-1,-1.9731455E-1,4.2356372E-1,-5.229379E-1,-1.4631864E-1,-3.7449798E-1,5.647329E-2,-1.6671106E-1,5.0383073E-1,5.210564E-1,-7.054304E-2,5.3106797E-1,1.620134E-1],"categories":[],"categories_nodes":[],"categories_segments":[],"categories_sizes":[],"default_left":[1,1,1,1,1,1,1,0,0,0,0,0,0,0,1,1,0,0,0],"id":13,"left_children":[1,3,5,7,9,11,13,-1,-1,-1,-1,-1,-1,-1,15,17,-1,-1,-1],"loss_changes":[1.2664433E1,2.3458962E0,1.8728685E0,5.384362E-1,9.0203285E-3,1.7434433E-1,6.860304E-1,0E0,0E0,0E0,0E0,0E0,0E0,0E0,4.6132088E-1,6.414604E-2,0E0,0E0,0E0],"parents":[2147483647,0,0,1,1,2,2,3,3,4,4,5,5,6,6,14,14,15,15],"right_children":[2,4,6,8,10,12,14,-1,-1,-1,-1,-1,-1,-1,16,18,-1,-1,-1],"split_conditions":[6.65E1,1.28E2,5.95E1,8.6E1,9.5E1,6.65E1,6.3E1,-5.9194367E-2,1.2706912E-1,-1.5688138E-1,-4.3895595E-2,-1.123494E-1,1.6941987E-2,-5.0013322E-2,1.79E2,7.05E1,-2.1162914E-2,1.593204E-1,4.8604023E-2],"split_indices":[1310,1201,320,1110,311,22,322,0,0,0,0,0,0,0,1021,231,0,0,0],"split_type":[0,0,0,0,0,0,0,0,0,0,0,0,0,0,0,0,0,0,0],"sum_hessian":[7.57715E1,2.960533E1,4.616617E1,4.479928E0,2.5125402E1,3.121155E0,4.3045013E1,1.4017093E0,3.0782185E0,2.4119257E1,1.006144E0,2.1118598E0,1.0092951E0,1.133733E0,4.191128E1,4.0781067E1,1.1302115E0,3.9208652E1,1.5724158E0],"tree_param":{"num_deleted":"0","num_feature":"3333","num_nodes":"19","size_leaf_vector":"0"}},{"base_weights":[-9.679858E-2,3.228188E-1,-4.6568546E-1,4.634783E-1,-2.9423165E-1,1.0426968E-1,-4.9557158E-1,5.0845474E-1,-2.7308983E-1,1.2942824E-1,-4.2554393E-1,-5.111093E-1,-3.8222887E-2],"categories":[],"categories_nodes":[],"categories_segments":[],"categories_sizes":[],"default_left":[1,1,1,1,1,0,1,0,0,0,0,0,0],"id":14,"left_children":[1,3,5,7,9,-1,11,-1,-1,-1,-1,-1,-1],"loss_changes":[9.521353E0,2.6458416E0,6.0742855E-1,9.317417E-1,3.877005E-1,0E0,2.0199776E-1,0E0,0E0,0E0,0E0,0E0,0E0],"parents":[2147483647,0,0,1,1,2,2,3,3,4,4,6,6],"right_children":[2,4,6,8,10,-1,12,-1,-1,-1,-1,-1,-1],"split_conditions":[7.45E1,5.75E1,5.95E1,7.85E1,7.45E1,3.1280905E-2,1.515E2,1.5253642E-1,-8.192695E-2,3.8828474E-2,-1.2766318E-1,-1.533328E-1,-1.1466866E-2],"split_indices":[2200,222,1310,1310,322,0,1201,0,0,0,0,0,0],"split_type":[0,0,0,0,0,0,0,0,0,0,0,0,0],"sum_hessian":[5.95397E1,2.7912954E1,3.1626745E1,2.2933937E1,4.9790163E0,1.4517457E0,3.0175E1,2.1906008E1,1.0279299E0,1.1814827E0,3.7975335E0,2.906985E1,1.1051491E0],"tree_param":{"num_deleted":"0","num_feature":"3333","num_nodes":"13","size_leaf_vector":"0"}},{"base_weights":[9.6798405E-2,-3.2281885E-1,4.656854E-1,-4.634783E-1,2.942316E-1,-1.0426975E-1,4.9557152E-1,-5.084547E-1,2.7308986E-1,-1.2942825E-1,4.255439E-1,5.1110923E-1,3.8222823E-2],"categories":[],"categories_nodes":[],"categories_segments":[],"categories_sizes":[],"default_left":[1,1,1,1,1,0,1,0,0,0,0,0,0],"id":15,"left_children":[1,3,5,7,9,-1,11,-1,-1,-1,-1,-1,-1],"loss_changes":[9.521351E0,2.6458404E0,6.0742855E-1,9.317422E-1,3.877005E-1,0E0,2.0199776E-1,0E0,0E0,0E0,0E0,0E0,0E0],"parents":[2147483647,0,0,1,1,2,2,3,3,4,4,6,6],"right_children":[2,4,6,8,10,-1,12,-1,-1,-1,-1,-1,-1],"split_conditions":[7.45E1,5.75E1,5.95E1,7.85E1,7.45E1,-3.1280927E-2,1.515E2,-1.525364E-1,8.192696E-2,-3.8828477E-2,1.2766318E-1,1.5333277E-1,1.1466848E-2],"split_indices":[2200,222,1310,1310,322,0,1201,0,0,0,0,0,0],"split_type":[0,0,0,0,0,0,0,0,0,0,0,0,0],"sum_hessian":[5.9539684E1,2.7912956E1,3.162673E1,2.293394E1,4.979015E0,1.4517459E0,3.0174984E1,2.1906012E1,1.02793E0,1.1814827E0,3.7975323E0,2.9069836E1,1.1051493E0],"tree_param":{"num_deleted":"0","num_feature":"3333","num_nodes":"13","size_leaf_vector":"0"}},{"base_weights":[-9.345538E-2,3.04508E-1,-4.4882402E-1,-3.974713E-1,4.9541536E-1,-1.5959494E-2,-4.9972713E-1,-3.1100717E-1,3.0517718E-1],"categories":[],"categories_nodes":[],"categories_segments":[],"categories_sizes":[],"default_left":[1,1,1,0,0,1,0,0,0],"id":16,"left_children":[1,3,5,-1,-1,7,-1,-1,-1],"loss_changes":[6.874534E0,3.2886498E0,5.554967E-1,0E0,0E0,4.47745E-1,0E0,0E0,0E0],"parents":[2147483647,0,0,1,1,2,2,5,5],"right_children":[2,4,6,-1,-1,8,-1,-1,-1],"split_conditions":[6.25E1,1.105E2,7.65E1,-1.19241394E-1,1.4862461E-1,1.175E2,-1.4991814E-1,-9.330215E-2,9.155316E-2],"split_indices":[220,1120,3110,0,0,1120,0,0,0],"split_type":[0,0,0,0,0,0,0,0,0],"sum_hessian":[4.6643097E1,2.2070421E1,2.4572676E1,4.487514E0,1.7582907E1,2.7238035E0,2.1848873E1,1.4360032E0,1.2878003E0],"tree_param":{"num_deleted":"0","num_feature":"3333","num_nodes":"9","size_leaf_vector":"0"}},{"base_weights":[9.345508E-2,-3.0450824E-1,4.4882396E-1,3.9747125E-1,-4.954154E-1,1.5959414E-2,4.997271E-1,3.1100717E-1,-3.0517724E-1],"categories":[],"categories_nodes":[],"categories_segments":[],"categories_sizes":[],"default_left":[1,1,1,0,0,1,0,0,0],"id":17,"left_children":[1,3,5,-1,-1,7,-1,-1,-1],"loss_changes":[6.8745384E0,3.2886496E0,5.5549717E-1,0E0,0E0,4.4774517E-1,0E0,0E0,0E0],"parents":[2147483647,0,0,1,1,2,2,5,5],"right_children":[2,4,6,-1,-1,8,-1,-1,-1],"split_conditions":[6.25E1,1.105E2,7.65E1,1.1924138E-1,-1.4862463E-1,1.175E2,1.4991814E-1,9.330215E-2,-9.1553174E-2],"split_indices":[220,1120,3110,0,0,1120,0,0,0],"split_type":[0,0,0,0,0,0,0,0,0],"sum_hessian":[4.6643105E1,2.2070435E1,2.4572672E1,4.4875126E0,1.7582922E1,2.7238042E0,2.1848867E1,1.4360033E0,1.2878009E0],"tree_param":{"num_deleted":"0","num_feature":"3333","num_nodes":"9","size_leaf_vector":"0"}},{"base_weights":[-9.08234E-2,3.3133706E-1,-4.063501E-1,-3.157037E-1,4.6801853E-1,-4.6681E-1,1.8192409E-2,-4.915362E-1,-1.8118642E-2,-2.9351416E-1,3.1077805E-1],"categories":[],"categories_nodes":[],"categories_segments":[],"categories_sizes":[],"default_left":[1,1,1,0,0,1,1,0,0,0,0],"id":18,"left_children":[1,3,5,-1,-1,7,9,-1,-1,-1,-1],"loss_changes":[5.087668E0,1.6030442E0,5.662203E-1,0E0,0E0,2.0252657E-1,4.2603144E-1,0E0,0E0,0E0,0E0],"parents":[2147483647,0,0,1,1,2,2,5,5,6,6],"right_children":[2,4,6,-1,-1,8,10,-1,-1,-1,-1],"split_conditions":[6.95E1,8.65E1,9.25E1,-9.471111E-2,1.4040557E-1,1.07E2,1.18E2,-1.4746086E-1,-5.435593E-3,-8.8054255E-2,9.323342E-2],"split_indices":[320,2011,211,0,0,2310,112,0,0,0,0],"split_type":[0,0,0,0,0,0,0,0,0,0,0],"sum_hessian":[3.618409E1,1.5455381E1,2.072871E1,2.4669993E0,1.2988382E1,1.805754E1,2.6711679E0,1.7023909E1,1.0336319E0,1.2917869E0,1.379381E0],"tree_param":{"num_deleted":"0","num_feature":"3333","num_nodes":"11","size_leaf_vector":"0"}},{"base_weights":[9.082344E-2,-3.3133712E-1,4.0635017E-1,3.1570366E-1,-4.6801856E-1,4.6681005E-1,-1.8192386E-2,4.9153623E-1,1.811874E-2,2.935142E-1,-3.1077805E-1],"categories":[],"categories_nodes":[],"categories_segments":[],"categories_sizes":[],"default_left":[1,1,1,0,0,1,1,0,0,0,0],"id":19,"left_children":[1,3,5,-1,-1,7,9,-1,-1,-1,-1],"loss_changes":[5.087671E0,1.6030443E0,5.662205E-1,0E0,0E0,2.0252657E-1,4.260315E-1,0E0,0E0,0E0,0E0],"parents":[2147483647,0,0,1,1,2,2,5,5,6,6],"right_children":[2,4,6,-1,-1,8,10,-1,-1,-1,-1],"split_conditions":[6.95E1,8.65E1,9.25E1,9.47111E-2,-1.4040558E-1,1.07E2,1.18E2,1.4746088E-1,5.435622E-3,8.805426E-2,-9.323342E-2],"split_indices":[320,2011,211,0,0,2310,112,0,0,0,0],"split_type":[0,0,0,0,0,0,0,0,0,0,0],"sum_hessian":[3.6184105E1,1.5455385E1,2.0728718E1,2.466999E0,1.2988386E1,1.805755E1,2.671168E0,1.7023918E1,1.0336322E0,1.2917871E0,1.379381E0],"tree_param":{"num_deleted":"0","num_feature":"3333","num_nodes":"11","size_leaf_vector":"0"}}]},"name":"gbtree"},"learner_model_param":{"base_score":"5E-1","num_class":"2","num_feature":"3333","num_target":"1"},"objective":{"name":"multi:softprob","softmax_multiclass_param":{"num_class":"2"}}},"version":[1,6,1]}