{"learner":{"attributes":{"best_iteration":"9","best_ntree_limit":"10"},"feature_names":[],"feature_types":[],"gradient_booster":{"model":{"gbtree_model_param":{"num_parallel_tree":"1","num_trees":"50","size_leaf_vector":"0"},"tree_info":[0,1,2,3,4,0,1,2,3,4,0,1,2,3,4,0,1,2,3,4,0,1,2,3,4,0,1,2,3,4,0,1,2,3,4,0,1,2,3,4,0,1,2,3,4,0,1,2,3,4],"trees":[{"base_weights":[-1.0362694E-1,-3.8792044E-1,1.3899614E0,-5.605381E-1,3.9176625E-1,-1.8315017E-2,2.0510397E0,-5.8213955E-1,3.9325842E-1,-4.3909347E-1,1.0588235E0,9.523809E-1,-5.4404145E-1,2.2699385E0,-3.8461536E-1,-5.894121E-1,8.77193E-2,9.6491224E-1,-3.508772E-1,-5.76324E-1,5.2631575E-1,2.1369293E0,-3.1100476E-1,-3.508772E-1,1.6438355E0,2.3632383E0,5.2631575E-1,-5.968293E-1,8.77193E-2,5.2631575E-1,-5.3672314E-1,-6.042391E-1,-1.2345678E-1,-6.1178E-1,-2.6548672E-1,-6.19723E-1,-3.2846713E-1,8.77193E-2,-4.3209875E-1,8.77193E-2,-4.7619045E-1],"categories":[],"categories_nodes":[],"categories_segments":[],"categories_sizes":[],"default_left":[1,1,1,1,1,1,1,1,1,1,1,1,0,1,0,1,0,0,0,0,0,0,1,0,0,0,0,1,0,0,0,1,0,1,1,0,1,0,0,0,0],"id":0,"left_children":[1,3,5,7,9,11,13,15,17,19,21,23,-1,25,-1,27,-1,-1,-1,-1,-1,-1,29,-1,-1,-1,-1,31,-1,-1,-1,33,-1,35,37,-1,39,-1,-1,-1,-1],"loss_changes":[8.249036E1,2.2146626E1,2.8972454E1,2.9856682E0,1.715836E1,6.0908346E0,1.2154762E1,6.9104767E-1,1.8529469E0,2.1739967E0,2.5770535E1,4.3615894E0,0E0,1.9382095E0,0E0,7.050667E-1,0E0,0E0,0E0,0E0,0E0,0E0,1.8625145E0,0E0,0E0,0E0,0E0,3.767624E-1,0E0,0E0,0E0,1.6056824E-1,0E0,7.305527E-2,3.0389807E-1,0E0,3.7868392E-1,0E0,0E0,0E0,0E0],"parents":[2147483647,0,0,1,1,2,2,3,3,4,4,5,5,6,6,7,7,8,8,9,9,10,10,11,11,13,13,15,15,22,22,27,27,31,31,33,33,34,34,36,36],"right_children":[2,4,6,8,10,12,14,16,18,20,22,24,-1,26,-1,28,-1,-1,-1,-1,-1,-1,30,-1,-1,-1,-1,32,-1,-1,-1,34,-1,36,38,-1,40,-1,-1,-1,-1],"split_conditions":[1.245E2,7.85E1,7.2E1,6.2E1,1.305E2,8.4E1,1.775E2,1.275E2,6.9E1,6.2E1,7.6E1,4.55E1,-1.6321245E-1,6.45E1,-1.15384616E-1,8.15E1,2.6315792E-2,2.8947368E-1,-1.05263166E-1,-1.728972E-1,1.5789473E-1,6.410788E-1,5.15E1,-1.05263166E-1,4.9315068E-1,7.089715E-1,1.5789473E-1,1.71E2,2.6315792E-2,1.5789473E-1,-1.6101694E-1,7.05E1,-3.7037037E-2,8.55E1,7.55E1,-1.8591692E-1,3.85E1,2.6315792E-2,-1.2962963E-1,2.6315792E-2,-1.4285713E-1],"split_indices":[1102,2010,2010,132,2110,310,1202,22,1,100,3200,103,0,2,0,113,0,0,0,0,0,0,103,0,0,0,0,212,0,0,0,10,0,203,1,0,10,0,0,0,0],"split_type":[0,0,0,0,0,0,0,0,0,0,0,0,0,0,0,0,0,0,0,0,0,0,0,0,0,0,0,0,0,0,0,0,0,0,0,0,0,0,0,0,0],"sum_hessian":[1.9200002E2,1.6192001E2,3.0080002E1,1.328E2,2.9120003E1,9.920001E0,2.0160002E1,1.3024E2,2.5600002E0,1.3120001E1,1.6000002E1,3.2000003E0,6.7200003E0,1.8560001E1,1.6000001E0,1.2896E2,1.2800001E0,1.2800001E0,1.2800001E0,1.1840001E1,1.2800001E0,8.64E0,7.3600006E0,1.2800001E0,1.9200001E0,1.728E1,1.2800001E0,1.2768001E2,1.2800001E0,1.2800001E0,6.0800004E0,1.2544001E2,2.2400002E0,1.21920006E2,3.5200002E0,1.1744001E2,4.4800005E0,1.2800001E0,2.2400002E0,1.2800001E0,3.2000003E0],"tree_param":{"num_deleted":"0","num_feature":"3333","num_nodes":"41","size_leaf_vector":"0"}},{"base_weights":[4.1450775E-1,2.3167622E0,-4.9832365E-1,2.4071572E0,6.19469E-1,-5.8062476E-1,1.4963503E0,2.4563851E0,6.164383E-1,-4.109589E-1,1.5384614E0,9.6491224E-1,-6.040803E-1,1.9047618E0,8.77193E-2,-6.1992854E-1,1.8518518E-1],"categories":[],"categories_nodes":[],"categories_segments":[],"categories_sizes":[],"default_left":[1,1,1,1,1,1,1,0,0,0,0,0,1,0,0,0,0],"id":1,"left_children":[1,3,5,7,9,11,13,-1,-1,-1,-1,-1,15,-1,-1,-1,-1],"loss_changes":[3.3628696E2,8.137939E0,2.2413689E1,3.7079773E0,4.9124837E0,5.178112E0,2.9855661E0,0E0,0E0,0E0,0E0,0E0,1.6843643E0,0E0,0E0,0E0,0E0],"parents":[2147483647,0,0,1,1,2,2,3,3,4,4,5,5,6,6,12,12],"right_children":[2,4,6,8,10,12,14,-1,-1,-1,-1,-1,16,-1,-1,-1,-1],"split_conditions":[9.45E1,6.85E1,1.265E2,8.15E1,4.9E1,7.85E1,5.75E1,7.369156E-1,1.849315E-1,-1.2328767E-1,4.6153846E-1,2.8947368E-1,1.23E2,5.7142854E-1,2.6315792E-2,-1.8597856E-1,5.5555556E-2],"split_indices":[1202,2020,21,2010,1010,2111,113,0,0,0,0,0,322,0,0,0,0],"split_type":[0,0,0,0,0,0,0,0,0,0,0,0,0,0,0,0,0],"sum_hessian":[1.9200002E2,6.1760006E1,1.3024E2,5.8240005E1,3.5200002E0,1.2576001E2,4.4800005E0,5.6320004E1,1.9200001E0,1.9200001E0,1.6000001E0,1.2800001E0,1.2448001E2,3.2000003E0,1.2800001E0,1.22240005E2,2.2400002E0],"tree_param":{"num_deleted":"0","num_feature":"3333","num_nodes":"17","size_leaf_vector":"0"}},{"base_weights":[-1.0362694E-1,-6.0712713E-1,3.414823E-1,-6.180276E-1,8.77193E-2,-4.861558E-1,1.5586271E0,-5.8044803E-1,9.523809E-1,1.9060773E0,-5.325444E-1,-6.1403507E-1,2.739726E-1,1.6438355E0,-3.508772E-1,2.098692E0,-4.4943818E-1,2.258687E0,1.12359546E-1,-0E0,2.3812754E0,5.2631575E-1,-3.508772E-1],"categories":[],"categories_nodes":[],"categories_segments":[],"categories_sizes":[],"default_left":[1,1,1,0,0,1,1,1,1,1,0,0,0,0,0,1,0,1,1,0,0,0,0],"id":2,"left_children":[1,3,5,-1,-1,7,9,11,13,15,-1,-1,-1,-1,-1,17,-1,19,21,-1,-1,-1,-1],"loss_changes":[4.3461052E1,7.428589E-1,1.0459595E2,0E0,0E0,8.978941E0,3.1502274E1,1.8590832E0,4.3615894E0,1.7367416E1,0E0,0E0,0E0,0E0,0E0,1.0437134E1,0E0,8.605682E0,8.6733687E-1,0E0,0E0,0E0,0E0],"parents":[2147483647,0,0,1,1,2,2,5,5,6,6,7,7,8,8,9,9,15,15,17,17,18,18],"right_children":[2,4,6,-1,-1,8,10,12,14,16,-1,-1,-1,-1,-1,18,-1,20,22,-1,-1,-1,-1],"split_conditions":[9.85E1,9.9E1,9.45E1,-1.854083E-1,2.6315792E-2,6.85E1,1.19E2,8.15E1,8.75E1,1.275E2,-1.5976332E-1,-1.8421052E-1,8.219178E-2,4.9315068E-1,-1.05263166E-1,1.6E2,-1.3483146E-1,9.15E1,7.7E1,-0E0,7.1438265E-1,1.5789473E-1,-1.05263166E-1],"split_indices":[2000,12,1202,0,0,2020,2021,2010,3,2100,0,0,0,0,0,1210,0,2200,2,0,0,0,0],"split_type":[0,0,0,0,0,0,0,0,0,0,0,0,0,0,0,0,0,0,0,0,0,0,0],"sum_hessian":[1.9200002E2,8.9920006E1,1.0208001E2,8.864001E1,1.2800001E0,6.1120003E1,4.0960003E1,5.7920006E1,3.2000003E0,3.52E1,5.76E0,5.6000004E1,1.9200001E0,1.9200001E0,1.2800001E0,3.2640003E1,2.5600002E0,3.0080002E1,2.5600002E0,1.6000001E0,2.8480001E1,1.2800001E0,1.2800001E0],"tree_param":{"num_deleted":"0","num_feature":"3333","num_nodes":"23","size_leaf_vector":"0"}},{"base_weights":[-1.0362694E-1,2.0286086E0,-5.047782E-1,2.298091E0,-4.4247787E-2,5.2631575E-1,-5.568386E-1,2.4024959E0,3.8461536E-1,-4.3209875E-1,5.2631575E-1,1.6666666E0,-5.03876E-1,6.19469E-1,-5.880808E-1,1.5384614E0,-4.109589E-1,-6.0751396E-1,4.9382713E-1,-6.206991E-1,-1.7241378E-1,5.2631575E-1,-4.8672566E-1],"categories":[],"categories_nodes":[],"categories_segments":[],"categories_sizes":[],"default_left":[1,1,1,1,1,1,1,0,0,0,0,0,0,1,1,0,0,1,0,0,1,0,0],"id":3,"left_children":[1,3,5,7,9,11,13,-1,-1,-1,-1,-1,-1,15,17,-1,-1,19,-1,-1,21,-1,-1],"loss_changes":[1.6610635E2,1.7284172E1,9.055649E0,4.5178833E0,1.2276677E0,1.0660954E1,6.092968E0,0E0,0E0,0E0,0E0,0E0,0E0,4.9124837E0,3.503353E0,0E0,0E0,7.542E-1,0E0,0E0,1.5299616E0,0E0,0E0],"parents":[2147483647,0,0,1,1,2,2,3,3,4,4,5,5,6,6,13,13,14,14,17,17,20,20],"right_children":[2,4,6,8,10,12,14,-1,-1,-1,-1,-1,-1,16,18,-1,-1,20,-1,-1,22,-1,-1],"split_conditions":[6.45E1,1.53E2,7.35E1,1.405E2,3.1E1,1.45E2,1.055E2,7.207488E-1,1.15384616E-1,-1.2962963E-1,1.5789473E-1,5E-1,-1.511628E-1,3.25E1,2.98E2,4.6153846E-1,-1.2328767E-1,4.15E1,1.4814815E-1,-1.8620974E-1,4.45E1,1.5789473E-1,-1.460177E-1],"split_indices":[2000,2110,2200,1331,1,2110,2210,0,0,0,0,0,0,30,1212,0,0,1301,0,0,1,0,0],"split_type":[0,0,0,0,0,0,0,0,0,0,0,0,0,0,0,0,0,0,0,0,0,0,0],"sum_hessian":[1.9200002E2,2.9760002E1,1.6224E2,2.6240002E1,3.5200002E0,7.3600006E0,1.5488E2,2.4640001E1,1.6000001E0,2.2400002E0,1.2800001E0,3.2000003E0,4.1600003E0,3.5200002E0,1.5136002E2,1.6000001E0,1.9200001E0,1.4912001E2,2.2400002E0,1.4432E2,4.8E0,1.2800001E0,3.5200002E0],"tree_param":{"num_deleted":"0","num_feature":"3333","num_nodes":"23","size_leaf_vector":"0"}},{"base_weights":[-1.0362694E-1,-4.0023893E-1,1.7669172E0,-5.419626E-1,9.4132024E-1,-3.2679737E-2,2.1973927E0,1.0824742E0,-5.805846E-1,2.0813396E0,-2.2222221E-1,9.6491224E-1,-4.9586776E-1,3.8461536E-1,2.3239436E0,1.5384614E0,8.77193E-2,-5.936568E-1,3.8461536E-1,9.6491224E-1,-5.4404145E-1,-6.204485E-1,-2.1352312E-1,9.589041E-1,-5.579399E-1],"categories":[],"categories_nodes":[],"categories_segments":[],"categories_sizes":[],"default_left":[1,1,1,1,1,1,1,1,1,0,1,0,0,0,0,0,0,1,0,0,0,0,1,0,0],"id":4,"left_children":[1,3,5,7,9,11,13,15,17,-1,19,-1,-1,-1,-1,-1,-1,21,-1,-1,-1,-1,23,-1,-1],"loss_changes":[1.0778858E2,3.2338043E1,2.0678368E1,1.0167297E1,2.216342E1,3.3063536E0,4.033867E0,1.6249986E0,2.1103249E0,0E0,3.9633367E0,0E0,0E0,0E0,0E0,0E0,0E0,1.3703384E0,0E0,0E0,0E0,0E0,5.0737634E0,0E0,0E0],"parents":[2147483647,0,0,1,1,2,2,3,3,4,4,5,5,6,6,7,7,8,8,10,10,17,17,22,22],"right_children":[2,4,6,8,10,12,14,16,18,-1,20,-1,-1,-1,-1,-1,-1,22,-1,-1,-1,-1,24,-1,-1],"split_conditions":[1.295E2,8.75E1,7.05E1,5.25E1,1.405E2,4E1,3.6E1,4.8E1,7.7E1,6.244019E-1,1.3E2,2.8947368E-1,-1.4876033E-1,1.15384616E-1,6.9718313E-1,4.6153846E-1,2.6315792E-2,8.35E1,1.15384616E-1,2.8947368E-1,-1.6321245E-1,-1.8613456E-1,3.85E1,2.8767124E-1,-1.6738197E-1],"split_indices":[1220,220,1311,110,1021,102,111,10,1310,0,1031,0,0,0,0,0,0,220,0,0,0,0,10,0,0],"split_type":[0,0,0,0,0,0,0,0,0,0,0,0,0,0,0,0,0,0,0,0,0,0,0,0,0],"sum_hessian":[1.9200002E2,1.6640001E2,2.5600002E1,1.5104001E2,1.5360001E1,5.1200004E0,2.0480001E1,2.88E0,1.4816E2,7.3600006E0,8.000001E0,1.2800001E0,3.8400002E0,1.6000001E0,1.8880001E1,1.6000001E0,1.2800001E0,1.4656001E2,1.6000001E0,1.2800001E0,6.7200003E0,1.3632E2,1.0240001E1,1.9200001E0,8.320001E0],"tree_param":{"num_deleted":"0","num_feature":"3333","num_nodes":"25","size_leaf_vector":"0"}},{"base_weights":[-8.331307E-2,-3.43026E-1,8.822575E-1,-5.1997244E-1,3.0088177E-1,1.059193E0,-4.8185787E-1,-5.440347E-1,3.3040306E-1,-3.9253306E-1,7.138597E-1,1.283399E0,-4.8041382E-1,-3.4456858E-1,-5.8679E-1,9.622965E-1,-3.6768615E-1,6.4640725E-1,-5.4502094E-1,1.2221485E0,-2.6915804E-1,1.316863E0,1.5270618E-1,5.8765495E-1,-5.646655E-1,3.920005E-1,1.2845683E0,-5.120011E-1,6.446922E-1,1.0837461E0,-3.463367E-1],"categories":[],"categories_nodes":[],"categories_segments":[],"categories_sizes":[],"default_left":[1,1,1,1,1,1,0,1,1,1,1,1,0,1,0,0,0,0,0,1,1,0,0,1,0,0,0,0,0,0,0],"id":5,"left_children":[1,3,5,7,9,11,-1,13,15,17,19,21,-1,23,-1,-1,-1,-1,-1,25,27,-1,-1,29,-1,-1,-1,-1,-1,-1,-1],"loss_changes":[4.5495865E1,1.6419611E1,9.797691E0,2.4783573E0,9.272815E0,1.2482006E1,0E0,7.326927E-1,1.9918427E0,2.311511E0,1.0340017E1,9.4449997E-1,0E0,4.799056E0,0E0,0E0,0E0,0E0,0E0,1.9015312E-1,2.0274405E0,0E0,0E0,2.5292468E0,0E0,0E0,0E0,0E0,0E0,0E0,0E0],"parents":[2147483647,0,0,1,1,2,2,3,3,4,4,5,5,7,7,8,8,9,9,10,10,11,11,13,13,19,19,20,20,23,23],"right_children":[2,4,6,8,10,12,-1,14,16,18,20,22,-1,24,-1,-1,-1,-1,-1,26,28,-1,-1,30,-1,-1,-1,-1,-1,-1,-1],"split_conditions":[1.245E2,7.85E1,1.105E2,6.2E1,1.305E2,1.775E2,-1.4455737E-1,8.45E1,4.35E1,1.015E2,7.6E1,1.89E2,-1.4412415E-1,8.9E1,-1.7603701E-1,2.8868896E-1,-1.1030585E-1,1.9392218E-1,-1.6350628E-1,8.7E1,1.35E1,3.950589E-1,4.5811854E-2,7.8E1,-1.6939965E-1,1.1760015E-1,3.8537052E-1,-1.5360034E-1,1.9340767E-1,3.2512385E-1,-1.03901014E-1],"split_indices":[1102,2010,2000,132,2110,1202,0,2200,23,1210,3200,312,0,1131,0,0,0,0,0,321,130,0,0,2201,0,0,0,0,0,0,0],"split_type":[0,0,0,0,0,0,0,0,0,0,0,0,0,0,0,0,0,0,0,0,0,0,0,0,0,0,0,0,0,0,0],"sum_hessian":[1.7921701E2,1.4173798E2,3.7479023E1,1.11335396E2,3.0402586E1,3.337374E1,4.105281E0,1.08622055E2,2.7133365E0,1.1366706E1,1.9035881E1,2.9276718E1,4.0970254E0,2.0772284E1,8.784977E1,1.2255375E0,1.4877989E0,1.0402352E0,1.0326471E1,1.23874445E1,6.648436E0,2.8275232E1,1.0014851E0,3.6486013E0,1.7123682E1,1.3754045E0,1.101204E1,5.6000357E0,1.0484003E0,2.278196E0,1.3704053E0],"tree_param":{"num_deleted":"0","num_feature":"3333","num_nodes":"31","size_leaf_vector":"0"}},{"base_weights":[3.033996E-1,1.1696969E0,-5.2521586E-1,3.2027918E-1,1.2775261E0,-5.697144E-1,9.201418E-1,9.0318733E-1,-5.031894E-1,1.2950757E0,6.857783E-2,1.721364E-1,-5.7890004E-1,-3.132761E-1,1.1544857E0,1.3042814E0,4.2943656E-1,-5.8866674E-1,1.4677049E-1],"categories":[],"categories_nodes":[],"categories_segments":[],"categories_sizes":[],"default_left":[1,1,1,1,1,1,0,1,0,1,0,0,1,0,0,0,0,0,0],"id":6,"left_children":[1,3,5,7,9,11,-1,13,-1,15,-1,-1,17,-1,-1,-1,-1,-1,-1],"loss_changes":[1.452608E2,8.642212E0,7.19273E0,6.4384756E0,1.7645874E0,7.892914E-1,0E0,2.702455E0,0E0,1.2561035E-1,0E0,0E0,7.9652405E-1,0E0,0E0,0E0,0E0,0E0,0E0],"parents":[2147483647,0,0,1,1,2,2,3,3,4,4,5,5,7,7,9,9,12,12],"right_children":[2,4,6,8,10,12,-1,14,-1,16,-1,-1,18,-1,-1,-1,-1,-1,-1],"split_conditions":[1.025E2,1.105E2,1.325E2,1.155E2,6.55E1,8.05E1,2.7604255E-1,5.9E1,-1.5095682E-1,1.265E2,2.0573352E-2,5.164092E-2,1.205E2,-9.398284E-2,3.4634572E-1,3.9128444E-1,1.2883097E-1,-1.7660002E-1,4.403115E-2],"split_indices":[1202,21,21,112,2201,2111,0,303,0,1231,0,0,2101,0,0,0,0,0,0],"split_type":[0,0,0,0,0,0,0,0,0,0,0,0,0,0,0,0,0,0,0],"sum_hessian":[2.005059E2,9.782286E1,1.0268305E2,1.14665E1,8.635636E1,1.0020388E2,2.4791684E0,6.657237E0,4.8092628E0,8.50505E1,1.3058627E0,1.0085835E0,9.91953E1,1.0975726E0,5.5596647E0,8.365415E1,1.3963476E0,9.806426E1,1.1310407E0],"tree_param":{"num_deleted":"0","num_feature":"3333","num_nodes":"19","size_leaf_vector":"0"}},{"base_weights":[-8.9732036E-2,-5.7423794E-1,2.6002848E-1,1.5218928E-1,-5.8710694E-1,-4.8661676E-1,8.8405687E-1,-5.791048E-1,3.952058E-1,1.0336617E0,-5.0630975E-1,9.832577E-1,-3.9625964E-1,1.1778934E0,-3.3711368E-1,1.230965E0,-3.7502772E-1,-4.728142E-1,1.5432924E-1,1.27838E0,1.6452874E-1,2.927723E-1,1.3096683E0,4.0617183E-1,1.3311253E0],"categories":[],"categories_nodes":[],"categories_segments":[],"categories_sizes":[],"default_left":[1,1,1,0,0,1,1,0,1,1,0,0,0,1,1,1,0,0,0,1,0,0,1,0,0],"id":7,"left_children":[1,3,5,-1,-1,7,9,-1,11,13,-1,-1,-1,15,17,19,-1,-1,-1,21,-1,-1,23,-1,-1],"loss_changes":[3.0784985E1,8.007965E-1,4.9669098E1,0E0,0E0,4.205449E0,1.2571354E1,0E0,2.820426E0,1.08012085E1,0E0,0E0,0E0,4.404106E0,4.5892072E-1,2.1403732E0,0E0,0E0,0E0,9.846115E-1,0E0,0E0,2.8730774E-1,0E0,0E0],"parents":[2147483647,0,0,1,1,2,2,5,5,6,6,8,8,9,9,13,13,14,14,15,15,19,19,22,22],"right_children":[2,4,6,-1,-1,8,10,-1,12,14,-1,-1,-1,16,18,20,-1,-1,-1,22,-1,-1,24,-1,-1],"split_conditions":[9.85E1,1.1E2,1.085E2,4.5656785E-2,-1.7613208E-1,6.55E1,1.165E2,-1.7373145E-1,6.95E1,1.25E2,-1.5189293E-1,2.9497734E-1,-1.18877895E-1,3.7E1,2.86E2,1.655E2,-1.1250832E-1,-1.4184427E-1,4.6298772E-2,5.3E1,4.9358625E-2,8.783169E-2,1.08E2,1.21851556E-1,3.993376E-1],"split_indices":[2000,2031,1231,0,0,2020,2021,0,31,21,0,0,0,131,1221,2110,0,0,0,20,0,0,3120,0,0],"split_type":[0,0,0,0,0,0,0,0,0,0,0,0,0,0,0,0,0,0,0,0,0,0,0,0,0],"sum_hessian":[1.7978294E2,7.51037E1,1.0467924E2,1.1188842E0,7.398482E1,4.7757706E1,5.6921535E1,4.3534927E1,4.2227793E0,5.1623363E1,5.2981725E0,2.2836912E0,1.9390881E0,4.6836033E1,4.7873306E0,4.5488758E1,1.3472733E0,3.781158E0,1.0061725E0,4.336209E1,2.1266673E0,1.6528617E0,4.170923E1,1.4298905E0,4.027934E1],"tree_param":{"num_deleted":"0","num_feature":"3333","num_nodes":"25","size_leaf_vector":"0"}},{"base_weights":[-8.483447E-2,-4.733782E-1,1.1291066E0,-5.5884874E-1,3.67466E-1,1.2268049E0,-2.1611549E-1,-5.7369334E-1,4.5391446E-1,8.357855E-1,-4.92216E-1,1.2906489E0,-6.498826E-2,-3.9734313E-1,1.4092796E-1,-5.8904237E-1,2.0278275E-1,1.1479625E0,-3.6713699E-1,1.3248789E0,3.07518E-1,-3.1026942E-1,6.243366E-1,3.1001055E-1,1.3441154E0],"categories":[],"categories_nodes":[],"categories_segments":[],"categories_sizes":[],"default_left":[1,1,1,1,1,1,1,1,0,1,0,1,0,0,0,0,1,1,0,0,0,0,0,0,0],"id":8,"left_children":[1,3,5,7,9,11,13,15,-1,17,-1,19,-1,-1,-1,-1,21,23,-1,-1,-1,-1,-1,-1,-1],"loss_changes":[8.549258E1,1.00622425E1,6.0437126E0,2.1380882E0,5.749298E0,3.4769287E0,3.0364418E-1,1.5917358E0,0E0,3.78371E0,0E0,9.134903E-1,0E0,0E0,0E0,0E0,8.72508E-1,7.9156685E-1,0E0,0E0,0E0,0E0,0E0,0E0,0E0],"parents":[2147483647,0,0,1,1,2,2,3,3,4,4,5,5,6,6,7,7,9,9,11,11,16,16,17,17],"right_children":[2,4,6,8,10,12,14,16,-1,18,-1,20,-1,-1,-1,-1,22,24,-1,-1,-1,-1,-1,-1,-1],"split_conditions":[2.85E2,3.85E1,8.95E1,1.125E2,4.05E1,1.53E2,7.85E1,9.6E1,1.3617435E-1,9.65E1,-1.476648E-1,2.45E1,-1.949648E-2,-1.1920294E-1,4.2278387E-2,-1.7671272E-1,9.6E1,6.35E1,-1.101411E-1,3.974637E-1,9.2255406E-2,-9.3080826E-2,1.8730098E-1,9.300317E-2,4.0323463E-1],"split_indices":[1212,131,2200,1012,2230,2110,310,213,0,2200,0,301,0,0,0,0,121,20,0,0,0,0,0,0,0],"split_type":[0,0,0,0,0,0,0,0,0,0,0,0,0,0,0,0,0,0,0,0,0,0,0,0,0],"sum_hessian":[1.7912216E2,1.3615375E2,4.296841E1,1.2389535E2,1.2258405E1,4.0141148E1,2.8272634E0,1.2253286E2,1.3624861E0,7.9534745E0,4.30493E0,3.825153E1,1.8896163E0,1.8004982E0,1.0267651E0,1.2039434E2,2.1385157E0,6.3509846E0,1.6024898E0,3.662861E1,1.6229215E0,1.0836481E0,1.0548676E0,1.6941489E0,4.6568356E0],"tree_param":{"num_deleted":"0","num_feature":"3333","num_nodes":"25","size_leaf_vector":"0"}},{"base_weights":[-8.1352174E-2,7.285547E-1,-5.265544E-1,1.1856569E0,-1.3200882E-1,-5.571836E-1,7.505556E-1,1.2827395E0,-1.8643387E-1,-4.55728E-1,7.6875305E-1,-5.892794E-1,-8.399834E-2,-3.8021052E-1,1.3676151E0,-3.690358E-1,1.4076455E-1,-5.592058E-1,4.4655088E-1,1.1498057E0,-3.5469294E-1,8.353806E-1,-3.7679026E-1,-4.9879342E-1,1.3342492E-1],"categories":[],"categories_nodes":[],"categories_segments":[],"categories_sizes":[],"default_left":[1,1,1,1,1,1,0,1,1,1,1,0,1,0,0,0,0,0,0,0,0,0,1,0,0],"id":9,"left_children":[1,3,5,7,9,11,-1,13,15,17,19,-1,21,-1,-1,-1,-1,-1,-1,-1,-1,-1,23,-1,-1],"loss_changes":[6.518207E1,2.5396732E1,4.9770813E0,5.83461E0,7.1033006E0,1.6877632E0,0E0,6.0750046E0,2.699553E-1,1.8989317E0,3.1881685E0,0E0,2.5846338E0,0E0,0E0,0E0,0E0,0E0,0E0,0E0,0E0,0E0,5.075599E-1,0E0,0E0],"parents":[2147483647,0,0,1,1,2,2,3,3,4,4,5,5,7,7,8,8,9,9,10,10,12,12,22,22],"right_children":[2,4,6,8,10,12,-1,14,16,18,20,-1,22,-1,-1,-1,-1,-1,-1,-1,-1,-1,24,-1,-1],"split_conditions":[1.205E2,6.65E1,1.365E2,1.065E2,8.7E1,8.55E1,2.2516668E-1,1.985E2,4.4E1,4.15E1,1.445E2,-1.7678383E-1,6.25E1,-1.1406316E-1,4.1028455E-1,-1.1071075E-1,4.2229366E-2,-1.6776174E-1,1.3396527E-1,3.449417E-1,-1.0640789E-1,2.506142E-1,9.95E1,-1.4963803E-1,4.0027477E-2],"split_indices":[2110,110,1220,1012,220,2020,0,1211,32,1130,1021,0,2010,0,0,0,0,0,0,0,0,0,1002,0,0],"split_type":[0,0,0,0,0,0,0,0,0,0,0,0,0,0,0,0,0,0,0,0,0,0,0,0,0],"sum_hessian":[1.7870995E2,6.3164803E1,1.1554515E2,4.1006023E1,2.2158777E1,1.1338942E2,2.1557288E0,3.8357174E1,2.6488512E0,1.6664053E1,5.4947257E0,1.0595709E2,7.4323273E0,1.6936781E0,3.6663494E1,1.618011E0,1.0308402E0,1.5290672E1,1.3733796E0,4.0855255E0,1.4091998E0,1.3476125E0,6.084715E0,4.928575E0,1.1561397E0],"tree_param":{"num_deleted":"0","num_feature":"3333","num_nodes":"25","size_leaf_vector":"0"}},{"base_weights":[-7.1097516E-2,-3.903527E-1,5.1770914E-1,-4.5385963E-1,6.651603E-1,-2.572979E-1,7.719192E-1,-1.7330159E-1,-5.627768E-1,8.6222184E-1,-1.652169E-2,-4.629151E-1,3.5628736E-1,9.144386E-1,-4.6466756E-1,-4.0892622E-1,7.7151185E-1,-5.2678424E-1,6.1808698E-2,-3.3751708E-1,8.075326E-1,9.527062E-1,-6.252133E-2,7.354345E-1,-5.112521E-1,-1.3663088E-2,1.0086316E0,9.7068465E-1,1.6909996E-1,-5.4958266E-1,1.3334051E-1],"categories":[],"categories_nodes":[],"categories_segments":[],"categories_sizes":[],"default_left":[1,1,1,1,1,1,1,1,0,0,0,1,1,1,0,1,1,0,0,0,0,1,0,0,1,0,0,0,0,0,0],"id":10,"left_children":[1,3,5,7,9,11,13,15,-1,-1,-1,17,19,21,-1,23,25,-1,-1,-1,-1,27,-1,-1,29,-1,-1,-1,-1,-1,-1],"loss_changes":[3.040967E1,7.3247995E0,1.1414098E1,2.9404278E0,8.6745834E-1,2.0334976E0,8.023666E0,6.8265333E0,0E0,0E0,0E0,4.189105E-1,1.6133063E0,1.5175285E0,0E0,3.1936898E0,1.1651924E0,0E0,0E0,0E0,0E0,3.6541748E-1,0E0,0E0,6.335921E-1,0E0,0E0,0E0,0E0,0E0,0E0],"parents":[2147483647,0,0,1,1,2,2,3,3,4,4,5,5,6,6,7,7,11,11,12,12,13,13,15,15,16,16,21,21,24,24],"right_children":[2,4,6,8,10,12,14,16,-1,-1,-1,18,20,22,-1,24,26,-1,-1,-1,-1,28,-1,-1,30,-1,-1,-1,-1,-1,-1],"split_conditions":[7.75E1,1.335E2,1.345E2,9.05E1,8.4E1,7.9E1,1.185E2,6.05E1,-1.6883305E-1,2.5866657E-1,-4.956507E-3,1.175E2,5.75E1,7.65E1,-1.3940027E-1,4.65E1,1.01E2,-1.5803528E-1,1.854261E-2,-1.0125513E-1,2.4225979E-1,6.7E1,-1.87564E-2,2.2063035E-1,8.9E1,-4.0989267E-3,3.0258948E-1,2.912054E-1,5.072999E-2,-1.648748E-1,4.0002152E-2],"split_indices":[2010,1102,2110,2200,310,1001,2000,11,0,0,0,321,102,2320,0,1311,1022,0,0,0,0,331,0,0,3210,0,0,0,0,0,0],"split_type":[0,0,0,0,0,0,0,0,0,0,0,0,0,0,0,0,0,0,0,0,0,0,0,0,0,0,0,0,0,0,0],"sum_hessian":[1.5969609E2,1.037689E2,5.592719E1,9.8417435E1,5.351461E0,1.3810657E1,4.211653E1,2.8247166E1,7.017027E1,3.945923E0,1.4055378E0,1.0528149E1,3.2825077E0,3.7997723E1,4.11881E0,2.3062784E1,5.184381E0,9.382222E0,1.1459271E0,1.3929038E0,1.8896037E0,3.658934E1,1.4083811E0,1.3851207E0,2.1677664E1,1.4210931E0,3.7632878E0,3.5535305E1,1.0540353E0,2.060008E1,1.0775838E0],"tree_param":{"num_deleted":"0","num_feature":"3333","num_nodes":"31","size_leaf_vector":"0"}},{"base_weights":[2.5103664E-1,8.2642436E-1,-5.5396634E-1,9.121415E-2,9.3310326E-1,-5.656798E-1,1.593471E-1,7.403026E-1,-4.1884196E-1,9.571802E-1,4.227945E-2,8.477618E-2,8.388466E-1,-5.079992E-1,1.509113E-1,9.684081E-1,2.1453539E-1,4.8705536E-1,-3.6437133E-1],"categories":[],"categories_nodes":[],"categories_segments":[],"categories_sizes":[],"default_left":[1,1,0,1,1,0,0,1,1,1,1,0,0,0,0,0,0,0,0],"id":11,"left_children":[1,3,5,7,9,-1,-1,11,13,15,17,-1,-1,-1,-1,-1,-1,-1,-1],"loss_changes":[8.787002E1,8.578133E0,7.5240517E-1,5.3107967E0,2.0261002E0,0E0,0E0,3.8157797E-1,5.3876126E-1,5.741272E-1,8.25311E-1,0E0,0E0,0E0,0E0,0E0,0E0,0E0,0E0],"parents":[2147483647,0,0,1,1,2,2,3,3,4,4,7,7,8,8,9,9,10,10],"right_children":[2,4,6,8,10,-1,-1,12,14,16,18,-1,-1,-1,-1,-1,-1,-1,-1],"split_conditions":[1.075E2,1.105E2,4.05E1,1.075E2,6.25E1,-1.6970395E-1,4.7804132E-2,6.8E1,7.5E1,2.01E2,4.3E1,2.5432855E-2,2.51654E-1,-1.5239976E-1,4.5273393E-2,2.9052246E-1,6.436062E-2,1.4611661E-1,-1.093114E-1],"split_indices":[1202,21,3000,1231,2201,0,0,3,31,1122,123,0,0,0,0,0,0,0,0],"split_type":[0,0,0,0,0,0,0,0,0,0,0,0,0,0,0,0,0,0,0],"sum_hessian":[1.877183E2,1.09456245E2,7.826207E1,1.4104672E1,9.535157E1,7.7201294E1,1.0607724E0,6.0078163E0,8.096856E0,9.276973E1,2.5818403E0,1.0282252E0,4.979591E0,7.0949917E0,1.0018643E0,9.1088585E1,1.6811471E0,1.1386803E0,1.44316E0],"tree_param":{"num_deleted":"0","num_feature":"3333","num_nodes":"19","size_leaf_vector":"0"}},{"base_weights":[-8.063952E-2,-5.485585E-1,2.1754324E-1,-5.6359744E-1,1.5958087E-1,-4.542978E-1,6.694434E-1,-5.5350333E-1,3.3388957E-1,7.7172786E-1,-4.7576916E-1,7.684492E-1,-3.6182442E-1,8.66482E-1,-3.026511E-1,9.0371764E-1,-3.4747684E-1,-4.3944377E-1,1.3113742E-1,-3.2421288E-1,9.357185E-1,-7.904063E-3,9.6236503E-1,9.8102933E-1,2.680832E-1],"categories":[],"categories_nodes":[],"categories_segments":[],"categories_sizes":[],"default_left":[1,1,1,0,0,1,1,0,1,1,0,0,0,1,1,1,0,0,0,0,1,0,1,0,0],"id":12,"left_children":[1,3,5,-1,-1,7,9,-1,11,13,-1,-1,-1,15,17,19,-1,-1,-1,-1,21,-1,23,-1,-1],"loss_changes":[2.2549932E1,7.593422E-1,3.0332815E1,0E0,0E0,3.3414526E0,7.341173E0,0E0,1.8310765E0,5.8650856E0,0E0,0E0,0E0,2.6119003E0,3.6628997E-1,2.2523918E0,0E0,0E0,0E0,0E0,1.229557E0,0E0,3.4955215E-1,0E0,0E0],"parents":[2147483647,0,0,1,1,2,2,5,5,6,6,8,8,9,9,13,13,14,14,15,15,20,20,22,22],"right_children":[2,4,6,-1,-1,8,10,-1,12,14,-1,-1,-1,16,18,20,-1,-1,-1,-1,22,-1,24,-1,-1],"split_conditions":[9.85E1,7.55E1,1.085E2,-1.6907924E-1,4.7874264E-2,6.55E1,1.165E2,-1.66051E-1,6.95E1,1.25E2,-1.4273076E-1,2.3053476E-1,-1.0854733E-1,3.7E1,2.86E2,1.15E1,-1.04243055E-1,-1.3183314E-1,3.9341226E-2,-9.7263865E-2,5.25E1,-2.371219E-3,1.1E1,2.943088E-1,8.0424964E-2],"split_indices":[2000,201,1231,0,0,2020,2021,0,31,21,0,0,0,131,1221,2330,0,0,0,0,2020,0,1302,0,0],"split_type":[0,0,0,0,0,0,0,0,0,0,0,0,0,0,0,0,0,0,0,0,0,0,0,0,0],"sum_hessian":[1.5976358E2,6.18565E1,9.7907074E1,6.0770023E1,1.086477E0,3.937012E1,5.8536957E1,3.5233227E1,4.1368933E0,5.4036797E1,4.50016E0,2.482018E0,1.6548754E0,4.9835125E1,4.2016716E0,4.8599983E1,1.2351415E0,3.18444E0,1.0172315E0,1.0024573E0,4.7597527E1,1.3264894E0,4.6271038E1,4.46575E1,1.6135362E0],"tree_param":{"num_deleted":"0","num_feature":"3333","num_nodes":"25","size_leaf_vector":"0"}},{"base_weights":[-7.2365455E-2,8.0193853E-1,-4.6572512E-1,-4.4098905E-1,8.89367E-1,-5.3046614E-1,9.175664E-2,9.4234467E-1,5.0657842E-2,-5.4840136E-1,3.5610732E-1,-3.169919E-1,7.57421E-1,9.6333665E-1,5.8188498E-2,6.090648E-1,-3.806346E-1,-5.6537306E-1,2.2878766E-1,4.4479975E-1,-5.0622314E-1,9.638016E-1,5.6558114E-2,2.8320485E-1,9.8038566E-1],"categories":[],"categories_nodes":[],"categories_segments":[],"categories_sizes":[],"default_left":[1,1,1,0,1,1,1,1,1,1,0,1,1,1,0,0,0,0,0,0,0,0,0,0,0],"id":13,"left_children":[1,3,5,-1,7,9,11,13,15,17,-1,19,21,23,-1,-1,-1,-1,-1,-1,-1,-1,-1,-1,-1],"loss_changes":[5.5528744E1,5.8399086E0,4.0636234E0,0E0,2.048111E0,1.7824383E0,3.6213694E0,7.6633835E-1,1.1612804E0,1.4250221E0,0E0,1.4366865E0,6.720066E-1,2.2348785E-1,0E0,0E0,0E0,0E0,0E0,0E0,0E0,0E0,0E0,0E0,0E0],"parents":[2147483647,0,0,1,1,2,2,4,4,5,5,6,6,7,7,8,8,9,9,11,11,12,12,13,13],"right_children":[2,4,6,-1,8,10,12,14,16,18,-1,20,22,24,-1,-1,-1,-1,-1,-1,-1,-1,-1,-1,-1],"split_conditions":[6.85E1,1.06E2,3.75E1,-1.3229673E-1,1.53E2,4.35E1,1.215E2,1.215E2,8.9E1,3.2E2,1.068322E-1,6.1E1,9.4E1,7.85E1,1.745655E-2,1.8271945E-1,-1.14190385E-1,-1.6961193E-1,6.86363E-2,1.3343993E-1,-1.5186694E-1,2.891405E-1,1.6967434E-2,8.496146E-2,2.9411572E-1],"split_indices":[2000,2021,131,0,2110,1301,2021,120,1032,1212,0,1032,122,1012,0,0,0,0,0,0,0,0,0,0,0],"split_type":[0,0,0,0,0,0,0,0,0,0,0,0,0,0,0,0,0,0,0,0,0,0,0,0,0],"sum_hessian":[1.5937425E2,4.9131977E1,1.1024227E2,2.963096E0,4.6168884E1,9.881521E1,1.1427069E1,4.330963E1,2.8592505E0,9.7229706E1,1.5854974E0,7.40429E0,4.0227785E0,4.2217728E1,1.0919038E0,1.0663851E0,1.7928653E0,9.5418564E1,1.8111447E0,1.2045499E0,6.1997404E0,2.8178515E0,1.2049272E0,1.4630693E0,4.0754658E1],"tree_param":{"num_deleted":"0","num_feature":"3333","num_nodes":"25","size_leaf_vector":"0"}},{"base_weights":[-7.1007065E-2,5.640279E-1,-4.9640983E-1,8.642356E-1,-1.11180544E-1,-5.295441E-1,5.901249E-1,-3.6074165E-1,9.157694E-1,-4.7443056E-1,5.3611076E-1,-5.6522894E-1,-5.992985E-2,-3.4674972E-1,9.678989E-1,-5.303351E-1,1.1125167E-1,9.244785E-1,-3.8893387E-1,-4.637393E-1,4.8599035E-1,9.937681E-1,6.1600138E-2,-1.1987251E-3,7.732532E-1],"categories":[],"categories_nodes":[],"categories_segments":[],"categories_sizes":[],"default_left":[1,1,1,1,1,1,0,0,1,1,1,0,1,0,1,0,0,0,0,0,1,0,0,0,0],"id":14,"left_children":[1,3,5,7,9,11,-1,-1,13,15,17,-1,19,-1,21,-1,-1,-1,-1,-1,23,-1,-1,-1,-1],"loss_changes":[4.357761E1,1.3223867E1,3.787054E0,3.1676407E0,5.1493964E0,1.544447E0,0E0,0E0,3.1928406E0,5.1299405E-1,3.2167184E0,0E0,1.9382262E0,0E0,9.224396E-1,0E0,0E0,0E0,0E0,0E0,5.316102E-1,0E0,0E0,0E0,0E0],"parents":[2147483647,0,0,1,1,2,2,3,3,4,4,5,5,8,8,9,9,10,10,12,12,14,14,20,20],"right_children":[2,4,6,8,10,12,-1,-1,14,16,18,-1,20,-1,22,-1,-1,-1,-1,-1,24,-1,-1,-1,-1],"split_conditions":[1.205E2,6.65E1,1.365E2,3E1,8.45E1,8.55E1,1.7703748E-1,-1.082225E-1,1.985E2,4.15E1,1.445E2,-1.6956869E-1,1.255E2,-1.04024924E-1,1.08E2,-1.5910055E-1,3.33755E-2,2.7734354E-1,-1.1668017E-1,-1.391218E-1,4.55E1,2.9813045E-1,1.8480042E-2,-3.5961752E-4,2.3197597E-1],"split_indices":[2110,110,1220,2,220,2020,0,0,1211,1130,1021,0,1200,0,1012,0,0,0,0,0,202,0,0,0,0],"split_type":[0,0,0,0,0,0,0,0,0,0,0,0,0,0,0,0,0,0,0,0,0,0,0,0,0],"sum_hessian":[1.5927512E2,6.3763718E1,9.5511406E1,4.3945114E1,1.9818602E1,9.31824E1,2.329E0,1.5318727E0,4.2413242E1,1.2865648E1,6.9529533E0,8.641252E1,6.769884E0,1.457698E0,4.0955544E1,1.1830869E1,1.03478E0,4.89744E0,2.0555131E0,3.9779713E0,2.7919128E0,3.9725124E1,1.2304192E0,1.4049639E0,1.3869488E0],"tree_param":{"num_deleted":"0","num_feature":"3333","num_nodes":"25","size_leaf_vector":"0"}},{"base_weights":[-6.1843693E-2,-3.6151943E-1,4.328841E-1,-4.2625022E-1,5.4878217E-1,-2.3297042E-1,6.3563985E-1,-1.4674419E-1,-5.4378027E-1,7.029053E-1,-1.2101526E-2,-4.3542752E-1,3.0832982E-1,7.452333E-1,-4.339841E-1,3.8256726E-1,-4.8153082E-1,-5.0328654E-1,6.9213204E-2,-3.0845878E-1,6.656423E-1,7.7803457E-1,-7.0005484E-2,-3.8681844E-1,6.0932213E-1,5.0242014E-2,-5.2017134E-1,1.8814994E-1,7.9678166E-1,-2.8231386E-2,7.441127E-1,2.512461E-1,8.119201E-1,-7.4786777E-3,8.949544E-1],"categories":[],"categories_nodes":[],"categories_segments":[],"categories_sizes":[],"default_left":[1,1,1,1,1,1,1,1,0,0,0,1,1,1,0,1,1,0,0,0,0,1,0,0,1,0,0,0,1,0,1,0,0,0,0],"id":15,"left_children":[1,3,5,7,9,11,13,15,-1,-1,-1,17,19,21,-1,23,25,-1,-1,-1,-1,27,-1,-1,29,-1,-1,-1,31,-1,33,-1,-1,-1,-1],"loss_changes":[2.0701313E1,5.351201E0,7.266967E0,2.6021729E0,5.446943E-1,1.5633489E0,5.093231E0,4.709565E0,0E0,0E0,0E0,3.740325E-1,1.116651E0,1.0512676E0,0E0,2.0590672E0,3.5666442E-1,0E0,0E0,0E0,0E0,2.472763E-1,0E0,0E0,7.4808145E-1,0E0,0E0,0E0,8.0942154E-2,0E0,8.026297E-1,0E0,0E0,0E0,0E0],"parents":[2147483647,0,0,1,1,2,2,3,3,4,4,5,5,6,6,7,7,11,11,12,12,13,13,15,15,16,16,21,21,24,24,28,28,30,30],"right_children":[2,4,6,8,10,12,14,16,-1,-1,-1,18,20,22,-1,24,26,-1,-1,-1,-1,28,-1,-1,30,-1,-1,-1,32,-1,34,-1,-1,-1,-1],"split_conditions":[7.75E1,1.335E2,1.345E2,9.05E1,8.4E1,7.9E1,1.185E2,1.645E2,-1.6313408E-1,2.1087159E-1,-3.6304581E-3,1.22E2,5.75E1,7.65E1,-1.3019523E-1,9.85E1,1.45E1,-1.5098597E-1,2.0763962E-2,-9.2537634E-2,1.9969271E-1,1.43E2,-2.1001646E-2,-1.16045535E-1,7.15E1,1.5072605E-2,-1.5605141E-1,5.6444984E-2,9.4E1,-8.469416E-3,3.35E1,7.537383E-2,2.4357603E-1,-2.2436033E-3,2.6848632E-1],"split_indices":[2010,1102,2110,2200,310,1001,2000,1202,0,0,0,1022,102,2320,0,1102,131,0,0,0,0,3120,0,0,2310,0,0,0,211,0,3,0,0,0,0],"split_type":[0,0,0,0,0,0,0,0,0,0,0,0,0,0,0,0,0,0,0,0,0,0,0,0,0,0,0,0,0,0,0,0,0,0,0],"sum_hessian":[1.3757484E2,8.5844666E1,5.1730175E1,8.064203E1,5.20264E0,1.2040356E1,3.968982E1,2.4537155E1,5.6104874E1,3.8825567E0,1.3200834E0,8.905216E0,3.1351392E0,3.627624E1,3.4135792E0,9.451393E0,1.5085762E1,7.852037E0,1.0531791E0,1.200161E0,1.9349782E0,3.4916985E1,1.3592569E0,1.9907688E0,7.4606247E0,1.0015903E0,1.4084172E1,1.4154495E0,3.3501534E1,1.4400074E0,6.020617E0,1.3796717E0,3.212186E1,1.1652088E0,4.855408E0],"tree_param":{"num_deleted":"0","num_feature":"3333","num_nodes":"35","size_leaf_vector":"0"}},{"base_weights":[2.1792662E-1,6.8383205E-1,-5.33602E-1,7.519804E-1,-3.3312865E-2,-5.474173E-1,1.6937813E-1,7.713794E-1,-3.381364E-1,-4.8621488E-1,7.7571726E-1,7.79767E-1,2.5487829E-2,7.898208E-1,3.0261424E-1,3.7940595E-1,7.9926425E-1,-1.2507214E-2,4.571547E-1,5.177504E-1,1.4890102E-3],"categories":[],"categories_nodes":[],"categories_segments":[],"categories_sizes":[],"default_left":[1,1,1,1,0,0,0,1,0,0,0,1,0,1,1,1,0,0,0,0,0],"id":16,"left_children":[1,3,5,7,9,-1,-1,11,-1,-1,-1,13,-1,15,17,19,-1,-1,-1,-1,-1],"loss_changes":[5.877801E1,5.079502E0,7.1821785E-1,2.2590141E0,4.016579E0,0E0,0E0,5.628357E-1,0E0,0E0,0E0,2.0267868E-1,0E0,4.383087E-2,1.7719117E-1,2.0406461E-1,0E0,0E0,0E0,0E0,0E0],"parents":[2147483647,0,0,1,1,2,2,3,3,4,4,7,7,11,11,13,13,14,14,15,15],"right_children":[2,4,6,8,10,-1,-1,12,-1,-1,-1,14,-1,16,18,20,-1,-1,-1,-1,-1],"split_conditions":[1.075E2,6.65E1,4.2E1,6.55E1,3.4E1,-1.6422519E-1,5.081344E-2,3.02E2,-1.0144093E-1,-1.4586447E-1,2.3271519E-1,1.48E2,7.646349E-3,4.95E1,1.255E2,8.4E1,2.3977928E-1,-3.7521643E-3,1.3714641E-1,1.5532511E-1,4.4670308E-4],"split_indices":[1202,2020,301,2201,3030,0,0,1221,0,0,0,1120,0,2030,21,1,0,0,0,0,0],"split_type":[0,0,0,0,0,0,0,0,0,0,0,0,0,0,0,0,0,0,0,0,0],"sum_hessian":[1.6582727E2,1.0242168E2,6.3405594E1,9.348909E1,8.93259E0,6.2400566E1,1.0050298E0,9.214178E1,1.3473083E0,5.982532E0,2.9500577E0,9.107226E1,1.0695231E0,8.855117E1,2.5210867E0,2.917845E0,8.563332E1,1.1319697E0,1.3891169E0,1.8650815E0,1.0527636E0],"tree_param":{"num_deleted":"0","num_feature":"3333","num_nodes":"21","size_leaf_vector":"0"}},{"base_weights":[-7.4626066E-2,-5.453185E-1,1.8386775E-1,5.5732155E-1,-3.9002883E-1,6.5724766E-1,-4.6613514E-1,5.53604E-1,-5.157509E-1,-3.8793167E-1,7.140378E-1,-5.3737867E-1,7.1778044E-2,-3.5447186E-1,7.5603753E-1,7.869076E-1,-6.258602E-2,1.7514955E-1,8.065734E-1,2.1367332E-1,8.1980014E-1],"categories":[],"categories_nodes":[],"categories_segments":[],"categories_sizes":[],"default_left":[1,0,1,1,1,1,0,0,1,0,1,0,0,0,1,1,0,0,1,0,0],"id":17,"left_children":[1,-1,3,5,7,9,-1,-1,11,-1,13,-1,-1,-1,15,17,-1,-1,19,-1,-1],"loss_changes":[1.6896431E1,0E0,1.9475838E1,5.9154873E0,4.557661E0,3.2674942E0,0E0,0E0,4.4893742E-1,0E0,2.4282913E0,0E0,0E0,0E0,1.2278042E0,4.0029907E-1,0E0,0E0,1.6468048E-1,0E0,0E0],"parents":[2147483647,0,0,2,2,3,3,4,4,5,5,8,8,10,10,14,14,15,15,18,18],"right_children":[2,-1,4,6,8,10,-1,-1,12,-1,14,-1,-1,-1,16,18,-1,-1,20,-1,-1],"split_conditions":[9.55E1,-1.6359556E-1,1.165E2,7.3E1,2.95E1,9.55E1,-1.3984054E-1,1.660812E-1,8.5E1,-1.1637951E-1,1.15E1,-1.612136E-1,2.1533415E-2,-1.0634156E-1,2.05E1,1.075E2,-1.8775806E-2,5.2544866E-2,1.05E1,6.4102E-2,2.4594004E-1],"split_indices":[2000,0,21,2201,302,1231,0,0,213,0,2330,0,0,0,230,1231,0,0,330,0,0],"split_type":[0,0,0,0,0,0,0,0,0,0,0,0,0,0,0,0,0,0,0,0,0],"sum_hessian":[1.3704567E2,4.8188835E1,8.8856834E1,5.384619E1,3.5010647E1,4.9382504E1,4.4636884E0,3.7160044E0,3.1294641E1,2.244433E0,4.713807E1,3.026587E1,1.0287714E0,1.5013955E0,4.5636673E1,4.40156E1,1.6210743E0,1.6794057E0,4.2336193E1,1.2981967E0,4.1038E1],"tree_param":{"num_deleted":"0","num_feature":"3333","num_nodes":"21","size_leaf_vector":"0"}},{"base_weights":[-6.263416E-2,5.818703E-1,-4.838887E-1,7.2927076E-1,-1.912224E-1,-5.369493E-1,5.1232383E-2,7.689775E-1,-1.1189856E-1,-4.8835826E-1,5.6543845E-1,-5.471803E-1,1.0945641E-1,4.5338938E-1,-4.425657E-1,1.0108952E-1,7.957656E-1,-7.735116E-2,7.3651767E-1,9.441399E-2,8.1167924E-1,2.3773497E-1,8.235998E-1],"categories":[],"categories_nodes":[],"categories_segments":[],"categories_sizes":[],"default_left":[1,1,1,1,1,1,1,1,0,0,0,0,0,1,0,0,1,0,0,0,1,0,0],"id":18,"left_children":[1,3,5,7,9,11,13,15,-1,-1,-1,-1,-1,17,-1,-1,19,-1,-1,-1,21,-1,-1],"loss_changes":[3.7759033E1,6.4086895E0,2.4132442E0,1.636261E0,2.434962E0,5.6601524E-1,1.8871745E0,7.147999E-1,0E0,0E0,0E0,0E0,0E0,8.3455265E-1,0E0,0E0,3.9870262E-1,0E0,0E0,0E0,8.821869E-2,0E0,0E0],"parents":[2147483647,0,0,1,1,2,2,3,3,4,4,5,5,6,6,7,7,13,13,16,16,20,20],"right_children":[2,4,6,8,10,12,14,16,-1,-1,-1,-1,-1,18,-1,-1,20,-1,-1,-1,22,-1,-1],"split_conditions":[7.55E1,1.425E2,3.85E1,1.5E2,1.35E2,6.05E1,4.05E1,2.33E2,-3.3569567E-2,-1.4650749E-1,1.6963154E-1,-1.641541E-1,3.2836925E-2,6.85E1,-1.3276972E-1,3.0326858E-2,5.2E1,-2.320535E-2,2.2095531E-1,2.8324198E-2,3.25E1,7.13205E-2,2.4707995E-1],"split_indices":[2000,2110,131,1331,2021,1230,2230,1212,0,0,0,0,0,20,0,0,110,0,0,0,1110,0,0],"split_type":[0,0,0,0,0,0,0,0,0,0,0,0,0,0,0,0,0,0,0,0,0,0,0],"sum_hessian":[1.3703836E2,5.401541E1,8.302295E1,4.541342E1,8.601989E0,7.5530235E1,7.492713E0,4.3448303E1,1.9651202E0,6.4311175E0,2.1708713E0,7.450452E1,1.0257198E0,4.174647E0,3.3180661E0,1.8595343E0,4.1588768E1,1.7051122E0,2.4695346E0,1.076529E0,4.0512238E1,1.2504355E0,3.9261803E1],"tree_param":{"num_deleted":"0","num_feature":"3333","num_nodes":"23","size_leaf_vector":"0"}},{"base_weights":[-6.410158E-2,4.7243142E-1,-4.7162452E-1,7.0677143E-1,-9.843521E-2,-5.24499E-1,2.030419E-1,-3.2632524E-1,7.4711263E-1,-4.4723994E-1,4.5606068E-1,-5.3603286E-1,3.15196E-2,6.3898504E-1,-4.0825418E-1,-3.1784505E-1,7.885174E-1,9.361103E-2,-5.089034E-1,7.560602E-1,-3.557879E-1,-3.057659E-2,-5.469146E-1,8.095301E-1,5.6419447E-2],"categories":[],"categories_nodes":[],"categories_segments":[],"categories_sizes":[],"default_left":[1,1,1,1,1,1,1,0,1,1,1,1,0,0,0,0,1,0,0,0,0,0,0,0,0],"id":19,"left_children":[1,3,5,7,9,11,13,-1,15,17,19,21,-1,-1,-1,-1,23,-1,-1,-1,-1,-1,-1,-1,-1],"loss_changes":[3.0370476E1,8.098741E0,2.919714E0,2.022297E0,3.752122E0,4.876747E-1,1.9803364E0,0E0,2.074995E0,4.4004893E-1,2.1148958E0,3.791504E-1,0E0,0E0,0E0,0E0,5.713997E-1,0E0,0E0,0E0,0E0,0E0,0E0,0E0,0E0],"parents":[2147483647,0,0,1,1,2,2,3,3,4,4,5,5,6,6,8,8,9,9,10,10,11,11,16,16],"right_children":[2,4,6,8,10,12,14,-1,16,18,20,22,-1,-1,-1,-1,24,-1,-1,-1,-1,-1,-1,-1,-1],"split_conditions":[1.205E2,6.65E1,1.295E2,3E1,8.45E1,2.3E1,5.35E1,-9.7897574E-2,1.985E2,5.25E1,1.445E2,4.25E1,9.45588E-3,1.9169553E-1,-1.2247626E-1,-9.535352E-2,1.08E2,2.8083311E-2,-1.5267102E-1,2.2681807E-1,-1.0673638E-1,-9.172978E-3,-1.6407438E-1,2.4285904E-1,1.6925834E-2],"split_indices":[2110,110,1220,2,220,1302,3100,0,1211,2320,1021,1100,0,0,0,0,1012,0,0,0,0,0,0,0,0],"split_type":[0,0,0,0,0,0,0,0,0,0,0,0,0,0,0,0,0,0,0,0,0,0,0,0,0],"sum_hessian":[1.3688124E2,5.9019108E1,7.786213E1,4.167394E1,1.7345167E1,7.240986E1,5.4522724E0,1.2997417E0,4.0374195E1,1.0766161E1,6.5790067E0,7.097355E1,1.4363068E0,3.1561687E0,2.2961035E0,1.2611107E0,3.9113087E1,1.0488228E0,9.717339E0,4.854031E0,1.7249751E0,1.5760485E0,6.93975E1,3.791897E1,1.194117E0],"tree_param":{"num_deleted":"0","num_feature":"3333","num_nodes":"25","size_leaf_vector":"0"}},{"base_weights":[-5.5373523E-2,-3.377032E-1,3.7712967E-1,-4.0357676E-1,4.7289282E-1,-1.4504379E-1,5.75389E-1,-1.2984756E-1,-5.285817E-1,6.0444003E-1,-8.69625E-3,-2.948262E-1,3.4832543E-1,-3.858201E-1,6.577303E-1,3.1540754E-1,-4.572971E-1,1.1600032E-1,-4.855836E-1,5.3791976E-1,-1.9169297E-2,6.9085956E-1,-6.759729E-2,4.9981207E-1,-3.6797723E-1,2.6834846E-2,-4.994991E-1,-3.2785285E-1,4.818677E-1,7.0812595E-1,1.581841E-1,6.978806E-1,-3.1314752E-1,2.1790332E-1,7.523671E-1],"categories":[],"categories_nodes":[],"categories_segments":[],"categories_sizes":[],"default_left":[1,1,1,1,1,1,1,1,0,0,0,1,1,0,1,1,1,1,0,0,0,1,0,1,0,0,0,0,0,0,0,1,0,0,0],"id":20,"left_children":[1,3,5,7,9,11,13,15,-1,-1,-1,17,19,-1,21,23,25,27,-1,-1,-1,29,-1,31,-1,-1,-1,-1,-1,-1,-1,33,-1,-1,-1],"loss_changes":[1.4400511E1,3.995389E0,4.9117765E0,2.2045975E0,3.7367654E-1,1.1101793E0,2.9451952E0,3.3741477E0,0E0,0E0,0E0,9.183748E-1,2.6347348E-1,0E0,8.0824375E-1,1.4415553E0,2.8255725E-1,8.5548097E-1,0E0,0E0,0E0,1.6755676E-1,0E0,1.5522935E0,0E0,0E0,0E0,0E0,0E0,0E0,0E0,1.834035E-2,0E0,0E0,0E0],"parents":[2147483647,0,0,1,1,2,2,3,3,4,4,5,5,6,6,7,7,11,11,12,12,14,14,15,15,16,16,17,17,21,21,23,23,31,31],"right_children":[2,4,6,8,10,12,14,16,-1,-1,-1,18,20,-1,22,24,26,28,-1,-1,-1,30,-1,32,-1,-1,-1,-1,-1,-1,-1,34,-1,-1,-1],"split_conditions":[7.75E1,1.335E2,1.405E2,9.05E1,8.4E1,8.9E1,1.3E2,1.645E2,-1.585745E-1,1.8133202E-1,-2.608875E-3,5.8E1,1.065E2,-1.1574603E-1,7.65E1,4.3E1,6.05E1,3.95E1,-1.456751E-1,1.6137594E-1,-5.7507893E-3,8.25E1,-2.0279188E-2,1.205E2,-1.10393174E-1,8.050454E-3,-1.4984974E-1,-9.835586E-2,1.4456032E-1,2.124378E-1,4.7455233E-2,6.95E1,-9.394426E-2,6.5371E-2,2.2571014E-1],"split_indices":[2010,1102,2110,2200,310,210,1201,1202,0,0,0,20,221,0,2320,232,1311,1,0,0,0,1101,0,2111,0,0,0,0,0,0,0,1320,0,0,0],"split_type":[0,0,0,0,0,0,0,0,0,0,0,0,0,0,0,0,0,0,0,0,0,0,0,0,0,0,0,0,0,0,0,0,0,0,0],"sum_hessian":[1.1588911E2,7.025028E1,4.563883E1,6.543481E1,4.8154745E0,1.2633433E1,3.3005394E1,2.1153254E1,4.428155E1,3.581959E0,1.2335155E0,9.999959E0,2.6334739E0,2.3134727E0,3.0691921E1,8.979712E0,1.2173541E1,3.2951736E0,6.704786E0,1.4313023E0,1.2021716E0,2.9396748E1,1.2951741E0,7.2830706E0,1.6966407E0,1.0052842E0,1.1168257E1,1.5358522E0,1.7593215E0,2.8154749E1,1.241998E0,5.9700823E0,1.3129883E0,1.1182771E0,4.851805E0],"tree_param":{"num_deleted":"0","num_feature":"3333","num_nodes":"35","size_leaf_vector":"0"}},{"base_weights":[1.959088E-1,5.9864724E-1,-5.162287E-1,6.705408E-2,6.7130375E-1,-5.3280747E-1,1.61109E-1,5.237173E-1,-3.6058483E-1,6.898741E-1,1.9055856E-2,1.4194544E-1,5.9615463E-1,1.0446259E-1,-4.586658E-1,6.9863427E-1,1.4289203E-1,3.5476273E-1,-3.1435102E-1],"categories":[],"categories_nodes":[],"categories_segments":[],"categories_sizes":[],"default_left":[1,1,1,1,1,0,0,1,1,1,1,0,0,0,0,0,0,0,0],"id":21,"left_children":[1,3,5,7,9,-1,-1,11,13,15,17,-1,-1,-1,-1,-1,-1,-1,-1],"loss_changes":[4.099923E1,3.4730797E0,6.6738605E-1,2.5446742E0,9.56131E-1,0E0,0E0,8.798456E-2,3.5907704E-1,2.7286148E-1,4.7457704E-1,0E0,0E0,0E0,0E0,0E0,0E0,0E0,0E0],"parents":[2147483647,0,0,1,1,2,2,3,3,4,4,7,7,8,8,9,9,10,10],"right_children":[2,4,6,8,10,-1,-1,12,14,16,18,-1,-1,-1,-1,-1,-1,-1,-1],"split_conditions":[1.075E2,1.105E2,8.35E1,1.075E2,6.25E1,-1.5984225E-1,4.8332702E-2,7.4E1,6.45E1,2.01E2,7.3E1,4.2583633E-2,1.7884639E-1,3.1338777E-2,-1.3759974E-1,2.0959029E-1,4.2867612E-2,1.06428824E-1,-9.4305314E-2],"split_indices":[1202,21,31,1231,2201,0,0,3210,1101,1122,12,0,0,0,0,0,0,0,0],"split_type":[0,0,0,0,0,0,0,0,0,0,0,0,0,0,0,0,0,0,0],"sum_hessian":[1.40874E2,9.008639E1,5.078761E1,1.1063426E1,7.902296E1,4.9782494E1,1.0051163E0,5.241504E0,5.8219223E0,7.677927E1,2.243695E0,1.3079071E0,3.9335968E0,1.0026809E0,4.8192415E0,7.529611E1,1.4831513E0,1.0860746E0,1.1576203E0],"tree_param":{"num_deleted":"0","num_feature":"3333","num_nodes":"19","size_leaf_vector":"0"}},{"base_weights":[-6.979017E-2,-5.3014547E-1,1.6759896E-1,-3.8256437E-1,4.7521716E-1,3.1422058E-1,-5.187047E-1,5.595765E-1,-4.350157E-1,5.816862E-1,-3.0281627E-1,6.19173E-1,-3.8948175E-1,6.5111786E-1,-3.2430798E-1,-9.017251E-2,6.766114E-1,6.998085E-1,-5.4157406E-2,1.6127174E-1,7.1417785E-1],"categories":[],"categories_nodes":[],"categories_segments":[],"categories_sizes":[],"default_left":[1,0,1,1,1,1,0,1,0,0,0,1,0,1,0,0,1,1,0,0,0],"id":22,"left_children":[1,-1,3,5,7,9,-1,11,-1,-1,-1,13,-1,15,-1,-1,17,19,-1,-1,-1],"loss_changes":[1.2728804E1,0E0,1.3225311E1,2.8374152E0,4.073369E0,1.0394309E0,0E0,2.847723E0,0E0,0E0,0E0,1.5296936E0,0E0,8.6697197E-1,0E0,0E0,7.3880196E-1,1.9549942E-1,0E0,0E0,0E0],"parents":[2147483647,0,0,2,2,3,3,4,4,5,5,7,7,11,11,13,13,16,16,17,17],"right_children":[2,-1,4,6,8,10,-1,12,-1,-1,-1,14,-1,16,-1,-1,18,20,-1,-1,-1],"split_conditions":[9.55E1,-1.5904364E-1,9.35E1,1.105E2,1.445E2,9.5E1,-1.5561143E-1,1.275E2,-1.3050471E-1,1.7450586E-1,-9.0844885E-2,3.35E1,-1.1684453E-1,4.2E1,-9.72924E-2,-2.7051752E-2,1.65E2,8.95E1,-1.6247222E-2,4.8381522E-2,2.1425337E-1],"split_indices":[2000,0,1202,21,1202,3200,0,2100,0,0,0,1301,0,1311,0,0,1201,1011,0,0,0],"split_type":[0,0,0,0,0,0,0,0,0,0,0,0,0,0,0,0,0,0,0,0,0],"sum_hessian":[1.1466218E2,3.8591206E1,7.607098E1,2.7193253E1,4.8877724E1,4.230895E0,2.2962358E1,4.508457E1,3.7931495E0,2.991477E0,1.2394181E0,4.2747803E1,2.3367717E0,4.1647552E1,1.1002474E0,1.3003234E0,4.034723E1,3.9146946E1,1.2002857E0,1.3350546E0,3.781189E1],"tree_param":{"num_deleted":"0","num_feature":"3333","num_nodes":"21","size_leaf_vector":"0"}},{"base_weights":[-5.517037E-2,5.0677836E-1,-4.627687E-1,6.315637E-1,-1.7046686E-1,-5.2039015E-1,4.472794E-2,6.6671E-1,-9.3596116E-2,-4.647914E-1,4.7546554E-1,-5.3244174E-1,9.809579E-2,3.9412913E-1,-4.1757354E-1,8.974849E-2,6.911964E-1,-2.875021E-1,6.543278E-1,7.0952904E-1,1.0443721E-1,2.0149428E-1,7.205967E-1],"categories":[],"categories_nodes":[],"categories_segments":[],"categories_sizes":[],"default_left":[1,1,1,1,1,1,1,1,0,0,0,0,0,1,0,0,1,0,0,1,0,0,0],"id":23,"left_children":[1,3,5,7,9,11,13,15,-1,-1,-1,-1,-1,17,-1,-1,19,-1,-1,21,-1,-1,-1],"loss_changes":[2.6825895E1,4.272627E0,2.0062532E0,1.1284637E0,1.8284656E0,5.067272E-1,1.4301722E0,5.033226E-1,0E0,0E0,0E0,0E0,0E0,1.0708194E0,0E0,0E0,3.372345E-1,0E0,0E0,6.2330246E-2,0E0,0E0,0E0],"parents":[2147483647,0,0,1,1,2,2,3,3,4,4,5,5,6,6,7,7,13,13,16,16,19,19],"right_children":[2,4,6,8,10,12,14,16,-1,-1,-1,-1,-1,18,-1,-1,20,-1,-1,22,-1,-1,-1],"split_conditions":[7.55E1,1.425E2,3.85E1,1.5E2,1.35E2,6.05E1,9.1E1,2.33E2,-2.8078835E-2,-1.3943742E-1,1.4263967E-1,-1.5973252E-1,2.9428737E-2,6.1E1,-1.2527207E-1,2.6924547E-2,1.32E2,-8.625063E-2,1.9629835E-1,6.4E1,3.1331163E-2,6.0448285E-2,2.1617901E-1],"split_indices":[2000,2110,131,1331,2021,1230,2000,1212,0,0,0,0,0,200,0,0,1131,0,0,210,0,0,0],"split_type":[0,0,0,0,0,0,0,0,0,0,0,0,0,0,0,0,0,0,0,0,0,0,0],"sum_hessian":[1.1509453E2,4.828353E1,6.681099E1,4.082821E1,7.4553237E0,5.9975887E1,6.835106E0,3.901774E1,1.8104699E0,5.3142667E0,2.141057E0,5.896602E1,1.009866E0,3.9768894E0,2.8582163E0,1.7784361E0,3.7239304E1,1.0697025E0,2.907187E0,3.5908157E1,1.3311449E0,1.1750678E0,3.473309E1],"tree_param":{"num_deleted":"0","num_feature":"3333","num_nodes":"23","size_leaf_vector":"0"}},{"base_weights":[-5.9138745E-2,3.7568444E-1,-4.877909E-1,5.996281E-1,-1.4708075E-1,-5.0849956E-1,3.003305E-1,-3.5092792E-1,6.500067E-1,-4.408636E-1,3.4256515E-1,-5.22671E-1,5.4717164E-2,6.924962E-1,-1.650763E-1,8.423012E-2,-4.9741265E-1,6.181635E-1,-3.4893277E-1,-5.360919E-3,-5.3322417E-1,2.1367535E-1,7.1041024E-1],"categories":[],"categories_nodes":[],"categories_segments":[],"categories_sizes":[],"default_left":[1,1,1,1,1,1,0,0,1,1,1,1,0,1,0,0,0,0,0,0,0,0,0],"id":24,"left_children":[1,3,5,7,9,11,-1,-1,13,15,17,19,-1,21,-1,-1,-1,-1,-1,-1,-1,-1,-1],"loss_changes":[2.1755863E1,6.8807697E0,1.1110649E0,2.1827593E0,2.7696795E0,4.882326E-1,0E0,0E0,1.4689121E0,3.927238E-1,1.6239021E0,3.0432415E-1,0E0,1.687336E-1,0E0,0E0,0E0,0E0,0E0,0E0,0E0,0E0,0E0],"parents":[2147483647,0,0,1,1,2,2,3,3,4,4,5,5,8,8,9,9,10,10,11,11,13,13],"right_children":[2,4,6,8,10,12,-1,-1,14,16,18,20,-1,22,-1,-1,-1,-1,-1,-1,-1,-1,-1],"split_conditions":[1.245E2,6.65E1,1.015E2,5.7E1,8.45E1,7.35E1,9.009915E-2,-1.0527838E-1,6.75E1,5.25E1,1.435E2,2.35E1,1.641515E-2,3.95E1,-4.952289E-2,2.5269037E-2,-1.492238E-1,1.8544906E-1,-1.0467984E-1,-1.6082758E-3,-1.5996726E-1,6.4102605E-2,2.1312308E-1],"split_indices":[2110,110,2020,2000,220,1310,0,0,332,2320,1021,1010,0,11,0,0,0,0,0,0,0,0,0],"split_type":[0,0,0,0,0,0,0,0,0,0,0,0,0,0,0,0,0,0,0,0,0,0,0],"sum_hessian":[1.1474039E2,5.7021526E1,5.771886E1,3.98174E1,1.7204123E1,5.6586784E1,1.1320767E0,1.7038053E0,3.8113598E1,1.0814908E1,6.3892136E0,5.526814E1,1.3186452E0,3.636816E1,1.7454369E0,1.0038662E0,9.811042E0,4.644276E0,1.7449374E0,1.1350856E0,5.4133053E1,1.7777927E0,3.459037E1],"tree_param":{"num_deleted":"0","num_feature":"3333","num_nodes":"23","size_leaf_vector":"0"}},{"base_weights":[-5.0212767E-2,-2.5136057E-1,4.656938E-1,-4.2566764E-1,1.6398744E-1,5.40381E-1,-3.5300377E-1,-5.033831E-1,-1.0953034E-1,-2.6749635E-1,3.515953E-1,6.2278163E-1,-3.4631607E-1,-5.179468E-1,-1.3545254E-1,2.6888824E-1,-3.6756602E-1,-4.4950724E-1,3.6566842E-1,5.543704E-1,-1.538518E-1,6.3808954E-1,1.5247823E-1,5.1202816E-1,-2.9286757E-1,7.471951E-2,-4.5515212E-1,6.084557E-1,4.562851E-2,-4.1031256E-1,3.67927E-1],"categories":[],"categories_nodes":[],"categories_segments":[],"categories_sizes":[],"default_left":[1,1,1,1,1,1,0,1,1,1,1,1,0,0,0,1,1,0,0,1,1,0,0,0,0,0,0,0,0,0,0],"id":25,"left_children":[1,3,5,7,9,11,-1,13,15,17,19,21,-1,-1,-1,23,25,-1,-1,27,29,-1,-1,-1,-1,-1,-1,-1,-1,-1,-1],"loss_changes":[1.01678E1,5.1617866E0,1.8734784E0,1.1688824E0,1.8355191E0,2.0871596E0,0E0,1.4263344E-1,1.183545E0,9.811141E-1,1.6663141E0,7.400322E-2,0E0,0E0,0E0,8.4398323E-1,3.0623627E-1,0E0,0E0,2.811365E-1,8.467286E-1,0E0,0E0,0E0,0E0,0E0,0E0,0E0,0E0,0E0,0E0],"parents":[2147483647,0,0,1,1,2,2,3,3,4,4,5,5,7,7,8,8,9,9,10,10,11,11,15,15,16,16,19,19,20,20],"right_children":[2,4,6,8,10,12,-1,14,16,18,20,22,-1,-1,-1,24,26,-1,-1,28,30,-1,-1,-1,-1,-1,-1,-1,-1,-1,-1],"split_conditions":[1.245E2,7.85E1,1.775E2,3.85E1,1.305E2,1.105E2,-1.0590114E-1,8.55E1,1.065E2,8.7E1,7.6E1,1.86E2,-1.0389482E-1,-1.5538403E-1,-4.0635765E-2,6.6E1,2.75E1,-1.3485217E-1,1.0970053E-1,1.03E2,1.35E1,1.9142687E-1,4.5743473E-2,1.5360846E-1,-8.786027E-2,2.2415854E-2,-1.3654564E-1,1.8253672E-1,1.3688554E-2,-1.2309378E-1,1.1037811E-1],"split_indices":[1102,2010,1202,231,2110,2000,0,203,1220,1100,3200,312,0,0,0,2,1230,0,0,2101,130,0,0,0,0,0,0,0,0,0,0],"split_type":[0,0,0,0,0,0,0,0,0,0,0,0,0,0,0,0,0,0,0,0,0,0,0,0,0,0,0,0,0,0,0],"sum_hessian":[9.585272E1,6.933309E1,2.6519632E1,4.8820137E1,2.0512957E1,2.4614115E1,1.905518E0,3.8711475E1,1.0108662E1,6.0871496E0,1.4425807E1,2.2793552E1,1.820563E0,3.684531E1,1.8661641E0,4.0812716E0,6.0273895E0,4.9533205E0,1.1338291E0,1.0226394E1,4.1994133E0,2.1729515E1,1.0640361E0,2.9101977E0,1.1710739E0,1.0205909E0,5.0067987E0,9.066515E0,1.1598787E0,2.958769E0,1.2406441E0],"tree_param":{"num_deleted":"0","num_feature":"3333","num_nodes":"31","size_leaf_vector":"0"}},{"base_weights":[1.7962244E-1,5.412546E-1,-5.0078285E-1,1.5569484E-1,6.271356E-1,-5.204103E-1,1.4278017E-1,5.340279E-1,-2.8650713E-1,6.355762E-1,9.943501E-2,9.781814E-2,5.893396E-1,-4.6422333E-1,2.951965E-1],"categories":[],"categories_nodes":[],"categories_segments":[],"categories_sizes":[],"default_left":[1,1,1,1,1,0,0,1,1,0,0,0,0,0,0],"id":26,"left_children":[1,3,5,7,9,-1,-1,11,13,-1,-1,-1,-1,-1,-1],"loss_changes":[2.9216066E1,2.4616585E0,5.965414E-1,2.7311301E0,2.168808E-1,0E0,0E0,1.5115237E-1,9.3885845E-1,0E0,0E0,0E0,0E0,0E0,0E0],"parents":[2147483647,0,0,1,1,2,2,3,3,4,4,7,7,8,8],"right_children":[2,4,6,8,10,-1,-1,12,14,-1,-1,-1,-1,-1,-1],"split_conditions":[1.075E2,1.165E2,5.55E1,1.075E2,2.6E1,-1.561231E-1,4.283405E-2,6.4E1,8.3E1,1.9067286E-1,2.9830504E-2,2.9345443E-2,1.7680189E-1,-1.39267E-1,8.855896E-2],"split_indices":[1202,21,23,1231,1302,0,0,31,3210,0,0,0,0,0,0],"split_type":[0,0,0,0,0,0,0,0,0,0,0,0,0,0,0],"sum_hessian":[1.1663569E2,7.6291595E1,4.03441E1,1.441024E1,6.188135E1,3.9335796E1,1.0083042E0,7.6540437E0,6.756196E0,6.0705933E1,1.1754199E0,1.1728649E0,6.4811788E0,5.3298373E0,1.4263588E0],"tree_param":{"num_deleted":"0","num_feature":"3333","num_nodes":"15","size_leaf_vector":"0"}},{"base_weights":[-6.69374E-2,-5.1728773E-1,1.5477104E-1,4.3418023E-1,-3.4721836E-1,5.110218E-1,-4.1075417E-1,-5.0445974E-1,3.0978388E-1,-3.2947075E-1,5.551789E-1,-1.4702603E-1,5.165299E-1,-3.0090046E-1,5.899027E-1,-1.2943709E-1,6.1766225E-1,6.3407767E-1,9.665104E-2,6.4690834E-1,1.071793E-1],"categories":[],"categories_nodes":[],"categories_segments":[],"categories_sizes":[],"default_left":[1,0,1,1,1,1,0,0,1,0,1,0,0,0,1,0,1,1,0,0,0],"id":27,"left_children":[1,-1,3,5,7,9,-1,-1,11,-1,13,-1,-1,-1,15,-1,17,19,-1,-1,-1],"loss_changes":[9.583186E0,0E0,9.204371E0,2.9310832E0,2.5981271E0,1.625289E0,0E0,0E0,5.655486E-1,0E0,1.2861834E0,0E0,0E0,0E0,8.024149E-1,0E0,2.3813438E-1,1.588974E-1,0E0,0E0,0E0],"parents":[2147483647,0,0,2,2,3,3,4,4,5,5,8,8,10,10,14,14,16,16,17,17],"right_children":[2,-1,4,6,8,10,-1,-1,12,-1,14,-1,-1,-1,16,-1,18,20,-1,-1,-1],"split_conditions":[9.55E1,-1.5518633E-1,1.165E2,7.3E1,1.025E2,9.55E1,-1.23226255E-1,-1.5133792E-1,7.35E1,-9.884123E-2,1.15E1,-4.410781E-2,1.5495898E-1,-9.027014E-2,1.125E2,-3.883113E-2,1.265E2,1.02E2,2.8995313E-2,1.9407251E-1,3.2153793E-2],"split_indices":[2000,0,21,2201,1202,1231,0,0,1320,0,2330,0,0,0,1031,0,2100,1320,0,0,0],"split_type":[0,0,0,0,0,0,0,0,0,0,0,0,0,0,0,0,0,0,0,0,0],"sum_hessian":[9.417738E1,3.0628782E1,6.35486E1,4.091194E1,2.2636658E1,3.7863667E1,3.048274E0,1.8452559E1,4.184099E0,1.5674391E0,3.6296227E1,1.3936517E0,2.7904472E0,1.1160356E0,3.518019E1,1.1710749E0,3.4009117E1,3.275994E1,1.249175E0,3.1758808E1,1.0011344E0],"tree_param":{"num_deleted":"0","num_feature":"3333","num_nodes":"21","size_leaf_vector":"0"}},{"base_weights":[-4.8175987E-2,4.4504216E-1,-4.5365497E-1,-1.3834885E-1,5.635398E-1,-4.865685E-1,3.265492E-1,2.5277165E-1,-4.34846E-1,6.098164E-1,4.2647023E-2,1.6942112E-1,-5.088708E-1,4.1890505E-1,-1.08513124E-1,2.7321631E-2,6.371002E-1,-3.516517E-1,4.7162774E-1,-5.21986E-1,-1.4181976E-2,6.56034E-1,1.4605215E-1],"categories":[],"categories_nodes":[],"categories_segments":[],"categories_sizes":[],"default_left":[1,1,1,1,1,1,0,1,0,1,1,0,1,0,0,0,1,0,0,0,0,0,0],"id":28,"left_children":[1,3,5,7,9,11,-1,13,-1,15,17,-1,19,-1,-1,-1,21,-1,-1,-1,-1,-1,-1],"loss_changes":[1.9425655E1,3.1110258E0,1.5262928E0,1.0620071E0,8.577919E-1,8.3959675E-1,0E0,2.9589844E-1,0E0,5.16551E-1,8.5371983E-1,0E0,3.1733322E-1,0E0,0E0,0E0,2.0216274E-1,0E0,0E0,0E0,0E0,0E0,0E0],"parents":[2147483647,0,0,1,1,2,2,3,3,4,4,5,5,7,7,9,9,10,10,12,12,16,16],"right_children":[2,4,6,8,10,12,-1,14,-1,16,18,-1,20,-1,-1,-1,22,-1,-1,-1,-1,-1,-1],"split_conditions":[7.75E1,1.215E2,9.6E1,4.35E1,1.315E2,7.05E1,9.796476E-2,1.375E2,-1.3045381E-1,7.85E1,5.9E1,5.0826337E-2,7.3E1,1.2567152E-1,-3.2553937E-2,8.19649E-3,1.585E2,-1.0549551E-1,1.4148833E-1,-1.5659581E-1,-4.254593E-3,1.968102E-1,4.3815646E-2],"split_indices":[2000,2021,213,102,1200,2200,0,212,0,1012,123,0,123,0,0,0,2210,0,0,0,0,0,0],"split_type":[0,0,0,0,0,0,0,0,0,0,0,0,0,0,0,0,0,0,0,0,0,0,0],"sum_hessian":[9.51238E1,4.2874443E1,5.224936E1,7.210074E0,3.566437E1,5.049552E1,1.7538368E0,3.1725364E0,4.0375376E0,3.2597652E1,3.066717E0,1.4433998E0,4.9052124E1,2.0639577E0,1.1085787E0,1.5480964E0,3.1049557E1,1.6918818E0,1.3748353E0,4.773148E1,1.3206433E0,2.9573288E1,1.4762697E0],"tree_param":{"num_deleted":"0","num_feature":"3333","num_nodes":"23","size_leaf_vector":"0"}},{"base_weights":[-5.51264E-2,3.374799E-1,-4.694954E-1,5.369817E-1,-1.3768813E-1,9.1843285E-2,-5.025443E-1,-3.6698468E-2,6.1400396E-1,-4.169329E-1,3.001564E-1,-2.9834905E-1,4.1593137E-1,-5.2031875E-1,6.8180695E-2,-3.8180378E-1,3.7303337E-1,9.4108395E-2,6.32278E-1,4.656161E-2,-4.7745624E-1,5.372868E-1,-3.196283E-1,1.097539E-1,6.46913E-1],"categories":[],"categories_nodes":[],"categories_segments":[],"categories_sizes":[],"default_left":[1,1,1,1,1,1,1,1,1,1,1,0,0,0,0,0,0,0,1,0,0,0,0,0,0],"id":29,"left_children":[1,3,5,7,9,11,13,15,17,19,21,-1,-1,-1,-1,-1,-1,-1,23,-1,-1,-1,-1,-1,-1],"loss_changes":[1.5695955E1,4.7780724E0,9.159298E-1,1.5758362E0,2.0165577E0,5.606605E-1,4.86207E-1,8.6422795E-1,2.3548222E-1,2.9894245E-1,1.1425464E0,0E0,0E0,0E0,0E0,0E0,0E0,0E0,1.5703392E-1,0E0,0E0,0E0,0E0,0E0,0E0],"parents":[2147483647,0,0,1,1,2,2,3,3,4,4,5,5,6,6,7,7,8,8,9,9,10,10,18,18],"right_children":[2,4,6,8,10,12,14,16,18,20,22,-1,-1,-1,-1,-1,-1,-1,24,-1,-1,-1,-1,-1,-1],"split_conditions":[1.245E2,6.65E1,3.45E1,1.215E2,8.45E1,3.7E1,2.3E1,1.08E2,3.75E1,5.5E1,1.435E2,-8.950472E-2,1.2477942E-1,-1.5609562E-1,2.045421E-2,-1.14541136E-1,1.11910015E-1,2.823252E-2,1.405E2,1.3968484E-2,-1.4323688E-1,1.6118605E-1,-9.5888495E-2,3.2926172E-2,1.940739E-1],"split_indices":[2110,110,10,1200,220,1,1302,2200,11,2320,1021,0,0,0,0,0,0,0,1120,0,0,0,0,0,0],"split_type":[0,0,0,0,0,0,0,0,0,0,0,0,0,0,0,0,0,0,0,0,0,0,0,0,0],"sum_hessian":[9.4507385E1,4.862332E1,4.5884064E1,3.4153645E1,1.4469678E1,2.452311E0,4.343175E1,4.104662E0,3.004898E1,8.864141E0,5.6055365E0,1.1487138E0,1.3035972E0,4.220563E1,1.2261192E0,2.2650433E0,1.8396188E0,1.2291671E0,2.8819815E1,1.0504398E0,7.8137016E0,4.150614E0,1.4549226E0,1.0167671E0,2.7803047E1],"tree_param":{"num_deleted":"0","num_feature":"3333","num_nodes":"25","size_leaf_vector":"0"}},{"base_weights":[-4.6069752E-2,-3.0082092E-1,3.1084105E-1,-2.6309568E-2,-4.8688272E-1,-1.8589863E-1,4.5971197E-1,-3.7429616E-1,3.4251255E-1,-5.0419444E-1,-1.1338185E-2,-3.7622538E-1,2.4099001E-1,5.3455716E-1,-3.43454E-1,1.792637E-1,-4.740999E-1,4.4660938E-1,-2.7819243E-1,-2.6995968E-2,-4.3787542E-1,3.6640492E-1,3.5669631E-3,5.669104E-1,-7.312825E-2,5.7089764E-1,-2.3975804E-2,5.844252E-1,9.452649E-2],"categories":[],"categories_nodes":[],"categories_segments":[],"categories_sizes":[],"default_left":[1,1,1,1,1,1,1,1,1,0,0,0,1,1,0,0,0,1,0,0,0,0,0,1,0,0,0,0,0],"id":30,"left_children":[1,3,5,7,9,11,13,15,17,-1,-1,19,21,23,-1,-1,-1,25,-1,-1,-1,-1,-1,27,-1,-1,-1,-1,-1],"loss_changes":[7.324877E0,2.3834858E0,2.5713894E0,2.6964223E0,2.2401857E-1,7.783216E-1,1.7557149E0,6.802119E-1,7.8565764E-1,0E0,0E0,1.2261683E-1,9.4555914E-2,5.194955E-1,0E0,0E0,0E0,5.4886234E-1,0E0,0E0,0E0,0E0,0E0,1.3670397E-1,0E0,0E0,0E0,0E0,0E0],"parents":[2147483647,0,0,1,1,2,2,3,3,4,4,5,5,6,6,7,7,8,8,11,11,12,12,13,13,17,17,23,23],"right_children":[2,4,6,8,10,12,14,16,18,-1,-1,20,22,24,-1,-1,-1,26,-1,-1,-1,-1,-1,28,-1,-1,-1,-1,-1],"split_conditions":[7.75E1,9.25E1,1.345E2,1.345E2,1.29E2,7.9E1,1.185E2,1.49E2,1.75E2,-1.5125833E-1,-3.4014555E-3,3E0,5.4E1,7.65E1,-1.030362E-1,5.377911E-2,-1.4222997E-1,1.45E1,-8.345773E-2,-8.09879E-3,-1.3136263E-1,1.0992148E-1,1.0700889E-3,8.25E1,-2.1938477E-2,1.712693E-1,-7.1927416E-3,1.7532757E-1,2.835795E-2],"split_indices":[2010,2200,2110,2110,1011,1001,2000,2031,1202,0,0,1302,201,2320,0,0,0,2330,0,0,0,0,0,1101,0,0,0,0,0],"split_type":[0,0,0,0,0,0,0,0,0,0,0,0,0,0,0,0,0,0,0,0,0,0,0,0,0,0,0,0,0],"sum_hessian":[7.85325E1,4.591619E1,3.261631E1,1.9010271E1,2.690592E1,7.463621E0,2.5152689E1,9.773785E0,9.236486E0,2.5902712E1,1.0032098E0,5.244196E0,2.2194254E0,2.3314503E1,1.8381865E0,1.3713658E0,8.402419E0,8.150129E0,1.0863566E0,1.002608E0,4.241588E0,1.0968003E0,1.122625E0,2.2199688E1,1.114816E0,6.278676E0,1.8714532E0,2.1177303E1,1.0223837E0],"tree_param":{"num_deleted":"0","num_feature":"3333","num_nodes":"29","size_leaf_vector":"0"}},{"base_weights":[1.672967E-1,5.0125015E-1,-4.8637125E-1,5.5420417E-1,-1.433463E-2,-5.0992215E-1,1.3187745E-1,5.7515657E-1,-8.9120224E-2,-4.1880155E-1,5.173229E-1,5.8752996E-1,8.47265E-2,1.6852951E-1,5.935124E-1,1.6949578E-1,5.9876597E-1],"categories":[],"categories_nodes":[],"categories_segments":[],"categories_sizes":[],"default_left":[1,1,1,1,0,0,0,1,0,0,0,1,0,0,1,0,0],"id":31,"left_children":[1,3,5,7,9,-1,-1,11,-1,-1,-1,13,-1,-1,15,-1,-1],"loss_changes":[2.1170925E1,1.753727E0,5.466261E-1,8.332176E-1,1.7069643E0,0E0,0E0,2.9196358E-1,0E0,0E0,0E0,3.7246704E-2,0E0,0E0,1.789856E-2,0E0,0E0],"parents":[2147483647,0,0,1,1,2,2,3,3,4,4,7,7,11,11,14,14],"right_children":[2,4,6,8,10,-1,-1,12,-1,-1,-1,14,-1,-1,16,-1,-1],"split_conditions":[1.075E2,6.65E1,6.95E1,6.15E1,3.4E1,-1.5297665E-1,3.956324E-2,2.875E2,-2.6736068E-2,-1.2564047E-1,1.5519688E-1,4.75E1,2.541795E-2,5.0558854E-2,1.45E1,5.0848734E-2,1.796298E-1],"split_indices":[1202,2020,2030,2201,3030,0,0,1221,0,0,0,2030,0,0,2130,0,0],"split_type":[0,0,0,0,0,0,0,0,0,0,0,0,0,0,0,0,0],"sum_hessian":[9.4866425E1,6.2942703E1,3.1923725E1,5.7012257E1,5.9304466E0,3.0921066E1,1.0026578E0,5.5316612E1,1.6956426E0,3.488663E0,2.441784E0,5.3762226E1,1.554389E0,1.1674405E0,5.2594784E1,1.0507593E0,5.1544025E1],"tree_param":{"num_deleted":"0","num_feature":"3333","num_nodes":"17","size_leaf_vector":"0"}},{"base_weights":[-6.6040136E-2,-5.058169E-1,1.4319883E-1,-3.7861034E-1,3.72079E-1,3.4181604E-1,-4.8900145E-1,-9.913539E-2,5.0806534E-1,-4.3801036E-1,2.7306992E-1,-1.2185518E-1,5.433584E-1,-1.2957181E-1,4.5138112E-1,5.672842E-1,4.311239E-2,5.859165E-1,9.189278E-2,1.6661553E-1,5.975519E-1],"categories":[],"categories_nodes":[],"categories_segments":[],"categories_sizes":[],"default_left":[1,0,1,1,1,0,0,1,1,0,1,0,1,0,0,1,0,1,0,0,0],"id":32,"left_children":[1,-1,3,5,7,-1,-1,9,11,-1,13,-1,15,-1,-1,17,-1,19,-1,-1,-1],"loss_changes":[7.196139E0,0E0,6.4990554E0,1.4974434E0,2.4539404E0,0E0,0E0,1.2847131E0,7.1699095E-1,0E0,4.1876498E-1,0E0,3.0950356E-1,0E0,0E0,1.8129921E-1,0E0,2.4160385E-2,0E0,0E0,0E0],"parents":[2147483647,0,0,2,2,3,3,4,4,7,7,8,8,10,10,12,12,15,15,17,17],"right_children":[2,-1,4,6,8,-1,-1,10,12,-1,14,-1,16,-1,-1,18,-1,20,-1,-1,-1],"split_conditions":[9.55E1,-1.5174507E-1,1.075E2,1.055E2,1.335E2,1.02544814E-1,-1.4670044E-1,6.85E1,1.15E1,-1.3140312E-1,3.15E1,-3.6556553E-2,3.15E1,-3.8871545E-2,1.3541435E-1,1.195E2,1.2933717E-2,5.85E1,2.7567836E-2,4.998466E-2,1.7926557E-1],"split_indices":[2000,0,1231,2100,1021,0,0,11,2330,0,2230,0,1301,0,0,21,0,1101,0,0,0],"split_type":[0,0,0,0,0,0,0,0,0,0,0,0,0,0,0,0,0,0,0,0,0],"sum_hessian":[7.6416084E1,2.4179144E1,5.223694E1,1.5727238E1,3.65097E1,1.8111347E0,1.3916103E1,8.237262E0,2.827244E1,4.21914E0,4.0181212E0,1.3698746E0,2.6902567E1,1.317173E0,2.7009485E0,2.5546703E1,1.3558629E0,2.4359476E1,1.1872262E0,1.0713471E0,2.328813E1],"tree_param":{"num_deleted":"0","num_feature":"3333","num_nodes":"21","size_leaf_vector":"0"}},{"base_weights":[-4.111765E-2,4.0713617E-1,-4.3391013E-1,5.1140493E-1,-1.5769935E-1,-4.7032562E-1,2.8684664E-1,5.4995906E-1,-1.0877388E-1,3.3728206E-1,-4.2445642E-1,1.5025538E-1,-4.9555168E-1,1.051609E-1,5.790752E-1,-5.121269E-1,8.111056E-3,-5.2084286E-2,2.1060953E-1,6.0349965E-1,1.4587775E-1],"categories":[],"categories_nodes":[],"categories_segments":[],"categories_sizes":[],"default_left":[1,1,1,1,1,1,0,1,0,0,0,0,1,1,1,0,0,0,0,0,0],"id":33,"left_children":[1,3,5,7,9,11,-1,13,-1,-1,-1,-1,15,17,19,-1,-1,-1,-1,-1,-1],"loss_changes":[1.4064771E1,2.280612E0,1.2510223E0,8.194294E-1,1.0126884E0,7.140751E-1,0E0,3.285942E-1,0E0,0E0,0E0,0E0,3.3386612E-1,6.186754E-2,2.0827293E-1,0E0,0E0,0E0,0E0,0E0,0E0],"parents":[2147483647,0,0,1,1,2,2,3,3,4,4,5,5,7,7,12,12,13,13,14,14],"right_children":[2,4,6,8,10,12,-1,14,-1,-1,-1,-1,16,18,20,-1,-1,-1,-1,-1,-1],"split_conditions":[7.75E1,1.435E2,9.6E1,1.5E2,6.25E1,7.05E1,8.6054E-2,2.33E2,-3.2632165E-2,1.0118462E-1,-1.2733693E-1,4.5076616E-2,9.35E1,4.9E1,9.55E1,-1.5363808E-1,2.4333168E-3,-1.5625287E-2,6.318286E-2,1.810499E-1,4.3763325E-2],"split_indices":[2000,2110,213,1331,2310,2200,0,1212,0,0,0,0,2201,3,1311,0,0,0,0,0,0],"split_type":[0,0,0,0,0,0,0,0,0,0,0,0,0,0,0,0,0,0,0,0,0],"sum_hessian":[7.787802E1,3.635419E1,4.152383E1,3.0768848E1,5.5853405E0,3.9857525E1,1.6663053E0,2.9074615E1,1.6942332E0,1.8633746E0,3.721966E0,1.3632839E0,3.849424E1,2.06961E0,2.7005007E1,3.725151E1,1.2427315E0,1.0339104E0,1.0356996E0,2.5191534E1,1.8134719E0],"tree_param":{"num_deleted":"0","num_feature":"3333","num_nodes":"21","size_leaf_vector":"0"}},{"base_weights":[-5.1597092E-2,3.081235E-1,-4.5359945E-1,-4.367339E-1,4.1349912E-1,-4.9636835E-1,2.8770978E-2,-4.2290786E-1,5.21834E-1,-5.0953144E-1,-3.398179E-2,-3.1307074E-1,3.2259467E-1,-1.4403297E-1,5.5212265E-1,-6.940048E-2,5.746647E-1,9.370773E-2,5.9500545E-1],"categories":[],"categories_nodes":[],"categories_segments":[],"categories_sizes":[],"default_left":[1,1,1,0,1,1,1,0,1,0,0,0,0,0,1,0,1,0,0],"id":34,"left_children":[1,3,5,-1,7,9,11,-1,13,-1,-1,-1,-1,-1,15,-1,17,-1,-1],"loss_changes":[1.1401509E1,3.453272E0,7.813592E-1,0E0,3.577108E0,1.9089317E-1,5.0008917E-1,0E0,7.499485E-1,0E0,0E0,0E0,0E0,0E0,4.8824692E-1,0E0,2.4741936E-1,0E0,0E0],"parents":[2147483647,0,0,1,1,2,2,4,4,5,5,6,6,8,8,14,14,16,16],"right_children":[2,4,6,-1,8,10,12,-1,14,-1,-1,-1,-1,-1,16,-1,18,-1,-1],"split_conditions":[1.245E2,5.85E1,8.65E1,-1.3102017E-1,1.13E2,1.515E2,4.55E1,-1.2687236E-1,7.55E1,-1.5285943E-1,-1.0194537E-2,-9.392123E-2,9.677841E-2,-4.320989E-2,7.45E1,-2.0820145E-2,4.85E1,2.811232E-2,1.7850164E-1],"split_indices":[2110,2000,2020,0,1202,1200,111,0,2200,0,0,0,0,0,22,0,222,0,0],"split_type":[0,0,0,0,0,0,0,0,0,0,0,0,0,0,0,0,0,0,0],"sum_hessian":[7.6877464E1,4.0695637E1,3.6181828E1,4.653982E0,3.6041653E1,3.3208416E1,2.973411E0,3.7999752E0,3.2241676E1,3.2190075E1,1.0183398E0,1.3441216E0,1.6292895E0,1.2393943E0,3.1002283E1,1.0123152E0,2.9989967E1,1.4443856E0,2.8545582E1],"tree_param":{"num_deleted":"0","num_feature":"3333","num_nodes":"19","size_leaf_vector":"0"}},{"base_weights":[-4.293665E-2,-2.2382435E-1,4.0694156E-1,-3.9232138E-1,1.3207081E-1,4.715713E-1,-2.896538E-1,-4.790338E-1,-9.1145016E-2,3.058341E-1,-1.9340289E-1,5.4256576E-1,-2.8422445E-1,-4.9749237E-1,-8.6669154E-2,-3.5568595E-1,2.1740118E-1,4.1666293E-1,-3.004511E-1,-4.183524E-1,1.7103106E-1,5.5721706E-1,1.5944098E-1,-9.038094E-2,-4.0050954E-1,-2.7315962E-1,4.5584467E-1,4.9932513E-1,-1.1674253E-1,2.4564286E-1,1.1827731E-2,1.0909448E-1,5.409472E-1],"categories":[],"categories_nodes":[],"categories_segments":[],"categories_sizes":[],"default_left":[1,1,1,1,1,1,0,1,1,1,1,1,0,0,0,1,1,1,0,0,1,0,0,0,0,0,0,1,0,0,0,0,0],"id":35,"left_children":[1,3,5,7,9,11,-1,13,15,17,19,21,-1,-1,-1,23,25,27,-1,-1,29,-1,-1,-1,-1,-1,-1,31,-1,-1,-1,-1,-1],"loss_changes":[5.3975625E0,2.8794696E0,9.944596E-1,7.986736E-1,9.5834523E-1,1.110256E0,0E0,1.3655853E-1,7.666608E-1,8.477143E-1,5.754373E-1,4.5132637E-3,0E0,0E0,0E0,2.2384286E-2,6.5311897E-1,4.7761226E-1,0E0,0E0,3.3392116E-2,0E0,0E0,0E0,0E0,0E0,0E0,7.7801466E-2,0E0,0E0,0E0,0E0,0E0],"parents":[2147483647,0,0,1,1,2,2,3,3,4,4,5,5,7,7,8,8,9,9,10,10,11,11,15,15,16,16,17,17,20,20,27,27],"right_children":[2,4,6,8,10,12,-1,14,16,18,20,22,-1,-1,-1,24,26,28,-1,-1,30,-1,-1,-1,-1,-1,-1,32,-1,-1,-1,-1,-1],"split_conditions":[1.245E2,7.85E1,1.775E2,3.85E1,6.55E1,1.105E2,-8.6896144E-2,8.55E1,9.05E1,7.5E1,3.4E1,1.835E2,-8.5267335E-2,-1.4924772E-1,-2.6000747E-2,4.85E1,1.75E1,8.95E1,-9.0135336E-2,-1.2550573E-1,1.1E2,1.6716513E-1,4.7832295E-2,-2.7114281E-2,-1.2015287E-1,-8.194789E-2,1.3675341E-1,1.9E1,-3.502276E-2,7.369286E-2,3.5483192E-3,3.2728344E-2,1.6228417E-1],"split_indices":[1102,2010,1202,231,2320,2000,0,203,1012,213,2130,312,0,0,0,1310,1330,320,0,0,1331,0,0,0,0,0,0,2130,0,0,0,0,0],"split_type":[0,0,0,0,0,0,0,0,0,0,0,0,0,0,0,0,0,0,0,0,0,0,0,0,0,0,0,0,0,0,0,0,0],"sum_hessian":[6.420823E1,4.6153313E1,1.8054916E1,3.1253927E1,1.4899387E1,1.681762E1,1.2372956E0,2.3808594E1,7.4453335E0,9.752879E0,5.146508E0,1.56314335E1,1.1861867E0,2.2482962E1,1.3256308E0,3.926261E0,3.5190725E0,8.510012E0,1.2428675E0,3.090762E0,2.0557463E0,1.4618017E1,1.0134163E0,1.003434E0,2.922827E0,1.1034006E0,2.4156718E0,7.423482E0,1.0865301E0,1.0300539E0,1.0256926E0,1.0644765E0,6.3590055E0],"tree_param":{"num_deleted":"0","num_feature":"3333","num_nodes":"33","size_leaf_vector":"0"}},{"base_weights":[1.5567814E-1,4.683216E-1,-4.7253802E-1,9.809929E-2,5.4398096E-1,-5.0021356E-1,1.1245713E-1,4.3022618E-1,-3.141843E-1,5.6346685E-1,-4.957878E-3,4.7774854E-1,9.69104E-2,1.8822337E-2,-4.0139E-1],"categories":[],"categories_nodes":[],"categories_segments":[],"categories_sizes":[],"default_left":[1,1,1,1,1,0,0,1,1,0,0,0,0,0,0],"id":36,"left_children":[1,3,5,7,9,-1,-1,11,13,-1,-1,-1,-1,-1,-1],"loss_changes":[1.542461E1,1.4084396E0,4.8075104E-1,1.5147978E0,4.6394253E-1,0E0,0E0,4.8775792E-2,1.5488076E-1,0E0,0E0,0E0,0E0,0E0,0E0],"parents":[2147483647,0,0,1,1,2,2,3,3,4,4,7,7,8,8],"right_children":[2,4,6,8,10,-1,-1,12,14,-1,-1,-1,-1,-1,-1],"split_conditions":[1.075E2,1.155E2,8.85E1,1.075E2,6.25E1,-1.5006408E-1,3.3737138E-2,6.85E1,9.45E1,1.6904005E-1,-1.4873635E-3,1.4332457E-1,2.9073121E-2,5.646701E-3,-1.20417E-1],"split_indices":[1202,21,203,1231,1311,0,0,2020,21,0,0,0,0,0,0],"split_type":[0,0,0,0,0,0,0,0,0,0,0,0,0,0,0],"sum_hessian":[7.6406906E1,5.118718E1,2.521973E1,9.075387E0,4.2111794E1,2.4218885E1,1.0008436E0,5.002201E0,4.0731864E0,4.064262E1,1.4691722E0,3.9987583E0,1.0034426E0,1.008034E0,3.0651524E0],"tree_param":{"num_deleted":"0","num_feature":"3333","num_nodes":"15","size_leaf_vector":"0"}},{"base_weights":[-5.9326086E-2,-4.951804E-1,1.4052531E-1,-3.791829E-1,3.4212148E-1,-4.751016E-1,2.817783E-1,-3.437459E-1,4.47308E-1,-3.988542E-1,-6.715467E-2,-1.6620763E-1,4.9114624E-1,-5.728163E-2,5.205046E-1,3.5620224E-2,5.432033E-1,5.577556E-1,1.740787E-1],"categories":[],"categories_nodes":[],"categories_segments":[],"categories_sizes":[],"default_left":[1,0,1,1,1,0,0,1,1,0,0,0,1,0,1,0,1,0,0],"id":37,"left_children":[1,-1,3,5,7,-1,-1,9,11,-1,-1,-1,13,-1,15,-1,17,-1,-1],"loss_changes":[5.5625167E0,0E0,4.7411757E0,9.4384325E-1,2.4795847E0,0E0,0E0,4.717517E-2,8.4509754E-1,0E0,0E0,0E0,4.60454E-1,0E0,2.611599E-1,0E0,3.330946E-2,0E0,0E0],"parents":[2147483647,0,0,2,2,3,3,4,4,7,7,8,8,12,12,14,14,16,16],"right_children":[2,-1,4,6,8,-1,-1,10,12,-1,-1,-1,14,-1,16,-1,18,-1,-1],"split_conditions":[9.55E1,-1.4855413E-1,5.65E1,1.265E2,8.85E1,-1.4253049E-1,8.45335E-2,1.21E2,1.15E1,-1.19656265E-1,-2.0146402E-2,-4.986229E-2,4.35E1,-1.7184488E-2,9.25E1,1.0686068E-2,1.22E2,1.6732669E-1,5.222361E-2],"split_indices":[2000,0,2020,1231,1011,0,0,2200,2330,0,0,0,201,0,1220,0,21,0,0],"split_type":[0,0,0,0,0,0,0,0,0,0,0,0,0,0,0,0,0,0,0],"sum_hessian":[6.2060238E1,1.9045757E1,4.301448E1,1.1775844E1,3.1238638E1,1.0529062E1,1.246782E0,3.8522336E0,2.7386404E1,2.8436306E0,1.008603E0,1.6402159E0,2.5746187E1,1.2598816E0,2.4486307E1,1.2099037E0,2.3276403E1,2.1901924E1,1.3744787E0],"tree_param":{"num_deleted":"0","num_feature":"3333","num_nodes":"19","size_leaf_vector":"0"}},{"base_weights":[-3.541366E-2,3.5346454E-1,-4.429907E-1,-2.9093146E-1,4.3390673E-1,-4.872672E-1,2.5373834E-1,-1.5584401E-2,-3.7012213E-1,9.946378E-2,5.156336E-1,-5.02576E-1,-2.0953014E-2,3.81407E-1,-2.926415E-1,5.5836964E-1,-4.2902645E-2,8.940369E-2,4.389848E-1,1.5224259E-1,5.8458126E-1],"categories":[],"categories_nodes":[],"categories_segments":[],"categories_sizes":[],"default_left":[1,1,1,1,1,1,0,0,0,1,1,0,0,1,0,1,0,0,0,0,0],"id":38,"left_children":[1,3,5,7,9,11,-1,-1,-1,13,15,-1,-1,17,-1,19,-1,-1,-1,-1,-1],"loss_changes":[1.0369934E1,1.8644152E0,1.1079159E0,8.842856E-2,7.744937E-1,2.0607615E-1,0E0,0E0,0E0,9.0448654E-1,5.9777975E-1,0E0,0E0,3.819692E-2,0E0,1.4948273E-1,0E0,0E0,0E0,0E0,0E0],"parents":[2147483647,0,0,1,1,2,2,3,3,4,4,5,5,9,9,10,10,13,13,15,15],"right_children":[2,4,6,8,10,12,-1,-1,-1,14,16,-1,-1,18,-1,20,-1,-1,-1,-1,-1],"split_conditions":[8.05E1,5.85E1,9.6E1,2.55E1,4.3E1,4.3E1,7.612151E-2,-4.6753203E-3,-1.1103664E-1,5.85E1,6.05E1,-1.5077281E-1,-6.2859044E-3,3.05E1,-8.779245E-2,9.85E1,-1.2870794E-2,2.6821109E-2,1.3169545E-1,4.5672778E-2,1.7537439E-1],"split_indices":[2000,1311,213,13,123,1130,0,0,0,2000,11,0,0,202,0,121,0,0,0,0,0],"split_type":[0,0,0,0,0,0,0,0,0,0,0,0,0,0,0,0,0,0,0,0,0],"sum_hessian":[6.3438446E1,3.2531857E1,3.0906591E1,3.3199751E0,2.9211882E1,2.9342535E1,1.5640557E0,1.0088801E0,2.311095E0,6.171966E0,2.3039915E1,2.8334568E1,1.0079677E0,3.6062074E0,2.5657585E0,2.1402605E1,1.6373097E0,1.0144113E0,2.5917962E0,1.710351E0,1.9692255E1],"tree_param":{"num_deleted":"0","num_feature":"3333","num_nodes":"21","size_leaf_vector":"0"}},{"base_weights":[-5.0987996E-2,2.824454E-1,-4.3815994E-1,4.5921567E-1,-1.3287799E-1,-4.8497623E-1,2.6331589E-2,-9.117643E-2,5.2388287E-1,-3.8141063E-1,2.4804722E-1,-6.104233E-2,-4.9987978E-1,2.8612304E-1,-2.894715E-1,2.2037742E-1,-3.149185E-1,5.425989E-1,9.2525035E-2,-9.8363515E-3,-4.4110918E-1,-1.6095264E-1,4.204643E-1,1.0204851E-1,5.595631E-1],"categories":[],"categories_nodes":[],"categories_segments":[],"categories_sizes":[],"default_left":[1,1,1,1,1,1,1,1,1,1,1,0,0,0,0,0,0,1,0,0,0,0,0,0,0],"id":39,"left_children":[1,3,5,7,9,11,13,15,17,19,21,-1,-1,-1,-1,-1,-1,23,-1,-1,-1,-1,-1,-1,-1],"loss_changes":[8.295725E0,2.6026437E0,6.5823555E-1,9.2006063E-1,1.1465265E0,1.4017725E-1,3.8361624E-1,3.083952E-1,1.2804985E-1,1.5355885E-1,4.197753E-1,0E0,0E0,0E0,0E0,0E0,0E0,9.951115E-2,0E0,0E0,0E0,0E0,0E0,0E0,0E0],"parents":[2147483647,0,0,1,1,2,2,3,3,4,4,5,5,6,6,7,7,8,8,9,9,10,10,17,17],"right_children":[2,4,6,8,10,12,14,16,18,20,22,-1,-1,-1,-1,-1,-1,24,-1,-1,-1,-1,-1,-1,-1],"split_conditions":[1.245E2,6.65E1,8.65E1,1.175E2,8.45E1,3.15E1,1.075E2,6.1E1,1.055E2,5.9E1,7.1E1,-1.83127E-2,-1.4996395E-1,8.583692E-2,-8.684146E-2,6.6113226E-2,-9.447555E-2,1.415E2,2.7757512E-2,-2.9509056E-3,-1.3233276E-1,-4.8285794E-2,1.261393E-1,3.0614553E-2,1.6786894E-1],"split_indices":[2110,110,2020,1331,220,3,2011,213,1012,2320,20,0,0,0,0,0,0,1201,0,0,0,0,0,0,0],"split_type":[0,0,0,0,0,0,0,0,0,0,0,0,0,0,0,0,0,0,0,0,0,0,0,0,0],"sum_hessian":[6.2301456E1,3.36191E1,2.8682358E1,2.3507948E1,1.0111152E1,2.6016085E1,2.6662726E0,2.4285207E0,2.1079428E1,6.1181335E0,3.9930182E0,1.0566039E0,2.495948E1,1.5144293E0,1.1518433E0,1.0213544E0,1.4071662E0,1.9955692E1,1.1237355E0,1.0081294E0,5.1100044E0,1.2038332E0,2.7891848E0,1.000066E0,1.8955626E1],"tree_param":{"num_deleted":"0","num_feature":"3333","num_nodes":"25","size_leaf_vector":"0"}},{"base_weights":[-4.080409E-2,1.7824043E-1,-3.750871E-1,-2.7867377E-1,4.1342017E-1,-4.588366E-1,1.1929487E-1,-4.1962397E-1,3.0879095E-1,4.6737903E-1,-1.09207265E-1,-4.8653254E-1,4.880855E-3,3.5444236E-1,-2.6760596E-1,-4.6544787E-1,-5.160689E-3,-7.716506E-2,5.09863E-1,5.392136E-1,7.5500235E-2],"categories":[],"categories_nodes":[],"categories_segments":[],"categories_sizes":[],"default_left":[1,1,1,1,1,1,1,1,0,1,0,0,0,0,0,0,0,0,1,0,0],"id":40,"left_children":[1,3,5,7,9,11,13,15,-1,17,-1,-1,-1,-1,-1,-1,-1,-1,19,-1,-1],"loss_changes":[3.9825704E0,3.6596618E0,9.445884E-1,1.1071432E0,6.764965E-1,2.4106169E-1,4.5030564E-1,1.8648314E-1,0E0,5.088053E-1,0E0,0E0,0E0,0E0,0E0,0E0,0E0,0E0,2.0095015E-1,0E0,0E0],"parents":[2147483647,0,0,1,1,2,2,3,3,4,4,5,5,6,6,7,7,9,9,18,18],"right_children":[2,4,6,8,10,12,14,16,-1,18,-1,-1,-1,-1,-1,-1,-1,-1,20,-1,-1],"split_conditions":[9.85E1,1.345E2,8.5E1,5.75E1,5.9E1,3.57E2,8.55E1,1.625E2,9.2637286E-2,9.2E1,-3.276218E-2,-1.4595976E-1,1.4642566E-3,1.0633271E-1,-8.0281794E-2,-1.3963437E-1,-1.5482068E-3,-2.3149518E-2,1.745E2,1.6176409E-1,2.265007E-2],"split_indices":[2200,2110,2010,102,123,1221,320,212,0,2011,0,0,0,0,0,0,0,0,1202,0,0],"split_type":[0,0,0,0,0,0,0,0,0,0,0,0,0,0,0,0,0,0,0,0,0],"sum_hessian":[5.247667E1,3.1984856E1,2.0491812E1,1.0805898E1,2.1178959E1,1.7584805E1,2.907008E0,8.945348E0,1.8605506E0,1.929278E1,1.8861775E0,1.65473E1,1.037504E0,1.8602769E0,1.0467309E0,7.9440265E0,1.0013208E0,1.337165E0,1.7955616E1,1.6593012E1,1.3626045E0],"tree_param":{"num_deleted":"0","num_feature":"3333","num_nodes":"21","size_leaf_vector":"0"}},{"base_weights":[1.4645147E-1,4.4295302E-1,-4.5825222E-1,-6.899131E-2,4.929819E-1,-4.906062E-1,9.383279E-2,-3.2392192E-1,3.3875448E-1,5.219678E-1,8.7294534E-2,1.4191328E-1,5.3770596E-1,-2.9156378E-1,3.865527E-1],"categories":[],"categories_nodes":[],"categories_segments":[],"categories_sizes":[],"default_left":[1,1,1,1,1,0,0,0,0,1,0,0,0,0,0],"id":41,"left_children":[1,3,5,7,9,-1,-1,-1,-1,11,13,-1,-1,-1,-1],"loss_changes":[1.13755865E1,1.1179304E0,4.2101717E-1,5.925404E-1,4.0923405E-1,0E0,0E0,0E0,0E0,1.3839912E-1,5.412578E-1,0E0,0E0,0E0,0E0],"parents":[2147483647,0,0,1,1,2,2,3,3,4,4,9,9,10,10],"right_children":[2,4,6,8,10,-1,-1,-1,-1,12,14,-1,-1,-1,-1],"split_conditions":[1.075E2,6.3E1,4.45E1,1.265E2,6.65E1,-1.4718187E-1,2.8149838E-2,-9.717658E-2,1.01626344E-1,1.55E1,3.4E1,4.2573985E-2,1.6131179E-1,-8.746914E-2,1.1596581E-1],"split_indices":[1202,3210,2230,21,2020,0,0,0,0,2130,3030,0,0,0,0],"split_type":[0,0,0,0,0,0,0,0,0,0,0,0,0,0,0],"sum_hessian":[6.131387E1,4.1320747E1,1.9993122E1,3.6447802E0,3.767597E1,1.8991516E1,1.0016067E0,2.3691316E0,1.2756485E0,3.4896057E1,2.7799122E0,1.7859094E0,3.3110146E1,1.238144E0,1.5417682E0],"tree_param":{"num_deleted":"0","num_feature":"3333","num_nodes":"15","size_leaf_vector":"0"}},{"base_weights":[-5.679504E-2,-4.845333E-1,1.33626E-1,-3.068209E-1,3.4034202E-1,2.0973359E-1,-4.6148527E-1,-3.5100368E-1,4.109767E-1,-6.1867855E-2,3.5563603E-1,-1.7045082E-1,4.6385127E-1,-1.1591549E-1,4.9817967E-1,5.2691317E-1,3.1779487E-2],"categories":[],"categories_nodes":[],"categories_segments":[],"categories_sizes":[],"default_left":[1,0,1,1,1,1,0,0,1,0,0,0,1,0,1,0,0],"id":42,"left_children":[1,-1,3,5,7,9,-1,-1,11,-1,-1,-1,13,-1,15,-1,-1],"loss_changes":[4.2409935E0,0E0,3.406058E0,1.0642014E0,1.3725934E0,1.5981467E-1,0E0,0E0,7.9483986E-1,0E0,0E0,0E0,4.8785257E-1,0E0,2.5920677E-1,0E0,0E0],"parents":[2147483647,0,0,2,2,3,3,4,4,5,5,8,8,12,12,14,14],"right_children":[2,-1,4,6,8,10,-1,-1,12,-1,-1,-1,14,-1,16,-1,-1],"split_conditions":[9.55E1,-1.4536E-1,9.35E1,1.105E2,1.105E2,1.075E2,-1.3844559E-1,-1.05301104E-1,1.15E1,-1.8560357E-2,1.0669082E-1,-5.113525E-2,5.2E1,-3.477465E-2,1.115E2,1.5807396E-1,9.533847E-3],"split_indices":[2000,0,1202,21,2110,1231,0,0,2330,0,0,0,2020,0,211,0,0],"split_type":[0,0,0,0,0,0,0,0,0,0,0,0,0,0,0,0,0],"sum_hessian":[5.0273525E1,1.5010733E1,3.526279E1,1.1108916E1,2.4153875E1,2.4777079E0,8.631208E0,1.8710885E0,2.2282785E1,1.0671475E0,1.4105604E0,1.6720994E0,2.0610687E1,1.0192956E0,1.959139E1,1.833225E1,1.2591399E0],"tree_param":{"num_deleted":"0","num_feature":"3333","num_nodes":"17","size_leaf_vector":"0"}},{"base_weights":[-2.9988281E-2,3.2634783E-1,-4.266445E-1,-1.328557E-1,4.4018015E-1,-4.7569907E-1,2.263835E-1,1.7655481E-1,-3.8970336E-1,7.936555E-2,5.0875723E-1,-3.798794E-2,-4.9343193E-1,-7.927689E-2,3.3313805E-1,3.3697513E-1,-3.1584206E-1,-1.4993811E-2,5.456633E-1],"categories":[],"categories_nodes":[],"categories_segments":[],"categories_sizes":[],"default_left":[1,1,1,1,1,1,0,1,0,1,1,0,0,0,0,0,0,0,0],"id":43,"left_children":[1,3,5,7,9,11,-1,13,-1,15,17,-1,-1,-1,-1,-1,-1,-1,-1],"loss_changes":[7.594625E0,1.540513E0,9.2118216E-1,5.7744145E-1,5.275364E-1,1.6709566E-1,0E0,1.7027335E-1,0E0,6.002499E-1,3.774066E-1,0E0,0E0,0E0,0E0,0E0,0E0,0E0,0E0],"parents":[2147483647,0,0,1,1,2,2,3,3,4,4,5,5,7,7,9,9,10,10],"right_children":[2,4,6,8,10,12,-1,14,-1,16,18,-1,-1,-1,-1,-1,-1,-1,-1],"split_conditions":[8.05E1,1.215E2,9.6E1,4.35E1,4.1E1,7.55E1,6.791505E-2,3.8E1,-1.1691102E-1,5.85E1,8E1,-1.1396382E-2,-1.4802958E-1,-2.3783067E-2,9.994142E-2,1.0109254E-1,-9.4752625E-2,-4.4981437E-3,1.63699E-1],"split_indices":[2000,2021,213,102,123,2200,0,3,0,2000,1012,0,0,0,0,0,0,0,0],"split_type":[0,0,0,0,0,0,0,0,0,0,0,0,0,0,0,0,0,0,0],"sum_hessian":[5.1746826E1,2.7352215E1,2.439461E1,5.4002604E0,2.1951954E1,2.2942732E1,1.4518784E0,2.5912864E0,2.808974E0,3.8504322E0,1.8101522E1,1.0156267E0,2.1927105E1,1.1712922E0,1.4199942E0,2.4202065E0,1.4302254E0,1.2306426E0,1.687088E1],"tree_param":{"num_deleted":"0","num_feature":"3333","num_nodes":"19","size_leaf_vector":"0"}},{"base_weights":[-4.7617223E-2,2.9484293E-1,-3.8664973E-1,-3.7069333E-1,3.7999365E-1,-4.51191E-1,1.3631177E-1,-3.4957507E-1,4.6276498E-1,-4.9121153E-1,-6.821917E-2,-1.7008962E-1,3.596593E-1,-6.620855E-2,4.9808708E-1,-3.0502355E-1,2.4842228E-1,8.000767E-2,5.2260864E-1,5.418968E-1,9.747359E-2],"categories":[],"categories_nodes":[],"categories_segments":[],"categories_sizes":[],"default_left":[1,1,1,0,1,1,1,0,1,0,1,0,0,0,1,0,0,0,1,0,0],"id":44,"left_children":[1,3,5,-1,7,9,11,-1,13,-1,15,-1,-1,-1,17,-1,-1,-1,19,-1,-1],"loss_changes":[6.0879087E0,1.6236126E0,9.488025E-1,0E0,1.5923622E0,3.286972E-1,3.113647E-1,0E0,4.3855572E-1,0E0,3.305042E-1,0E0,0E0,0E0,1.679964E-1,0E0,0E0,0E0,1.0421705E-1,0E0,0E0],"parents":[2147483647,0,0,1,1,2,2,4,4,5,5,6,6,8,8,10,10,14,14,18,18],"right_children":[2,4,6,-1,8,10,12,-1,14,-1,16,-1,-1,-1,18,-1,-1,-1,20,-1,-1],"split_conditions":[1.205E2,5.85E1,1.295E2,-1.11208E-1,1.13E2,8.55E1,5.85E1,-1.04872525E-1,6.75E1,-1.4736347E-1,3.25E1,-5.102689E-2,1.07897796E-1,-1.9862566E-2,4.95E1,-9.150707E-2,7.452669E-2,2.4002302E-2,5.75E1,1.6256905E-1,2.9242078E-2],"split_indices":[2110,2000,1220,0,1202,2020,2220,0,220,0,23,0,0,0,222,0,0,0,3,0,0],"split_type":[0,0,0,0,0,0,0,0,0,0,0,0,0,0,0,0,0,0,0,0,0],"sum_hessian":[5.0452576E1,2.5164253E1,2.5288324E1,2.4740162E0,2.2690237E1,2.2632387E1,2.6559372E0,1.9835256E0,2.070671E1,2.0235182E1,2.3972056E0,1.2203045E0,1.4356328E0,1.2414033E0,1.9465307E1,1.3924986E0,1.004707E0,1.3146113E0,1.8150696E1,1.710022E1,1.0504776E0],"tree_param":{"num_deleted":"0","num_feature":"3333","num_nodes":"21","size_leaf_vector":"0"}},{"base_weights":[-3.6937345E-2,1.66352E-1,-3.5950977E-1,-2.5865635E-1,3.8326585E-1,2.0641144E-1,-4.289191E-1,-3.9901263E-1,2.7021948E-1,4.387435E-1,-9.995632E-2,-4.7721708E-1,2.8881943E-2,-3.5203017E-2,-4.46254E-1,-6.661034E-2,4.8156404E-1,5.12759E-1,6.2087096E-2],"categories":[],"categories_nodes":[],"categories_segments":[],"categories_sizes":[],"default_left":[1,1,1,1,1,0,1,1,0,1,0,0,0,0,0,0,1,0,0],"id":45,"left_children":[1,3,5,7,9,-1,11,13,-1,15,-1,-1,-1,-1,-1,-1,17,-1,-1],"loss_changes":[2.9309504E0,2.6381779E0,7.658198E-1,8.4297866E-1,5.434959E-1,0E0,3.6056066E-1,1.2574458E-1,0E0,3.9786935E-1,0E0,0E0,0E0,0E0,0E0,0E0,1.736722E-1,0E0,0E0],"parents":[2147483647,0,0,1,1,2,2,3,3,4,4,6,6,7,7,9,9,16,16],"right_children":[2,4,6,8,10,-1,12,14,-1,16,-1,-1,-1,-1,-1,-1,18,-1,-1],"split_conditions":[9.85E1,1.345E2,4.7E1,5.75E1,5.9E1,6.1923433E-2,1.7E2,6.05E1,8.106585E-2,9.2E1,-2.9986897E-2,-1.4316513E-1,8.664583E-3,-1.0560906E-2,-1.338762E-1,-1.9983102E-2,1.745E2,1.538277E-1,1.862613E-2],"split_indices":[2200,2110,3210,102,123,0,1120,2201,0,2011,0,0,0,0,0,0,1202,0,0],"split_type":[0,0,0,0,0,0,0,0,0,0,0,0,0,0,0,0,0,0,0],"sum_hessian":[4.2783783E1,2.6541365E1,1.6242418E1,8.903644E0,1.763772E1,1.5588322E0,1.4683587E1,7.2303543E0,1.6732894E0,1.5903878E1,1.7338424E0,1.3243941E1,1.439646E0,1.0315417E0,6.1988125E0,1.1989309E0,1.4704947E1,1.3480105E1,1.2248421E0],"tree_param":{"num_deleted":"0","num_feature":"3333","num_nodes":"19","size_leaf_vector":"0"}},{"base_weights":[1.3753259E-1,4.056341E-1,-4.802474E-1,4.7062042E-1,-4.3139704E-2,4.9760494E-1,4.589806E-2,-3.7284628E-1,3.759115E-1,4.9437612E-2,5.144781E-1],"categories":[],"categories_nodes":[],"categories_segments":[],"categories_sizes":[],"default_left":[1,1,0,1,1,1,0,0,0,0,0],"id":46,"left_children":[1,3,-1,5,7,9,-1,-1,-1,-1,-1],"loss_changes":[8.484768E0,1.0540643E0,0E0,3.3298397E-1,8.861998E-1,1.9454622E-1,0E0,0E0,0E0,0E0,0E0],"parents":[2147483647,0,0,1,1,3,3,4,4,5,5],"right_children":[2,4,-1,6,8,10,-1,-1,-1,-1,-1],"split_conditions":[1.125E2,1.185E2,-1.4407423E-1,6.25E1,1.195E2,1.075E2,1.3769419E-2,-1.1185389E-1,1.12773456E-1,1.4831284E-2,1.5434343E-1],"split_indices":[1202,1231,0,1311,21,2100,0,0,0,0,0],"split_type":[0,0,0,0,0,0,0,0,0,0,0],"sum_hessian":[4.9051773E1,3.4446312E1,1.4605463E1,3.0046621E1,4.3996906E0,2.8090317E1,1.9563038E0,2.524048E0,1.8756427E0,1.1617962E0,2.6928522E1],"tree_param":{"num_deleted":"0","num_feature":"3333","num_nodes":"11","size_leaf_vector":"0"}},{"base_weights":[-5.46142E-2,-4.7334126E-1,1.2732047E-1,-3.208231E-1,3.0374938E-1,2.5779128E-1,-4.4514826E-1,-1.05614364E-1,4.2308456E-1,-3.7424257E-1,2.0669235E-1,4.7888392E-1,-1.3776188E-2,3.175011E-1,-2.3483586E-2,8.255369E-2,5.0575536E-1],"categories":[],"categories_nodes":[],"categories_segments":[],"categories_sizes":[],"default_left":[1,0,1,1,1,0,0,1,1,0,1,1,0,0,0,0,0],"id":47,"left_children":[1,-1,3,5,7,-1,-1,9,11,-1,13,15,-1,-1,-1,-1,-1],"loss_changes":[3.230649E0,0E0,2.4535437E0,7.552775E-1,1.1143E0,0E0,0E0,5.5910164E-1,4.247265E-1,0E0,9.1611356E-2,1.2053394E-1,0E0,0E0,0E0,0E0,0E0],"parents":[2147483647,0,0,2,2,3,3,4,4,7,7,8,8,10,10,11,11],"right_children":[2,-1,4,6,8,-1,-1,10,12,-1,14,16,-1,-1,-1,-1,-1],"split_conditions":[9.55E1,-1.4200239E-1,1.075E2,1.055E2,1.335E2,7.7337384E-2,-1.3354449E-1,6.85E1,1.075E2,-1.1227278E-1,1.005E2,7.55E1,-4.1328566E-3,9.525033E-2,-7.0450758E-3,2.4766108E-2,1.5172662E-1],"split_indices":[2000,0,1231,2100,1021,0,0,11,2011,0,322,2021,0,0,0,0,0],"split_type":[0,0,0,0,0,0,0,0,0,0,0,0,0,0,0,0,0],"sum_hessian":[4.0616467E1,1.1817195E1,2.8799273E1,7.9040146E0,2.0895258E1,1.2080723E0,6.6959424E0,4.742321E0,1.6152937E1,2.442826E0,2.2994952E0,1.4238133E1,1.9148026E0,1.2961383E0,1.0033568E0,1.1626242E0,1.307551E1],"tree_param":{"num_deleted":"0","num_feature":"3333","num_nodes":"17","size_leaf_vector":"0"}},{"base_weights":[-2.4879707E-2,2.860318E-1,-4.345714E-1,4.1835672E-1,-2.2435458E-1,1.5452655E-1,-4.8481852E-1,4.6168417E-1,-9.107083E-2,2.309473E-1,-4.064437E-1,5.0349855E-1,1.4266686E-1,2.929359E-1,-9.618987E-2],"categories":[],"categories_nodes":[],"categories_segments":[],"categories_sizes":[],"default_left":[1,1,0,1,1,0,0,1,0,0,0,0,1,0,0],"id":48,"left_children":[1,3,5,7,9,-1,-1,11,-1,-1,-1,-1,13,-1,-1],"loss_changes":[5.607309E0,1.7874131E0,6.3641596E-1,4.892788E-1,5.758554E-1,0E0,0E0,1.7946815E-1,0E0,0E0,0E0,0E0,1.5661925E-1,0E0,0E0],"parents":[2147483647,0,0,1,1,2,2,3,3,4,4,7,7,12,12],"right_children":[2,4,6,8,10,-1,-1,12,-1,-1,-1,-1,14,-1,-1],"split_conditions":[8.95E1,1.435E2,5E0,1.365E2,6.4E1,4.6357967E-2,-1.4544556E-1,8.35E1,-2.7321251E-2,6.928419E-2,-1.2193311E-1,1.5104957E-1,4.95E1,8.7880775E-2,-2.8856963E-2],"split_indices":[2200,2110,3030,1200,2310,0,0,2200,0,0,0,0,222,0,0],"split_type":[0,0,0,0,0,0,0,0,0,0,0,0,0,0,0],"sum_hessian":[4.2045216E1,2.4075989E1,1.7969227E1,1.9262283E1,4.813706E0,1.2491269E0,1.67201E1,1.783879E1,1.4234917E0,1.2985206E0,3.5151856E0,1.5260305E1,2.5784857E0,1.4437736E0,1.1347121E0],"tree_param":{"num_deleted":"0","num_feature":"3333","num_nodes":"15","size_leaf_vector":"0"}},{"base_weights":[-4.609077E-2,-4.5406792E-1,2.1852572E-1,-3.113559E-2,-4.7993103E-1,3.849072E-1,-1.5634152E-1,-3.772012E-2,4.5508543E-1,-3.6096388E-1,1.7509574E-1,-2.9343933E-1,2.3920375E-1,4.9729812E-1,-3.3475056E-2,-4.0801218E-1,-7.044157E-2,-1.7304832E-1,3.629289E-1,5.156533E-1,1.4933974E-1],"categories":[],"categories_nodes":[],"categories_segments":[],"categories_sizes":[],"default_left":[1,1,1,0,0,1,1,1,1,1,1,0,0,1,0,0,0,0,0,0,0],"id":49,"left_children":[1,3,5,-1,-1,7,9,11,13,15,17,-1,-1,19,-1,-1,-1,-1,-1,-1,-1],"loss_changes":[4.602711E0,1.6813064E-1,1.6804816E0,0E0,0E0,5.5938125E-1,6.530305E-1,3.1994447E-1,3.4156227E-1,4.9222708E-2,3.2392853E-1,0E0,0E0,1.6015291E-2,0E0,0E0,0E0,0E0,0E0,0E0,0E0],"parents":[2147483647,0,0,1,1,2,2,5,5,6,6,7,7,8,8,9,9,10,10,13,13],"right_children":[2,4,6,-1,-1,8,10,12,14,16,18,-1,-1,20,-1,-1,-1,-1,-1,-1,-1],"split_conditions":[7.35E1,4.35E1,6.65E1,-9.340677E-3,-1.4397931E-1,1.225E2,8.45E1,7.8E1,3.75E1,4.35E1,7.1E1,-8.80318E-2,7.176113E-2,7.45E1,-1.0042517E-2,-1.2240366E-1,-2.1132471E-2,-5.19145E-2,1.0887867E-1,1.54696E-1,4.480192E-2],"split_indices":[2020,1100,110,0,0,1200,220,2000,131,101,20,0,0,3110,0,0,0,0,0,0,0],"split_type":[0,0,0,0,0,0,0,0,0,0,0,0,0,0,0,0,0,0,0,0,0],"sum_hessian":[4.0715363E1,1.5736849E1,2.4978512E1,1.0338842E0,1.4702965E1,1.7281494E1,7.697018E0,2.5268452E0,1.4754649E1,4.703865E0,2.9931533E0,1.2827132E0,1.244132E0,1.3564742E1,1.1899076E0,3.700227E0,1.0036378E0,1.0765351E0,1.9166183E0,1.2427251E1,1.1374905E0],"tree_param":{"num_deleted":"0","num_feature":"3333","num_nodes":"21","size_leaf_vector":"0"}}]},"name":"gbtree"},"learner_model_param":{"base_score":"5E-1","num_class":"5","num_feature":"3333","num_target":"1"},"objective":{"name":"multi:softprob","softmax_multiclass_param":{"num_class":"5"}}},"version":[1,6,1]}