{"learner":{"attributes":{"best_iteration":"9","best_ntree_limit":"10"},"feature_names":[],"feature_types":[],"gradient_booster":{"model":{"gbtree_model_param":{"num_parallel_tree":"1","num_trees":"40","size_leaf_vector":"0"},"tree_info":[0,1,2,3,0,1,2,3,0,1,2,3,0,1,2,3,0,1,2,3,0,1,2,3,0,1,2,3,0,1,2,3,0,1,2,3,0,1,2,3],"trees":[{"base_weights":[-2.8462997E-1,1.5588236E0,-5.5531454E-1,1.8040817E0,-5.1428574E-1,-6.2211984E-1,4.827586E-1,-8.695652E-2,1.9304348E0,-6.353494E-1,4.8780486E-2,1.3548387E0,-4.516129E-1,-6.490702E-1,-0E0,1.0588236E0,-5E-1,1.6981132E0,-3.529412E-1,1.1764706E-1,-5.660377E-1,-1.4634146E-1,-6.5850675E-1,-5.1428574E-1,1.0588236E0,-5E-1,5.882353E-1,1.1764706E-1,-6.633846E-1],"categories":[],"categories_nodes":[],"categories_segments":[],"categories_sizes":[],"default_left":[1,0,1,1,0,1,1,0,0,1,1,1,1,1,1,0,0,0,0,0,0,1,1,0,0,0,0,0,0],"id":0,"left_children":[1,3,5,7,-1,9,11,-1,-1,13,15,17,19,21,23,-1,-1,-1,-1,-1,-1,25,27,-1,-1,-1,-1,-1,-1],"loss_changes":[1.3235066E2,1.8215004E1,1.6285225E1,7.485359E0,0E0,1.9570236E0,1.2427141E1,0E0,0E0,1.8557358E0,3.3701577E0,5.1426725E0,5.7140815E-1,8.9216614E-1,3.5394957E0,0E0,0E0,0E0,0E0,0E0,0E0,1.625538E0,8.513336E-1,0E0,0E0,0E0,0E0,0E0,0E0],"parents":[2147483647,0,0,1,1,2,2,3,3,5,5,6,6,9,9,10,10,11,11,12,12,13,13,14,14,21,21,22,22],"right_children":[2,4,6,8,-1,10,12,-1,-1,14,16,18,20,22,24,-1,-1,-1,-1,-1,-1,26,28,-1,-1,-1,-1,-1,-1],"split_conditions":[2.1E1,5.1E1,2.865E2,5.7E1,-1.5428573E-1,7.55E1,8.65E1,-2.6086958E-2,5.791305E-1,1.375E2,8.6E1,1.55E2,1.045E2,4.75E1,1.75E1,3.176471E-1,-1.5E-1,5.09434E-1,-1.0588236E-1,3.529412E-2,-1.6981132E-1,2.64E2,6E1,-1.5428573E-1,3.176471E-1,-1.5E-1,1.7647061E-1,3.529412E-2,-1.990154E-1],"split_indices":[2031,1302,3,2310,0,2021,302,0,0,23,10,1,100,2130,1221,0,0,0,0,0,0,3,110,0,0,0,0,0,0],"split_type":[0,0,0,0,0,0,0,0,0,0,0,0,0,0,0,0,0,0,0,0,0,0,0,0,0,0,0,0,0],"sum_hessian":[2.625E2,3.3E1,2.295E2,2.9625E1,3.375E0,2.16E2,1.35E1,1.875E0,2.775E1,2.11875E2,4.125E0,6.75E0,6.75E0,2.07375E2,4.5E0,1.125E0,3E0,5.625E0,1.125E0,1.125E0,5.625E0,4.125E0,2.0325E2,3.375E0,1.125E0,3E0,1.125E0,1.125E0,2.02125E2],"tree_param":{"num_deleted":"0","num_feature":"3333","num_nodes":"29","size_leaf_vector":"0"}},{"base_weights":[-2.8462997E-1,1.7922078E0,-6.3716817E-1,-2.0689656E-1,1.9442508E0,1.0588236E0,-6.503613E-1,1.1764706E-1,-4E-1,-6.636156E-1,-1.6949153E-1,1.0588236E0,-5.6E-1],"categories":[],"categories_nodes":[],"categories_segments":[],"categories_sizes":[],"default_left":[1,1,1,1,0,0,1,0,0,0,1,0,0],"id":1,"left_children":[1,3,5,7,-1,-1,9,-1,-1,-1,11,-1,-1],"loss_changes":[1.940673E2,1.2104324E1,5.7454834E0,2.7423936E-1,0E0,0E0,1.3207779E0,0E0,0E0,0E0,4.1304884E0,0E0,0E0],"parents":[2147483647,0,0,1,1,2,2,3,3,6,6,10,10],"right_children":[2,4,6,8,-1,-1,10,-1,-1,-1,12,-1,-1],"split_conditions":[1.215E2,8.1E1,2.85E1,1.085E2,5.8327526E-1,3.176471E-1,2.7E1,3.529412E-2,-1.20000005E-1,-1.9908468E-1,7.15E1,3.176471E-1,-1.6800001E-1],"split_indices":[2,12,202,1,0,0,1122,0,0,0,11,0,0],"split_type":[0,0,0,0,0,0,0,0,0,0,0,0,0],"sum_hessian":[2.625E2,3.75E1,2.25E2,2.625E0,3.4875E1,1.125E0,2.23875E2,1.125E0,1.5E0,2.175E2,6.375E0,1.125E0,5.25E0],"tree_param":{"num_deleted":"0","num_feature":"3333","num_nodes":"13","size_leaf_vector":"0"}},{"base_weights":[-2.8462997E-1,1.6575875E0,-5.519096E-1,1.8644068E0,-4.827586E-1,1.7449665E-1,-6.123399E-1,1.9295154E0,1.1764706E-1,-6.105263E-1,1.3548387E0,-1.6393442E-1,-6.4339155E-1,-3.529412E-1,1.6981132E0,-5.3846157E-1,1.3846154E0,5.882353E-1,-6.532915E-1,1.1764706E-1,-6.105263E-1,-5.7142857E-2,-6.632653E-1,-4.6153846E-1,5.882353E-1],"categories":[],"categories_nodes":[],"categories_segments":[],"categories_sizes":[],"default_left":[1,1,1,1,0,1,1,0,0,0,1,1,1,0,0,1,0,0,1,0,0,1,0,0,0],"id":2,"left_children":[1,3,5,7,-1,9,11,-1,-1,-1,13,15,17,-1,-1,19,-1,-1,21,-1,-1,23,-1,-1,-1],"loss_changes":[1.377017E2,1.5120659E1,1.0307404E1,3.128006E0,0E0,1.8085009E1,2.8846436E0,0E0,0E0,0E0,5.1426725E0,9.590164E0,2.82901E0,0E0,0E0,6.8649673E-1,0E0,0E0,1.1475449E0,0E0,0E0,1.4133161E0,0E0,0E0,0E0],"parents":[2147483647,0,0,1,1,2,2,3,3,5,5,6,6,10,10,11,11,12,12,15,15,18,18,21,21],"right_children":[2,4,6,8,-1,10,12,-1,-1,-1,14,16,18,-1,-1,20,-1,-1,22,-1,-1,24,-1,-1,-1],"split_conditions":[4.35E1,8.05E1,6.05E1,1.255E2,-1.4482759E-1,6.1E1,4.75E1,5.788546E-1,3.529412E-2,-1.831579E-1,1.645E2,5.3E1,4.65E1,-1.0588236E-1,5.09434E-1,4.75E1,4.1538465E-1,1.7647061E-1,4.55E1,3.529412E-2,-1.831579E-1,1.195E2,-1.989796E-1,-1.3846155E-1,1.7647061E-1],"split_indices":[1310,1320,2310,210,0,12,231,0,0,0,2000,212,11,0,0,132,0,0,1310,0,0,1,0,0,0],"split_type":[0,0,0,0,0,0,0,0,0,0,0,0,0,0,0,0,0,0,0,0,0,0,0,0,0],"sum_hessian":[2.625E2,3.1125E1,2.31375E2,2.85E1,2.625E0,1.7625E1,2.1375E2,2.7375E1,1.125E0,1.0875E1,6.75E0,1.425E1,1.995E2,1.125E0,5.625E0,1.2E1,2.25E0,1.125E0,1.98375E2,1.125E0,1.0875E1,3.375E0,1.95E2,2.25E0,1.125E0],"tree_param":{"num_deleted":"0","num_feature":"3333","num_nodes":"25","size_leaf_vector":"0"}},{"base_weights":[8.5388994E-1,-3.5518473E-1,1.6429131E0,-6.1452514E-1,1.0839695E0,3.6893204E-1,1.8739574E0,-6.58858E-1,2.4390244E-1,-5.1428574E-1,1.5384616E0,-5.3061223E-1,1.1034483E0,2.857143E-1,1.9456838E0,-4.827586E-1,1.2E0,2.6086956E-1,1.730337E0,-6.0674155E-1,1.1764706E-1,1.7419355E0,3.2258064E-1,1.1724138E0,-5.1428574E-1,1.1764706E-1,1.9608611E0,9.4736844E-1,-5E-1,1.0909091E0,1.9837729E0,1.4482758E0,-3.529412E-1,-3.529412E-1,1.5428572E0],"categories":[],"categories_nodes":[],"categories_segments":[],"categories_sizes":[],"default_left":[1,1,1,1,1,1,1,0,1,0,1,1,1,1,1,0,0,0,0,0,0,0,1,0,0,0,1,1,0,1,0,0,0,0,0],"id":3,"left_children":[1,3,5,7,9,11,13,-1,15,-1,17,19,21,23,25,-1,-1,-1,-1,-1,-1,-1,27,-1,-1,-1,29,31,-1,33,-1,-1,-1,-1,-1],"loss_changes":[2.5195932E2,3.9808704E1,4.629364E1,3.5667572E0,1.2685915E1,1.7599298E1,1.4808929E1,0E0,4.1399493E0,0E0,2.7354126E0,6.759379E-1,6.667408E0,5.5684724E0,3.3449097E0,0E0,0E0,0E0,0E0,0E0,0E0,0E0,4.456706E0,0E0,0E0,0E0,3.8217163E-1,3.6049967E0,0E0,4.133537E0,0E0,0E0,0E0,0E0,0E0],"parents":[2147483647,0,0,1,1,2,2,3,3,4,4,5,5,6,6,8,8,10,10,11,11,12,12,13,13,14,14,22,22,26,26,27,27,29,29],"right_children":[2,4,6,8,10,12,14,-1,16,-1,18,20,22,24,26,-1,-1,-1,-1,-1,-1,-1,28,-1,-1,-1,30,32,-1,34,-1,-1,-1,-1,-1],"split_conditions":[6.85E1,8.95E1,5.45E1,8.15E1,8.25E1,1.04E2,5.75E1,-1.976574E-1,1.065E2,-1.5428573E-1,1.395E2,1.425E2,1.575E2,1.25E1,2.2E1,-1.4482759E-1,3.6E-1,7.826087E-2,5.1910114E-1,-1.8202247E-1,3.529412E-2,5.225807E-1,3.65E1,3.5172415E-1,-1.5428573E-1,3.529412E-2,7.45E1,2.75E1,-1.5E-1,8.15E1,5.951319E-1,4.3448275E-1,-1.0588236E-1,-1.0588236E-1,4.6285716E-1],"split_indices":[302,22,113,102,2030,203,2310,0,210,0,20,32,3200,1221,221,0,0,0,0,0,0,0,1110,0,0,0,110,122,0,210,0,0,0,0,0],"split_type":[0,0,0,0,0,0,0,0,0,0,0,0,0,0,0,0,0,0,0,0,0,0,0,0,0,0,0,0,0,0,0,0,0,0,0],"sum_hessian":[2.625E2,1.03875E2,1.58625E2,8.85E1,1.5375E1,2.475E1,1.33875E2,8.4375E1,4.125E0,3.375E0,1.2E1,1.125E1,1.35E1,6E0,1.27875E2,2.625E0,1.5E0,1.875E0,1.0125E1,1.0125E1,1.125E0,6.75E0,6.75E0,2.625E0,3.375E0,1.125E0,1.2675E2,3.75E0,3E0,4.5E0,1.2225E2,2.625E0,1.125E0,1.125E0,3.375E0],"tree_param":{"num_deleted":"0","num_feature":"3333","num_nodes":"35","size_leaf_vector":"0"}},{"base_weights":[-2.4267183E-1,8.617918E-1,-5.4442805E-1,-2.9049137E-1,1.1144336E0,-5.717643E-1,3.5721096E-1,-5.5092776E-1,7.5335467E-1,-3.9875823E-1,1.1867511E0,-5.9599763E-1,2.3292629E-2,-4.3201053E-1,9.222673E-1,-6.0122985E-1,1.1911401E-1,7.0939195E-1,-5.047166E-1,3.730719E-2,-6.065614E-1,1.05605476E-1,9.0586287E-1,-7.256223E-2,-6.1183304E-1,-2.648099E-1,-6.171362E-1,1.2494481E-1,-4.3309256E-1],"categories":[],"categories_nodes":[],"categories_segments":[],"categories_sizes":[],"default_left":[1,1,1,1,1,1,0,0,0,0,0,1,1,0,0,1,0,1,0,0,1,0,0,0,1,1,0,0,0],"id":4,"left_children":[1,3,5,7,9,11,13,-1,-1,-1,-1,15,17,-1,-1,19,-1,21,-1,-1,23,-1,-1,-1,25,27,-1,-1,-1],"loss_changes":[7.960361E1,1.526931E1,4.815853E0,3.1404848E0,5.103634E0,2.6380997E0,3.1282177E0,0E0,0E0,0E0,0E0,7.260208E-1,3.2864182E0,0E0,0E0,6.1428833E-1,0E0,3.7067688E-1,0E0,0E0,4.409523E-1,0E0,0E0,0E0,1.5051651E-1,3.3741337E-1,0E0,0E0,0E0],"parents":[2147483647,0,0,1,1,2,2,3,3,4,4,5,5,6,6,11,11,12,12,15,15,17,17,20,20,24,24,25,25],"right_children":[2,4,6,8,10,12,14,-1,-1,-1,-1,16,18,-1,-1,20,-1,22,-1,-1,24,-1,-1,-1,26,28,-1,-1,-1],"split_conditions":[2.5E1,2.2E2,2.99E2,1.355E2,6.7E1,7.05E1,7E0,-1.6527833E-1,2.260064E-1,-1.19627476E-1,3.5602534E-1,1.685E2,6.15E1,-1.2960316E-1,2.766802E-1,2.5E1,3.5734206E-2,8.15E1,-1.5141498E-1,1.1192158E-2,6E1,3.1681646E-2,2.7175888E-1,-2.176867E-2,4.05E1,9E1,-1.8514086E-1,3.7483446E-2,-1.2992777E-1],"split_indices":[2031,33,33,32,1320,131,1122,0,0,0,0,31,102,0,0,101,0,1031,0,0,110,0,0,0,321,21,0,0,0],"split_type":[0,0,0,0,0,0,0,0,0,0,0,0,0,0,0,0,0,0,0,0,0,0,0,0,0,0,0,0,0],"sum_hessian":[2.3644215E2,5.0339108E1,1.8610306E2,9.025331E0,4.1313774E1,1.8098183E2,5.121225E0,7.6010942E0,1.424236E0,1.6784941E0,3.963528E1,1.7389835E2,7.0834804E0,2.2350113E0,2.8862135E0,1.7279332E2,1.1050241E0,2.9311712E0,4.152309E0,1.3811467E0,1.7141219E2,1.0971047E0,1.8340665E0,1.8199692E0,1.6959221E2,3.319336E0,1.6627287E2,1.0786455E0,2.2406905E0],"tree_param":{"num_deleted":"0","num_feature":"3333","num_nodes":"29","size_leaf_vector":"0"}},{"base_weights":[-2.4514408E-1,1.0927674E0,-5.8803195E-1,1.1545316E0,-3.9934918E-1,8.088845E-1,-6.025722E-1,-6.1710966E-1,-1.3006763E-1,8.1252277E-1,-5.131326E-1],"categories":[],"categories_nodes":[],"categories_segments":[],"categories_sizes":[],"default_left":[1,1,1,0,0,0,1,0,1,0,0],"id":5,"left_children":[1,3,5,-1,-1,-1,7,-1,9,-1,-1],"loss_changes":[1.0951431E2,4.955124E0,4.337616E0,0E0,0E0,0E0,1.2123184E0,0E0,2.9025035E0,0E0,0E0],"parents":[2147483647,0,0,1,1,2,2,6,6,8,8],"right_children":[2,4,6,-1,-1,-1,8,-1,10,-1,-1],"split_conditions":[1.215E2,8.25E1,2.85E1,3.463595E-1,-1.1980476E-1,2.4266537E-1,2.7E1,-1.851329E-1,7.15E1,2.4375685E-1,-1.5393978E-1],"split_indices":[2,220,202,0,0,0,1122,0,11,0,0],"split_type":[0,0,0,0,0,0,0,0,0,0,0],"sum_hessian":[2.3632076E2,4.776396E1,1.885568E2,4.6082672E1,1.6812891E0,1.3796577E0,1.8717712E2,1.8129329E2,5.8838415E0,1.3762517E0,4.50759E0],"tree_param":{"num_deleted":"0","num_feature":"3333","num_nodes":"11","size_leaf_vector":"0"}},{"base_weights":[-2.4267161E-1,1.0352682E0,-4.9855855E-1,1.1373783E0,-4.4046614E-1,-1.0922318E-1,-6.1043996E-1,1.1716007E0,5.4634534E-2,7.3763376E-1,-5.455828E-1,-6.163288E-1,1.6426679E-2,-3.006077E-1,1.0762919E0,1.0641873E-2,-6.0261154E-1,1.0497459E-1,-4.5376468E-1,1.206091E0,2.3335764E-1,4.5158178E-1,-3.8018465E-1],"categories":[],"categories_nodes":[],"categories_segments":[],"categories_sizes":[],"default_left":[1,1,1,1,0,1,1,0,0,1,1,0,0,1,1,1,0,0,0,0,0,0,0],"id":6,"left_children":[1,3,5,7,-1,9,11,-1,-1,13,15,-1,-1,17,19,21,-1,-1,-1,-1,-1,-1,-1],"loss_changes":[7.8139465E1,6.5173225E0,8.577606E0,1.3300133E0,0E0,1.7221952E1,5.7836914E-1,0E0,0E0,5.9150953E0,9.774723E-1,0E0,0E0,3.39157E-1,1.0544376E0,8.3161545E-1,0E0,0E0,0E0,0E0,0E0,0E0,0E0],"parents":[2147483647,0,0,1,1,2,2,3,3,5,5,6,6,9,9,10,10,13,13,14,14,15,15],"right_children":[2,4,6,8,-1,10,12,-1,-1,14,16,-1,-1,18,20,22,-1,-1,-1,-1,-1,-1,-1],"split_conditions":[4.35E1,8.05E1,7.05E1,1.59E2,-1.3213985E-1,7.75E1,1.535E2,3.5148022E-1,1.639036E-2,2.5E1,1.415E2,-1.8489864E-1,4.928004E-3,1.21E2,3.2E1,1.075E2,-1.8078347E-1,3.149238E-2,-1.3612941E-1,3.618273E-1,7.0007294E-2,1.3547453E-1,-1.140554E-1],"split_indices":[1310,1320,2310,310,0,1330,32,0,0,1120,3100,0,0,10,111,13,0,0,0,0,0,0,0],"split_type":[0,0,0,0,0,0,0,0,0,0,0,0,0,0,0,0,0,0,0,0,0,0,0],"sum_hessian":[2.3637427E2,3.8925983E1,1.9744829E2,3.662133E1,2.3046532E0,4.451545E1,1.5293285E2,3.5419746E1,1.2015816E0,1.4902761E1,2.961269E1,1.515262E2,1.4066396E0,3.6930742E0,1.1209687E1,2.8294382E0,2.6783253E1,1.098549E0,2.594525E0,9.340558E0,1.8691291E0,1.2564396E0,1.5729986E0],"tree_param":{"num_deleted":"0","num_feature":"3333","num_nodes":"23","size_leaf_vector":"0"}},{"base_weights":[5.963132E-1,-4.429041E-1,9.7987616E-1,-5.4019177E-1,7.811555E-1,1.8860897E-1,1.112812E0,-5.760416E-1,7.5165284E-1,1.01684E0,-1.7309245E-3,-5.157159E-1,7.36786E-1,-4.2506135E-1,1.1321443E0,-6.005928E-1,3.1334424E-1,-5.791251E-1,1.5542017E-1,-2.2582406E-1,9.2497087E-1,3.7476224E-1,1.1590694E0,1.1850717E-1,-6.135109E-1,1.08913235E-1,-4.0268064E-1,-8.480928E-2,1.0639884E0,9.5823115E-1,-4.797549E-1,6.3172944E-2,1.166168E0,1.1576116E0,5.2811105E-2,1.0636664E-1,1.1724672E0,1.1103917E-1,1.1787646E0],"categories":[],"categories_nodes":[],"categories_segments":[],"categories_sizes":[],"default_left":[1,1,1,1,1,1,1,1,0,0,0,1,1,0,1,1,0,0,0,1,1,1,1,0,0,0,0,0,1,0,0,0,1,0,0,0,1,0,0],"id":7,"left_children":[1,3,5,7,9,11,13,15,-1,-1,-1,17,19,-1,21,23,-1,-1,-1,25,27,29,31,-1,-1,-1,-1,-1,33,-1,-1,-1,35,-1,-1,-1,37,-1,-1],"loss_changes":[1.16344696E2,9.839535E0,2.2164474E1,3.85318E0,1.1515493E0,1.2657685E1,5.8894653E0,1.769577E0,0E0,0E0,0E0,7.07324E-1,3.5227833E0,0E0,3.234726E0,7.305851E-1,0E0,0E0,0E0,2.685399E-1,2.2658787E0,4.2761593E0,1.2742462E0,0E0,0E0,0E0,0E0,0E0,1.2355423E0,0E0,0E0,0E0,1.0241852E0,0E0,0E0,0E0,1.0119781E0,0E0,0E0],"parents":[2147483647,0,0,1,1,2,2,3,3,4,4,5,5,6,6,7,7,11,11,12,12,14,14,15,15,19,19,20,20,21,21,22,22,28,28,32,32,36,36],"right_children":[2,4,6,8,10,12,14,16,-1,-1,-1,18,20,-1,22,24,-1,-1,-1,26,28,30,32,-1,-1,-1,-1,-1,34,-1,-1,-1,36,-1,-1,-1,38,-1,-1],"split_conditions":[6.55E1,9.6E1,5.45E1,1.16E2,7.2E1,1.015E2,4E1,1.165E2,2.2549586E-1,3.05052E-1,-5.1927735E-4,6.3E1,3.85E1,-1.2751842E-1,5.45E1,4.1E1,9.4003275E-2,-1.7373754E-1,4.6626054E-2,6.1E1,4.45E1,2.36E2,4.2E1,3.555215E-2,-1.8405327E-1,3.2673974E-2,-1.208042E-1,-2.5442785E-2,2.95E1,2.8746936E-1,-1.4392647E-1,1.8951884E-2,4.85E1,3.4728348E-1,1.5843332E-2,3.1909995E-2,6.75E1,3.331175E-2,3.5362938E-1],"split_indices":[302,22,113,203,103,203,1310,2300,0,0,0,1321,201,0,2130,1200,0,0,0,202,231,33,202,0,0,0,0,0,1202,0,0,0,2310,0,0,0,1002,0,0],"split_type":[0,0,0,0,0,0,0,0,0,0,0,0,0,0,0,0,0,0,0,0,0,0,0,0,0,0,0,0,0,0,0,0,0,0,0,0,0,0,0],"sum_hessian":[2.8979068E2,7.808208E1,2.117086E2,7.285064E1,5.231444E0,3.079974E1,1.8090886E2,7.142269E1,1.4279462E0,3.791266E0,1.440178E0,1.3505905E1,1.7293835E1,1.9853747E0,1.789235E2,6.982004E1,1.6026495E0,1.2465278E1,1.0406269E0,2.7952836E0,1.4498552E1,6.654561E0,1.7226892E2,1.0878935E0,6.873215E1,1.099129E0,1.6961546E0,1.8016765E0,1.2696876E1,3.8823204E0,2.7722406E0,1.1723858E0,1.7109654E2,1.1488371E1,1.2085043E0,1.1166372E0,1.699799E2,1.1124244E0,1.6886748E2],"tree_param":{"num_deleted":"0","num_feature":"3333","num_nodes":"39","size_leaf_vector":"0"}},{"base_weights":[-2.1525794E-1,6.7843676E-1,-5.059287E-1,8.161835E-1,-4.926581E-1,-5.3935987E-1,1.9970225E-1,-3.4814826E-1,8.598161E-1,-5.667412E-1,5.2642524E-2,-4.44031E-1,6.513997E-1,8.967127E-1,7.8655876E-2,-5.727735E-1,1.0675509E-1,-4.64861E-1,6.232586E-1,9.2873104E-2,7.6943433E-1,2.280586E-2,-5.790216E-1,7.894024E-1,8.020335E-2,-2.2836944E-1,-5.849871E-1,-4.0068662E-1,1.4093545E-1],"categories":[],"categories_nodes":[],"categories_segments":[],"categories_sizes":[],"default_left":[1,0,1,1,0,1,1,0,1,1,1,0,1,0,0,1,0,0,1,0,0,0,1,0,0,1,0,0,0],"id":8,"left_children":[1,3,5,7,-1,9,11,-1,13,15,17,-1,19,-1,-1,21,-1,-1,23,-1,-1,-1,25,-1,-1,27,-1,-1,-1],"loss_changes":[5.368378E1,8.600359E0,3.776329E0,2.6286182E0,0E0,2.441059E0,2.5469348E0,0E0,1.211525E0,6.391144E-1,2.501756E0,0E0,2.560687E-1,0E0,0E0,5.384636E-1,0E0,0E0,2.966715E-1,0E0,0E0,0E0,1.5869522E-1,0E0,0E0,3.0960497E-1,0E0,0E0,0E0],"parents":[2147483647,0,0,1,1,2,2,3,3,5,5,6,6,8,8,9,9,10,10,12,12,15,15,18,18,22,22,25,25],"right_children":[2,4,6,8,-1,10,12,-1,14,16,18,-1,20,-1,-1,22,-1,-1,24,-1,-1,-1,26,-1,-1,28,-1,-1,-1],"split_conditions":[2.5E1,5.1E1,2.88E2,1E2,-1.4779744E-1,7.05E1,6.6E1,-1.0444448E-1,9.7E1,1.685E2,9.55E1,-1.332093E-1,8.85E1,2.6901382E-1,2.3596764E-2,6E1,3.202653E-2,-1.3945831E-1,1.355E2,2.7861932E-2,2.3083031E-1,6.8417583E-3,4.05E1,2.3682074E-1,2.4061006E-2,2.8E1,-1.7549613E-1,-1.2020599E-1,4.2280637E-2],"split_indices":[2031,1302,33,331,0,131,2001,0,3020,31,331,0,203,0,0,110,0,0,31,0,0,0,321,0,0,111,0,0,0],"split_type":[0,0,0,0,0,0,0,0,0,0,0,0,0,0,0,0,0,0,0,0,0,0,0,0,0,0,0,0,0],"sum_hessian":[2.0433684E2,4.9821598E1,1.5451524E2,4.4849373E1,4.9722223E0,1.4775078E2,6.7644625E0,1.3679023E0,4.3481472E1,1.412599E2,6.490886E0,2.7963035E0,3.968159E0,4.137908E1,2.1023886E0,1.4015413E2,1.1057749E0,3.501048E0,2.989838E0,1.0040306E0,2.9641283E0,1.4275312E0,1.387266E2,1.94205E0,1.047788E0,2.977745E0,1.3574884E2,1.9724345E0,1.0053104E0],"tree_param":{"num_deleted":"0","num_feature":"3333","num_nodes":"29","size_leaf_vector":"0"}},{"base_weights":[-2.2113864E-1,8.344517E-1,-5.534256E-1,8.80573E-1,-3.750235E-1,-5.8501035E-1,1.1910375E-1,8.1370467E-1,-4.7618142E-1],"categories":[],"categories_nodes":[],"categories_segments":[],"categories_sizes":[],"default_left":[1,1,1,0,0,0,1,0,0],"id":9,"left_children":[1,3,5,-1,-1,-1,7,-1,-1],"loss_changes":[7.209987E1,3.0801735E0,3.3820953E0,0E0,0E0,0E0,3.623367E0,0E0,0E0],"parents":[2147483647,0,0,1,1,2,2,6,6],"right_children":[2,4,6,-1,-1,-1,8,-1,-1],"split_conditions":[1.215E2,6.5E1,2.7E1,2.641719E-1,-1.1250706E-1,-1.755031E-1,5.2E1,2.441114E-1,-1.4285444E-1],"split_indices":[2,202,1122,0,0,0,1022,0,0],"split_type":[0,0,0,0,0,0,0,0,0],"sum_hessian":[2.032373E2,4.829746E1,1.5493985E2,4.6785316E1,1.5121391E0,1.4811395E2,6.8258967E0,2.9808335E0,3.8450632E0],"tree_param":{"num_deleted":"0","num_feature":"3333","num_nodes":"9","size_leaf_vector":"0"}},{"base_weights":[-2.1644399E-1,5.9979755E-1,-5.216826E-1,7.9355156E-1,-5.263027E-1,-1.9671302E-2,-5.5626047E-1,-1.2801528E-1,8.689025E-1,-5.1342535E-1,6.355576E-1,-1.878333E-2,-5.68013E-1,-4.218805E-1,3.5349378E-1,9.0477276E-1,-7.401718E-2,7.7409595E-1,5.9189368E-2,4.4559342E-1,-3.8010594E-1,-5.7340914E-1,4.3324165E-2,-5.1511005E-2,-5.7900023E-1],"categories":[],"categories_nodes":[],"categories_segments":[],"categories_sizes":[],"default_left":[1,1,1,1,0,1,1,1,1,0,1,1,1,0,0,0,0,0,0,0,0,1,0,0,0],"id":10,"left_children":[1,3,5,7,-1,9,11,13,15,-1,17,19,21,-1,-1,-1,-1,-1,-1,-1,-1,23,-1,-1,-1],"loss_changes":[5.1450058E1,1.2707748E1,2.591423E0,3.4762135E0,0E0,3.7871761E0,8.750763E-1,7.907228E-1,1.586422E0,0E0,3.5693192E-1,8.463547E-1,4.7739792E-1,0E0,0E0,0E0,0E0,0E0,0E0,0E0,0E0,3.6719513E-1,0E0,0E0,0E0],"parents":[2147483647,0,0,1,1,2,2,3,3,5,5,6,6,7,7,8,8,10,10,11,11,12,12,21,21],"right_children":[2,4,6,8,-1,10,12,14,16,-1,18,20,22,-1,-1,-1,-1,-1,-1,-1,-1,24,-1,-1,-1],"split_conditions":[4.85E1,8.35E1,5.85E1,7.45E1,-1.5789081E-1,5.95E1,7.35E1,1.23E2,1.045E2,-1.5402761E-1,1.34E2,4.75E1,1.61E2,-1.2656416E-1,1.0604814E-1,2.7143183E-1,-2.2205155E-2,2.322288E-1,1.775681E-2,1.3367803E-1,-1.14031784E-1,5.9E1,1.299725E-2,-1.5453302E-2,-1.7370008E-1],"split_indices":[1310,2310,2310,2200,0,120,1002,1300,2330,0,100,113,100,0,0,0,0,0,0,0,0,1031,0,0,0],"split_type":[0,0,0,0,0,0,0,0,0,0,0,0,0,0,0,0,0,0,0,0,0,0,0,0,0],"sum_hessian":[2.0424771E2,5.532843E1,1.4891928E2,4.7458202E1,7.870229E0,9.697467E0,1.3922182E2,3.5342486E0,4.392395E1,5.6535773E0,4.0438895E0,3.0347023E0,1.3618712E2,2.2716787E0,1.26257E0,4.235322E1,1.5707318E0,2.983665E0,1.0602247E0,1.2259132E0,1.808789E0,1.3505705E2,1.1300669E0,1.5397971E0,1.3351726E2],"tree_param":{"num_deleted":"0","num_feature":"3333","num_nodes":"25","size_leaf_vector":"0"}},{"base_weights":[4.8014235E-1,-4.023594E-1,7.555938E-1,-5.6451243E-1,2.668549E-1,1.5689518E-1,8.4873366E-1,-5.795838E-1,1.17209844E-1,-4.9168634E-1,7.058041E-1,-4.7292122E-1,5.709774E-1,-3.8242686E-1,8.623006E-1,-3.8412705E-2,8.4770274E-1,-5.429196E-1,1.6031699E-1,-3.7365124E-1,6.7830116E-1,8.718685E-1,-9.63326E-2,-3.297507E-1,7.741165E-1,2.7686137E-1,8.851352E-1,9.42445E-2,8.6564636E-1,7.791819E-1,-4.1273123E-1,2.5591327E-2,8.905021E-1,8.936035E-1,2.8092057E-1],"categories":[],"categories_nodes":[],"categories_segments":[],"categories_sizes":[],"default_left":[1,1,1,1,1,1,1,0,0,0,1,1,1,0,1,0,0,0,0,0,1,1,0,0,1,1,1,0,0,0,0,0,1,0,0],"id":11,"left_children":[1,3,5,7,9,11,13,-1,-1,-1,15,17,19,-1,21,-1,-1,-1,-1,-1,23,25,-1,-1,27,29,31,-1,-1,-1,-1,-1,33,-1,-1],"loss_changes":[6.8039085E1,7.414242E0,1.1728104E1,6.2482643E-1,4.920095E0,8.058218E0,3.4005737E0,0E0,0E0,0E0,9.9467564E-1,6.363566E-1,2.1259995E0,0E0,1.7546844E0,0E0,0E0,0E0,0E0,0E0,1.8915625E0,1.1793671E0,0E0,0E0,8.9972687E-1,2.1889572E0,7.8938293E-1,0E0,0E0,0E0,0E0,0E0,7.9696655E-2,0E0,0E0],"parents":[2147483647,0,0,1,1,2,2,3,3,4,4,5,5,6,6,10,10,11,11,12,12,14,14,20,20,21,21,24,24,25,25,26,26,32,32],"right_children":[2,4,6,8,10,12,14,-1,-1,-1,16,18,20,-1,22,-1,-1,-1,-1,-1,24,26,-1,-1,28,30,32,-1,-1,-1,-1,-1,34,-1,-1],"split_conditions":[6.55E1,8.45E1,5.45E1,1.115E2,8.95E1,1.015E2,4E1,-1.7387515E-1,3.5162956E-2,-1.4750591E-1,9.5E1,8.5E1,6.45E1,-1.1472806E-1,2.97E2,-1.1523812E-2,2.5431085E-1,-1.6287588E-1,4.80951E-2,-1.1209538E-1,3.75E1,5.65E1,-2.8899781E-2,-9.892521E-2,1.11E2,1.25E1,1.5E1,2.8273351E-2,2.5969392E-1,2.3375458E-1,-1.2381937E-1,7.677398E-3,2.97E2,2.6808107E-1,8.427617E-2],"split_indices":[302,22,113,203,2030,203,1310,0,0,0,110,3210,220,0,33,0,0,0,0,0,201,2310,0,0,2030,1221,2031,0,0,0,0,0,3,0,0],"split_type":[0,0,0,0,0,0,0,0,0,0,0,0,0,0,0,0,0,0,0,0,0,0,0,0,0,0,0,0,0,0,0,0,0,0,0],"sum_hessian":[2.776461E2,6.5936264E1,2.1170981E2,5.320174E1,1.2734521E1,2.8863182E1,1.8284663E2,5.2197594E1,1.004148E0,4.623895E0,8.110626E0,1.1392764E1,1.7470417E1,1.6966012E0,1.8115002E2,1.4155862E0,6.6950397E0,1.038719E1,1.0055741E0,1.5292176E0,1.5941199E1,1.794495E2,1.7005347E0,1.1717682E0,1.4769431E1,4.390829E0,1.7505867E2,1.9932775E0,1.2776154E1,2.4651916E0,1.9256377E0,1.1220663E0,1.739366E2,1.7259256E2,1.3440357E0],"tree_param":{"num_deleted":"0","num_feature":"3333","num_nodes":"35","size_leaf_vector":"0"}},{"base_weights":[-1.9434115E-1,5.7402647E-1,-4.7456038E-1,-4.598456E-1,6.8545043E-1,1.4381897E-2,-5.226004E-1,-3.754044E-1,7.4017566E-1,6.605237E-1,-4.115519E-1,-5.423267E-1,1.8698065E-1,7.632163E-1,1.285482E-1,2.0731485E-1,7.715844E-1,-4.901313E-1,6.725876E-2,-5.618005E-1,-1.8186378E-1,6.1539364E-1,-3.374701E-1,-4.7085702E-1,4.916051E-1],"categories":[],"categories_nodes":[],"categories_segments":[],"categories_sizes":[],"default_left":[1,1,1,0,1,1,1,0,1,1,1,1,1,0,0,0,0,0,0,0,1,0,0,0,0],"id":12,"left_children":[1,3,5,-1,7,9,11,-1,13,15,17,19,21,-1,-1,-1,-1,-1,-1,-1,23,-1,-1,-1,-1],"loss_changes":[3.7427845E1,5.679782E0,2.9905434E0,0E0,2.7416954E0,3.66655E0,1.7203846E0,0E0,4.7536278E-1,1.0602689E-1,3.3585656E-1,6.895714E-1,1.0776579E0,0E0,0E0,0E0,0E0,0E0,0E0,0E0,1.6444366E0,0E0,0E0,0E0,0E0],"parents":[2147483647,0,0,1,1,2,2,4,4,5,5,6,6,8,8,9,9,10,10,11,11,12,12,20,20],"right_children":[2,4,6,-1,8,10,12,-1,14,16,18,20,22,-1,-1,-1,-1,-1,-1,-1,24,-1,-1,-1,-1],"split_conditions":[2.5E1,2E2,5.45E1,-1.3795368E-1,6.75E1,2.7E1,7.1E1,-1.1262132E-1,9.65E1,1.12E2,9.35E1,1.315E2,8.35E1,2.2896491E-1,3.8564462E-2,6.2194455E-2,2.3147532E-1,-1.470394E-1,2.0177629E-2,-1.6854015E-1,9.95E1,1.846181E-1,-1.0124104E-1,-1.412571E-1,1.4748153E-1],"split_indices":[2031,33,2130,0,1320,2301,2220,0,1330,100,1330,23,10,0,0,0,0,0,0,0,2200,0,0,0,0],"split_type":[0,0,0,0,0,0,0,0,0,0,0,0,0,0,0,0,0,0,0,0,0,0,0,0,0],"sum_hessian":[1.7156606E2,4.5568283E1,1.2599777E2,4.1290445E0,4.143924E1,1.1334818E1,1.1466295E2,1.7453623E0,3.969388E1,4.284485E0,7.0503325E0,1.11790886E2,2.8720627E0,3.8014E1,1.6798747E0,1.4075072E0,2.876978E0,6.036085E0,1.0142477E0,1.0553108E2,6.2598042E0,1.4853252E0,1.3867373E0,4.590721E0,1.6690831E0],"tree_param":{"num_deleted":"0","num_feature":"3333","num_nodes":"25","size_leaf_vector":"0"}},{"base_weights":[-2.0543595E-1,-5.5193305E-1,6.367337E-1,2.1314348E-1,-5.615786E-1,7.43537E-1,-4.678364E-1,1.7540327E-1,7.569959E-1],"categories":[],"categories_nodes":[],"categories_segments":[],"categories_sizes":[],"default_left":[1,1,1,0,0,1,0,0,0],"id":13,"left_children":[1,3,5,-1,-1,7,-1,-1,-1],"loss_changes":[4.9981956E1,1.0128899E0,6.2514343E0,0E0,0E0,2.1908188E-1,0E0,0E0,0E0],"parents":[2147483647,0,0,1,1,2,2,5,5],"right_children":[2,4,6,-1,-1,8,-1,-1,-1],"split_conditions":[2.7E1,1.2E2,6.45E1,6.394305E-2,-1.6847357E-1,7.6E1,-1.4035092E-1,5.262098E-2,2.2709878E-1],"split_indices":[1122,2,202,0,0,13,0,0,0],"split_type":[0,0,0,0,0,0,0,0,0],"sum_hessian":[1.6907858E2,1.2003624E2,4.9042343E1,1.2318153E0,1.1880442E2,4.5016457E1,4.0258856E0,1.3664777E0,4.364998E1],"tree_param":{"num_deleted":"0","num_feature":"3333","num_nodes":"9","size_leaf_vector":"0"}},{"base_weights":[-1.9699301E-1,5.0940394E-1,-4.9205023E-1,6.6336143E-1,-4.9312627E-1,-1.3347834E-2,-5.286E-1,-3.5954475E-1,7.0770216E-1,-4.8060155E-1,5.349865E-1,-2.0831433E-1,-5.537442E-1,-7.877465E-3,7.50384E-1,4.533089E-2,6.4955175E-1,-4.918788E-1,4.4769412E-1,9.177121E-2,-5.6087637E-1,-3.2845196E-1,3.2843745E-1,7.648641E-1,8.693279E-2,6.5695405E-2,5.75352E-1],"categories":[],"categories_nodes":[],"categories_segments":[],"categories_sizes":[],"default_left":[1,1,1,1,0,1,1,0,1,0,1,1,1,1,1,0,0,0,1,0,0,0,0,0,0,0,0],"id":14,"left_children":[1,3,5,7,-1,9,11,-1,13,-1,15,17,19,21,23,-1,-1,-1,25,-1,-1,-1,-1,-1,-1,-1,-1],"loss_changes":[3.617564E1,8.241134E0,2.1290493E0,2.2898026E0,0E0,2.738852E0,7.979107E-1,0E0,1.3298302E0,0E0,2.4709988E-1,2.0539458E0,5.327835E-1,4.7763276E-1,3.2659912E-1,0E0,0E0,0E0,1.3281071E-1,0E0,0E0,0E0,0E0,0E0,0E0,0E0,0E0],"parents":[2147483647,0,0,1,1,2,2,3,3,5,5,6,6,8,8,10,10,11,11,12,12,13,13,14,14,18,18],"right_children":[2,4,6,8,-1,10,12,-1,14,-1,16,18,20,22,24,-1,-1,-1,26,-1,-1,-1,-1,-1,-1,-1,-1],"split_conditions":[4.85E1,8.35E1,5.85E1,3.65E1,-1.479379E-1,6.1E1,4.75E1,-1.0786343E-1,7.45E1,-1.4418048E-1,3.95E1,8.3E1,6.15E1,1.315E2,8.4E1,1.3599267E-2,1.9486554E-1,-1.4756365E-1,1.655E2,2.7531363E-2,-1.6826291E-1,-9.853559E-2,9.853124E-2,2.2945924E-1,2.607984E-2,1.9708622E-2,1.726056E-1],"split_indices":[1310,2310,2310,1200,0,12,231,0,2200,0,211,12,110,1,2320,0,0,0,2,0,0,0,0,0,0,0,0],"split_type":[0,0,0,0,0,0,0,0,0,0,0,0,0,0,0,0,0,0,0,0,0,0,0,0,0,0,0],"sum_hessian":[1.7136201E2,5.0274143E1,1.2108787E2,4.3874672E1,6.3994737E0,8.68629E0,1.1240157E2,1.52751E0,4.234716E1,4.7565784E0,3.9297118E0,8.85769E0,1.03543884E2,2.4295812E0,3.991758E1,1.0097376E0,2.9199743E0,6.359112E0,2.4985783E0,1.0018457E0,1.0254204E2,1.2558694E0,1.1737118E0,3.891538E1,1.0022029E0,1.0052191E0,1.4933593E0],"tree_param":{"num_deleted":"0","num_feature":"3333","num_nodes":"27","size_leaf_vector":"0"}},{"base_weights":[4.1186768E-1,-4.1029483E-1,6.253884E-1,-5.368485E-1,1.5342762E-1,9.548063E-2,7.100166E-1,-5.540946E-1,8.530934E-2,-4.5871222E-1,5.712318E-1,-4.4957215E-1,4.5246097E-1,7.4274E-1,2.653837E-1,7.133297E-1,-3.0976968E-2,-5.196792E-1,1.2328907E-1,7.0050526E-1,6.690581E-2,8.100553E-2,7.5116247E-1,-2.0883836E-1,5.916526E-1,4.292155E-1,-4.5084825E-1,2.593646E-2,9.782241E-2,7.549962E-1,1.788979E-1,4.3229634E-1,-4.7841457E-1,-2.424119E-2,6.895166E-1,6.240877E-1,-7.360805E-2,3.0483714E-1,7.584756E-1],"categories":[],"categories_nodes":[],"categories_segments":[],"categories_sizes":[],"default_left":[1,1,1,1,1,1,1,0,0,0,1,1,1,1,1,0,0,0,0,0,1,1,1,1,1,1,0,0,0,1,0,0,0,0,0,0,0,0,0],"id":15,"left_children":[1,3,5,7,9,11,13,-1,-1,-1,15,17,19,21,23,-1,-1,-1,-1,-1,25,27,29,31,33,35,-1,-1,-1,37,-1,-1,-1,-1,-1,-1,-1,-1,-1],"loss_changes":[4.391537E1,3.7833061E0,8.803581E0,5.0422955E-1,2.893407E0,5.7288327E0,2.282547E0,0E0,0E0,0E0,5.834851E-1,5.3556776E-1,1.6418169E0,8.208008E-1,2.1719112E0,0E0,0E0,0E0,0E0,0E0,1.6976407E0,3.4200586E-4,2.0734406E-1,1.2671646E0,5.051565E-1,5.583639E-1,0E0,0E0,0E0,1.1131287E-2,0E0,0E0,0E0,0E0,0E0,0E0,0E0,0E0,0E0],"parents":[2147483647,0,0,1,1,2,2,3,3,4,4,5,5,6,6,10,10,11,11,12,12,13,13,14,14,20,20,21,21,22,22,23,23,24,24,25,25,29,29],"right_children":[2,4,6,8,10,12,14,-1,-1,-1,16,18,20,22,24,-1,-1,-1,-1,-1,26,28,30,32,34,36,-1,-1,-1,38,-1,-1,-1,-1,-1,-1,-1,-1,-1],"split_conditions":[6.35E1,8.45E1,5.45E1,8.7E1,1.71E2,1.015E2,1.165E2,-1.6622838E-1,2.5592804E-2,-1.3761367E-1,1.39E2,2.005E2,1.575E2,5.35E1,1.105E2,2.1399891E-1,-9.293091E-3,-1.5590376E-1,3.6986724E-2,2.1015158E-1,3.5E1,7.6E1,1.47E2,2.045E2,3.65E1,2.65E1,-1.3525449E-1,7.7809384E-3,2.9346725E-2,9E1,5.3669374E-2,1.296889E-1,-1.4352438E-1,-7.2723576E-3,2.0685498E-1,1.8722631E-1,-2.2082414E-2,9.1451146E-2,2.2754268E-1],"split_indices":[302,22,113,102,3100,203,331,0,0,0,31,3100,3200,2310,203,0,0,0,0,0,1110,11,32,3000,12,122,0,0,0,31,0,0,0,0,0,0,0,0,0],"split_type":[0,0,0,0,0,0,0,0,0,0,0,0,0,0,0,0,0,0,0,0,0,0,0,0,0,0,0,0,0,0,0,0,0,0,0,0,0,0,0],"sum_hessian":[2.4769893E2,5.087663E1,1.968223E2,4.1587955E1,9.288676E0,2.7397646E1,1.6942465E2,4.0572685E1,1.015268E0,3.7282994E0,5.5603766E0,1.0739992E1,1.6657652E1,1.571859E2,1.2238752E1,4.3495336E0,1.2108431E0,9.651654E0,1.0883384E0,9.639361E0,7.018291E0,2.1089563E0,1.5507693E2,5.1350417E0,7.103711E0,4.2295656E0,2.7887256E0,1.0881042E0,1.0208522E0,1.5372778E2,1.3491629E0,1.3413312E0,3.7937107E0,1.0771451E0,6.026566E0,2.874406E0,1.3551594E0,1.8587399E0,1.5186903E2],"tree_param":{"num_deleted":"0","num_feature":"3333","num_nodes":"39","size_leaf_vector":"0"}},{"base_weights":[-1.7895208E-1,5.0755954E-1,-4.4875443E-1,6.0353076E-1,-4.271329E-1,2.6836768E-2,-5.001464E-1,-2.924719E-1,6.370118E-1,5.594331E-1,-3.7483022E-1,-5.2944124E-1,3.1992197E-2,6.5910125E-1,-4.8354708E-2,1.5532103E-1,6.557922E-1,6.4020984E-2,-4.6218425E-1,-5.4349375E-1,-1.785061E-1,-3.9603877E-1,4.5726132E-1,1.7180225E-1,6.736499E-1,-4.11606E-1,3.2916433E-1],"categories":[],"categories_nodes":[],"categories_segments":[],"categories_sizes":[],"default_left":[1,0,1,1,0,1,1,0,1,1,1,1,1,1,0,0,0,0,0,0,1,0,0,0,0,0,0],"id":16,"left_children":[1,3,5,7,-1,9,11,-1,13,15,17,19,21,23,-1,-1,-1,-1,-1,-1,25,-1,-1,-1,-1,-1,-1],"loss_changes":[2.6478205E1,3.8866053E0,2.513071E0,1.299305E0,0E0,2.5463235E0,1.4565392E0,0E0,5.780878E-1,9.66239E-2,2.9124606E-1,3.3491707E-1,1.2298678E0,1.3254833E-1,0E0,0E0,0E0,0E0,0E0,0E0,7.107579E-1,0E0,0E0,0E0,0E0,0E0,0E0],"parents":[2147483647,0,0,1,1,2,2,3,3,5,5,6,6,8,8,9,9,10,10,11,11,12,12,13,13,20,20],"right_children":[2,4,6,8,-1,10,12,-1,14,16,18,20,22,24,-1,-1,-1,-1,-1,-1,26,-1,-1,-1,-1,-1,-1],"split_conditions":[2.5E1,5.1E1,5.45E1,1E2,-1.2813988E-1,2.7E1,7.05E1,-8.774157E-2,8.7E1,1.265E2,6.7E1,1.355E2,9.55E1,3.35E1,-1.4506413E-2,4.659631E-2,1.9673766E-1,1.9206297E-2,-1.3865528E-1,-1.6304813E-1,2.7E1,-1.1881164E-1,1.371784E-1,5.1540677E-2,2.0209499E-1,-1.2348181E-1,9.87493E-2],"split_indices":[2031,1302,2130,331,0,2301,131,0,103,32,2330,23,331,2021,0,0,0,0,0,0,1120,0,0,0,0,0,0],"split_type":[0,0,0,0,0,0,0,0,0,0,0,0,0,0,0,0,0,0,0,0,0,0,0,0,0,0,0],"sum_hessian":[1.4072383E2,3.9453426E1,1.012704E2,3.6100994E1,3.352434E0,9.922595E0,9.134781E1,1.0217589E0,3.5079235E1,4.0971456E0,5.8254495E0,8.6586205E1,4.7616E0,3.4021053E1,1.0581802E0,1.2917376E0,2.805408E0,1.0114107E0,4.8140388E0,8.2724945E1,3.8612638E0,2.4073498E0,2.3542502E0,1.3576076E0,3.266345E1,2.7759128E0,1.085351E0],"tree_param":{"num_deleted":"0","num_feature":"3333","num_nodes":"27","size_leaf_vector":"0"}},{"base_weights":[-1.9446053E-1,5.694334E-1,-5.321065E-1,6.566471E-1,-2.9310632E-1,-5.440886E-1,-1.360915E-1,1.6697964E-1,6.66163E-1,-4.0245602E-1,5.17482E-2,-3.8658458E-1,2.9752144E-1],"categories":[],"categories_nodes":[],"categories_segments":[],"categories_sizes":[],"default_left":[1,1,1,1,1,0,1,0,0,0,0,0,0],"id":17,"left_children":[1,3,5,7,9,-1,11,-1,-1,-1,-1,-1,-1],"loss_changes":[3.5979023E1,3.41819E0,3.835621E-1,7.16629E-2,1.9538602E-1,0E0,5.6749016E-1,0E0,0E0,0E0,0E0,0E0,0E0],"parents":[2147483647,0,0,1,1,2,2,3,3,4,4,6,6],"right_children":[2,4,6,8,10,-1,12,-1,-1,-1,-1,-1,-1],"split_conditions":[1.075E2,4.55E1,2.7E1,5.85E1,5.85E1,-1.6322659E-1,1.615E2,5.0093893E-2,1.9984892E-1,-1.2073681E-1,1.5524461E-2,-1.1597538E-1,8.9256436E-2],"split_indices":[200,202,1122,1102,1231,0,30,0,0,0,0,0,0],"split_type":[0,0,0,0,0,0,0,0,0,0,0,0,0],"sum_hessian":[1.3731898E2,4.188084E1,9.543814E1,3.8251804E1,3.6290357E0,9.227238E1,3.1657639E0,1.0827644E0,3.716904E1,2.628527E0,1.0005089E0,2.0753284E0,1.0904356E0],"tree_param":{"num_deleted":"0","num_feature":"3333","num_nodes":"13","size_leaf_vector":"0"}},{"base_weights":[-1.828586E-1,4.5223564E-1,-4.6831715E-1,5.833887E-1,-4.6256664E-1,-8.96466E-3,-5.07189E-1,-3.2442188E-1,6.228082E-1,-4.5254666E-1,4.6872404E-1,-1.8048348E-1,-5.346216E-1,-4.427019E-3,6.6111887E-1,1.4312248E-1,5.5638814E-1,-4.6538404E-1,3.848832E-1,-5.430868E-1,4.2726517E-2,-2.995452E-1,2.9411927E-1,6.773884E-1,1.2269852E-1],"categories":[],"categories_nodes":[],"categories_segments":[],"categories_sizes":[],"default_left":[1,1,1,1,0,1,1,0,1,0,1,1,1,1,1,0,0,0,0,0,0,0,0,0,0],"id":18,"left_children":[1,3,5,7,-1,9,11,-1,13,-1,15,17,19,21,23,-1,-1,-1,-1,-1,-1,-1,-1,-1,-1],"loss_changes":[2.5841429E1,5.590596E0,1.745758E0,1.6058722E0,0E0,2.048374E0,7.1333504E-1,0E0,9.1458607E-1,0E0,5.348873E-2,1.5497016E0,4.2811775E-1,3.680344E-1,2.3015118E-1,0E0,0E0,0E0,0E0,0E0,0E0,0E0,0E0,0E0,0E0],"parents":[2147483647,0,0,1,1,2,2,3,3,5,5,6,6,8,8,10,10,11,11,12,12,13,13,14,14],"right_children":[2,4,6,8,-1,10,12,-1,14,-1,16,18,20,22,24,-1,-1,-1,-1,-1,-1,-1,-1,-1,-1],"split_conditions":[4.85E1,8.35E1,5.85E1,3.65E1,-1.3877E-1,6.1E1,4.75E1,-9.732657E-2,7.45E1,-1.35764E-1,4.6E1,4.6E1,9.5E1,1.03E2,1.095E2,4.2936746E-2,1.6691644E-1,-1.3961522E-1,1.1546496E-1,-1.6292605E-1,1.2817956E-2,-8.986356E-2,8.823578E-2,2.0321654E-1,3.680956E-2],"split_indices":[1310,2310,2310,1200,0,12,231,0,2200,0,1301,212,2031,331,322,0,0,0,0,0,0,0,0,0,0],"split_type":[0,0,0,0,0,0,0,0,0,0,0,0,0,0,0,0,0,0,0,0,0,0,0,0,0],"sum_hessian":[1.403713E2,4.334723E1,9.702408E1,3.8228745E1,5.1184845E0,7.6659064E0,8.935817E1,1.2900319E0,3.6938713E1,4.002145E0,3.6637616E0,7.5090656E0,8.1849106E1,2.1772072E0,3.4761505E1,1.3356225E0,2.328139E0,5.110579E0,2.3984864E0,8.0724846E1,1.12426E0,1.0932071E0,1.0840001E0,3.3491386E1,1.2701168E0],"tree_param":{"num_deleted":"0","num_feature":"3333","num_nodes":"25","size_leaf_vector":"0"}},{"base_weights":[3.6866808E-1,-3.8470513E-1,5.5321836E-1,-5.1742655E-1,1.3336982E-1,8.4647395E-2,6.2812626E-1,-5.3580004E-1,1.658358E-2,4.458208E-1,-4.143367E-1,-4.8930925E-1,3.5300696E-1,-3.192436E-1,6.384739E-1,6.269365E-1,-1.15078464E-1,6.1045206E-1,-1.4372194E-2,6.5609765E-1,1.6939047E-1,6.582443E-1,1.4524658E-1,3.0293572E-1,-4.3491358E-1,1.019381E-2,6.607002E-1,-4.1204262E-1,5.6567264E-1,4.8562673E-1,-1.1817927E-1,6.645813E-1,1.5292083E-1,2.145588E-1,6.686407E-1,2.0488174E-1,6.7243576E-1],"categories":[],"categories_nodes":[],"categories_segments":[],"categories_sizes":[],"default_left":[1,1,1,1,1,1,1,0,0,0,0,0,1,0,1,0,0,1,1,1,1,0,0,1,0,0,1,0,0,0,0,1,0,0,1,0,0],"id":19,"left_children":[1,3,5,7,9,11,13,-1,-1,15,-1,-1,17,-1,19,-1,-1,21,23,25,27,-1,-1,29,-1,-1,31,-1,-1,-1,-1,33,-1,-1,35,-1,-1],"loss_changes":[2.9670458E1,2.976079E0,5.9345856E0,3.4112167E-1,1.796309E0,3.9723594E0,1.6441422E0,0E0,0E0,7.3024714E-1,0E0,0E0,1.6535366E0,0E0,1.0931168E0,0E0,0E0,1.322372E-1,1.2182606E0,4.095993E-1,1.759042E0,0E0,0E0,4.5976707E-1,0E0,0E0,1.7238998E-1,0E0,0E0,0E0,0E0,1.0806656E-1,0E0,0E0,1.015625E-1,0E0,0E0],"parents":[2147483647,0,0,1,1,2,2,3,3,4,4,5,5,6,6,9,9,12,12,14,14,17,17,18,18,19,19,20,20,23,23,26,26,31,31,34,34],"right_children":[2,4,6,8,10,12,14,-1,-1,16,-1,-1,18,-1,20,-1,-1,22,24,26,28,-1,-1,30,-1,-1,32,-1,-1,-1,-1,34,-1,-1,36,-1,-1],"split_conditions":[6.35E1,5.2E1,5.45E1,8.35E1,7.05E1,9.85E1,4E1,-1.6074002E-1,4.9750744E-3,2.1E1,-1.2430102E-1,-1.4679278E-1,1.575E2,-9.5773086E-2,2.61E2,1.8808095E-1,-3.452354E-2,7.3E1,3.5E1,4.45E1,6.35E1,1.974733E-1,4.3573976E-2,6.45E1,-1.3047408E-1,3.0581432E-3,1.64E2,-1.2361279E-1,1.697018E-1,1.4568803E-1,-3.545378E-2,7E1,4.587625E-2,6.4367644E-2,5.3E1,6.1464526E-2,2.0173074E-1],"split_indices":[302,2020,113,2010,230,203,1310,0,0,2211,0,0,3200,0,33,0,0,2001,1110,2130,2130,0,0,132,0,0,3030,0,0,0,0,110,0,0,2310,0,0],"split_type":[0,0,0,0,0,0,0,0,0,0,0,0,0,0,0,0,0,0,0,0,0,0,0,0,0,0,0,0,0,0,0,0,0,0,0,0,0],"sum_hessian":[2.1087169E2,4.1278717E1,1.6959297E2,3.2861458E1,8.417259E0,2.3668634E1,1.4592433E2,3.1765173E1,1.0962836E0,5.4781523E0,2.9391072E0,7.2784476E0,1.6390186E1,1.2541099E0,1.4467023E2,4.052013E0,1.4261391E0,9.247945E0,7.1422424E0,1.3904747E2,5.6227603E0,8.010085E0,1.2378598E0,4.230151E0,2.912091E0,1.0065546E0,1.3804091E2,2.2628667E0,3.3598938E0,2.8434105E0,1.3867409E0,1.3668736E2,1.3535492E0,1.7034045E0,1.3498396E2,1.5419645E0,1.3344199E2],"tree_param":{"num_deleted":"0","num_feature":"3333","num_nodes":"37","size_leaf_vector":"0"}},{"base_weights":[-1.6568352E-1,4.616693E-1,-4.264224E-1,-3.9838606E-1,5.4925025E-1,3.3106767E-2,-4.810187E-1,-3.1096616E-1,5.950061E-1,4.1254297E-1,-4.330652E-1,-5.057948E-1,1.7473179E-1,6.1808336E-1,7.1745805E-2,5.4051495E-1,-3.6323864E-2,-5.296958E-1,-1.3093996E-1,4.8378104E-1,-2.7979082E-1,-4.1167888E-1,3.811057E-1],"categories":[],"categories_nodes":[],"categories_segments":[],"categories_sizes":[],"default_left":[1,1,1,0,1,1,1,0,1,1,0,1,1,0,0,0,0,0,1,0,0,0,0],"id":20,"left_children":[1,3,5,-1,7,9,11,-1,13,15,-1,17,19,-1,-1,-1,-1,-1,21,-1,-1,-1,-1],"loss_changes":[1.900651E1,2.7979846E0,2.0669165E0,0E0,1.4247322E0,1.8797091E0,1.2765675E0,0E0,3.2092667E-1,3.5359013E-1,0E0,5.643158E-1,6.1377245E-1,0E0,0E0,0E0,0E0,0E0,9.572542E-1,0E0,0E0,0E0,0E0],"parents":[2147483647,0,0,1,1,2,2,4,4,5,5,6,6,8,8,9,9,11,11,12,12,18,18],"right_children":[2,4,6,-1,8,10,12,-1,14,16,-1,18,20,-1,-1,-1,-1,-1,22,-1,-1,-1,-1],"split_conditions":[2.5E1,2E2,5.45E1,-1.1951582E-1,6.75E1,5.3E1,7.1E1,-9.328985E-2,9.65E1,5.9E1,-1.2991957E-1,1.315E2,8.35E1,1.8542501E-1,2.1523742E-2,1.621545E-1,-1.089716E-2,-1.5890875E-1,9.95E1,1.4513431E-1,-8.393725E-2,-1.2350367E-1,1.14331715E-1],"split_indices":[2031,33,2130,0,1320,312,2220,0,1330,1321,0,23,10,0,0,0,0,0,2200,0,0,0,0],"split_type":[0,0,0,0,0,0,0,0,0,0,0,0,0,0,0,0,0,0,0,0,0,0,0],"sum_hessian":[1.1399075E2,3.3240814E1,8.074994E1,2.744151E0,3.049666E1,8.616841E0,7.2133095E1,1.2474883E0,2.9249172E1,4.813765E0,3.8030765E0,6.972728E1,2.4058192E0,2.784013E1,1.4090431E0,3.5869489E0,1.2268162E0,6.515959E1,4.5676847E0,1.3937665E0,1.0120528E0,3.0767877E0,1.4908969E0],"tree_param":{"num_deleted":"0","num_feature":"3333","num_nodes":"23","size_leaf_vector":"0"}},{"base_weights":[-1.8598013E-1,5.1962656E-1,-5.1709616E-1,6.0049635E-1,-2.5923187E-1,-5.3038627E-1,-1.1994139E-1,1.5391159E-1,6.097376E-1,3.70954E-2,-3.6786515E-1,-3.550426E-1,2.594518E-1],"categories":[],"categories_nodes":[],"categories_segments":[],"categories_sizes":[],"default_left":[1,1,1,1,1,0,1,0,0,0,0,0,0],"id":21,"left_children":[1,3,5,7,9,-1,11,-1,-1,-1,-1,-1,-1],"loss_changes":[2.6162252E1,2.4166021E0,3.3717155E-1,4.160595E-2,1.4482391E-1,0E0,4.2667952E-1,0E0,0E0,0E0,0E0,0E0,0E0],"parents":[2147483647,0,0,1,1,2,2,3,3,4,4,6,6],"right_children":[2,4,6,8,10,-1,12,-1,-1,-1,-1,-1,-1],"split_conditions":[1.075E2,4.55E1,2.7E1,4.2E1,8.45E1,-1.5911588E-1,1.615E2,4.617348E-2,1.8292128E-1,1.1128621E-2,-1.1035955E-1,-1.06512785E-1,7.7835545E-2],"split_indices":[200,202,1122,121,200,0,30,0,0,0,0,0,0],"split_type":[0,0,0,0,0,0,0,0,0,0,0,0,0],"sum_hessian":[1.0982781E2,3.489577E1,7.4932045E1,3.1820787E1,3.074984E0,7.218116E1,2.7508836E0,1.0030518E0,3.0817736E1,1.0015382E0,2.0734458E0,1.7380421E0,1.0128416E0],"tree_param":{"num_deleted":"0","num_feature":"3333","num_nodes":"13","size_leaf_vector":"0"}},{"base_weights":[-1.7108873E-1,3.6211503E-1,-4.7707656E-1,5.0978166E-1,-4.6170813E-1,-2.0755774E-1,-5.2287245E-1,-2.3755163E-1,5.7505935E-1,3.9848077E-1,-4.7624183E-1,-5.3033644E-1,-5.4763053E-2,-3.4383732E-1,2.0177329E-2,-1.20007984E-1,6.092995E-1,-1.854432E-2,5.369452E-1,6.249318E-1,1.0390025E-1],"categories":[],"categories_nodes":[],"categories_segments":[],"categories_sizes":[],"default_left":[1,1,1,1,0,1,1,0,1,1,0,0,0,0,0,0,1,0,0,0,0],"id":22,"left_children":[1,3,5,7,-1,9,11,13,15,17,-1,-1,-1,-1,-1,-1,19,-1,-1,-1,-1],"loss_changes":[1.883837E1,5.379158E0,7.9400826E-1,1.9089985E0,0E0,2.1890972E0,1.8703651E-1,1.0626957E-1,8.752756E-1,2.5917304E-1,0E0,0E0,0E0,0E0,0E0,0E0,1.9015598E-1,0E0,0E0,0E0,0E0],"parents":[2147483647,0,0,1,1,2,2,3,3,5,5,6,6,7,7,8,8,9,9,16,16],"right_children":[2,4,6,8,-1,10,12,14,16,18,-1,-1,-1,-1,-1,-1,20,-1,-1,-1,-1],"split_conditions":[5.05E1,8.35E1,6.75E1,4E1,-1.3851245E-1,7.25E1,9.35E1,1.5E1,7.45E1,3.85E1,-1.4287256E-1,-1.5910093E-1,-1.6428916E-2,-1.031512E-1,6.053199E-3,-3.6002398E-2,1.095E2,-5.5632964E-3,1.6108358E-1,1.8747956E-1,3.1170076E-2],"split_indices":[1310,2310,1330,1200,0,2310,3010,2121,2200,1210,0,0,0,0,0,0,322,0,0,0,0],"split_type":[0,0,0,0,0,0,0,0,0,0,0,0,0,0,0,0,0,0,0,0,0],"sum_hessian":[1.1340497E2,4.128308E1,7.212189E1,3.5331303E1,5.9517784E0,1.1278378E1,6.084351E1,2.62619E0,3.2705112E1,3.315936E0,7.962442E0,5.975774E1,1.0857698E0,1.622838E0,1.0033519E0,1.4178656E0,3.1287247E1,1.0424306E0,2.2735054E0,3.0119131E1,1.1681147E0],"tree_param":{"num_deleted":"0","num_feature":"3333","num_nodes":"21","size_leaf_vector":"0"}},{"base_weights":[3.373153E-1,-3.630335E-1,5.030425E-1,-4.976763E-1,1.4541693E-1,7.434577E-2,5.7305247E-1,-5.1860887E-1,2.3018286E-2,-3.8873282E-1,4.5222935E-1,-3.5054964E-1,3.858535E-1,6.0313153E-1,1.9100699E-1,8.213205E-2,5.422396E-1,-4.8685133E-1,2.4982403E-1,-2.2651194E-1,5.343219E-1,6.895468E-2,6.117153E-1,-1.9658493E-1,4.4613144E-1,-2.9634565E-1,-4.0141776E-2,-4.0217962E-2,6.0352653E-1,2.1913192E-1,6.188242E-1,3.2164097E-1,-4.1957453E-1,-2.230354E-2,5.3672093E-1,3.5389072E-1,-1.7360711E-2],"categories":[],"categories_nodes":[],"categories_segments":[],"categories_sizes":[],"default_left":[1,1,1,1,1,1,1,0,0,0,0,1,1,1,1,0,0,0,0,1,1,0,1,1,1,0,0,0,0,0,0,0,0,0,0,0,0],"id":23,"left_children":[1,3,5,7,9,11,13,-1,-1,-1,15,17,19,21,23,-1,-1,-1,-1,25,27,-1,29,31,33,-1,-1,-1,-1,35,-1,-1,-1,-1,-1,-1,-1],"loss_changes":[2.0565577E1,2.4126678E0,4.232109E0,3.089924E-1,1.4755857E0,2.9337938E0,1.2900467E0,0E0,0E0,0E0,1.3867867E-1,8.964112E-1,1.2734604E0,4.754753E-1,1.1149601E0,0E0,0E0,0E0,0E0,2.9436916E-2,4.4175482E-1,0E0,1.741333E-1,6.9169444E-1,2.9079938E-1,0E0,0E0,0E0,0E0,1.18394315E-1,0E0,0E0,0E0,0E0,0E0,0E0,0E0],"parents":[2147483647,0,0,1,1,2,2,3,3,4,4,5,5,6,6,10,10,11,11,12,12,13,13,14,14,19,19,20,20,22,22,23,23,24,24,29,29],"right_children":[2,4,6,8,10,12,14,-1,-1,-1,16,18,20,22,24,-1,-1,-1,-1,26,28,-1,30,32,34,-1,-1,-1,-1,36,-1,-1,-1,-1,-1,-1,-1],"split_conditions":[6.35E1,8.45E1,5.45E1,1.125E2,1.71E2,1.145E2,1.165E2,-1.5558267E-1,6.905486E-3,-1.1661985E-1,1.3E1,1.175E2,2.1E1,5.35E1,1.105E2,2.4639616E-2,1.626719E-1,-1.460554E-1,7.4947216E-2,2.9E1,4.1E1,2.0686403E-2,5.15E1,2.045E2,3.65E1,-8.8903695E-2,-1.2042534E-2,-1.2065389E-2,1.8105796E-1,2.1E1,1.8564726E-1,9.64923E-2,-1.2587236E-1,-6.6910624E-3,1.6101629E-1,1.0616722E-1,-5.208214E-3],"split_indices":[302,22,113,2030,3100,2030,331,0,0,0,1212,210,2031,2310,203,0,0,0,0,2201,231,0,2010,3000,101,0,0,0,0,2121,0,0,0,0,0,0,0],"split_type":[0,0,0,0,0,0,0,0,0,0,0,0,0,0,0,0,0,0,0,0,0,0,0,0,0,0,0,0,0,0,0,0,0,0,0,0,0],"sum_hessian":[1.746139E2,3.318528E1,1.4142862E2,2.6254114E1,6.9311657E0,2.0143631E1,1.2128499E2,2.5243309E1,1.0108044E0,2.431319E0,4.499847E0,8.46799E0,1.167564E1,1.118965E2,9.388492E0,1.2544343E0,3.2454126E0,7.0553203E0,1.4126697E0,2.1757975E0,9.499843E0,1.9125032E0,1.0998399E2,3.8178167E0,5.570675E0,1.1534886E0,1.0223087E0,1.0662919E0,8.433551E0,2.522197E0,1.074618E2,1.01547E0,2.8023467E0,1.0248759E0,4.545799E0,1.290454E0,1.2317429E0],"tree_param":{"num_deleted":"0","num_feature":"3333","num_nodes":"37","size_leaf_vector":"0"}},{"base_weights":[-1.5502362E-1,3.4823027E-1,-4.4807485E-1,-2.034675E-1,5.2418447E-1,-4.8315138E-1,5.9730925E-2,-3.7810016E-1,3.4867913E-1,-2.8308678E-1,5.698028E-1,-3.206932E-2,-5.1855576E-1,3.833977E-1,-3.361189E-1,6.2742315E-2,-4.5728076E-1,1.508168E-1,5.832193E-1,-3.764018E-1,4.1412914E-1],"categories":[],"categories_nodes":[],"categories_segments":[],"categories_sizes":[],"default_left":[1,1,1,1,1,1,1,1,0,0,1,1,0,0,0,0,0,0,0,0,0],"id":24,"left_children":[1,3,5,7,9,11,13,15,-1,-1,17,19,-1,-1,-1,-1,-1,-1,-1,-1,-1],"loss_changes":[1.3764396E1,3.4576778E0,1.075366E0,1.0061789E0,1.1354609E0,8.6279774E-1,7.292642E-1,2.8590477E-1,0E0,0E0,5.4652214E-2,9.353633E-1,0E0,0E0,0E0,0E0,0E0,0E0,0E0,0E0,0E0],"parents":[2147483647,0,0,1,1,2,2,3,3,4,4,5,5,6,6,7,7,10,10,11,11],"right_children":[2,4,6,8,10,12,14,16,-1,-1,18,20,-1,-1,-1,-1,-1,-1,-1,-1,-1],"split_conditions":[2.9E1,2.31E2,7.05E1,8.4E1,6.9E1,4.15E1,6.15E1,6.25E1,1.04603745E-1,-8.492604E-2,2.95E1,1.125E2,-1.5556674E-1,1.15019314E-1,-1.0083567E-1,1.8822696E-2,-1.3718423E-1,4.524504E-2,1.749658E-1,-1.12920545E-1,1.24238744E-1],"split_indices":[2031,33,131,2001,1320,2230,102,1330,0,0,1110,13,0,0,0,0,0,0,0,0,0],"split_type":[0,0,0,0,0,0,0,0,0,0,0,0,0,0,0,0,0,0,0,0,0],"sum_hessian":[9.1273125E1,3.352047E1,5.7752655E1,8.067802E0,2.5452665E1,5.4066574E1,3.6860826E0,6.368724E0,1.6990789E0,1.0829556E0,2.4369709E1,4.073426E0,4.999315E1,2.0452445E0,1.6408381E0,1.0013356E0,5.3673882E0,1.1359516E0,2.3233757E1,2.3874497E0,1.685976E0],"tree_param":{"num_deleted":"0","num_feature":"3333","num_nodes":"21","size_leaf_vector":"0"}},{"base_weights":[-1.7973498E-1,-5.089398E-1,4.7756776E-1,5.0192475E-2,-5.196562E-1,5.6450605E-1,-3.811178E-1,1.3542844E-1,5.7658166E-1],"categories":[],"categories_nodes":[],"categories_segments":[],"categories_sizes":[],"default_left":[1,1,1,0,0,1,0,0,0],"id":25,"left_children":[1,3,5,-1,-1,7,-1,-1,-1],"loss_changes":[1.9235626E1,3.7939644E-1,2.440226E0,0E0,0E0,6.42395E-2,0E0,0E0,0E0],"parents":[2147483647,0,0,1,1,2,2,5,5],"right_children":[2,4,6,-1,-1,8,-1,-1,-1],"split_conditions":[2.7E1,1.335E2,6.45E1,1.50577435E-2,-1.5589686E-1,7.55E1,-1.1433534E-1,4.0628534E-2,1.729745E-1],"split_indices":[1122,1000,202,0,0,2300,0,0,0],"split_type":[0,0,0,0,0,0,0,0,0],"sum_hessian":[8.677123E1,5.7965427E1,2.8805807E1,1.0208029E0,5.6944626E1,2.6468569E1,2.3372378E0,1.0588818E0,2.5409687E1],"tree_param":{"num_deleted":"0","num_feature":"3333","num_nodes":"9","size_leaf_vector":"0"}},{"base_weights":[-1.6207904E-1,3.356036E-1,-4.6085522E-1,4.6914858E-1,-4.3640566E-1,-1.8202694E-1,-5.101463E-1,-2.0969966E-1,5.312325E-1,3.5417023E-1,-4.5420423E-1,-5.3530168E-2,-5.187517E-1,-3.0279174E-1,-1.0307764E-3,-1.08945E-1,5.661897E-1,9.910451E-2,4.4467345E-1,5.825695E-1,8.847061E-2],"categories":[],"categories_nodes":[],"categories_segments":[],"categories_sizes":[],"default_left":[1,1,1,1,0,1,1,1,1,1,0,0,0,0,0,0,1,0,0,0,0],"id":26,"left_children":[1,3,5,7,-1,9,11,13,15,17,-1,-1,-1,-1,-1,-1,19,-1,-1,-1,-1],"loss_changes":[1.3770196E1,3.8057444E0,6.993084E-1,1.3866801E0,0E0,1.6514134E0,1.6250896E-1,6.286764E-2,6.884389E-1,4.8283815E-2,0E0,0E0,0E0,0E0,0E0,0E0,1.5752411E-1,0E0,0E0,0E0,0E0],"parents":[2147483647,0,0,1,1,2,2,3,3,5,5,6,6,7,7,8,8,9,9,16,16],"right_children":[2,4,6,8,-1,10,12,14,16,18,-1,-1,-1,-1,-1,-1,20,-1,-1,-1,-1],"split_conditions":[5.05E1,8.35E1,6.75E1,4E1,-1.309217E-1,7.25E1,5.85E1,1.03E2,7.45E1,1.72E2,-1.3626127E-1,-1.605905E-2,-1.556255E-1,-9.083752E-2,-3.0923294E-4,-3.26835E-2,1.095E2,2.9731354E-2,1.3340203E-1,1.7477085E-1,2.6541183E-2],"split_indices":[1310,2310,1330,1200,0,2310,1320,2300,2200,2,0,0,0,0,0,0,322,0,0,0,0],"split_type":[0,0,0,0,0,0,0,0,0,0,0,0,0,0,0,0,0,0,0,0,0],"sum_hessian":[9.056641E1,3.3928E1,5.66384E1,2.925898E1,4.669023E0,9.213381E0,4.742502E1,2.2524264E0,2.7006554E1,3.0006888E0,6.212692E0,1.0107954E0,4.6414223E1,1.2456496E0,1.0067768E0,1.2887622E0,2.571779E1,1.334552E0,1.6661366E0,2.465302E1,1.0647693E0],"tree_param":{"num_deleted":"0","num_feature":"3333","num_nodes":"21","size_leaf_vector":"0"}},{"base_weights":[3.1449044E-1,-3.432888E-1,4.671826E-1,-4.804702E-1,1.3437162E-1,5.529253E-1,1.4132532E-1,-2.2222747E-3,-5.0429124E-1,-3.5738418E-1,4.0298265E-1,-1.16189115E-1,5.6636584E-1,-2.0298669E-1,3.8281938E-1,5.362608E-2,4.876326E-1,2.2334887E-2,5.7284385E-1,3.0601954E-1,-3.8246986E-1,-1.868992E-1,4.696888E-1,1.2727259E-1,5.785133E-1,-4.6988457E-1,1.0148179E-2,5.2247226E-1,-9.507397E-2,2.3104309E-1,5.839554E-1,5.639038E-1,8.047966E-2],"categories":[],"categories_nodes":[],"categories_segments":[],"categories_sizes":[],"default_left":[1,1,1,1,1,1,1,0,0,0,1,0,1,1,1,0,0,0,1,0,1,0,1,0,1,0,0,0,0,0,0,0,0],"id":27,"left_children":[1,3,5,7,9,11,13,-1,-1,-1,15,-1,17,19,21,-1,-1,-1,23,-1,25,-1,27,-1,29,-1,-1,31,-1,-1,-1,-1,-1],"loss_changes":[1.4506668E1,1.865674E0,3.1726818E0,2.4464321E-1,1.0573292E0,8.911133E-1,2.2047515E0,0E0,0E0,0E0,1.19991064E-1,0E0,3.0485725E-1,1.1401687E0,8.4905434E-1,0E0,0E0,0E0,1.5127945E-1,0E0,3.04183E-1,0E0,4.5603037E-1,0E0,3.0788422E-2,0E0,0E0,1.8572617E-1,0E0,0E0,0E0,0E0,0E0],"parents":[2147483647,0,0,1,1,2,2,3,3,4,4,5,5,6,6,10,10,12,12,13,13,14,14,18,18,20,20,22,22,24,24,27,27],"right_children":[2,4,6,8,10,12,14,-1,-1,-1,16,-1,18,20,22,-1,-1,-1,24,-1,26,-1,28,-1,30,-1,-1,32,-1,-1,-1,-1,-1],"split_conditions":[6.35E1,8.45E1,1.105E2,3.6E1,1.71E2,4.05E1,1.105E2,-6.6668243E-4,-1.5128738E-1,-1.07215255E-1,6.3E1,-3.4856737E-2,3.85E1,2.1E2,4.65E1,1.6087824E-2,1.4628978E-1,6.7004664E-3,7E1,9.180587E-2,5.25E1,-5.606976E-2,3.15E1,3.8181778E-2,8.4E1,-1.4096537E-1,3.0444537E-3,1.5E1,-2.8522192E-2,6.931293E-2,1.7518663E-1,1.6917115E-1,2.4143899E-2],"split_indices":[302,22,331,312,3100,2020,203,0,0,0,1321,0,201,3000,113,0,0,0,110,0,201,0,111,0,203,0,0,1122,0,0,0,0,0],"split_type":[0,0,0,0,0,0,0,0,0,0,0,0,0,0,0,0,0,0,0,0,0,0,0,0,0,0,0,0,0,0,0,0,0],"sum_hessian":[1.4183765E2,2.648693E1,1.15350716E2,2.0572687E1,5.914244E0,9.07697E1,2.458102E1,1.0279588E0,1.9544727E1,1.9725454E0,3.9416986E0,1.6368579E0,8.9132835E1,1.0199071E1,1.4381948E1,1.0874044E0,2.8542943E0,1.1011965E0,8.803164E1,2.4750202E0,7.724051E0,1.7504457E0,1.2631502E1,1.400655E0,8.663099E1,6.1565285E0,1.5675228E0,1.1620334E1,1.0111692E0,2.0059905E0,8.4625E1,1.0372238E1,1.2480953E0],"tree_param":{"num_deleted":"0","num_feature":"3333","num_nodes":"33","size_leaf_vector":"0"}},{"base_weights":[-1.4449704E-1,3.2865015E-1,-4.3132156E-1,-4.035867E-1,4.4291168E-1,-4.7065473E-1,6.536168E-2,-3.1889856E-1,5.043256E-1,-2.828926E-2,-5.0883293E-1,-3.095538E-1,3.501891E-1,5.4276866E-1,-4.3766823E-2,3.7087977E-1,-3.520505E-1,1.2686428E-1,5.568288E-1],"categories":[],"categories_nodes":[],"categories_segments":[],"categories_sizes":[],"default_left":[1,1,1,0,1,1,1,0,1,1,0,0,0,1,0,0,0,0,0],"id":28,"left_children":[1,3,5,-1,7,9,11,-1,13,15,-1,-1,-1,17,-1,-1,-1,-1,-1],"loss_changes":[1.0150084E1,2.5549705E0,9.361992E-1,0E0,1.332542E0,7.12965E-1,5.6534153E-1,0E0,5.2024126E-1,7.096095E-1,0E0,0E0,0E0,5.8553696E-2,0E0,0E0,0E0,0E0,0E0],"parents":[2147483647,0,0,1,1,2,2,4,4,5,5,6,6,8,8,9,9,13,13],"right_children":[2,4,6,-1,8,10,12,-1,14,16,-1,-1,-1,18,-1,-1,-1,-1,-1],"split_conditions":[2.9E1,1.95E2,7.05E1,-1.2107601E-1,6.9E1,4.15E1,9.55E1,-9.5669575E-2,9.8E1,5.45E1,-1.5264988E-1,-9.2866145E-2,1.0505673E-1,2.95E1,-1.3130047E-2,1.1126394E-1,-1.0561516E-1,3.8059287E-2,1.6704865E-1],"split_indices":[2031,33,131,0,1320,2230,331,0,1330,2130,0,0,0,1110,0,0,0,0,0],"split_type":[0,0,0,0,0,0,0,0,0,0,0,0,0,0,0,0,0,0,0],"sum_hessian":[7.27478E1,2.7401058E1,4.534675E1,3.3568425E0,2.4044216E1,4.2067738E1,3.2790093E0,1.4809644E0,2.2563251E1,3.4805126E0,3.8587227E1,1.378151E0,1.9008584E0,2.1093475E1,1.4697764E0,1.4935557E0,1.986957E0,1.0175295E0,2.0075945E1],"tree_param":{"num_deleted":"0","num_feature":"3333","num_nodes":"19","size_leaf_vector":"0"}},{"base_weights":[-1.7458662E-1,4.928121E-1,-4.7693938E-1,5.431033E-1,-1.825881E-1,-5.1076955E-1,5.5581234E-2,-2.9672837E-1,3.642282E-1],"categories":[],"categories_nodes":[],"categories_segments":[],"categories_sizes":[],"default_left":[1,1,1,0,0,0,0,0,0],"id":29,"left_children":[1,3,5,-1,-1,-1,7,-1,-1],"loss_changes":[1.4182447E1,8.4785223E-1,8.945036E-1,0E0,0E0,0E0,5.184212E-1,0E0,0E0],"parents":[2147483647,0,0,1,1,2,2,6,6],"right_children":[2,4,6,-1,-1,-1,8,-1,-1],"split_conditions":[1.245E2,8.95E1,7.65E1,1.62931E-1,-5.4776434E-2,-1.5323088E-1,2.7E1,-8.9018516E-2,1.09268464E-1],"split_indices":[2,22,312,0,0,0,1122,0,0],"split_type":[0,0,0,0,0,0,0,0,0],"sum_hessian":[6.811848E1,2.1041836E1,4.7076645E1,1.9765917E1,1.2759174E0,4.4302994E1,2.7736528E0,1.3132453E0,1.4604074E0],"tree_param":{"num_deleted":"0","num_feature":"3333","num_nodes":"9","size_leaf_vector":"0"}},{"base_weights":[-1.5352328E-1,3.148081E-1,-4.4549355E-1,4.385086E-1,-4.114082E-1,-1.5988958E-1,-4.9863967E-1,-2.9498094E-1,4.8889756E-1,3.07802E-1,-4.3185827E-1,-6.932366E-2,-5.0852144E-1,-7.387955E-2,5.250542E-1,7.0557795E-2,3.9880404E-1,5.46735E-1,6.687547E-2],"categories":[],"categories_nodes":[],"categories_segments":[],"categories_sizes":[],"default_left":[1,1,1,1,0,1,1,0,1,1,0,0,0,0,1,0,0,0,0],"id":30,"left_children":[1,3,5,7,-1,9,11,-1,13,15,-1,-1,-1,-1,17,-1,-1,-1,-1],"loss_changes":[1.0128142E1,2.7528799E0,6.0950184E-1,1.0664473E0,0E0,1.226308E0,1.2516022E-1,0E0,5.21543E-1,5.2704662E-2,0E0,0E0,0E0,0E0,1.8610811E-1,0E0,0E0,0E0,0E0],"parents":[2147483647,0,0,1,1,2,2,3,3,5,5,6,6,8,8,9,9,14,14],"right_children":[2,4,6,8,-1,10,12,-1,14,16,-1,-1,-1,-1,18,-1,-1,-1,-1],"split_conditions":[5.05E1,8.35E1,6.75E1,3.7E1,-1.2342246E-1,7.25E1,4.05E1,-8.8494286E-2,1.485E2,1.3E1,-1.2955749E-1,-2.0797098E-2,-1.5255643E-1,-2.2163864E-2,9.7E1,2.116734E-2,1.19641215E-1,1.6402051E-1,2.0062642E-2],"split_indices":[1310,2310,1330,1200,0,2310,231,0,2000,1122,0,0,0,0,213,0,0,0,0],"split_type":[0,0,0,0,0,0,0,0,0,0,0,0,0,0,0,0,0,0,0],"sum_hessian":[7.20436E1,2.7636074E1,4.4407528E1,2.3952314E1,3.6837592E0,7.595935E0,3.6811592E1,1.2276651E0,2.272465E1,2.7445347E0,4.8514E0,1.0085856E0,3.580301E1,1.308866E0,2.1415785E1,1.253078E0,1.4914567E0,2.026364E1,1.1521446E0],"tree_param":{"num_deleted":"0","num_feature":"3333","num_nodes":"19","size_leaf_vector":"0"}},{"base_weights":[2.945675E-1,-3.2630467E-1,4.3732086E-1,-4.691631E-1,1.1944432E-1,4.6018846E-2,5.0633687E-1,-4.907978E-1,-6.276177E-2,3.3253434E-1,-3.188429E-1,-4.2664993E-1,2.5883105E-1,5.290367E-1,4.1755453E-2,-2.639041E-2,4.418868E-1,4.660888E-1,-3.9737944E-2,1.2229165E-1,5.421408E-1,-3.3713338E-1,3.2466E-1,2.0341532E-1,-3.5118353E-1,4.023284E-1,-2.907583E-1,1.486201E-1,5.532277E-1,3.543539E-1,-3.9384354E-2,3.2889298E-1,-1.304366E-1],"categories":[],"categories_nodes":[],"categories_segments":[],"categories_sizes":[],"default_left":[1,1,1,1,1,1,1,0,0,1,0,0,1,1,1,0,0,0,1,1,1,0,0,1,0,0,0,1,0,0,0,0,0],"id":31,"left_children":[1,3,5,7,9,11,13,-1,-1,15,-1,-1,17,19,21,-1,-1,-1,23,25,27,-1,-1,29,-1,-1,-1,31,-1,-1,-1,-1,-1],"loss_changes":[1.0354031E1,1.4640074E0,2.5179882E0,1.1820102E-1,6.8165445E-1,1.6402558E0,8.20446E-1,0E0,0E0,1.9364524E-1,0E0,0E0,7.0597774E-1,3.392315E-1,6.2475973E-1,0E0,0E0,0E0,4.8593146E-1,5.4102063E-1,2.3810196E-1,0E0,0E0,1.4980641E-1,0E0,0E0,0E0,2.1289092E-1,0E0,0E0,0E0,0E0,0E0],"parents":[2147483647,0,0,1,1,2,2,3,3,4,4,5,5,6,6,9,9,12,12,13,13,14,14,18,18,19,19,20,20,23,23,27,27],"right_children":[2,4,6,8,10,12,14,-1,-1,16,-1,-1,18,20,22,-1,-1,-1,24,26,28,-1,-1,30,-1,-1,-1,32,-1,-1,-1,-1,-1],"split_conditions":[6.35E1,5.2E1,5.45E1,1.76E2,7.05E1,9.85E1,2.61E2,-1.4723934E-1,-1.8828532E-2,8.35E1,-9.565287E-2,-1.2799498E-1,1.575E2,5.65E1,6.35E1,-7.917123E-3,1.3256605E-1,1.3982664E-1,3.5E1,1.45E1,5.15E1,-1.01140015E-1,9.7398005E-2,3.5E1,-1.0535506E-1,1.2069853E-1,-8.722749E-2,2.75E1,1.6596833E-1,1.0630617E-1,-1.1815307E-2,9.86679E-2,-3.9130982E-2],"split_indices":[302,2020,113,310,230,203,33,0,0,22,0,0,3200,2310,2130,0,0,0,1110,1221,2010,0,0,1301,0,0,0,111,0,0,0,0,0],"split_type":[0,0,0,0,0,0,0,0,0,0,0,0,0,0,0,0,0,0,0,0,0,0,0,0,0,0,0,0,0,0,0,0,0],"sum_hessian":[1.1421095E2,2.111041E1,9.310055E1,1.5947013E1,5.1633973E0,1.4208571E1,7.8891975E1,1.4943814E1,1.0031985E0,3.6366084E0,1.5267888E0,4.0991945E0,1.0109377E1,7.508454E1,3.8074358E0,1.0263882E0,2.6102202E0,5.6359754E0,4.473402E0,2.6659749E0,7.2418564E1,1.5456668E0,2.261769E0,2.7069142E0,1.7664876E0,1.604276E0,1.0616988E0,2.3791208E0,7.0039444E1,1.3859046E0,1.3210096E0,1.3368906E0,1.0422302E0],"tree_param":{"num_deleted":"0","num_feature":"3333","num_nodes":"33","size_leaf_vector":"0"}},{"base_weights":[-1.3564934E-1,3.0959478E-1,-4.151182E-1,-3.7612626E-1,4.1590115E-1,-4.5864317E-1,6.996215E-2,-2.891075E-1,4.7494486E-1,-2.2817964E-2,-4.999919E-1,3.8369924E-1,-2.1271053E-1,-4.4188887E-2,5.1524585E-1,3.2972693E-1,-3.2565516E-1,1.28137E-1,5.324423E-1],"categories":[],"categories_nodes":[],"categories_segments":[],"categories_sizes":[],"default_left":[1,1,1,0,1,1,1,0,1,1,0,0,0,0,1,0,0,0,0],"id":32,"left_children":[1,3,5,-1,7,9,11,-1,13,15,-1,-1,-1,-1,17,-1,-1,-1,-1],"loss_changes":[7.4381948E0,1.8495429E0,8.0309963E-1,0E0,9.9413276E-1,5.9487724E-1,4.2522892E-1,0E0,4.2804956E-1,5.3049845E-1,0E0,0E0,0E0,0E0,5.1963806E-2,0E0,0E0,0E0,0E0],"parents":[2147483647,0,0,1,1,2,2,4,4,5,5,6,6,8,8,9,9,14,14],"right_children":[2,4,6,-1,8,10,12,-1,14,16,-1,-1,-1,-1,18,-1,-1,-1,-1],"split_conditions":[2.9E1,1.95E2,7.05E1,-1.1283788E-1,6.9E1,4.15E1,5.75E1,-8.673225E-2,3.85E1,5.45E1,-1.4999758E-1,1.1510978E-1,-6.3813165E-2,-1.3256666E-2,5.5E0,9.891809E-2,-9.769655E-2,3.8441103E-2,1.5973268E-1],"split_indices":[2031,33,131,0,1320,2230,102,0,1200,2130,0,0,0,0,1112,0,0,0,0],"split_type":[0,0,0,0,0,0,0,0,0,0,0,0,0,0,0,0,0,0,0],"sum_hessian":[5.7744408E1,2.222623E1,3.5518177E1,2.642548E0,1.9583683E1,3.264365E1,2.874527E0,1.2122586E0,1.8371426E1,2.9631555E0,2.9680494E1,1.1930115E0,1.6815156E0,1.316506E0,1.7054918E1,1.3281778E0,1.6349777E0,1.084864E0,1.5970055E1],"tree_param":{"num_deleted":"0","num_feature":"3333","num_nodes":"19","size_leaf_vector":"0"}},{"base_weights":[-1.6971736E-1,-4.9603733E-1,4.174243E-1,5.056358E-1,-3.3262876E-1,5.229879E-1,1.17578596E-1],"categories":[],"categories_nodes":[],"categories_segments":[],"categories_sizes":[],"default_left":[1,0,1,1,0,0,0],"id":33,"left_children":[1,-1,3,5,-1,-1,-1],"loss_changes":[1.05824795E1,0E0,1.4840586E0,6.1006546E-2,0E0,0E0,0E0],"parents":[2147483647,0,0,2,2,3,3],"right_children":[2,-1,4,6,-1,-1,-1],"split_conditions":[2.5E1,-1.488112E-1,6.45E1,8.35E1,-9.978863E-2,1.5689638E-1,3.527358E-2],"split_indices":[1122,0,202,2200,0,0,0],"split_type":[0,0,0,0,0,0,0],"sum_hessian":[5.3152588E1,3.4264385E1,1.88882E1,1.7192148E1,1.6960514E0,1.6123474E1,1.068675E0],"tree_param":{"num_deleted":"0","num_feature":"3333","num_nodes":"7","size_leaf_vector":"0"}},{"base_weights":[-1.4542812E-1,2.950575E-1,-4.3072426E-1,4.1096494E-1,-3.863411E-1,-1.3942946E-1,-4.8774937E-1,-2.661702E-1,4.597231E-1,2.714219E-1,-4.0810555E-1,-9.846939E-2,-4.9921316E-1,-6.381008E-2,4.9668115E-1,4.7768254E-2,3.608081E-1,4.6479017E-2,5.2009165E-1],"categories":[],"categories_nodes":[],"categories_segments":[],"categories_sizes":[],"default_left":[1,1,1,1,0,1,1,0,1,1,0,0,0,0,1,0,0,0,0],"id":34,"left_children":[1,3,5,7,-1,9,11,-1,13,15,-1,-1,-1,-1,17,-1,-1,-1,-1],"loss_changes":[7.4382854E0,2.0118327E0,5.252695E-1,8.0039E-1,0E0,9.1078717E-1,8.234787E-2,0E0,4.0945148E-1,5.205798E-2,0E0,0E0,0E0,0E0,1.6922665E-1,0E0,0E0,0E0,0E0],"parents":[2147483647,0,0,1,1,2,2,3,3,5,5,6,6,8,8,9,9,14,14],"right_children":[2,4,6,8,-1,10,12,-1,14,16,-1,-1,-1,-1,18,-1,-1,-1,-1],"split_conditions":[5.05E1,8.35E1,6.75E1,3.7E1,-1.15902334E-1,7.25E1,4.15E1,-7.985106E-2,1.485E2,4.2E1,-1.2243167E-1,-2.9540818E-2,-1.4976396E-1,-1.9143024E-2,5.55E1,1.43304765E-2,1.0824244E-1,1.3943706E-2,1.560275E-1],"split_indices":[1310,2310,1330,1200,0,2310,231,0,2000,1230,0,0,0,0,2001,0,0,0,0],"split_type":[0,0,0,0,0,0,0,0,0,0,0,0,0,0,0,0,0,0,0],"sum_hessian":[5.7178276E1,2.2462648E1,3.4715626E1,1.953635E1,2.926297E0,6.2474666E0,2.846816E1,1.0127441E0,1.8523607E1,2.466124E0,3.7813427E0,1.0886908E0,2.7379469E1,1.173515E0,1.7350092E1,1.1423206E0,1.3238034E0,1.0051762E0,1.6344915E1],"tree_param":{"num_deleted":"0","num_feature":"3333","num_nodes":"19","size_leaf_vector":"0"}},{"base_weights":[2.7819178E-1,-3.1090423E-1,4.13908E-1,-4.5279592E-1,1.0596929E-1,5.018275E-1,1.0769087E-1,-4.7686747E-1,-8.031962E-2,3.0152246E-1,-2.9113972E-1,-9.832128E-2,5.157336E-1,-1.9915523E-1,3.1982803E-1,4.036476E-1,-4.2040716E-3,4.3949686E-2,5.247898E-1,2.37983E-1,-3.5317874E-1,-1.5904064E-1,4.042481E-1,8.765696E-2,5.314512E-1,-2.9445721E-3,-4.311197E-1,4.6093634E-1,-1.4624552E-2,1.14026085E-1,4.9525356E-1],"categories":[],"categories_nodes":[],"categories_segments":[],"categories_sizes":[],"default_left":[1,1,1,1,1,1,1,0,0,1,0,0,1,1,1,0,0,0,1,0,1,0,0,0,0,0,0,1,0,0,0],"id":35,"left_children":[1,3,5,7,9,11,13,-1,-1,15,-1,-1,17,19,21,-1,-1,-1,23,-1,25,-1,27,-1,-1,-1,-1,29,-1,-1,-1],"loss_changes":[7.49166E0,1.1017673E0,1.9726715E0,8.256912E-2,5.0202566E-1,5.3654575E-1,1.239658E0,0E0,0E0,1.2863004E-1,0E0,0E0,2.207098E-1,6.2273633E-1,5.1160777E-1,0E0,0E0,0E0,1.1616039E-1,0E0,1.7121744E-1,0E0,2.3680902E-1,0E0,0E0,0E0,0E0,4.549253E-2,0E0,0E0,0E0],"parents":[2147483647,0,0,1,1,2,2,3,3,4,4,5,5,6,6,9,9,12,12,13,13,14,14,18,18,20,20,22,22,27,27],"right_children":[2,4,6,8,10,12,14,-1,-1,16,-1,-1,18,20,22,-1,-1,-1,24,-1,26,-1,28,-1,-1,-1,-1,30,-1,-1,-1],"split_conditions":[6.35E1,5.2E1,1.105E2,1.025E2,2.27E2,4.05E1,1.105E2,-1.4306025E-1,-2.4095887E-2,3.5E1,-8.734192E-2,-2.9496385E-2,7E1,2.1E2,4.65E1,1.2109429E-1,-1.2612215E-3,1.3184906E-2,4.75E1,7.1394905E-2,2.9E1,-4.7712196E-2,1.5E1,2.6297089E-2,1.5943538E-1,-8.833717E-4,-1.2933592E-1,7.15E1,-4.3873657E-3,3.420783E-2,1.4857608E-1],"split_indices":[302,2020,331,322,33,2020,203,0,0,1220,0,0,110,3000,113,0,0,0,113,0,3120,0,1122,0,0,0,0,2330,0,0,0],"split_type":[0,0,0,0,0,0,0,0,0,0,0,0,0,0,0,0,0,0,0,0,0,0,0,0,0,0,0,0,0,0,0],"sum_hessian":[9.1094864E1,1.6815203E1,7.427966E1,1.2480896E1,4.3343062E0,5.721391E1,1.7065754E1,1.1460021E1,1.0208746E0,3.065454E0,1.2688524E0,1.158218E0,5.605569E1,7.000732E0,1.0065022E1,2.0577815E0,1.0076725E0,1.1659954E0,5.4889698E1,1.6819726E0,5.3187594E0,1.3759711E0,8.689052E0,1.0364262E0,5.385327E1,1.1570845E0,4.161675E0,7.5648403E0,1.1242111E0,1.0700898E0,6.49475E0],"tree_param":{"num_deleted":"0","num_feature":"3333","num_nodes":"31","size_leaf_vector":"0"}},{"base_weights":[-1.2601061E-1,3.64276E-1,-3.5606232E-1,-1.5598789E-1,4.662468E-1,5.8393892E-2,-4.2007363E-1,8.4678836E-2,-2.9839736E-1,6.2038977E-2,4.9859384E-1,2.949531E-1,-3.133225E-1,2.0388089E-1,-4.6128923E-1,6.9807544E-2,3.616204E-1,-4.933626E-1,-5.4893848E-2,1.9486319E-1,-2.693031E-1],"categories":[],"categories_nodes":[],"categories_segments":[],"categories_sizes":[],"default_left":[1,1,1,1,1,1,1,0,0,0,0,1,0,0,1,0,0,0,1,0,0],"id":36,"left_children":[1,3,5,7,9,11,13,-1,-1,-1,-1,15,-1,-1,17,-1,-1,-1,19,-1,-1],"loss_changes":[5.434514E0,8.958137E-1,8.8721037E-1,1.3809004E-1,1.4195633E-1,5.5215126E-1,8.2154894E-1,0E0,0E0,0E0,0E0,3.0443847E-2,0E0,0E0,3.2279825E-1,0E0,0E0,0E0,2.1787792E-1,0E0,0E0],"parents":[2147483647,0,0,1,1,2,2,3,3,4,4,5,5,6,6,11,11,14,14,18,18],"right_children":[2,4,6,8,10,12,14,-1,-1,-1,-1,16,-1,-1,18,-1,-1,-1,20,-1,-1],"split_conditions":[2.5E1,2.2E2,5.45E1,1.43E2,5.95E1,5.3E1,8.35E1,2.5403652E-2,-8.951921E-2,1.8611694E-2,1.4957815E-1,3.85E1,-9.3996756E-2,6.116427E-2,1.315E2,2.0942263E-2,1.0848612E-1,-1.480088E-1,6.4E1,5.8458958E-2,-8.079094E-2],"split_indices":[2031,33,2130,20,2310,312,10,0,0,0,0,2220,0,0,23,0,0,0,103,0,0],"split_type":[0,0,0,0,0,0,0,0,0,0,0,0,0,0,0,0,0,0,0,0,0],"sum_hessian":[4.603209E1,1.4514758E1,3.151733E1,2.2918441E0,1.2222915E1,4.2282553E0,2.7289074E1,1.0027012E0,1.289143E0,1.1218768E0,1.1101037E1,2.7100794E0,1.518176E0,1.4463527E0,2.5842722E1,1.0868214E0,1.6232579E0,2.375402E1,2.088702E0,1.0069304E0,1.0817717E0],"tree_param":{"num_deleted":"0","num_feature":"3333","num_nodes":"21","size_leaf_vector":"0"}},{"base_weights":[-1.642898E-1,4.4860935E-1,-4.611547E-1,4.9923488E-1,-9.7783476E-2,1.079643E-1,-4.8683456E-1,-4.9470475E-1,-1.4572968E-1],"categories":[],"categories_nodes":[],"categories_segments":[],"categories_sizes":[],"default_left":[1,1,1,0,0,0,1,0,0],"id":37,"left_children":[1,3,5,-1,-1,-1,7,-1,-1],"loss_changes":[7.963297E0,4.476235E-1,4.7949648E-1,0E0,0E0,0E0,3.4308434E-3,0E0,0E0],"parents":[2147483647,0,0,1,1,2,2,6,6],"right_children":[2,4,6,-1,-1,-1,8,-1,-1],"split_conditions":[9.95E1,4.8E1,5.25E1,1.4977047E-1,-2.9335044E-2,3.238929E-2,1.37E2,-1.4841144E-1,-4.3718904E-2],"split_indices":[200,202,220,0,0,0,331,0,0],"split_type":[0,0,0,0,0,0,0,0,0],"sum_hessian":[4.162981E1,1.3417418E1,2.821239E1,1.2358645E1,1.0587721E0,1.0797027E0,2.7132689E1,2.6080639E1,1.0520501E0],"tree_param":{"num_deleted":"0","num_feature":"3333","num_nodes":"9","size_leaf_vector":"0"}},{"base_weights":[-1.3807349E-1,2.768977E-1,-4.155538E-1,4.3245888E-1,-2.0002852E-1,-1.1869287E-1,-4.7679013E-1,4.7886035E-1,-2.9016748E-2,-3.8784412E-1,1.7516485E-1,2.4741927E-1,-3.833393E-1,-4.9030155E-1,-8.9403614E-2,1.3560009E-1,4.974345E-1,3.4886733E-2,3.3027342E-1],"categories":[],"categories_nodes":[],"categories_segments":[],"categories_sizes":[],"default_left":[1,1,1,1,1,1,1,1,0,0,0,1,0,0,0,0,0,0,0],"id":38,"left_children":[1,3,5,7,9,11,13,15,-1,-1,-1,17,-1,-1,-1,-1,-1,-1,-1],"loss_changes":[5.4654574E0,1.5124635E0,4.5688248E-1,3.3100486E-1,4.4923055E-1,6.918491E-1,7.699156E-2,1.870513E-2,0E0,0E0,0E0,4.4703603E-2,0E0,0E0,0E0,0E0,0E0,0E0,0E0],"parents":[2147483647,0,0,1,1,2,2,3,3,4,4,5,5,6,6,7,7,11,11],"right_children":[2,4,6,8,10,12,14,16,-1,-1,-1,18,-1,-1,-1,-1,-1,-1,-1],"split_conditions":[5.05E1,1.455E2,6.75E1,7.75E1,1.405E2,7.25E1,8.85E1,1.425E2,-8.705025E-3,-1.16353236E-1,5.2549455E-2,1.3E1,-1.1500179E-1,-1.4709046E-1,-2.6821086E-2,4.068003E-2,1.4923036E-1,1.0466021E-2,9.908203E-2],"split_indices":[1310,310,1330,1320,1,2310,3010,1000,0,0,0,1122,0,0,0,0,0,0,0],"split_type":[0,0,0,0,0,0,0,0,0,0,0,0,0,0,0,0,0,0,0],"sum_hessian":[4.5466015E1,1.8220058E1,2.7245956E1,1.3809114E1,4.410944E0,5.1616464E0,2.208431E1,1.2513234E1,1.2958808E0,2.917016E0,1.4939278E0,2.192976E0,2.9686704E0,2.1083294E1,1.0010158E0,1.068436E0,1.1444798E1,1.0137155E0,1.1792605E0],"tree_param":{"num_deleted":"0","num_feature":"3333","num_nodes":"19","size_leaf_vector":"0"}},{"base_weights":[2.6195243E-1,-2.694497E-1,3.975187E-1,-4.3707728E-1,1.531984E-1,5.3026634E-3,4.6064067E-1,-4.6506175E-1,-7.318992E-2,-2.698111E-1,3.2929304E-1,3.1440437E-1,-2.0541085E-1,-1.1348384E-1,4.9234155E-1,3.8677323E-1,7.913171E-2,6.329243E-2,3.7459338E-1,-3.802268E-1,1.8499526E-1,-3.1844464E-1,1.9754997E-1,5.080576E-1,7.509823E-2,8.260043E-2,5.160782E-1,1.4472947E-1,5.2169555E-1],"categories":[],"categories_nodes":[],"categories_segments":[],"categories_sizes":[],"default_left":[1,1,1,1,1,1,1,0,0,0,1,1,0,1,1,0,0,0,0,0,0,0,0,1,0,0,1,0,0],"id":39,"left_children":[1,3,5,7,9,11,13,-1,-1,-1,15,17,19,21,23,-1,-1,-1,-1,-1,-1,-1,-1,25,-1,-1,27,-1,-1],"loss_changes":[5.427478E0,1.172685E0,1.4643278E0,8.240223E-2,4.7415257E-1,6.654022E-1,9.8446655E-1,0E0,0E0,0E0,2.8386265E-2,3.878054E-2,4.8598966E-1,2.8491342E-1,2.8013325E-1,0E0,0E0,0E0,0E0,0E0,0E0,0E0,0E0,1.1640167E-1,0E0,0E0,1.9514084E-2,0E0,0E0],"parents":[2147483647,0,0,1,1,2,2,3,3,4,4,5,5,6,6,10,10,11,11,12,12,13,13,14,14,23,23,26,26],"right_children":[2,4,6,8,10,12,14,-1,-1,-1,16,18,20,22,24,-1,-1,-1,-1,-1,-1,-1,-1,26,-1,-1,28,-1,-1],"split_conditions":[6.55E1,8.45E1,6.15E1,1.705E2,1.69E2,2.29E2,4.35E1,-1.3951853E-1,-2.1956977E-2,-8.094333E-2,5.8E1,6.55E1,1.9E1,9.05E1,7.3E1,1.16031975E-1,2.3739513E-2,1.898773E-2,1.12378016E-1,-1.1406804E-1,5.549858E-2,-9.553339E-2,5.926499E-2,6.9E1,2.252947E-2,2.478013E-2,4.75E1,4.341884E-2,1.5650867E-1],"split_indices":[302,22,2130,20,3100,33,2020,0,0,0,3030,102,1212,1331,1200,0,0,0,0,0,0,0,0,1002,0,0,113,0,0],"split_type":[0,0,0,0,0,0,0,0,0,0,0,0,0,0,0,0,0,0,0,0,0,0,0,0,0,0,0,0,0],"sum_hessian":[7.2852745E1,1.4607125E1,5.8245617E1,1.0434523E1,4.172603E0,8.224667E0,5.002095E1,9.431187E0,1.0033357E0,1.0700252E0,3.102578E0,3.134494E0,5.090173E0,2.4824407E0,4.753851E1,2.0788257E0,1.0237522E0,1.0027068E0,2.1317873E0,3.533857E0,1.5563158E0,1.4820157E0,1.0004249E0,4.560315E1,1.9353576E0,1.0528439E0,4.455031E1,1.0627055E0,4.3487602E1],"tree_param":{"num_deleted":"0","num_feature":"3333","num_nodes":"29","size_leaf_vector":"0"}}]},"name":"gbtree"},"learner_model_param":{"base_score":"5E-1","num_class":"4","num_feature":"3333","num_target":"1"},"objective":{"name":"multi:softprob","softmax_multiclass_param":{"num_class":"4"}}},"version":[1,6,1]}