{"learner":{"attributes":{"best_iteration":"9","best_ntree_limit":"10"},"feature_names":[],"feature_types":[],"gradient_booster":{"model":{"gbtree_model_param":{"num_parallel_tree":"1","num_trees":"20","size_leaf_vector":"0"},"tree_info":[0,1,0,1,0,1,0,1,0,1,0,1,0,1,0,1,0,1,0,1],"trees":[{"base_weights":[-3.3112583E-1,-9.259259E-1,6.5217394E-1,-9.569892E-1,6E-1,-8.666667E-1,8.627451E-1,1.4285715E-1,-9.8895025E-1,-6.666667E-1,9.3877554E-1,-5E-1,6E-1,-5E-1,9.791667E-1],"categories":[],"categories_nodes":[],"categories_segments":[],"categories_sizes":[],"default_left":[1,1,1,1,0,0,1,1,0,0,1,0,0,0,0],"id":0,"left_children":[1,3,5,7,-1,-1,9,11,-1,-1,13,-1,-1,-1,-1],"loss_changes":[8.891875E1,5.053528E0,1.9137594E1,3.410431E0,0E0,0E0,6.556221E0,1.3285714E0,0E0,0E0,3.3371582E0,0E0,0E0,0E0,0E0],"parents":[2147483647,0,0,1,1,2,2,3,3,6,6,7,7,10,10],"right_children":[2,4,6,8,-1,-1,10,12,-1,-1,14,-1,-1,-1,-1],"split_conditions":[4.1E1,7.05E1,4.05E1,7.5E1,1.8E-1,-2.6000002E-1,6.35E1,1.355E2,-2.966851E-1,-2.0000002E-1,7.85E1,-1.5E-1,1.8E-1,-1.5E-1,2.9375002E-1],"split_indices":[1032,2310,2010,3210,0,0,1010,1,0,0,1100,0,0,0,0],"split_type":[0,0,0,0,0,0,0,0,0,0,0,0,0,0,0],"sum_hessian":[1.5E2,9.35E1,5.65E1,9.2E1,1.5E0,6.5E0,5E1,2.5E0,8.95E1,2E0,4.8E1,1E0,1.5E0,1E0,4.7E1],"tree_param":{"num_deleted":"0","num_feature":"3333","num_nodes":"15","size_leaf_vector":"0"}},{"base_weights":[3.3112583E-1,9.259259E-1,-6.5217394E-1,9.569892E-1,-6E-1,8.666667E-1,-8.627451E-1,-1.4285715E-1,9.8895025E-1,6.666667E-1,-9.3877554E-1,5E-1,-6E-1,5E-1,-9.791667E-1],"categories":[],"categories_nodes":[],"categories_segments":[],"categories_sizes":[],"default_left":[1,1,1,1,0,0,1,1,0,0,1,0,0,0,0],"id":1,"left_children":[1,3,5,7,-1,-1,9,11,-1,-1,13,-1,-1,-1,-1],"loss_changes":[8.891875E1,5.053528E0,1.9137594E1,3.410431E0,0E0,0E0,6.556221E0,1.3285714E0,0E0,0E0,3.3371582E0,0E0,0E0,0E0,0E0],"parents":[2147483647,0,0,1,1,2,2,3,3,6,6,7,7,10,10],"right_children":[2,4,6,8,-1,-1,10,12,-1,-1,14,-1,-1,-1,-1],"split_conditions":[4.1E1,7.05E1,4.05E1,7.5E1,-1.8E-1,2.6000002E-1,6.35E1,1.355E2,2.966851E-1,2.0000002E-1,7.85E1,1.5E-1,-1.8E-1,1.5E-1,-2.9375002E-1],"split_indices":[1032,2310,2010,3210,0,0,1010,1,0,0,1100,0,0,0,0],"split_type":[0,0,0,0,0,0,0,0,0,0,0,0,0,0,0],"sum_hessian":[1.5E2,9.35E1,5.65E1,9.2E1,1.5E0,6.5E0,5E1,2.5E0,8.95E1,2E0,4.8E1,1E0,1.5E0,1E0,4.7E1],"tree_param":{"num_deleted":"0","num_feature":"3333","num_nodes":"15","size_leaf_vector":"0"}},{"base_weights":[-2.574601E-1,-7.1406823E-1,4.943736E-1,-7.4062043E-1,5.02717E-1,-6.846476E-1,6.6121566E-1,1.1129279E-1,-7.668859E-1,7.2559756E-1,-5.560501E-1,7.6006055E-1,-1.9338287E-1],"categories":[],"categories_nodes":[],"categories_segments":[],"categories_sizes":[],"default_left":[1,1,1,1,0,0,1,0,0,1,0,0,0],"id":2,"left_children":[1,3,5,7,-1,-1,9,-1,-1,11,-1,-1,-1],"loss_changes":[4.8102165E1,3.181366E0,1.0907142E1,1.9983215E0,0E0,0E0,4.092083E0,0E0,0E0,1.5764847E0,0E0,0E0,0E0],"parents":[2147483647,0,0,1,1,2,2,3,3,6,6,9,9],"right_children":[2,4,6,8,-1,-1,10,-1,-1,12,-1,-1,-1],"split_conditions":[4.1E1,7.05E1,4.05E1,7.5E1,1.5081511E-1,-2.053943E-1,6.5E1,3.3387836E-2,-2.3006578E-1,9.15E1,-1.6681504E-1,2.2801818E-1,-5.8014866E-2],"split_indices":[1032,2310,2010,3210,0,0,1220,0,0,13,0,0,0],"split_type":[0,0,0,0,0,0,0,0,0,0,0,0,0],"sum_hessian":[1.3809135E2,8.594497E1,5.214639E1,8.449254E1,1.4524307E0,6.07967E0,4.606672E1,2.430264E0,8.206228E1,4.413624E1,1.9304811E0,4.2707577E1,1.4286594E0],"tree_param":{"num_deleted":"0","num_feature":"3333","num_nodes":"13","size_leaf_vector":"0"}},{"base_weights":[2.5746015E-1,7.1406835E-1,-4.9437353E-1,7.4062055E-1,-5.02717E-1,6.846477E-1,-6.612156E-1,-1.1129281E-1,7.66886E-1,-7.255975E-1,5.560502E-1,-7.600605E-1,1.933829E-1],"categories":[],"categories_nodes":[],"categories_segments":[],"categories_sizes":[],"default_left":[1,1,1,1,0,0,1,0,0,1,0,0,0],"id":3,"left_children":[1,3,5,7,-1,-1,9,-1,-1,11,-1,-1,-1],"loss_changes":[4.8102165E1,3.181366E0,1.0907143E1,1.9983215E0,0E0,0E0,4.092083E0,0E0,0E0,1.5764828E0,0E0,0E0,0E0],"parents":[2147483647,0,0,1,1,2,2,3,3,6,6,9,9],"right_children":[2,4,6,8,-1,-1,10,-1,-1,12,-1,-1,-1],"split_conditions":[4.1E1,7.05E1,4.05E1,7.5E1,-1.5081511E-1,2.0539431E-1,6.5E1,-3.3387844E-2,2.3006581E-1,9.15E1,1.6681506E-1,-2.2801815E-1,5.8014873E-2],"split_indices":[1032,2310,2010,3210,0,0,1220,0,0,13,0,0,0],"split_type":[0,0,0,0,0,0,0,0,0,0,0,0,0],"sum_hessian":[1.3809135E2,8.594497E1,5.214639E1,8.449254E1,1.4524307E0,6.0796695E0,4.606672E1,2.430264E0,8.206227E1,4.413624E1,1.9304812E0,4.2707577E1,1.4286594E0],"tree_param":{"num_deleted":"0","num_feature":"3333","num_nodes":"13","size_leaf_vector":"0"}},{"base_weights":[-2.2193153E-1,-6.125456E-1,4.160069E-1,-6.476634E-1,2.5026488E-1,-5.8599144E-1,5.626855E-1,-7.004552E-2,-6.676866E-1,-7.975845E-2,4.5271495E-1,-2.978046E-1,6.409116E-1,2.2710131E-1,-3.607349E-1,-4.9595588E-1,8.897842E-2,6.5899587E-1,6.573442E-2],"categories":[],"categories_nodes":[],"categories_segments":[],"categories_sizes":[],"default_left":[1,1,1,1,1,0,1,1,0,0,0,1,1,0,0,0,0,0,0],"id":4,"left_children":[1,3,5,7,9,-1,11,13,-1,-1,-1,15,17,-1,-1,-1,-1,-1,-1],"loss_changes":[2.9580902E1,2.3860226E0,6.986003E0,7.7214813E-1,2.760901E-1,0E0,2.8844862E0,3.8333228E-1,0E0,0E0,0E0,3.520328E-1,3.4153175E-1,0E0,0E0,0E0,0E0,0E0,0E0],"parents":[2147483647,0,0,1,1,2,2,3,3,4,4,6,6,7,7,11,11,12,12],"right_children":[2,4,6,8,10,-1,12,14,-1,-1,-1,16,18,-1,-1,-1,-1,-1,-1],"split_conditions":[4.1E1,5.6E1,4.05E1,3.95E1,1.43E2,-1.7579743E-1,3.05E1,1.07E2,-2.0030598E-1,-2.3927536E-2,1.3581449E-1,7.1E1,1.58E2,6.81304E-2,-1.0822048E-1,-1.4878677E-1,2.6693527E-2,1.9769877E-1,1.9720327E-2],"split_indices":[1032,2010,2010,1321,2,0,1102,21,0,0,0,123,1,0,0,0,0,0,0],"split_type":[0,0,0,0,0,0,0,0,0,0,0,0,0,0,0,0,0,0,0],"sum_hessian":[1.1668668E2,7.2397194E1,4.4289494E1,6.980535E1,2.5918365E0,5.27303E0,3.9016464E1,2.4894404E0,6.731591E1,1.2158525E0,1.375984E0,3.017448E0,3.5999016E1,1.3392199E0,1.1502206E0,1.8086214E0,1.2088264E0,3.476038E1,1.2386357E0],"tree_param":{"num_deleted":"0","num_feature":"3333","num_nodes":"19","size_leaf_vector":"0"}},{"base_weights":[2.2193156E-1,6.125456E-1,-4.160069E-1,6.476634E-1,-2.5026488E-1,5.859914E-1,-5.626855E-1,7.004554E-2,6.676866E-1,7.9758435E-2,-4.5271495E-1,2.9780462E-1,-6.409116E-1,-2.2710128E-1,3.607349E-1,4.9595588E-1,-8.897838E-2,-6.5899587E-1,-6.5734416E-2],"categories":[],"categories_nodes":[],"categories_segments":[],"categories_sizes":[],"default_left":[1,1,1,1,1,0,1,1,0,0,0,1,1,0,0,0,0,0,0],"id":5,"left_children":[1,3,5,7,9,-1,11,13,-1,-1,-1,15,17,-1,-1,-1,-1,-1,-1],"loss_changes":[2.9580896E1,2.3860245E0,6.9860024E0,7.721462E-1,2.760901E-1,0E0,2.8844852E0,3.8333225E-1,0E0,0E0,0E0,3.5203272E-1,3.415327E-1,0E0,0E0,0E0,0E0,0E0,0E0],"parents":[2147483647,0,0,1,1,2,2,3,3,4,4,6,6,7,7,11,11,12,12],"right_children":[2,4,6,8,10,-1,12,14,-1,-1,-1,16,18,-1,-1,-1,-1,-1,-1],"split_conditions":[4.1E1,5.6E1,4.05E1,3.95E1,1.43E2,1.7579742E-1,3.05E1,1.07E2,2.0030598E-1,2.3927532E-2,-1.3581449E-1,7.1E1,1.58E2,-6.813039E-2,1.0822048E-1,1.4878677E-1,-2.6693515E-2,-1.9769877E-1,-1.9720325E-2],"split_indices":[1032,2010,2010,1321,2,0,1102,21,0,0,0,123,1,0,0,0,0,0,0],"split_type":[0,0,0,0,0,0,0,0,0,0,0,0,0,0,0,0,0,0,0],"sum_hessian":[1.16686676E2,7.2397194E1,4.428949E1,6.980535E1,2.5918365E0,5.27303E0,3.9016457E1,2.4894407E0,6.731591E1,1.2158525E0,1.3759841E0,3.017448E0,3.5999012E1,1.33922E0,1.1502206E0,1.8086214E0,1.2088263E0,3.4760376E1,1.2386355E0],"tree_param":{"num_deleted":"0","num_feature":"3333","num_nodes":"19","size_leaf_vector":"0"}},{"base_weights":[-1.9975674E-1,-5.1134104E-1,4.4030878E-1,-5.723571E-1,2.4269192E-1,-4.4972128E-1,5.2680206E-1,-5.9494555E-1,5.932168E-2,-3.656795E-1,5.1802754E-1,-2.0216732E-1,5.987146E-1,-7.654235E-3,-6.0579336E-1,-4.078066E-1,1.1120941E-1,-1.6871491E-1,-6.123485E-1],"categories":[],"categories_nodes":[],"categories_segments":[],"categories_sizes":[],"default_left":[1,1,1,1,1,0,1,1,0,0,0,1,0,0,1,0,0,0,0],"id":6,"left_children":[1,3,5,7,9,-1,11,13,-1,-1,-1,15,-1,-1,17,-1,-1,-1,-1],"loss_changes":[1.943165E1,3.1402874E0,2.705635E0,9.0068436E-1,1.1251082E0,0E0,1.6774015E0,3.6899376E-1,0E0,0E0,0E0,2.6532027E-1,0E0,0E0,6.1632156E-2,0E0,0E0,0E0,0E0],"parents":[2147483647,0,0,1,1,2,2,3,3,4,4,6,6,7,7,11,11,14,14],"right_children":[2,4,6,8,10,-1,12,14,-1,-1,-1,16,-1,-1,18,-1,-1,-1,-1],"split_conditions":[4.7E1,6.35E1,4.05E1,3.05E1,9.95E1,-1.349164E-1,3.05E1,3.25E1,1.7796505E-2,-1.09703854E-1,1.5540826E-1,5.05E1,1.7961438E-1,-2.2962706E-3,7.35E1,-1.2234198E-1,3.3362824E-2,-5.0614476E-2,-1.8370456E-1],"split_indices":[1032,2310,2010,2201,1100,0,1102,221,0,0,0,132,0,0,210,0,0,0,0],"split_type":[0,0,0,0,0,0,0,0,0,0,0,0,0,0,0,0,0,0,0],"sum_hessian":[9.530488E1,6.423591E1,3.106897E1,5.9649994E1,4.585915E0,2.379901E0,2.868907E1,5.7646736E1,2.0032587E0,1.3265958E0,3.2593195E0,2.4134011E0,2.627567E1,1.0764112E0,5.6570324E1,1.2752476E0,1.1381537E0,1.2309663E0,5.533936E1],"tree_param":{"num_deleted":"0","num_feature":"3333","num_nodes":"19","size_leaf_vector":"0"}},{"base_weights":[1.997567E-1,5.1134104E-1,-4.403088E-1,5.723571E-1,-2.4269195E-1,4.497213E-1,-5.2680206E-1,5.9494555E-1,-5.9321698E-2,3.656795E-1,-5.1802754E-1,2.0216733E-1,-5.9871465E-1,7.6542497E-3,6.0579336E-1,4.078066E-1,-1.1120939E-1,1.687149E-1,6.123485E-1],"categories":[],"categories_nodes":[],"categories_segments":[],"categories_sizes":[],"default_left":[1,1,1,1,1,0,1,1,0,0,0,1,0,0,1,0,0,0,0],"id":7,"left_children":[1,3,5,7,9,-1,11,13,-1,-1,-1,15,-1,-1,17,-1,-1,-1,-1],"loss_changes":[1.9431654E1,3.1402874E0,2.705635E0,9.0068626E-1,1.1251082E0,0E0,1.6774025E0,3.6899185E-1,0E0,0E0,0E0,2.6532027E-1,0E0,0E0,6.1632156E-2,0E0,0E0,0E0,0E0],"parents":[2147483647,0,0,1,1,2,2,3,3,4,4,6,6,7,7,11,11,14,14],"right_children":[2,4,6,8,10,-1,12,14,-1,-1,-1,16,-1,-1,18,-1,-1,-1,-1],"split_conditions":[4.7E1,6.35E1,4.05E1,3.05E1,9.95E1,1.349164E-1,3.05E1,3.25E1,-1.779651E-2,1.09703854E-1,-1.5540826E-1,5.05E1,-1.796144E-1,2.296275E-3,7.35E1,1.2234198E-1,-3.336282E-2,5.0614472E-2,1.8370456E-1],"split_indices":[1032,2310,2010,2201,1100,0,1102,221,0,0,0,132,0,0,210,0,0,0,0],"split_type":[0,0,0,0,0,0,0,0,0,0,0,0,0,0,0,0,0,0,0],"sum_hessian":[9.5304886E1,6.423591E1,3.1068975E1,5.9649994E1,4.5859156E0,2.379901E0,2.8689074E1,5.7646736E1,2.0032587E0,1.3265958E0,3.2593198E0,2.4134011E0,2.6275673E1,1.0764112E0,5.6570324E1,1.2752476E0,1.1381537E0,1.2309664E0,5.533936E1],"tree_param":{"num_deleted":"0","num_feature":"3333","num_nodes":"19","size_leaf_vector":"0"}},{"base_weights":[-1.840781E-1,-5.085269E-1,3.3082017E-1,2.0894045E-1,-5.5260813E-1,-4.719024E-1,4.5668253E-1,-1.2411292E-1,4.3077293E-1,-5.7088643E-1,5.9075464E-2,-4.2011386E-1,5.273405E-1,-1.8685466E-1,5.645617E-1],"categories":[],"categories_nodes":[],"categories_segments":[],"categories_sizes":[],"default_left":[1,1,1,1,1,0,1,0,0,0,0,0,1,0,0],"id":8,"left_children":[1,3,5,7,9,-1,11,-1,-1,-1,-1,-1,13,-1,-1],"loss_changes":[1.31367655E1,1.6340446E0,3.3084419E0,3.1241792E-1,5.425606E-1,0E0,1.8925319E0,0E0,0E0,0E0,0E0,0E0,7.8081083E-1,0E0,0E0],"parents":[2147483647,0,0,1,1,2,2,3,3,4,4,6,6,12,12],"right_children":[2,4,6,8,10,-1,12,-1,-1,-1,-1,-1,14,-1,-1],"split_conditions":[4.1E1,7.5E1,4.05E1,1.315E2,6.45E1,-1.4157073E-1,6.35E1,-3.7233878E-2,1.2923189E-1,-1.7126593E-1,1.772264E-2,-1.2603417E-1,8.1E1,-5.60564E-2,1.6936852E-1],"split_indices":[1032,3210,2010,32,2310,0,1010,0,0,0,0,0,1100,0,0],"split_type":[0,0,0,0,0,0,0,0,0,0,0,0,0,0,0],"sum_hessian":[7.662887E1,4.7015644E1,2.9613226E1,2.504957E0,4.4510685E1,3.6411858E0,2.597204E1,1.1775403E0,1.3274168E0,4.328397E1,1.2267152E0,1.5680703E0,2.440397E1,1.0097108E0,2.3394258E1],"tree_param":{"num_deleted":"0","num_feature":"3333","num_nodes":"15","size_leaf_vector":"0"}},{"base_weights":[1.8407804E-1,5.0852686E-1,-3.3082017E-1,-2.0894042E-1,5.526081E-1,4.7190243E-1,-4.5668253E-1,1.24112934E-1,-4.307729E-1,5.7088643E-1,-5.9075397E-2,4.201139E-1,-5.273405E-1,1.8685465E-1,-5.645617E-1],"categories":[],"categories_nodes":[],"categories_segments":[],"categories_sizes":[],"default_left":[1,1,1,1,1,0,1,0,0,0,0,0,1,0,0],"id":9,"left_children":[1,3,5,7,9,-1,11,-1,-1,-1,-1,-1,13,-1,-1],"loss_changes":[1.3136763E1,1.6340427E0,3.3084424E0,3.1241792E-1,5.425606E-1,0E0,1.8925319E0,0E0,0E0,0E0,0E0,0E0,7.8081083E-1,0E0,0E0],"parents":[2147483647,0,0,1,1,2,2,3,3,4,4,6,6,12,12],"right_children":[2,4,6,8,10,-1,12,-1,-1,-1,-1,-1,14,-1,-1],"split_conditions":[4.1E1,7.5E1,4.05E1,1.315E2,6.45E1,1.4157073E-1,6.35E1,3.723388E-2,-1.2923187E-1,1.7126593E-1,-1.772262E-2,1.2603417E-1,8.1E1,5.6056395E-2,-1.6936852E-1],"split_indices":[1032,3210,2010,32,2310,0,1010,0,0,0,0,0,1100,0,0],"split_type":[0,0,0,0,0,0,0,0,0,0,0,0,0,0,0],"sum_hessian":[7.662886E1,4.7015633E1,2.9613224E1,2.504957E0,4.4510677E1,3.6411858E0,2.5972038E1,1.1775403E0,1.3274168E0,4.3283962E1,1.2267153E0,1.5680703E0,2.4403969E1,1.0097107E0,2.3394257E1],"tree_param":{"num_deleted":"0","num_feature":"3333","num_nodes":"15","size_leaf_vector":"0"}},{"base_weights":[-1.7337772E-1,-5.048852E-1,2.6092497E-1,2.7617514E-2,-5.336216E-1,-2.7527538E-1,4.4148E-1,-8.582027E-2,-5.4504126E-1,-4.5502135E-1,3.1925216E-1,5.2921337E-1,-3.0419877E-1],"categories":[],"categories_nodes":[],"categories_segments":[],"categories_sizes":[],"default_left":[1,1,1,0,1,1,0,0,0,0,0,0,0],"id":10,"left_children":[1,3,5,-1,7,9,11,-1,-1,-1,-1,-1,-1],"loss_changes":[9.003702E0,5.5471134E-1,2.7678714E0,0E0,1.2468815E-1,9.4692165E-1,1.5238843E0,0E0,0E0,0E0,0E0,0E0,0E0],"parents":[2147483647,0,0,1,1,2,2,4,4,5,5,6,6],"right_children":[2,4,6,-1,8,10,12,-1,-1,-1,-1,-1,-1],"split_conditions":[3.7E1,3.95E1,2.45E1,8.285254E-3,7.35E1,6.05E1,4.5E1,-2.5746083E-2,-1.6351238E-1,-1.3650641E-1,9.577566E-2,1.5876402E-1,-9.1259636E-2],"split_indices":[1032,1321,2201,0,210,2310,1122,0,0,0,0,0,0],"split_type":[0,0,0,0,0,0,0,0,0,0,0,0,0],"sum_hessian":[6.0621746E1,3.4287354E1,2.6334394E1,1.757562E0,3.2529793E1,6.5016427E0,1.983275E1,1.0206861E0,3.1509106E1,5.172477E0,1.3291658E0,1.8004688E1,1.8280622E0],"tree_param":{"num_deleted":"0","num_feature":"3333","num_nodes":"13","size_leaf_vector":"0"}},{"base_weights":[1.7337777E-1,5.048853E-1,-2.60925E-1,-2.7617566E-2,5.3362167E-1,2.7527535E-1,-4.4148E-1,8.5820295E-2,5.450413E-1,4.5502135E-1,-3.192522E-1,-5.2921337E-1,3.0419877E-1],"categories":[],"categories_nodes":[],"categories_segments":[],"categories_sizes":[],"default_left":[1,1,1,0,1,1,0,0,0,0,0,0,0],"id":11,"left_children":[1,3,5,-1,7,9,11,-1,-1,-1,-1,-1,-1],"loss_changes":[9.003708E0,5.547104E-1,2.7678723E0,0E0,1.2468815E-1,9.469217E-1,1.5238838E0,0E0,0E0,0E0,0E0,0E0,0E0],"parents":[2147483647,0,0,1,1,2,2,4,4,5,5,6,6],"right_children":[2,4,6,-1,8,10,12,-1,-1,-1,-1,-1,-1],"split_conditions":[3.7E1,3.95E1,2.45E1,-8.28527E-3,7.35E1,6.05E1,4.5E1,2.574609E-2,1.6351241E-1,1.3650641E-1,-9.5775664E-2,-1.5876402E-1,9.1259636E-2],"split_indices":[1032,1321,2201,0,210,2310,1122,0,0,0,0,0,0],"split_type":[0,0,0,0,0,0,0,0,0,0,0,0,0],"sum_hessian":[6.0621765E1,3.4287365E1,2.6334398E1,1.7575619E0,3.2529804E1,6.501643E0,1.9832754E1,1.0206861E0,3.1509117E1,5.1724772E0,1.3291662E0,1.8004692E1,1.828062E0],"tree_param":{"num_deleted":"0","num_feature":"3333","num_nodes":"13","size_leaf_vector":"0"}},{"base_weights":[-1.6243958E-1,-4.7247782E-1,2.4750146E-1,1.6714102E-1,-5.1435363E-1,-3.3185062E-1,3.8806754E-1,-5.2521336E-1,-1.3272573E-1,-1.5714496E-2,-4.1448027E-1,4.6923396E-1,-3.5042652E-1,5.196111E-1,-1.3813613E-1],"categories":[],"categories_nodes":[],"categories_segments":[],"categories_sizes":[],"default_left":[1,1,1,0,1,1,1,0,0,0,0,1,0,0,0],"id":12,"left_children":[1,3,5,-1,7,9,11,-1,-1,-1,-1,13,-1,-1,-1],"loss_changes":[6.36946E0,8.454242E-1,1.9074123E0,0E0,4.159689E-2,1.189639E-1,1.2455893E0,0E0,0E0,0E0,0E0,5.8209825E-1,0E0,0E0,0E0],"parents":[2147483647,0,0,1,1,2,2,4,4,5,5,6,6,11,11],"right_children":[2,4,6,-1,8,10,12,-1,-1,-1,-1,14,-1,-1,-1],"split_conditions":[4.55E1,7.7E1,3.5E1,5.0142307E-2,8.85E1,5.1E1,5.75E1,-1.5756401E-1,-3.981772E-2,-4.7143493E-3,-1.2434409E-1,7.3E1,-1.0512796E-1,1.5588334E-1,-4.144084E-2],"split_indices":[2010,3210,1032,0,2320,221,1220,0,0,0,0,3020,0,0,0],"split_type":[0,0,0,0,0,0,0,0,0,0,0,0,0,0,0],"sum_hessian":[4.819472E1,2.73542E1,2.084052E1,1.4970244E0,2.5857176E1,3.803468E0,1.7037052E1,2.4775898E1,1.0812767E0,1.0347512E0,2.7687168E0,1.567847E1,1.3585823E0,1.4611072E1,1.0673983E0],"tree_param":{"num_deleted":"0","num_feature":"3333","num_nodes":"15","size_leaf_vector":"0"}},{"base_weights":[1.6243954E-1,4.7247782E-1,-2.4750152E-1,-1.6714105E-1,5.1435363E-1,3.3185062E-1,-3.880676E-1,5.2521336E-1,1.3272573E-1,1.5714511E-2,4.1448027E-1,-4.69234E-1,3.5042655E-1,-5.196112E-1,1.381361E-1],"categories":[],"categories_nodes":[],"categories_segments":[],"categories_sizes":[],"default_left":[1,1,1,0,1,1,1,0,0,0,0,1,0,0,0],"id":13,"left_children":[1,3,5,-1,7,9,11,-1,-1,-1,-1,13,-1,-1,-1],"loss_changes":[6.3694615E0,8.4542465E-1,1.9074128E0,0E0,4.159689E-2,1.1896384E-1,1.2455895E0,0E0,0E0,0E0,0E0,5.8209825E-1,0E0,0E0,0E0],"parents":[2147483647,0,0,1,1,2,2,4,4,5,5,6,6,11,11],"right_children":[2,4,6,-1,8,10,12,-1,-1,-1,-1,14,-1,-1,-1],"split_conditions":[4.55E1,7.7E1,3.5E1,-5.0142318E-2,8.85E1,5.1E1,5.75E1,1.5756401E-1,3.981772E-2,4.7143535E-3,1.2434409E-1,7.3E1,1.0512797E-1,-1.5588336E-1,4.1440833E-2],"split_indices":[2010,3210,1032,0,2320,221,1220,0,0,0,0,3020,0,0,0],"split_type":[0,0,0,0,0,0,0,0,0,0,0,0,0,0,0],"sum_hessian":[4.819473E1,2.7354202E1,2.0840525E1,1.4970245E0,2.5857178E1,3.8034682E0,1.7037056E1,2.4775902E1,1.0812769E0,1.0347512E0,2.768717E0,1.5678473E1,1.3585823E0,1.4611075E1,1.0673984E0],"tree_param":{"num_deleted":"0","num_feature":"3333","num_nodes":"15","size_leaf_vector":"0"}},{"base_weights":[-1.5567559E-1,-4.51934E-1,2.2226568E-1,1.0888125E-1,-4.935421E-1,-2.8289285E-1,3.7424543E-1,-5.08064E-1,-1.0444512E-1,-4.0004525E-1,3.519532E-2,4.7021788E-1,-9.198722E-2,1.20670505E-1,4.918953E-1,-3.0087483E-1,1.6409303E-1],"categories":[],"categories_nodes":[],"categories_segments":[],"categories_sizes":[],"default_left":[1,1,1,0,1,1,1,0,0,0,0,1,1,0,0,0,0],"id":14,"left_children":[1,3,5,-1,7,9,11,-1,-1,-1,-1,13,15,-1,-1,-1,-1],"loss_changes":[4.495754E0,5.7491493E-1,1.4816444E0,0E0,6.544256E-2,1.8974286E-1,6.7890406E-1,0E0,0E0,0E0,0E0,3.1149387E-2,2.2383185E-1,0E0,0E0,0E0,0E0],"parents":[2147483647,0,0,1,1,2,2,4,4,5,5,6,6,11,11,12,12],"right_children":[2,4,6,-1,8,10,12,-1,-1,-1,-1,14,16,-1,-1,-1,-1],"split_conditions":[3.7E1,7.5E1,6.85E1,3.2664377E-2,8.05E1,6.1E1,1.3E1,-1.524192E-1,-3.133354E-2,-1.2001358E-1,1.0558597E-2,6.7E1,2.5E1,3.6201153E-2,1.475686E-1,-9.026245E-2,4.9227912E-2],"split_indices":[1032,3210,1010,0,1101,1321,2211,0,0,0,0,1031,2201,0,0,0,0],"split_type":[0,0,0,0,0,0,0,0,0,0,0,0,0,0,0,0,0],"sum_hessian":[3.8254906E1,2.1335096E1,1.6919811E1,1.3618978E0,1.9973198E1,3.7139149E0,1.3205896E1,1.8959827E1,1.0133711E0,2.5259483E0,1.1879665E0,1.0944466E1,2.2614305E0,1.0225482E0,9.921918E0,1.1491399E0,1.1122905E0],"tree_param":{"num_deleted":"0","num_feature":"3333","num_nodes":"17","size_leaf_vector":"0"}},{"base_weights":[1.5567556E-1,4.51934E-1,-2.2226574E-1,-1.0888126E-1,4.9354208E-1,2.828928E-1,-3.7424546E-1,5.08064E-1,1.0444508E-1,4.0004528E-1,-3.5195414E-2,-4.702179E-1,9.198716E-2,-1.2067055E-1,-4.918953E-1,3.008748E-1,-1.6409308E-1],"categories":[],"categories_nodes":[],"categories_segments":[],"categories_sizes":[],"default_left":[1,1,1,0,1,1,1,0,0,0,0,1,1,0,0,0,0],"id":15,"left_children":[1,3,5,-1,7,9,11,-1,-1,-1,-1,13,15,-1,-1,-1,-1],"loss_changes":[4.495755E0,5.7491493E-1,1.4816446E0,0E0,6.544256E-2,1.8974301E-1,6.789037E-1,0E0,0E0,0E0,0E0,3.1149149E-2,2.2383192E-1,0E0,0E0,0E0,0E0],"parents":[2147483647,0,0,1,1,2,2,4,4,5,5,6,6,11,11,12,12],"right_children":[2,4,6,-1,8,10,12,-1,-1,-1,-1,14,16,-1,-1,-1,-1],"split_conditions":[3.7E1,7.5E1,6.85E1,-3.2664377E-2,8.05E1,6.1E1,1.3E1,1.524192E-1,3.1333525E-2,1.2001359E-1,-1.0558625E-2,6.7E1,2.5E1,-3.6201168E-2,-1.475686E-1,9.026244E-2,-4.9227927E-2],"split_indices":[1032,3210,1010,0,1101,1321,2211,0,0,0,0,1031,2201,0,0,0,0],"split_type":[0,0,0,0,0,0,0,0,0,0,0,0,0,0,0,0,0],"sum_hessian":[3.825491E1,2.1335098E1,1.6919813E1,1.3618977E0,1.99732E1,3.713915E0,1.3205898E1,1.895983E1,1.0133711E0,2.5259485E0,1.1879666E0,1.0944468E1,2.2614305E0,1.0225482E0,9.921919E0,1.1491398E0,1.1122906E0],"tree_param":{"num_deleted":"0","num_feature":"3333","num_nodes":"17","size_leaf_vector":"0"}},{"base_weights":[-1.4507005E-1,-4.0081164E-1,2.532257E-1,-4.858644E-1,-4.371748E-2,3.827876E-1,-3.1489232E-1,-3.0502427E-1,2.901478E-1,-8.736677E-2,4.5207068E-1,1.3438563E-1,4.7337586E-1],"categories":[],"categories_nodes":[],"categories_segments":[],"categories_sizes":[],"default_left":[1,1,0,0,1,1,0,0,0,0,1,0,0],"id":16,"left_children":[1,3,5,-1,7,9,-1,-1,-1,-1,11,-1,-1],"loss_changes":[3.3406086E0,5.786755E-1,1.0808821E0,0E0,5.158539E-1,4.0026605E-1,0E0,0E0,0E0,0E0,2.8159618E-3,0E0,0E0],"parents":[2147483647,0,0,1,1,2,2,4,4,5,5,10,10],"right_children":[2,4,6,-1,8,10,-1,-1,-1,-1,12,-1,-1],"split_conditions":[2.65E1,4.45E1,4.5E1,-1.4575933E-1,6.3E1,3.5E1,-9.44677E-2,-9.1507286E-2,8.704434E-2,-2.621003E-2,1.155E2,4.031569E-2,1.4201276E-1],"split_indices":[2201,2010,1122,0,2031,1032,0,0,0,0,32,0,0],"split_type":[0,0,0,0,0,0,0,0,0,0,0,0,0],"sum_hessian":[3.0799408E1,1.875238E1,1.2047027E1,1.4853876E1,3.8985047E0,1.0075485E1,1.9715414E0,2.2353475E0,1.6631573E0,1.2605302E0,8.814955E0,1.0132885E0,7.8016663E0],"tree_param":{"num_deleted":"0","num_feature":"3333","num_nodes":"13","size_leaf_vector":"0"}},{"base_weights":[1.4507009E-1,4.0081164E-1,-2.5322568E-1,4.858644E-1,4.3717485E-2,-3.827876E-1,3.1489232E-1,3.0502433E-1,-2.9014784E-1,8.736673E-2,-4.5207068E-1,-1.3438563E-1,-4.7337586E-1],"categories":[],"categories_nodes":[],"categories_segments":[],"categories_sizes":[],"default_left":[1,1,0,0,1,1,0,0,0,0,1,0,0],"id":17,"left_children":[1,3,5,-1,7,9,-1,-1,-1,-1,11,-1,-1],"loss_changes":[3.3406081E0,5.786755E-1,1.0808818E0,0E0,5.15854E-1,4.0026605E-1,0E0,0E0,0E0,0E0,2.8159618E-3,0E0,0E0],"parents":[2147483647,0,0,1,1,2,2,4,4,5,5,10,10],"right_children":[2,4,6,-1,8,10,-1,-1,-1,-1,12,-1,-1],"split_conditions":[2.65E1,4.45E1,4.5E1,1.4575933E-1,6.3E1,3.5E1,9.44677E-2,9.15073E-2,-8.704436E-2,2.621002E-2,1.155E2,-4.031569E-2,-1.4201276E-1],"split_indices":[2201,2010,1122,0,2031,1032,0,0,0,0,32,0,0],"split_type":[0,0,0,0,0,0,0,0,0,0,0,0,0],"sum_hessian":[3.0799404E1,1.875238E1,1.2047024E1,1.4853876E1,3.8985047E0,1.0075482E1,1.9715412E0,2.2353475E0,1.6631573E0,1.2605301E0,8.814953E0,1.0132886E0,7.801664E0],"tree_param":{"num_deleted":"0","num_feature":"3333","num_nodes":"13","size_leaf_vector":"0"}},{"base_weights":[-1.3330111E-1,-3.816255E-1,2.317148E-1,1.6303656E-1,-4.549745E-1,-1.5626612E-1,4.0165758E-1,-4.816475E-1,-7.4860156E-2,-3.285053E-1,1.4069156E-1,3.5063364E-2,4.500592E-1],"categories":[],"categories_nodes":[],"categories_segments":[],"categories_sizes":[],"default_left":[1,1,1,0,1,1,1,0,0,0,0,0,0],"id":18,"left_children":[1,3,5,-1,7,9,11,-1,-1,-1,-1,-1,-1],"loss_changes":[2.4424016E0,7.067208E-1,7.9705894E-1,0E0,1.0809541E-1,2.5654453E-1,1.2660527E-1,0E0,0E0,0E0,0E0,0E0,0E0],"parents":[2147483647,0,0,1,1,2,2,4,4,5,5,6,6],"right_children":[2,4,6,-1,8,10,12,-1,-1,-1,-1,-1,-1],"split_conditions":[4.1E1,7.5E1,5.45E1,4.8910968E-2,8.35E1,7.6E1,5.35E1,-1.4449425E-1,-2.2458047E-2,-9.855159E-2,4.2207472E-2,1.0519009E-2,1.3501777E-1],"split_indices":[1032,3210,102,0,1011,2320,212,0,0,0,0,0,0],"split_type":[0,0,0,0,0,0,0,0,0,0,0,0,0],"sum_hessian":[2.4969908E1,1.4833207E1,1.0136701E1,1.6153646E0,1.3217842E1,3.1121383E0,7.024562E0,1.2101553E1,1.1162893E0,1.9024547E0,1.2096837E0,1.0204079E0,6.004154E0],"tree_param":{"num_deleted":"0","num_feature":"3333","num_nodes":"13","size_leaf_vector":"0"}},{"base_weights":[1.3330081E-1,3.816254E-1,-2.3171495E-1,-1.6303651E-1,4.5497444E-1,1.5626599E-1,-4.0165764E-1,4.8164743E-1,7.4860185E-2,3.2850525E-1,-1.4069165E-1,-3.506348E-2,-4.5005924E-1],"categories":[],"categories_nodes":[],"categories_segments":[],"categories_sizes":[],"default_left":[1,1,1,0,1,1,1,0,0,0,0,0,0],"id":19,"left_children":[1,3,5,-1,7,9,11,-1,-1,-1,-1,-1,-1],"loss_changes":[2.4424021E0,7.0672035E-1,7.970587E-1,0E0,1.0809541E-1,2.5654468E-1,1.2660515E-1,0E0,0E0,0E0,0E0,0E0,0E0],"parents":[2147483647,0,0,1,1,2,2,4,4,5,5,6,6],"right_children":[2,4,6,-1,8,10,12,-1,-1,-1,-1,-1,-1],"split_conditions":[4.1E1,7.5E1,5.45E1,-4.8910957E-2,8.35E1,7.6E1,5.35E1,1.4449424E-1,2.2458056E-2,9.855158E-2,-4.2207498E-2,-1.05190445E-2,-1.3501778E-1],"split_indices":[1032,3210,102,0,1011,2320,212,0,0,0,0,0,0],"split_type":[0,0,0,0,0,0,0,0,0,0,0,0,0],"sum_hessian":[2.4969898E1,1.4833195E1,1.0136704E1,1.6153646E0,1.321783E1,3.1121385E0,7.0245657E0,1.2101541E1,1.1162891E0,1.9024544E0,1.2096843E0,1.0204085E0,6.004157E0],"tree_param":{"num_deleted":"0","num_feature":"3333","num_nodes":"13","size_leaf_vector":"0"}}]},"name":"gbtree"},"learner_model_param":{"base_score":"5E-1","num_class":"2","num_feature":"3333","num_target":"1"},"objective":{"name":"multi:softprob","softmax_multiclass_param":{"num_class":"2"}}},"version":[1,6,1]}