{"learner":{"attributes":{"best_iteration":"9","best_ntree_limit":"10"},"feature_names":[],"feature_types":[],"gradient_booster":{"model":{"gbtree_model_param":{"num_parallel_tree":"1","num_trees":"30","size_leaf_vector":"0"},"tree_info":[0,1,2,0,1,2,0,1,2,0,1,2,0,1,2,0,1,2,0,1,2,0,1,2,0,1,2,0,1,2],"trees":[{"base_weights":[-4.4370704E-8,1.4669926E0,-7.416564E-1],"categories":[],"categories_nodes":[],"categories_segments":[],"categories_sizes":[],"default_left":[1,0,0],"id":0,"left_children":[1,-1,-1],"loss_changes":[1.4724327E2,0E0,0E0],"parents":[2147483647,0,0],"right_children":[2,-1,-1],"split_conditions":[5.3E1,4.400978E-1,-2.2249694E-1],"split_indices":[312,0,0],"split_type":[0,0,0],"sum_hessian":[1.3333333E2,4.4444443E1,8.8888885E1],"tree_param":{"num_deleted":"0","num_feature":"3333","num_nodes":"3","size_leaf_vector":"0"}},{"base_weights":[-4.4370704E-8,1.4444444E0,-7.195573E-1,1.4656489E0,4.285714E-1,-7.4144495E-1,-3.2511625E-8,-4.2857146E-1,4.285714E-1],"categories":[],"categories_nodes":[],"categories_segments":[],"categories_sizes":[],"default_left":[1,1,1,0,0,0,1,0,0],"id":1,"left_children":[1,3,5,-1,-1,-1,7,-1,-1],"loss_changes":[1.4066011E2,3.412094E-1,1.422699E0,0E0,0E0,0E0,8.571428E-1,0E0,0E0],"parents":[2147483647,0,0,1,1,2,2,6,6],"right_children":[2,4,6,-1,-1,-1,8,-1,-1],"split_conditions":[1.23E2,1.21E2,5.15E1,4.3969467E-1,1.2857142E-1,-2.2243349E-1,1.355E2,-1.2857145E-1,1.2857142E-1],"split_indices":[33,10,120,0,0,0,2,0,0],"split_type":[0,0,0,0,0,0,0,0,0],"sum_hessian":[1.3333333E2,4.3999996E1,8.933333E1,4.2666664E1,1.3333333E0,8.6666664E1,2.6666665E0,1.3333333E0,1.3333333E0],"tree_param":{"num_deleted":"0","num_feature":"3333","num_nodes":"9","size_leaf_vector":"0"}},{"base_weights":[-4.4370704E-8,-7.0848715E-1,1.4222223E0,-7.4153084E-1,5.9999996E-1,-2.5544848E-8,1.4656489E0],"categories":[],"categories_nodes":[],"categories_segments":[],"categories_sizes":[],"default_left":[1,1,1,0,0,0,0],"id":2,"left_children":[1,3,5,-1,-1,-1,-1],"loss_changes":[1.3636539E2,4.3506813E0,2.7793045E0,0E0,0E0,0E0,0E0],"parents":[2147483647,0,0,1,1,2,2],"right_children":[2,4,6,-1,-1,-1,-1],"split_conditions":[1.245E2,1.255E2,9.95E1,-2.2245926E-1,1.7999999E-1,-7.663455E-9,4.3969467E-1],"split_indices":[1100,322,1,0,0,0,0],"split_type":[0,0,0,0,0,0,0],"sum_hessian":[1.3333333E2,8.933333E1,4.3999996E1,8.755555E1,1.7777777E0,1.3333333E0,4.2666664E1],"tree_param":{"num_deleted":"0","num_feature":"3333","num_nodes":"7","size_leaf_vector":"0"}},{"base_weights":[-1.3830367E-3,9.956209E-1,-6.623486E-1],"categories":[],"categories_nodes":[],"categories_segments":[],"categories_sizes":[],"default_left":[1,0,0],"id":3,"left_children":[1,-1,-1],"loss_changes":[8.428285E1,0E0,0E0],"parents":[2147483647,0,0],"right_children":[2,-1,-1],"split_conditions":[5.3E1,2.986863E-1,-1.987046E-1],"split_indices":[312,0,0],"split_type":[0,0,0],"sum_hessian":[1.2589722E2,4.9988297E1,7.590892E1],"tree_param":{"num_deleted":"0","num_feature":"3333","num_nodes":"3","size_leaf_vector":"0"}},{"base_weights":[5.508306E-4,-6.399897E-1,9.8915285E-1,-6.6320807E-1,4.4179406E-2,1.0014551E0,3.2018885E-1,-3.5645026E-1,3.8958794E-1],"categories":[],"categories_nodes":[],"categories_segments":[],"categories_sizes":[],"default_left":[1,1,1,0,1,0,0,0,0],"id":4,"left_children":[1,3,5,-1,7,-1,-1,-1,-1],"loss_changes":[8.1039795E1,1.262949E0,9.344101E-2,0E0,6.2134093E-1,0E0,0E0,0E0,0E0],"parents":[2147483647,0,0,1,1,2,2,4,4],"right_children":[2,4,6,-1,8,-1,-1,-1,-1],"split_conditions":[9.9E1,5.65E1,8.85E1,-1.9896244E-1,1.04E2,3.0043653E-1,9.605666E-2,-1.06935084E-1,1.16876386E-1],"split_indices":[1021,201,1,0,10,0,0,0,0],"split_type":[0,0,0,0,0,0,0,0,0],"sum_hessian":[1.2597681E2,7.6659676E1,4.9317127E1,7.417313E1,2.4865518E0,4.793852E1,1.3786113E0,1.1364491E0,1.3501027E0],"tree_param":{"num_deleted":"0","num_feature":"3333","num_nodes":"9","size_leaf_vector":"0"}},{"base_weights":[8.3152275E-4,-6.2731135E-1,9.698443E-1,-6.6185427E-1,4.9173164E-1,-5.5296373E-2,9.996114E-1],"categories":[],"categories_nodes":[],"categories_segments":[],"categories_sizes":[],"default_left":[1,1,1,0,0,0,0],"id":5,"left_children":[1,3,5,-1,-1,-1,-1],"loss_changes":[7.788127E1,3.3262577E0,1.5908585E0,0E0,0E0,0E0,0E0],"parents":[2147483647,0,0,1,1,2,2],"right_children":[2,4,6,-1,-1,-1,-1],"split_conditions":[1.245E2,1.255E2,1.19E2,-1.9855629E-1,1.475195E-1,-1.6588913E-2,2.9988343E-1],"split_indices":[1100,322,3,0,0,0,0],"split_type":[0,0,0,0,0,0,0],"sum_hessian":[1.2595188E2,7.66304E1,4.9321476E1,7.473211E1,1.8982956E0,1.3675396E0,4.7953938E1],"tree_param":{"num_deleted":"0","num_feature":"3333","num_nodes":"7","size_leaf_vector":"0"}},{"base_weights":[-2.3351086E-3,7.975677E-1,-6.1121523E-1],"categories":[],"categories_nodes":[],"categories_segments":[],"categories_sizes":[],"default_left":[1,0,0],"id":6,"left_children":[1,-1,-1],"loss_changes":[5.453657E1,0E0,0E0],"parents":[2147483647,0,0],"right_children":[2,-1,-1],"split_conditions":[5.3E1,2.3927033E-1,-1.8336457E-1],"split_indices":[312,0,0],"split_type":[0,0,0],"sum_hessian":[1.099735E2,4.7396935E1,6.257657E1],"tree_param":{"num_deleted":"0","num_feature":"3333","num_nodes":"3","size_leaf_vector":"0"}},{"base_weights":[1.1114918E-3,-5.866779E-1,7.907535E-1,-6.1129504E-1,4.3109946E-2,2.047288E-1,8.0342615E-1,3.461634E-1,-3.2591778E-1],"categories":[],"categories_nodes":[],"categories_segments":[],"categories_sizes":[],"default_left":[1,1,1,0,1,0,0,0,0],"id":7,"left_children":[1,3,5,-1,7,-1,-1,-1,-1],"loss_changes":[5.215579E1,1.0250854E0,1.9162369E-1,0E0,4.8829976E-1,0E0,0E0,0E0,0E0],"parents":[2147483647,0,0,1,1,2,2,4,4],"right_children":[2,4,6,-1,8,-1,-1,-1,-1],"split_conditions":[9.9E1,5.65E1,8.55E1,-1.8338852E-1,1.655E2,6.141864E-2,2.4102785E-1,1.0384902E-1,-9.777534E-2],"split_indices":[1021,201,210,0,2,0,0,0,0],"split_type":[0,0,0,0,0,0,0,0,0],"sum_hessian":[1.1037052E2,6.341961E1,4.6950912E1,6.1062176E1,2.357433E0,1.3569372E0,4.5593975E1,1.3284445E0,1.0289886E0],"tree_param":{"num_deleted":"0","num_feature":"3333","num_nodes":"9","size_leaf_vector":"0"}},{"base_weights":[1.2162603E-3,-5.7374215E-1,7.754636E-1,-6.10313E-1,3.978637E-1,8.0096996E-1,-8.20549E-2],"categories":[],"categories_nodes":[],"categories_segments":[],"categories_sizes":[],"default_left":[1,1,1,0,0,0,0],"id":8,"left_children":[1,3,5,-1,-1,-1,-1],"loss_changes":[4.998169E1,2.5322628E0,1.1122246E0,0E0,0E0,0E0,0E0],"parents":[2147483647,0,0,1,1,2,2],"right_children":[2,4,6,-1,-1,-1,-1],"split_conditions":[1.245E2,1.255E2,1.175E2,-1.830939E-1,1.1935911E-1,2.40291E-1,-2.461647E-2],"split_indices":[1100,322,10,0,0,0,0],"split_type":[0,0,0,0,0,0,0],"sum_hessian":[1.1027857E2,6.3432426E1,4.6846146E1,6.148983E1,1.9425994E0,4.5557026E1,1.2891219E0],"tree_param":{"num_deleted":"0","num_feature":"3333","num_nodes":"7","size_leaf_vector":"0"}},{"base_weights":[-3.4597341E-3,6.8974334E-1,-5.7578367E-1],"categories":[],"categories_nodes":[],"categories_segments":[],"categories_sizes":[],"default_left":[1,0,0],"id":9,"left_children":[1,-1,-1],"loss_changes":[3.715058E1,0E0,0E0],"parents":[2147483647,0,0],"right_children":[2,-1,-1],"split_conditions":[5.3E1,2.0692301E-1,-1.7273511E-1],"split_indices":[312,0,0],"split_type":[0,0,0],"sum_hessian":[9.1639366E1,4.135035E1,5.0289017E1],"tree_param":{"num_deleted":"0","num_feature":"3333","num_nodes":"3","size_leaf_vector":"0"}},{"base_weights":[1.7115164E-3,6.7069894E-1,-5.6232315E-1,-1.169746E-1,6.980067E-1,-5.759839E-1,4.2046968E-2],"categories":[],"categories_nodes":[],"categories_segments":[],"categories_sizes":[],"default_left":[1,1,1,0,0,0,0],"id":10,"left_children":[1,3,5,-1,-1,-1,-1],"loss_changes":[3.5611725E1,1.0102406E0,4.4699287E-1,0E0,0E0,0E0,0E0],"parents":[2147483647,0,0,1,1,2,2],"right_children":[2,4,6,-1,-1,-1,-1],"split_conditions":[9.7E1,7.4E1,1.335E2,-3.509238E-2,2.0940201E-1,-1.7279518E-1,1.2614091E-2],"split_indices":[1,1020,100,0,0,0,0],"split_type":[0,0,0,0,0,0,0],"sum_hessian":[9.237816E1,4.2171036E1,5.0207123E1,1.3030103E0,4.0868027E1,4.914329E1,1.0638311E0],"tree_param":{"num_deleted":"0","num_feature":"3333","num_nodes":"7","size_leaf_vector":"0"}},{"base_weights":[1.7232364E-3,-5.354121E-1,6.6881937E-1,-5.746471E-1,3.2822645E-1,6.9321984E-1,-9.986077E-2],"categories":[],"categories_nodes":[],"categories_segments":[],"categories_sizes":[],"default_left":[1,1,0,0,0,0,0],"id":11,"left_children":[1,3,5,-1,-1,-1,-1],"loss_changes":[3.3771626E1,1.9578238E0,8.5769653E-1,0E0,0E0,0E0,0E0],"parents":[2147483647,0,0,1,1,2,2],"right_children":[2,4,6,-1,-1,-1,-1],"split_conditions":[1.245E2,1.255E2,4.05E1,-1.7239414E-1,9.846794E-2,2.0796596E-1,-2.9958233E-2],"split_indices":[1100,322,121,0,0,0,0],"split_type":[0,0,0,0,0,0,0],"sum_hessian":[9.2250305E1,5.1212337E1,4.1037968E1,4.9306946E1,1.9053899E0,3.9870514E1,1.1674551E0],"tree_param":{"num_deleted":"0","num_feature":"3333","num_nodes":"7","size_leaf_vector":"0"}},{"base_weights":[-3.9603356E-3,6.2375486E-1,-5.499167E-1],"categories":[],"categories_nodes":[],"categories_segments":[],"categories_sizes":[],"default_left":[1,0,0],"id":12,"left_children":[1,-1,-1],"loss_changes":[2.6079857E1,0E0,0E0],"parents":[2147483647,0,0],"right_children":[2,-1,-1],"split_conditions":[5.3E1,1.8712646E-1,-1.6497502E-1],"split_indices":[312,0,0],"split_type":[0,0,0],"sum_hessian":[7.4099106E1,3.4402367E1,3.969674E1],"tree_param":{"num_deleted":"0","num_feature":"3333","num_nodes":"3","size_leaf_vector":"0"}},{"base_weights":[1.9791522E-3,-5.124609E-1,6.2920094E-1,-5.505935E-1,1.1112433E-1,4.202249E-1,-2.9470357E-1],"categories":[],"categories_nodes":[],"categories_segments":[],"categories_sizes":[],"default_left":[1,1,0,0,1,0,0],"id":13,"left_children":[1,3,-1,-1,5,-1,-1],"loss_changes":[2.4860704E1,1.0677805E0,0E0,0E0,5.342225E-1,0E0,0E0],"parents":[2147483647,0,0,1,1,4,4],"right_children":[2,4,-1,-1,6,-1,-1],"split_conditions":[1.21E2,5.65E1,1.887603E-1,-1.6517806E-1,1.125E2,1.2606747E-1,-8.841108E-2],"split_indices":[2031,201,0,0,13,0,0],"split_type":[0,0,0,0,0,0,0],"sum_hessian":[7.504802E1,4.133143E1,3.371659E1,3.905994E1,2.2714872E0,1.2692682E0,1.0022192E0],"tree_param":{"num_deleted":"0","num_feature":"3333","num_nodes":"7","size_leaf_vector":"0"}},{"base_weights":[1.9363796E-3,-5.055061E-1,6.0107976E-1,-5.4856724E-1,2.8052336E-1,-1.1087425E-1,6.257682E-1],"categories":[],"categories_nodes":[],"categories_segments":[],"categories_sizes":[],"default_left":[1,1,1,0,0,0,0],"id":14,"left_children":[1,3,5,-1,-1,-1,-1],"loss_changes":[2.3369396E1,1.5625954E0,6.8890667E-1,0E0,0E0,0E0,0E0],"parents":[2147483647,0,0,1,1,2,2],"right_children":[2,4,6,-1,-1,-1,-1],"split_conditions":[1.245E2,1.255E2,6.3E1,-1.6457018E-1,8.415701E-2,-3.3262275E-2,1.8773046E-1],"split_indices":[1100,322,222,0,0,0,0],"split_type":[0,0,0,0,0,0,0],"sum_hessian":[7.486582E1,4.0619534E1,3.424629E1,3.8796257E1,1.8232754E0,1.0307596E0,3.321553E1],"tree_param":{"num_deleted":"0","num_feature":"3333","num_nodes":"7","size_leaf_vector":"0"}},{"base_weights":[-4.862181E-3,5.791365E-1,-5.2997935E-1],"categories":[],"categories_nodes":[],"categories_segments":[],"categories_sizes":[],"default_left":[1,0,0],"id":15,"left_children":[1,-1,-1],"loss_changes":[1.8609722E1,0E0,0E0],"parents":[2147483647,0,0],"right_children":[2,-1,-1],"split_conditions":[5.3E1,1.7374095E-1,-1.5899381E-1],"split_indices":[312,0,0],"split_type":[0,0,0],"sum_hessian":[5.8682816E1,2.7735006E1,3.094781E1],"tree_param":{"num_deleted":"0","num_feature":"3333","num_nodes":"3","size_leaf_vector":"0"}},{"base_weights":[2.7131818E-3,5.5907226E-1,-5.126762E-1,-1.02630615E-1,5.8576787E-1,-5.2970946E-1,-6.231257E-3],"categories":[],"categories_nodes":[],"categories_segments":[],"categories_sizes":[],"default_left":[1,1,1,0,0,0,0],"id":16,"left_children":[1,3,5,-1,-1,-1,-1],"loss_changes":[1.7693977E1,5.842562E-1,2.7305412E-1,0E0,0E0,0E0,0E0],"parents":[2147483647,0,0,1,1,2,2],"right_children":[2,4,6,-1,-1,-1,-1],"split_conditions":[9.7E1,7.4E1,8.8E1,-3.0789185E-2,1.7573036E-1,-1.5891284E-1,-1.8693772E-3],"split_indices":[1,1020,1020,0,0,0,0],"split_type":[0,0,0,0,0,0,0],"sum_hessian":[5.970747E1,2.8671759E1,3.1035713E1,1.0015625E0,2.7670195E1,2.998141E1,1.0543048E0],"tree_param":{"num_deleted":"0","num_feature":"3333","num_nodes":"7","size_leaf_vector":"0"}},{"base_weights":[2.0713361E-3,-4.6058202E-1,5.8126587E-1,-5.305378E-1,1.4557615E-1,4.4870365E-1,-3.270134E-1],"categories":[],"categories_nodes":[],"categories_segments":[],"categories_sizes":[],"default_left":[1,1,0,0,1,0,0],"id":17,"left_children":[1,3,-1,-1,5,-1,-1],"loss_changes":[1.6501228E1,1.5290022E0,0E0,0E0,7.666014E-1,0E0,0E0],"parents":[2147483647,0,0,1,1,4,4],"right_children":[2,4,-1,-1,6,-1,-1],"split_conditions":[1.135E2,1.205E2,1.7437977E-1,-1.5916134E-1,3.1E1,1.346111E-1,-9.810402E-2],"split_indices":[2200,2100,0,0,123,0,0],"split_type":[0,0,0,0,0,0,0],"sum_hessian":[5.9580406E1,3.3236385E1,2.634402E1,2.9909348E1,3.3270376E0,2.057721E0,1.2693167E0],"tree_param":{"num_deleted":"0","num_feature":"3333","num_nodes":"7","size_leaf_vector":"0"}},{"base_weights":[-5.43953E-3,5.4698247E-1,-5.136181E-1],"categories":[],"categories_nodes":[],"categories_segments":[],"categories_sizes":[],"default_left":[1,0,0],"id":18,"left_children":[1,-1,-1],"loss_changes":[1.3437332E1,0E0,0E0],"parents":[2147483647,0,0],"right_children":[2,-1,-1],"split_conditions":[5.3E1,1.6409475E-1,-1.5408544E-1],"split_indices":[312,0,0],"split_type":[0,0,0],"sum_hessian":[4.5865093E1,2.1939318E1,2.3925776E1],"tree_param":{"num_deleted":"0","num_feature":"3333","num_nodes":"3","size_leaf_vector":"0"}},{"base_weights":[2.6123887E-3,-4.7134098E-1,5.513804E-1,-5.142019E-1,1.05131164E-1],"categories":[],"categories_nodes":[],"categories_segments":[],"categories_sizes":[],"default_left":[1,1,0,0,0],"id":19,"left_children":[1,3,-1,-1,-1],"loss_changes":[1.2733092E1,7.0318556E-1,0E0,0E0,0E0],"parents":[2147483647,0,0,1,1],"right_children":[2,4,-1,-1,-1],"split_conditions":[1.21E2,5.65E1,1.6541412E-1,-1.5426058E-1,3.153935E-2],"split_indices":[2031,201,0,0,0],"split_type":[0,0,0,0,0],"sum_hessian":[4.695718E1,2.5271814E1,2.1685366E1,2.3623425E1,1.6483893E0],"tree_param":{"num_deleted":"0","num_feature":"3333","num_nodes":"5","size_leaf_vector":"0"}},{"base_weights":[2.7121543E-3,-4.4958007E-1,5.3729296E-1,-5.0456643E-1,2.3167455E-1,-5.1437163E-1,-1.495745E-1],"categories":[],"categories_nodes":[],"categories_segments":[],"categories_sizes":[],"default_left":[1,1,0,1,0,0,0],"id":20,"left_children":[1,3,-1,5,-1,-1,-1],"loss_changes":[1.1798907E1,1.107224E0,0E0,9.3073845E-3,0E0,0E0,0E0],"parents":[2147483647,0,0,1,1,3,3],"right_children":[2,4,-1,6,-1,-1,-1],"split_conditions":[1.1E2,6.8E1,1.6118789E-1,8.85E1,6.950237E-2,-1.543115E-1,-4.487235E-2],"split_indices":[2200,2230,0,132,0,0,0],"split_type":[0,0,0,0,0,0,0],"sum_hessian":[4.6799774E1,2.5437174E1,2.1362598E1,2.3777378E1,1.6597958E0,2.270138E1,1.0759991E0],"tree_param":{"num_deleted":"0","num_feature":"3333","num_nodes":"7","size_leaf_vector":"0"}},{"base_weights":[-5.276002E-3,5.2271533E-1,-4.9952137E-1],"categories":[],"categories_nodes":[],"categories_segments":[],"categories_sizes":[],"default_left":[1,0,0],"id":21,"left_children":[1,-1,-1],"loss_changes":[9.846506E0,0E0,0E0],"parents":[2147483647,0,0],"right_children":[2,-1,-1],"split_conditions":[5.3E1,1.568146E-1,-1.4985642E-1],"split_indices":[312,0,0],"split_type":[0,0,0],"sum_hessian":[3.5731674E1,1.7248201E1,1.8483473E1],"tree_param":{"num_deleted":"0","num_feature":"3333","num_nodes":"3","size_leaf_vector":"0"}},{"base_weights":[2.8005124E-3,-4.6193504E-1,5.1537585E-1,-4.9918914E-1,4.9715277E-2],"categories":[],"categories_nodes":[],"categories_segments":[],"categories_sizes":[],"default_left":[1,1,0,0,0],"id":22,"left_children":[1,3,-1,-1,-1],"loss_changes":[9.227749E0,4.121399E-1,0E0,0E0,0E0],"parents":[2147483647,0,0,1,1],"right_children":[2,4,-1,-1,-1],"split_conditions":[9.9E1,5.65E1,1.5461276E-1,-1.4975674E-1,1.4914583E-2],"split_indices":[1021,201,0,0,0],"split_type":[0,0,0,0,0],"sum_hessian":[3.6738148E1,1.9320063E1,1.7418083E1,1.8031513E1,1.2885501E0],"tree_param":{"num_deleted":"0","num_feature":"3333","num_nodes":"5","size_leaf_vector":"0"}},{"base_weights":[2.3375542E-3,-4.4429287E-1,4.9673036E-1,-4.995034E-1,1.8733834E-1,5.221152E-1,2.9510286E-2],"categories":[],"categories_nodes":[],"categories_segments":[],"categories_sizes":[],"default_left":[1,1,1,0,0,0,0],"id":23,"left_children":[1,3,5,-1,-1,-1,-1],"loss_changes":[8.5438175E0,8.025789E-1,2.0237446E-1,0E0,0E0,0E0,0E0],"parents":[2147483647,0,0,1,1,2,2],"right_children":[2,4,6,-1,-1,-1,-1],"split_conditions":[1.245E2,6.75E1,1.02E2,-1.4985102E-1,5.6201503E-2,1.5663455E-1,8.853086E-3],"split_indices":[1100,2230,1002,0,0,0,0],"split_type":[0,0,0,0,0,0,0],"sum_hessian":[3.669345E1,1.9331167E1,1.7362284E1,1.7969637E1,1.3615307E0,1.6356134E1,1.0061483E0],"tree_param":{"num_deleted":"0","num_feature":"3333","num_nodes":"7","size_leaf_vector":"0"}},{"base_weights":[-6.139474E-3,5.0212896E-1,-4.8629946E-1],"categories":[],"categories_nodes":[],"categories_segments":[],"categories_sizes":[],"default_left":[1,0,0],"id":24,"left_children":[1,-1,-1],"loss_changes":[7.250837E0,0E0,0E0],"parents":[2147483647,0,0],"right_children":[2,-1,-1],"split_conditions":[5.3E1,1.506387E-1,-1.4588985E-1],"split_indices":[312,0,0],"split_type":[0,0,0],"sum_hessian":[2.7709885E1,1.3438716E1,1.4271168E1],"tree_param":{"num_deleted":"0","num_feature":"3333","num_nodes":"3","size_leaf_vector":"0"}},{"base_weights":[2.7389503E-3,4.772369E-1,-4.6104035E-1,5.1811557E-2,5.049902E-1,-4.846083E-1,-6.149812E-2],"categories":[],"categories_nodes":[],"categories_segments":[],"categories_sizes":[],"default_left":[1,1,1,0,0,0,0],"id":25,"left_children":[1,3,5,-1,-1,-1,-1],"loss_changes":[6.7561E0,1.5297365E-1,1.1642265E-1,0E0,0E0,0E0,0E0],"parents":[2147483647,0,0,1,1,2,2],"right_children":[2,4,6,-1,-1,-1,-1],"split_conditions":[9.7E1,4.7E1,8.45E1,1.5543467E-2,1.5149707E-1,-1.453825E-1,-1.8449437E-2],"split_indices":[1,1032,1020,0,0,0,0],"split_type":[0,0,0,0,0,0,0],"sum_hessian":[2.8701014E1,1.4172228E1,1.4528787E1,1.0434986E0,1.3128729E1,1.3518459E1,1.0103271E0],"tree_param":{"num_deleted":"0","num_feature":"3333","num_nodes":"7","size_leaf_vector":"0"}},{"base_weights":[3.200257E-3,-4.051813E-1,5.0183064E-1,-4.8559526E-1,1.1122375E-1,3.0039483E-1,-1.24144636E-1],"categories":[],"categories_nodes":[],"categories_segments":[],"categories_sizes":[],"default_left":[1,1,0,0,1,0,0],"id":26,"left_children":[1,3,-1,-1,5,-1,-1],"loss_changes":[6.243017E0,7.54092E-1,0E0,0E0,1.7465863E-1,0E0,0E0],"parents":[2147483647,0,0,1,1,4,4],"right_children":[2,4,-1,-1,6,-1,-1],"split_conditions":[1.135E2,1.205E2,1.505492E-1,-1.4567858E-1,5.7E1,9.011845E-2,-3.7243392E-2],"split_indices":[2200,2100,0,0,221,0,0],"split_type":[0,0,0,0,0,0,0],"sum_hessian":[2.8659883E1,1.5858818E1,1.28010645E1,1.3773663E1,2.085156E0,1.0028594E0,1.0822966E0],"tree_param":{"num_deleted":"0","num_feature":"3333","num_nodes":"7","size_leaf_vector":"0"}},{"base_weights":[-7.0644706E-3,4.8329374E-1,-4.7284403E-1],"categories":[],"categories_nodes":[],"categories_segments":[],"categories_sizes":[],"default_left":[1,0,0],"id":27,"left_children":[1,-1,-1],"loss_changes":[5.3576527E0,0E0,0E0],"parents":[2147483647,0,0],"right_children":[2,-1,-1],"split_conditions":[5.3E1,1.4498813E-1,-1.4185321E-1],"split_indices":[312,0,0],"split_type":[0,0,0],"sum_hessian":[2.14569E1,1.0434344E1,1.1022554E1],"tree_param":{"num_deleted":"0","num_feature":"3333","num_nodes":"3","size_leaf_vector":"0"}},{"base_weights":[2.8183032E-3,-4.195565E-1,4.8579004E-1,-4.733601E-1,8.228436E-2],"categories":[],"categories_nodes":[],"categories_segments":[],"categories_sizes":[],"default_left":[1,1,0,0,0],"id":28,"left_children":[1,3,-1,-1,-1],"loss_changes":[4.986895E0,3.9117002E-1,0E0,0E0,0E0],"parents":[2147483647,0,0,1,1],"right_children":[2,4,-1,-1,-1],"split_conditions":[1.21E2,5.65E1,1.4573702E-1,-1.4200804E-1,2.468531E-2],"split_indices":[2031,201,0,0,0],"split_type":[0,0,0,0,0],"sum_hessian":[2.244703E1,1.2044776E1,1.0402253E1,1.0929726E1,1.1150506E0],"tree_param":{"num_deleted":"0","num_feature":"3333","num_nodes":"5","size_leaf_vector":"0"}},{"base_weights":[3.965362E-3,-4.1979828E-1,4.465544E-1,-4.7086102E-1,7.88039E-2,4.860203E-1,1.1060073E-2],"categories":[],"categories_nodes":[],"categories_segments":[],"categories_sizes":[],"default_left":[1,1,1,0,0,0,0],"id":29,"left_children":[1,3,5,-1,-1,-1,-1],"loss_changes":[4.5659885E0,3.5387492E-1,1.9921517E-1,0E0,0E0,0E0,0E0],"parents":[2147483647,0,0,1,1,2,2],"right_children":[2,4,6,-1,-1,-1,-1],"split_conditions":[6.15E1,1.265E2,8.85E1,-1.4125831E-1,2.3641171E-2,1.4580609E-1,3.318022E-3],"split_indices":[2230,1100,23,0,0,0,0],"split_type":[0,0,0,0,0,0,0],"sum_hessian":[2.2345522E1,1.1441846E1,1.0903676E1,1.0429391E1,1.0124544E0,9.891277E0,1.0123992E0],"tree_param":{"num_deleted":"0","num_feature":"3333","num_nodes":"7","size_leaf_vector":"0"}}]},"name":"gbtree"},"learner_model_param":{"base_score":"5E-1","num_class":"3","num_feature":"3333","num_target":"1"},"objective":{"name":"multi:softprob","softmax_multiclass_param":{"num_class":"3"}}},"version":[1,6,1]}