{"learner":{"attributes":{"best_iteration":"9","best_ntree_limit":"10"},"feature_names":[],"feature_types":[],"gradient_booster":{"model":{"gbtree_model_param":{"num_parallel_tree":"1","num_trees":"40","size_leaf_vector":"0"},"tree_info":[0,1,2,3,0,1,2,3,0,1,2,3,0,1,2,3,0,1,2,3,0,1,2,3,0,1,2,3,0,1,2,3,0,1,2,3,0,1,2,3],"trees":[{"base_weights":[-9.5177665E-2,-4.095813E-1,1.1691206E0,-5.224241E-1,1.4169492E0,1.8425014E0,-3.073048E-1,-5.697387E-1,1.4086957E0,-6.259542E-1,1.9657388E0,-4.7887325E-1,1.9326923E0,-5.7954544E-1,1.6734694E0,-6.0689497E-1,6.949807E-2,1.8723404E0,-5.6E-1,1.1764706E-1,-5.8064514E-1,1.9755203E0,-3.1578946E-1,-6.3543195E-1,8.965517E-1,1.8202248E0,1.1764706E-1,5.714286E-1,-6.253899E-1,-6.520548E-1,1.7018634E0,1.9106145E0,5.882353E-1,2.6086956E-1,1.9901173E0,-4.827586E-1,1.1764706E-1,-6.587537E-1,5.882353E-1,1.2E0,1.1764706E-1,1.6756756E0,-5.945946E-1,-6.555671E-1,-3.828045E-1,-4E-1,1.8926175E0,-6.576377E-1,5.882353E-1,1.3239436E0,-5.12035E-1,-6.5866387E-1,-8.695652E-2,-4E-1,1.7288135E0,-5.8796823E-1,1.2195122E0,-6.5968585E-1,-2.5E-1,-6.234067E-1,7.692308E-1,1.5E0,1.1764706E-1,-4.347826E-1,1.1764706E-1,-6.416862E-1,5.882353E-1,1.1764706E-1,1.0588236E0],"categories":[],"categories_nodes":[],"categories_segments":[],"categories_sizes":[],"default_left":[1,1,1,1,1,1,1,1,1,0,0,1,1,1,1,1,1,1,0,0,0,1,1,1,1,0,0,1,1,0,1,0,0,0,0,0,0,0,0,0,0,0,0,1,0,0,0,1,0,1,1,1,0,0,0,1,1,0,1,1,1,0,0,0,0,0,0,0,0],"id":0,"left_children":[1,3,5,7,9,11,13,15,17,-1,-1,19,21,23,25,27,29,31,-1,-1,-1,33,35,37,39,-1,-1,41,43,-1,45,-1,-1,-1,-1,-1,-1,-1,-1,-1,-1,-1,-1,47,49,-1,-1,51,-1,53,55,57,-1,-1,-1,59,61,-1,63,65,67,-1,-1,-1,-1,-1,-1,-1,-1],"loss_changes":[6.269388E2,2.6103244E2,3.1286826E2,1.0954443E2,8.3913376E1,4.612256E1,5.4490143E1,2.7650513E1,2.7290806E1,0E0,0E0,6.071036E-1,2.0653748E1,7.829157E0,2.58284E0,2.4299652E1,7.73747E1,3.1082153E-2,0E0,0E0,0E0,4.5930786E0,4.0055516E-1,2.8239403E0,7.156186E-1,0E0,0E0,2.3528957E1,7.6708374E0,0E0,8.825951E0,0E0,0E0,0E0,0E0,0E0,0E0,0E0,0E0,0E0,0E0,0E0,0E0,2.8618164E0,2.7614277E1,0E0,0E0,5.048218E-1,0E0,6.886035E0,1.5738846E1,2.3516846E-1,0E0,0E0,0E0,5.7762375E0,1.4074602E0,0E0,3.2289004E-1,2.766697E0,4.8868775E-1,0E0,0E0,0E0,0E0,0E0,0E0,0E0,0E0],"parents":[2147483647,0,0,1,1,2,2,3,3,4,4,5,5,6,6,7,7,8,8,11,11,12,12,13,13,14,14,15,15,16,16,17,17,21,21,22,22,23,23,24,24,27,27,28,28,30,30,43,43,44,44,47,47,49,49,50,50,51,51,55,55,56,56,58,58,59,59,60,60],"right_children":[2,4,6,8,10,12,14,16,18,-1,-1,20,22,24,26,28,30,32,-1,-1,-1,34,36,38,40,-1,-1,42,44,-1,46,-1,-1,-1,-1,-1,-1,-1,-1,-1,-1,-1,-1,48,50,-1,-1,52,-1,54,56,58,-1,-1,-1,60,62,-1,64,66,68,-1,-1,-1,-1,-1,-1,-1,-1],"split_conditions":[1.385E2,1.225E2,2.9E1,1.555E2,6.25E1,6.95E1,6.4E1,1.015E2,1.435E2,-1.8778627E-1,5.897217E-1,2.15E1,1.235E2,9.5E1,7.5E1,1.75E1,7.3E1,8.8E1,-1.6800001E-1,3.529412E-2,-1.7419355E-1,8.5E1,5.25E1,1.32E2,3.45E1,5.460675E-1,3.529412E-2,4.05E1,9.15E1,-1.9561644E-1,2.375E2,5.731844E-1,1.7647061E-1,7.826087E-2,5.970352E-1,-1.4482759E-1,3.529412E-2,-1.9762611E-1,1.7647061E-1,3.6E-1,3.529412E-2,5.027027E-1,-1.7837839E-1,1.79E2,1.7E1,-1.20000005E-1,5.6778526E-1,1.295E2,1.7647061E-1,1.165E2,7.55E1,1.735E2,-2.6086958E-2,-1.20000005E-1,5.186441E-1,4.25E1,7.7E1,-1.9790576E-1,2.65E1,1.26E2,5.85E1,4.5000002E-1,3.529412E-2,-1.3043478E-1,3.529412E-2,-1.9250587E-1,1.7647061E-1,3.529412E-2,3.176471E-1],"split_indices":[312,230,2301,1231,21,1220,2020,230,1321,0,0,1,2101,22,10,1301,21,12,0,0,0,1331,11,2021,2,0,0,301,1220,0,30,0,0,0,0,0,0,0,0,0,0,0,0,2031,2301,0,0,322,0,312,2020,1120,0,0,0,1130,1,0,1,21,1,0,0,0,0,0,0,0,0],"split_type":[0,0,0,0,0,0,0,0,0,0,0,0,0,0,0,0,0,0,0,0,0,0,0,0,0,0,0,0,0,0,0,0,0,0,0,0,0,0,0,0,0,0,0,0,0,0,0,0,0,0,0,0,0,0,0,0,0,0,0,0,0,0,0,0,0,0,0,0,0],"sum_hessian":[1.575E3,1.261875E3,3.13125E2,1.189125E3,7.275E1,2.14875E2,9.825E1,1.161375E3,2.775E1,1.5375E1,5.7375E1,7.875E0,2.07E2,8.7E1,1.125E1,1.097625E3,6.375E1,2.25E1,5.25E0,1.125E0,6.75E0,2.0325E2,3.75E0,8.4375E1,2.625E0,1.0125E1,1.125E0,1.65E1,1.081125E3,4.4625E1,1.9125E1,2.1375E1,1.125E0,1.875E0,2.01375E2,2.625E0,1.125E0,8.325E1,1.125E0,1.5E0,1.125E0,8.25E0,8.25E0,9.6E2,1.21125E2,1.5E0,1.7625E1,9.58875E2,1.125E0,7.875E0,1.1325E2,9.57E2,1.875E0,1.5E0,6.375E0,1.09125E2,4.125E0,9.54E2,3E0,1.06875E2,2.25E0,3E0,1.125E0,1.875E0,1.125E0,1.0575E2,1.125E0,1.125E0,1.125E0],"tree_param":{"num_deleted":"0","num_feature":"3333","num_nodes":"69","size_leaf_vector":"0"}},{"base_weights":[7.2969544E-1,-7.2326556E-2,1.5658513E0,1.6271464E0,-4.6977812E-1,1.7964568E0,1.5314285E-1,-3.8743454E-1,1.9846153E0,-5.6646395E-1,2.4050634E-1,3.943662E-1,1.8727634E0,-4.628821E-1,8.1411767E-1,-6.3583815E-1,1.3846154E0,-5.92724E-1,6.1538464E-1,-1.1262136E-1,1.68E0,-1.0526316E-1,1.6144578E0,1.9197325E0,9.2913383E-1,-5.6292903E-1,1.1724138E0,-5.060241E-1,1.1085714E0,-6.0311806E-1,1.3846154E0,1.5932204E0,-5.660377E-1,1.2808989E0,-3.9631337E-1,1.858407E0,-0E0,-4.6575344E-1,6.4788735E-1,1.7837838E0,1.1764706E-1,-4.827586E-1,1.9311359E0,-3.6734694E-1,1.6585366E0,4.6153846E-1,-6.157518E-1,-5.945946E-1,1.1764706E-1,-3.2786883E-2,1.661017E0,-6.1005586E-1,9.5652175E-1,1.6756756E0,-4.347826E-1,-5E-1,1.3846154E0,-6.25E-1,4.6153846E-1,1.2E0,-4.827586E-1,1.9409158E0,-0E0,1.0588236E0,-6.0674155E-1,1.8421053E0,-4E-1,1.0588236E0,-3.529412E-1,-6.3414633E-1,1.1764706E-1,-5.945946E-1,7.1428573E-1,1.7798165E0,1.5384616E-1,4.680851E-1,-6.2037873E-1,1.0588236E0,-5.5528253E-1,1.0588236E0,-3.529412E-1,1.5789474E0,-0E0,-1.5384616E-1,1.9491633E0,5.882353E-1,-4.347826E-1,-6.5336657E-1,1.1764706E-1,-4.827586E-1,1.5428572E0,1.8834951E0,-0E0,-3.529412E-1,5.882353E-1,-4.827586E-1,1.3846154E0,-6.3066363E-1,5.4054055E-2,-5.929648E-1,5.882353E-1,1.1764706E-1,-3.529412E-1,1.0967742E0,1.9571459E0,1.9187818E0,5.882353E-1,-6.3772804E-1,1.2765957E-1,-5.714286E-1,1.3846154E0,-6.3239074E-1,5.882353E-1,1.52E0,-4E-1,1.960396E0,8.965517E-1,-6.4136976E-1,5.882353E-1,-5.1428574E-1,1.2E0,-6.525199E-1,-0E0,1.9620445E0,5.882353E-1,1.1764706E-1,1.2E0],"categories":[],"categories_nodes":[],"categories_segments":[],"categories_sizes":[],"default_left":[1,1,1,1,1,1,1,1,0,1,1,1,1,0,0,0,0,1,1,1,1,1,1,1,0,1,0,1,1,1,0,0,0,0,1,0,0,1,1,0,0,0,0,1,1,1,1,0,0,1,1,1,0,0,0,1,0,0,1,1,0,0,1,0,0,0,0,0,0,1,0,0,1,1,1,1,1,0,1,0,0,0,0,1,1,0,0,0,0,0,0,1,0,0,0,0,0,1,1,1,0,0,0,1,1,0,0,1,1,0,0,0,0,0,0,1,1,0,0,0,0,0,0,0,0,0,0],"id":1,"left_children":[1,3,5,7,9,11,13,15,-1,17,19,21,23,25,27,-1,-1,29,31,33,35,37,39,41,43,45,-1,47,49,51,-1,-1,-1,53,55,-1,-1,57,59,-1,-1,-1,61,63,65,67,69,-1,-1,71,73,75,-1,-1,-1,77,-1,-1,79,81,-1,83,85,-1,-1,-1,-1,-1,-1,87,-1,-1,89,91,93,95,97,-1,99,-1,-1,-1,-1,101,103,-1,-1,-1,-1,-1,-1,105,-1,-1,-1,-1,-1,107,109,111,-1,-1,-1,113,115,-1,-1,117,119,-1,-1,121,-1,-1,-1,123,125,-1,-1,-1,-1,-1,-1,-1,-1,-1,-1],"loss_changes":[1.0570032E3,5.4476154E2,2.5110364E2,1.1086185E2,4.5015E1,7.0221924E1,4.491182E1,1.1389774E1,0E0,1.8225662E1,4.0346886E1,2.1810516E1,2.6083252E1,1.0026452E1,2.1211754E1,0E0,0E0,1.2416397E1,1.5919903E1,2.5957043E1,4.6831856E0,7.3947825E0,2.419674E0,1.731543E1,3.0633856E1,3.2402363E0,0E0,6.430557E-1,2.7640514E1,6.65654E0,0E0,0E0,0E0,8.263641E0,1.0710032E1,0E0,0E0,2.9834034E0,6.1194754E0,0E0,0E0,0E0,1.1244385E1,4.824797E0,8.483444E0,1.954751E0,7.811718E-1,0E0,0E0,6.825305E0,5.0081863E0,6.5159454E0,0E0,0E0,0E0,5.069084E0,0E0,0E0,1.954751E0,2.842105E0,0E0,1.053418E1,1.2787724E0,0E0,0E0,0E0,0E0,0E0,0E0,8.174095E-1,0E0,0E0,7.687685E0,5.0284195E0,9.230769E-1,5.7883625E0,3.8803558E0,0E0,2.5410242E0,0E0,0E0,0E0,0E0,2.1719459E-1,1.8686523E0,0E0,0E0,0E0,0E0,0E0,0E0,4.8210144E-2,0E0,0E0,0E0,0E0,0E0,3.0077362E0,8.489456E0,2.6888485E0,0E0,0E0,0E0,5.517419E0,2.5341797E-1,0E0,0E0,2.7943115E0,4.6613984E0,0E0,0E0,6.189709E-1,0E0,0E0,0E0,1.5942383E-1,7.156186E-1,0E0,0E0,0E0,0E0,0E0,0E0,0E0,0E0,0E0,0E0],"parents":[2147483647,0,0,1,1,2,2,3,3,4,4,5,5,6,6,7,7,9,9,10,10,11,11,12,12,13,13,14,14,17,17,18,18,19,19,20,20,21,21,22,22,23,23,24,24,25,25,27,27,28,28,29,29,33,33,34,34,37,37,38,38,42,42,43,43,44,44,45,45,46,46,49,49,50,50,51,51,55,55,58,58,59,59,61,61,62,62,69,69,72,72,73,73,74,74,75,75,76,76,78,78,83,83,84,84,91,91,97,97,98,98,99,99,103,103,104,104,107,107,108,108,111,111,115,115,116,116],"right_children":[2,4,6,8,10,12,14,16,-1,18,20,22,24,26,28,-1,-1,30,32,34,36,38,40,42,44,46,-1,48,50,52,-1,-1,-1,54,56,-1,-1,58,60,-1,-1,-1,62,64,66,68,70,-1,-1,72,74,76,-1,-1,-1,78,-1,-1,80,82,-1,84,86,-1,-1,-1,-1,-1,-1,88,-1,-1,90,92,94,96,98,-1,100,-1,-1,-1,-1,102,104,-1,-1,-1,-1,-1,-1,106,-1,-1,-1,-1,-1,108,110,112,-1,-1,-1,114,116,-1,-1,118,120,-1,-1,122,-1,-1,-1,124,126,-1,-1,-1,-1,-1,-1,-1,-1,-1,-1],"split_conditions":[7.65E1,5.65E1,9.05E1,3.1E1,5.15E1,3.25E1,1.305E2,9.4E1,5.953846E-1,9.65E1,8.85E1,1.025E2,9.85E1,6.05E1,7.2E1,-1.9075145E-1,4.1538465E-1,4.06E2,7.35E1,2.75E1,7.95E1,2.75E1,4.65E1,1.6E1,5.35E1,6.8E1,3.5172415E-1,8.35E1,4.05E1,9.35E1,4.1538465E-1,4.7796613E-1,-1.6981132E-1,3.48E2,1.475E2,5.575221E-1,-0E0,7.2E1,5.1E1,5.3513515E-1,3.529412E-2,-1.4482759E-1,1.365E2,7.25E1,7.35E1,8.35E1,1.295E2,-1.7837839E-1,3.529412E-2,1.035E2,7.5E1,1.85E1,2.8695655E-1,5.027027E-1,-1.3043478E-1,5.45E1,4.1538465E-1,-1.875E-1,3.95E1,2.115E2,-1.4482759E-1,1.5E1,7.4E1,3.176471E-1,-1.8202247E-1,5.526316E-1,-1.20000005E-1,3.176471E-1,-1.0588236E-1,9.25E1,3.529412E-2,-1.7837839E-1,7.9E1,8.55E1,5.15E1,1.26E2,1.275E2,3.176471E-1,8.25E1,3.176471E-1,-1.0588236E-1,4.7368425E-1,-0E0,1.36E2,4.25E1,1.7647061E-1,-1.3043478E-1,-1.9600998E-1,3.529412E-2,-1.4482759E-1,4.6285716E-1,9.95E1,-0E0,-1.0588236E-1,1.7647061E-1,-1.4482759E-1,4.1538465E-1,1.745E2,2.2E1,9E1,1.7647061E-1,3.529412E-2,-1.0588236E-1,8.9E1,1.39E2,5.7563454E-1,1.7647061E-1,1.635E2,5.95E1,-1.7142859E-1,4.1538465E-1,6.3E1,1.7647061E-1,4.56E-1,-1.20000005E-1,1.135E2,9.1E1,-1.9241093E-1,1.7647061E-1,-1.5428573E-1,3.6E-1,-1.9575597E-1,-0E0,5.886134E-1,1.7647061E-1,3.529412E-2,3.6E-1],"split_indices":[1001,1002,1220,3300,132,232,1102,1131,0,12,1100,2021,2200,2330,1231,0,0,33,2021,3,102,232,201,123,2330,122,0,2,2230,113,0,0,0,1212,3200,0,0,111,201,0,0,0,1231,1,301,1,22,0,0,2101,1100,1311,0,0,0,1331,0,0,1,2110,0,2031,12,0,0,0,0,0,0,102,0,0,3110,1110,2,1,331,0,111,0,0,0,0,1,2320,0,0,0,0,0,0,21,0,0,0,0,0,1011,123,11,0,0,0,122,1002,0,0,332,12,0,0,123,0,0,0,2001,1,0,0,0,0,0,0,0,0,0,0],"split_type":[0,0,0,0,0,0,0,0,0,0,0,0,0,0,0,0,0,0,0,0,0,0,0,0,0,0,0,0,0,0,0,0,0,0,0,0,0,0,0,0,0,0,0,0,0,0,0,0,0,0,0,0,0,0,0,0,0,0,0,0,0,0,0,0,0,0,0,0,0,0,0,0,0,0,0,0,0,0,0,0,0,0,0,0,0,0,0,0,0,0,0,0,0,0,0,0,0,0,0,0,0,0,0,0,0,0,0,0,0,0,0,0,0,0,0,0,0,0,0,0,0,0,0,0,0,0,0],"sum_hessian":[1.575E3,8.04375E2,7.70625E2,1.51875E2,6.525E2,6.6225E2,1.08375E2,2.2875E1,1.29E2,5.745E2,7.8E1,3.45E1,6.2775E2,5.625E1,5.2125E1,2.0625E1,2.25E0,5.625E2,1.2E1,6.3375E1,1.4625E1,2.5125E1,9.375E0,5.97E2,3.075E1,5.3625E1,2.625E0,9.375E0,4.275E1,5.6025E2,2.25E0,6.375E0,5.625E0,1.0125E1,5.325E1,1.3125E1,1.5E0,1.725E1,7.875E0,8.25E0,1.125E0,2.625E0,5.94375E2,1.125E1,1.95E1,2.25E0,5.1375E1,8.25E0,1.125E0,1.425E1,2.85E1,5.58375E2,1.875E0,8.25E0,1.875E0,5.1E1,2.25E0,1.5E1,2.25E0,5.25E0,2.625E0,5.91375E2,3E0,1.125E0,1.0125E1,1.8E1,1.5E0,1.125E0,1.125E0,5.025E1,1.125E0,8.25E0,6E0,2.625E1,2.25E0,4.875E0,5.535E2,1.125E0,4.9875E1,1.125E0,1.125E0,3.75E0,1.5E0,2.25E0,5.89125E2,1.125E0,1.875E0,4.9125E1,1.125E0,2.625E0,3.375E0,2.475E1,1.5E0,1.125E0,1.125E0,2.625E0,2.25E0,5.4525E2,8.25E0,4.875E1,1.125E0,1.125E0,1.125E0,6.75E0,5.82375E2,2.3625E1,1.125E0,5.40375E2,4.875E0,6E0,2.25E0,4.7625E1,1.125E0,5.25E0,1.5E0,5.7975E2,2.625E0,5.3925E2,1.125E0,3.375E0,1.5E0,4.6125E1,1.5E0,5.78625E2,1.125E0,1.125E0,1.5E0],"tree_param":{"num_deleted":"0","num_feature":"3333","num_nodes":"127","size_leaf_vector":"0"}},{"base_weights":[-4.1243654E-1,-6.387766E-1,1.6704361E0,-6.5981394E-1,1.7623762E0,1.9489517E0,-4.6979865E-1,1.1578947E0,-6.65482E-1,-4.347826E-1,1.9852126E0,-6.2857145E-1,1.0588236E0,1.4482758E0,1.1764706E-1,-6.661924E-1,1.1764706E-1],"categories":[],"categories_nodes":[],"categories_segments":[],"categories_sizes":[],"default_left":[1,1,1,1,0,1,1,1,1,0,0,0,0,0,0,0,0],"id":2,"left_children":[1,3,5,7,-1,9,11,13,15,-1,-1,-1,-1,-1,-1,-1,-1],"loss_changes":[7.440525E2,7.3006165E1,9.316034E1,1.5304138E1,0E0,1.2715698E1,5.1859E0,1.2644391E0,8.61084E-1,0E0,0E0,0E0,0E0,0E0,0E0,0E0,0E0],"parents":[2147483647,0,0,1,1,2,2,3,3,5,5,6,6,7,7,8,8],"right_children":[2,4,6,8,-1,10,12,14,16,-1,-1,-1,-1,-1,-1,-1,-1],"split_conditions":[1.765E2,1.045E2,2.7E1,5E0,5.2871287E-1,6.85E1,2.075E2,1.2E2,7.85E1,-1.3043478E-1,5.9556377E-1,-1.8857144E-1,3.176471E-1,4.3448275E-1,3.529412E-2,-1.9985773E-1,3.529412E-2],"split_indices":[2,202,2301,1032,0,1002,2,1,1130,0,0,0,0,0,0,0,0],"split_type":[0,0,0,0,0,0,0,0,0,0,0,0,0,0,0,0,0],"sum_hessian":[1.575E3,1.42125E3,1.5375E2,1.409625E3,1.1625E1,1.36125E2,1.7625E1,3.75E0,1.405875E3,1.875E0,1.3425E2,1.65E1,1.125E0,2.625E0,1.125E0,1.40475E3,1.125E0],"tree_param":{"num_deleted":"0","num_feature":"3333","num_nodes":"17","size_leaf_vector":"0"}},{"base_weights":[-2.2208121E-1,-4.13958E-1,1.4143397E0,-6.2195295E-1,-6.18753E-2,1.837788E0,-4.8387095E-1,-6.339655E-1,3.478261E-1,1.6350365E0,-3.1567448E-1,1.9453659E0,-0E0,8.965517E-1,-6.431718E-1,-6.439109E-1,5.6074765E-2,-5.660377E-1,1.3191489E0,-4.1509435E-1,1.8250498E0,-5.3534997E-1,4.4256347E-1,1.9762377E0,-8.695652E-2,-5.660377E-1,1.3043479E0,1.2E0,1.1764706E-1,-6.4728117E-1,-0E0,-5E-1,1.3142858E0,1.1764706E-1,1.5789474E0,1.1764706E-1,-5.4545456E-1,-4.827586E-1,1.93361E0,-5.7870203E-1,1.483871E0,1.2392638E0,-7.465619E-2,1.984016E0,5.882353E-1,-6.618516E-1,-5.2896726E-1,-5.1428574E-1,1.0588236E0,1.1764706E-1,-5.915493E-1,1.9661734E0,1.1764706E-1,-5.981917E-1,1.25E0,1.6981132E0,1.1764706E-1,1.6575875E0,-2.857143E-1,5.283019E-1,-4.918033E-1,1.1764706E-1,-6.631596E-1,1.2195122E0,-6.176084E-1,-6.499552E-1,-3.7476808E-1,1.8626609E0,-2.5E-1,-5.882353E-1,1.0588236E0,-1.9847329E-1,1.5505618E0,-5.405405E-1,5.882353E-1,1.1764706E-1,1.5E0,4.6153846E-1,-6.487214E-1,-6.570657E-1,4E-1,4.4247788E-1,-5.8064514E-1,1.9255813E0,7.692308E-1,-4.347826E-1,1.1764706E-1,-5.346535E-1,7.368421E-1,2.6086956E-1,1.7837838E0,-6.1354584E-1,-1.1320755E-1,-3.529412E-1,1.0588236E0,-6.594005E-1,1.1764706E-1,2.6086956E-1,-6.6425014E-1,-4.4067797E-1,1.2258065E0,8E-1,-6.350711E-1,1.1764706E-1,1.0588236E0,1.1764706E-1,-6.086956E-1,-3.529412E-1,1.1724138E0,-6.446281E-1,1.1764706E-1,-5.263158E-1,6.086956E-1,-5.6E-1,1.1764706E-1,1.6363636E0,1.5384616E-1,1.1764706E-1,-6.5375304E-1],"categories":[],"categories_nodes":[],"categories_segments":[],"categories_sizes":[],"default_left":[1,1,1,1,1,1,1,1,0,1,1,1,1,1,0,1,1,0,1,1,1,1,1,1,0,0,0,0,0,1,1,1,0,0,0,0,0,0,1,1,1,1,1,0,0,1,1,0,0,0,0,0,0,1,0,0,0,1,1,1,0,0,0,1,1,1,0,1,1,0,0,1,1,1,0,0,0,1,1,1,0,1,1,0,1,0,0,1,1,0,0,1,1,0,0,0,0,0,0,1,1,0,1,0,0,0,0,0,0,0,0,0,0,0,0,0,0,0,0],"id":3,"left_children":[1,3,5,7,9,11,13,15,17,19,21,23,25,27,-1,29,31,-1,33,35,37,39,41,43,-1,-1,-1,-1,-1,45,47,49,-1,-1,-1,-1,-1,-1,51,53,55,57,59,-1,-1,61,63,-1,-1,-1,-1,-1,-1,65,-1,-1,-1,67,69,71,73,-1,-1,75,77,79,81,83,85,-1,-1,87,89,91,-1,-1,-1,93,95,97,-1,99,101,-1,103,-1,-1,105,107,-1,-1,109,111,-1,-1,-1,-1,-1,-1,113,115,-1,117,-1,-1,-1,-1,-1,-1,-1,-1,-1,-1,-1,-1,-1,-1,-1,-1],"loss_changes":[4.9543564E2,1.0331851E2,1.3401767E2,1.0555084E1,2.267281E2,2.6813782E1,7.3936133E0,6.0521545E0,1.09547415E1,2.744188E1,7.648265E1,8.210571E0,7.013946E0,7.156186E-1,0E0,1.8755493E0,1.0015086E1,0E0,1.6481123E0,5.24266E-1,1.6685944E1,3.1967323E1,4.269016E1,1.9598389E-1,0E0,0E0,0E0,0E0,0E0,1.132019E0,3.5394957E0,6.350455E-1,0E0,0E0,0E0,0E0,0E0,0E0,3.3315125E0,1.31729965E1,2.0686684E0,2.6469433E1,1.6262922E1,0E0,0E0,8.5446167E-1,1.6135664E1,0E0,0E0,0E0,0E0,0E0,0E0,3.7536316E0,0E0,0E0,0E0,1.3032814E1,4.537815E0,1.9996002E1,2.3247938E0,0E0,0E0,1.4074602E0,3.4932785E0,2.347618E0,1.1592915E1,5.225601E-1,3.2289004E-1,0E0,0E0,5.54282E0,2.8808937E0,1.0848513E0,0E0,0E0,0E0,1.954751E0,8.376808E-1,2.0049973E0,0E0,1.0311878E1,4.5845585E0,0E0,4.8868775E-1,0E0,0E0,6.813705E-1,2.6685169E0,0E0,0E0,7.889023E-1,2.296101E0,0E0,0E0,0E0,0E0,0E0,0E0,5.572084E-1,3.1590347E0,0E0,8.1869507E-1,0E0,0E0,0E0,0E0,0E0,0E0,0E0,0E0,0E0,0E0,0E0,0E0,0E0,0E0,0E0,0E0],"parents":[2147483647,0,0,1,1,2,2,3,3,4,4,5,5,6,6,7,7,8,8,9,9,10,10,11,11,12,12,13,13,15,15,16,16,18,18,19,19,20,20,21,21,22,22,23,23,29,29,30,30,31,31,38,38,39,39,40,40,41,41,42,42,45,45,46,46,53,53,57,57,58,58,59,59,60,60,63,63,64,64,65,65,66,66,67,67,68,68,71,71,72,72,73,73,77,77,78,78,79,79,81,81,82,82,84,84,87,87,88,88,91,91,92,92,99,99,100,100,102,102],"right_children":[2,4,6,8,10,12,14,16,18,20,22,24,26,28,-1,30,32,-1,34,36,38,40,42,44,-1,-1,-1,-1,-1,46,48,50,-1,-1,-1,-1,-1,-1,52,54,56,58,60,-1,-1,62,64,-1,-1,-1,-1,-1,-1,66,-1,-1,-1,68,70,72,74,-1,-1,76,78,80,82,84,86,-1,-1,88,90,92,-1,-1,-1,94,96,98,-1,100,102,-1,104,-1,-1,106,108,-1,-1,110,112,-1,-1,-1,-1,-1,-1,114,116,-1,118,-1,-1,-1,-1,-1,-1,-1,-1,-1,-1,-1,-1,-1,-1,-1,-1],"split_conditions":[4.41E2,7.15E1,3.15E1,1.74E2,9.15E1,8.45E1,1.775E2,1.095E2,3.81E2,1.1E2,1.945E2,1.85E2,2.47E2,4.05E1,-1.9295155E-1,1.07E2,9.8E1,-1.6981132E-1,2.35E1,8.35E1,4.25E1,1.315E2,4.75E1,5.95E1,-2.6086958E-2,-1.6981132E-1,3.9130437E-1,3.6E-1,3.529412E-2,5.95E1,8.7E1,7.65E1,3.9428574E-1,3.529412E-2,4.7368425E-1,3.529412E-2,-1.6363637E-1,-1.4482759E-1,1.415E2,1.335E2,8.05E1,8.05E1,1.185E2,5.9520483E-1,1.7647061E-1,2.55E1,7.6E1,-1.5428573E-1,3.176471E-1,3.529412E-2,-1.7746478E-1,5.8985204E-1,3.529412E-2,4.7E1,3.75E-1,5.09434E-1,3.529412E-2,1.08E2,1.95E1,6.45E1,1.415E2,3.529412E-2,-1.9894789E-1,1.045E2,5.95E1,1.08E2,2.5E1,1.13E2,3.1E1,-1.7647061E-1,3.176471E-1,1.21E2,1.185E2,8.05E1,1.7647061E-1,3.529412E-2,4.5000002E-1,4.35E1,7.35E1,6.7E1,1.20000005E-1,8.15E1,4.05E1,5.7767445E-1,3.3E1,-1.3043478E-1,3.529412E-2,5.15E1,3.7E1,7.826087E-2,5.3513515E-1,7.15E1,8.75E1,-1.0588236E-1,3.176471E-1,-1.9782017E-1,3.529412E-2,7.826087E-2,-1.9927505E-1,6.85E1,9.6E1,2.4000001E-1,5.85E1,3.529412E-2,3.176471E-1,3.529412E-2,-1.826087E-1,-1.0588236E-1,3.5172415E-1,-1.9338845E-1,3.529412E-2,-1.5789475E-1,1.826087E-1,-1.6800001E-1,3.529412E-2,4.909091E-1,4.615385E-2,3.529412E-2,-1.9612592E-1],"split_indices":[2121,1220,232,2111,212,1131,1210,1020,2121,2000,1021,1011,1021,13,0,122,2200,0,1,10,1002,1012,132,132,0,0,0,0,0,1220,21,12,0,0,0,0,0,0,30,1,1131,1131,112,0,0,200,212,0,0,0,0,0,0,2301,0,0,0,3210,301,2010,1231,0,0,1,12,1001,1330,2021,1,0,0,1031,212,120,0,0,0,1,230,112,0,322,332,0,2,0,0,12,3,0,0,203,122,0,0,0,0,0,0,3,1001,0,122,0,0,0,0,0,0,0,0,0,0,0,0,0,0,0,0],"split_type":[0,0,0,0,0,0,0,0,0,0,0,0,0,0,0,0,0,0,0,0,0,0,0,0,0,0,0,0,0,0,0,0,0,0,0,0,0,0,0,0,0,0,0,0,0,0,0,0,0,0,0,0,0,0,0,0,0,0,0,0,0,0,0,0,0,0,0,0,0,0,0,0,0,0,0,0,0,0,0,0,0,0,0,0,0,0,0,0,0,0,0,0,0,0,0,0,0,0,0,0,0,0,0,0,0,0,0,0,0,0,0,0,0,0,0,0,0,0,0],"sum_hessian":[1.575E3,1.410375E3,1.64625E2,8.86125E2,5.2425E2,1.34625E2,3E1,8.75625E2,1.05E1,6.75E1,4.5675E2,1.27125E2,7.5E0,2.625E0,2.7375E1,8.6325E2,1.2375E1,5.625E0,4.875E0,5.625E0,6.1875E1,3.54375E2,1.02375E2,1.2525E2,1.875E0,5.625E0,1.875E0,1.5E0,1.125E0,8.5875E2,4.5E0,9E0,3.375E0,1.125E0,3.75E0,1.125E0,4.5E0,2.625E0,5.925E1,3.47625E2,6.75E0,3.975E1,6.2625E1,1.24125E2,1.125E0,7.605E2,9.825E1,3.375E0,1.125E0,1.125E0,7.875E0,5.8125E1,1.125E0,3.44625E2,3E0,5.625E0,1.125E0,3.1125E1,8.625E0,2.55E1,3.7125E1,1.125E0,7.59375E2,4.125E0,9.4125E1,2.7825E2,6.6375E1,2.8125E1,3E0,7.5E0,1.125E0,1.5375E1,1.0125E1,3.6E1,1.125E0,1.125E0,3E0,2.25E0,9.1875E1,2.7675E2,1.5E0,1.3125E1,5.325E1,2.5875E1,2.25E0,1.875E0,1.125E0,1.1625E1,3.75E0,1.875E0,8.25E0,3.0375E1,5.625E0,1.125E0,1.125E0,9.075E1,1.125E0,1.875E0,2.74875E2,6.375E0,6.75E0,1.5E0,5.175E1,1.125E0,1.125E0,1.125E0,1.05E1,1.125E0,2.625E0,2.925E1,1.125E0,3.75E0,1.875E0,5.25E0,1.125E0,4.5E0,2.25E0,1.125E0,5.0625E1],"tree_param":{"num_deleted":"0","num_feature":"3333","num_nodes":"119","size_leaf_vector":"0"}},{"base_weights":[-7.9099864E-2,-3.5971126E-1,7.756597E-1,-4.738168E-1,8.7251896E-1,1.0626469E0,-5.070625E-1,-5.221415E-1,9.161811E-1,-5.8326936E-1,1.169888E0,-5.706846E-1,1.1226707E0,6.3256526E-1,-6.119616E-1,-5.554575E-1,3.1977296E-2,1.1472219E0,-5.118966E-1,1.1579475E0,-1.3582954E-1,9.6857285E-1,-3.543592E-1,3.2076544E-1,-5.7757825E-1,-6.025087E-1,1.0389963E0,1.1705256E0,3.7984627E-1,-2.0821801E-1,1.1722594E0,-5.4002595E-1,8.908819E-1,-5.644428E-1,9.6652067E-1,-6.0818446E-1,-3.5897177E-1,-3.5569245E-1,1.1427985E0,1.5361068E-1,-4.0438333E-1,1.1765726E0,7.666714E-2,-3.806268E-1,1.1443946E0,-6.1053413E-1,4.773857E-1,-4.843167E-1,7.7534676E-1,-6.117056E-1,-5.915959E-2,4.7394204E-1,-5.5846304E-1,-4.5329282E-1,1.1757591E0,-6.128991E-1,-3.4424984E-1,1.0073007E0,-4.522334E-1,-5.8598334E-1,4.5522794E-1,-6.165887E-1,-4.9993625E-1,1.810095E-1,-4.9209055E-1,-6.051243E-1,5.7363883E-2],"categories":[],"categories_nodes":[],"categories_segments":[],"categories_sizes":[],"default_left":[1,1,1,1,1,1,1,1,1,0,0,0,1,1,0,1,1,1,0,1,1,0,0,0,1,0,1,0,0,1,1,0,0,0,1,1,1,0,0,0,0,0,0,0,0,1,0,0,1,1,0,1,1,0,0,1,1,0,0,1,0,0,0,0,0,0,0],"id":4,"left_children":[1,3,5,7,9,11,13,15,17,-1,-1,-1,19,21,-1,23,25,27,-1,29,31,-1,-1,33,35,-1,37,-1,-1,39,41,-1,-1,-1,43,45,47,-1,-1,-1,-1,-1,-1,-1,-1,49,-1,51,53,55,-1,57,59,-1,-1,61,63,-1,-1,65,-1,-1,-1,-1,-1,-1,-1],"loss_changes":[3.528724E2,1.5611668E2,1.3440349E2,6.860211E1,4.1464676E1,2.9805176E1,8.4158745E0,1.812323E1,1.1949684E1,0E0,0E0,0E0,1.2911011E1,2.383503E0,0E0,1.8117706E1,3.676932E1,9.09729E-2,0E0,5.7098083E0,4.103127E0,0E0,0E0,1.3935599E1,5.821747E0,0E0,3.6250477E0,0E0,0E0,3.28093E-1,1.217804E0,0E0,0E0,0E0,3.7693968E0,2.3076782E0,1.6485863E1,0E0,0E0,0E0,0E0,0E0,0E0,0E0,0E0,4.7354126E-1,0E0,7.5580463E0,6.2689757E0,4.0374756E-2,0E0,4.364478E0,2.9375172E0,0E0,0E0,1.7913818E-2,5.37882E-1,0E0,0E0,1.1878586E0,0E0,0E0,0E0,0E0,0E0,0E0,0E0],"parents":[2147483647,0,0,1,1,2,2,3,3,4,4,5,5,6,6,7,7,8,8,12,12,13,13,15,15,16,16,17,17,19,19,20,20,23,23,24,24,26,26,29,29,30,30,34,34,35,35,36,36,45,45,47,47,48,48,49,49,51,51,52,52,55,55,56,56,59,59],"right_children":[2,4,6,8,10,12,14,16,18,-1,-1,-1,20,22,-1,24,26,28,-1,30,32,-1,-1,34,36,-1,38,-1,-1,40,42,-1,-1,-1,44,46,48,-1,-1,-1,-1,-1,-1,-1,-1,50,-1,52,54,56,-1,58,60,-1,-1,62,64,-1,-1,66,-1,-1,-1,-1,-1,-1,-1],"split_conditions":[1.385E2,1.215E2,1.565E2,1.555E2,6.25E1,9.55E1,1.26E2,1.015E2,1.435E2,-1.7498082E-1,3.5096642E-1,-1.7120539E-1,4.5E1,3.95E1,-1.8358849E-1,1.85E1,7.3E1,4.45E1,-1.5356898E-1,8.05E1,1.095E2,2.9057187E-1,-1.0630777E-1,5.9E1,9.05E1,-1.8075262E-1,2.375E2,3.5115767E-1,1.1395389E-1,1.14E2,1.305E2,-1.620078E-1,2.6726457E-1,-1.6933285E-1,5.65E1,1.79E2,9.95E1,-1.0670774E-1,3.4283957E-1,4.6083204E-2,-1.21315E-1,3.529718E-1,2.3000142E-2,-1.14188045E-1,3.433184E-1,1.295E2,1.4321572E-1,1.9E1,3.15E1,7.25E1,-1.7747879E-2,7.75E1,7.65E1,-1.3598785E-1,3.5272774E-1,1.195E2,6.95E1,3.0219024E-1,-1.3567002E-1,1.2E2,1.3656838E-1,-1.8497662E-1,-1.4998089E-1,5.4302853E-2,-1.4762717E-1,-1.815373E-1,1.7209165E-2],"split_indices":[312,230,1321,1231,21,1120,1102,230,1321,0,0,0,2301,101,0,1301,21,101,0,1331,120,0,0,1202,1220,0,30,0,0,1011,1012,0,0,0,32,2031,22,0,0,0,0,0,0,0,0,322,0,2301,302,201,0,1101,2020,0,0,321,12,0,0,21,0,0,0,0,0,0,0],"split_type":[0,0,0,0,0,0,0,0,0,0,0,0,0,0,0,0,0,0,0,0,0,0,0,0,0,0,0,0,0,0,0,0,0,0,0,0,0,0,0,0,0,0,0,0,0,0,0,0,0,0,0,0,0,0,0,0,0,0,0,0,0,0,0,0,0,0,0],"sum_hessian":[1.4690255E3,1.1063861E3,3.6263943E2,1.01318024E3,9.3205864E1,2.964789E2,6.6160515E1,9.7974286E2,3.3437412E1,1.564642E1,7.755945E1,1.0207627E1,2.8627127E2,5.1525736E0,6.1007942E1,9.241752E2,5.5567665E1,2.8950361E1,4.487052E0,2.7854337E2,7.7279243E0,3.8577585E0,1.2948151E0,2.2424423E1,9.0175073E2,3.433569E1,2.1231976E1,2.758723E1,1.363129E0,2.7472806E0,2.7579608E2,5.8850985E0,1.8428255E0,9.511658E0,1.2912765E1,7.894421E2,1.12308685E2,1.3026671E0,1.992931E1,1.0420827E0,1.705198E0,2.7464093E2,1.1551315E0,1.3731557E0,1.1539609E1,7.881737E2,1.2683938E0,1.0164923E2,1.0659452E1,7.863935E2,1.7801619E0,6.913101E0,9.473613E1,2.5875762E0,8.071877E0,7.8161395E2,4.779546E0,4.3312583E0,2.581843E0,9.264294E1,2.0931983E0,7.52575E2,2.9038952E1,1.000509E0,3.7790365E0,9.002394E1,2.6189933E0],"tree_param":{"num_deleted":"0","num_feature":"3333","num_nodes":"67","size_leaf_vector":"0"}},{"base_weights":[5.201143E-1,-1.13608174E-1,9.4193274E-1,1.016424E0,-4.824316E-1,1.0587461E0,-3.8751837E-2,-4.2319265E-1,1.1715093E0,-5.65384E-1,-1.6504769E-1,1.0899068E0,-2.9515404E-1,-2.82638E-1,1.0709485E0,-5.802788E-1,7.718682E-1,-5.826055E-1,4.4922337E-1,-5.6702256E-1,9.395115E-1,2.8718418E-1,1.1156489E0,-4.9225083E-1,6.819412E-1,1.1243098E0,-4.9238014E-1,1.1671778E0,-3.3531216E-1,-6.040835E-1,-1.6028231E-1,1.0365962E0,-4.545866E-1,8.577936E-1,-6.1252826E-1,1.2215921E0,-5.1091397E-1,8.02111E-1,-5.762666E-1,1.1333765E0,5.185652E-1,4.9326223E-1,-5.915842E-1,9.1376674E-1,6.727404E-2,5.046797E-1,-5.245731E-1,-6.0886365E-1,2.3942776E-1,-5.25124E-1,6.5163684E-1,1.2956439E0,2.9278165E-3,9.6135175E-1,-4.322571E-1,-4.4728056E-1,1.1387073E0,9.540889E-1,-5.687768E-1,-5.471969E-1,4.9443755E-1,-6.138313E-1,-7.291218E-2,9.728023E-2,-5.819267E-1,-3.5645854E-1,9.509185E-1,1.3267353E0,4.2788014E-1,1.1280128E0,-3.8504034E-1,1.14268E0,-1.7795444E-1,2.5043862E-2,1.0996174E0,-5.69518E-1,2.1461473E-1,-8.096593E-3,-6.164322E-1,-4.4027418E-1,5.536975E-1,1.1655303E0,9.76796E-1,9.094856E-2,-3.4940904E-1,4.3007484E-1,-3.735068E-1,-5.924933E-1,-5.277399E-2,-6.1902916E-1,-2.4175109E-1,1.1685257E0,1.2668025E-1,1.0773702E0,5.9878445E-1,9.169228E-2,-6.046323E-1,-4.3506658E-1,4.9710155E-1,1.8075801E-1,-4.294416E-1,7.11568E-2,1.1701754E0,1.1090928E0,1.6918516E-1,9.254526E-1,-3.9442644E-2,-6.170987E-1,8.886728E-2],"categories":[],"categories_nodes":[],"categories_segments":[],"categories_sizes":[],"default_left":[1,1,1,1,1,0,1,1,0,1,1,1,1,1,1,0,0,1,1,1,1,1,1,0,1,0,1,0,0,0,1,0,0,0,0,1,0,1,0,1,0,0,0,0,0,0,0,1,0,0,1,1,0,0,0,0,1,1,0,1,0,1,1,0,0,0,0,0,0,0,0,1,1,1,0,1,0,0,1,0,0,0,1,0,0,0,0,1,1,0,1,1,0,1,1,0,1,0,0,0,0,0,0,0,0,0,0,0,0],"id":5,"left_children":[1,3,5,7,9,11,13,15,-1,17,19,21,23,25,27,-1,-1,29,31,33,35,37,39,41,43,-1,45,-1,-1,47,49,-1,-1,-1,-1,51,-1,53,-1,55,57,-1,-1,-1,-1,-1,59,61,-1,63,65,67,-1,69,-1,-1,71,73,-1,75,-1,77,79,-1,-1,-1,-1,-1,-1,-1,-1,81,83,85,-1,87,-1,-1,89,-1,-1,91,93,-1,-1,-1,-1,95,97,-1,99,101,-1,103,105,-1,107,-1,-1,-1,-1,-1,-1,-1,-1,-1,-1,-1,-1],"loss_changes":[4.553214E2,2.8449158E2,1.1717499E2,3.800345E1,1.3450111E1,3.8869507E1,3.0017675E1,3.6528637E0,0E0,7.3805084E0,4.8486504E1,1.8139526E1,4.4459887E0,2.734938E1,3.0966797E0,0E0,0E0,3.5409698E0,4.380841E0,5.70002E0,1.2568382E1,1.3402699E1,8.570923E0,2.0873122E0,5.087688E-1,0E0,2.823574E0,0E0,0E0,1.683136E0,6.494765E0,0E0,0E0,0E0,0E0,2.2284393E0,0E0,4.081458E0,0E0,7.5827637E0,1.3230527E1,0E0,0E0,0E0,0E0,0E0,2.0622005E0,9.653778E-1,0E0,5.828347E-1,2.4164395E0,6.138611E-2,0E0,4.2106695E0,0E0,0E0,4.5810547E0,2.6093826E0,0E0,1.4231052E0,0E0,5.870514E-1,1.3070816E0,0E0,0E0,0E0,0E0,0E0,0E0,0E0,0E0,2.0249023E0,1.8774268E-1,7.522026E-1,0E0,8.543873E-1,0E0,0E0,2.1443176E-1,0E0,0E0,2.1182861E0,3.4309769E0,0E0,0E0,0E0,0E0,6.478176E-1,1.1145868E0,0E0,4.1198936E-1,1.2312622E0,0E0,2.2160416E0,5.203274E0,0E0,6.618595E-1,0E0,0E0,0E0,0E0,0E0,0E0,0E0,0E0,0E0,0E0,0E0,0E0],"parents":[2147483647,0,0,1,1,2,2,3,3,4,4,5,5,6,6,7,7,9,9,10,10,11,11,12,12,13,13,14,14,17,17,18,18,19,19,20,20,21,21,22,22,23,23,24,24,26,26,29,29,30,30,35,35,37,37,39,39,40,40,46,46,47,47,49,49,50,50,51,51,53,53,56,56,57,57,59,59,61,61,62,62,71,71,72,72,73,73,75,75,78,78,81,81,82,82,87,87,88,88,90,90,91,91,93,93,94,94,96,96],"right_children":[2,4,6,8,10,12,14,16,-1,18,20,22,24,26,28,-1,-1,30,32,34,36,38,40,42,44,-1,46,-1,-1,48,50,-1,-1,-1,-1,52,-1,54,-1,56,58,-1,-1,-1,-1,-1,60,62,-1,64,66,68,-1,70,-1,-1,72,74,-1,76,-1,78,80,-1,-1,-1,-1,-1,-1,-1,-1,82,84,86,-1,88,-1,-1,90,-1,-1,92,94,-1,-1,-1,-1,96,98,-1,100,102,-1,104,106,-1,108,-1,-1,-1,-1,-1,-1,-1,-1,-1,-1,-1,-1],"split_conditions":[7.25E1,5.65E1,9.35E1,2.9E1,7.05E1,1.335E2,7.85E1,9.4E1,3.514528E-1,8.65E1,3.35E1,4.45E1,7.4E1,4.3E1,7.3E1,-1.7408365E-1,2.3156048E-1,5.25E1,9.35E1,3.3E1,6.1E1,8.8E1,1.105E2,1.36E2,9.6E1,3.3729294E-1,5.35E1,3.5015336E-1,-1.0059365E-1,3.33E2,1.285E2,3.1097886E-1,-1.3637598E-1,2.573381E-1,-1.8375848E-1,1.325E2,-1.532742E-1,8.8E1,-1.7287998E-1,1.3E1,1.1E2,1.4797868E-1,-1.7747527E-1,2.7413005E-1,2.0182213E-2,1.514039E-1,7.45E1,1.895E2,7.182833E-2,8.9E1,1.85E1,1.775E2,8.78345E-4,1.695E2,-1.2967713E-1,-1.3418417E-1,3.19E2,7.1E1,-1.7063305E-1,1.695E2,1.4833127E-1,1.85E1,3.05E1,2.918407E-2,-1.7457801E-1,-1.06937565E-1,2.8527555E-1,3.980206E-1,1.2836404E-1,3.3840385E-1,-1.1551211E-1,5.45E1,2.4E1,6.45E1,3.298852E-1,9.15E1,6.438442E-2,-2.4289782E-3,1.13E2,-1.3208225E-1,1.6610926E-1,1.255E2,8.95E1,2.7284568E-2,-1.0482272E-1,1.2902246E-1,-1.12052046E-1,3.6E1,9.65E1,-1.8570876E-1,3.85E1,3.25E1,3.8004078E-2,1.365E2,6.55E1,2.7507683E-2,7.15E1,-1.3051999E-1,1.4913046E-1,5.4227408E-2,-1.2883249E-1,2.134704E-2,3.5105264E-1,3.3272785E-1,5.075555E-2,2.7763578E-1,-1.1832793E-2,-1.8512961E-1,2.6660183E-2],"split_indices":[1001,1002,1220,3300,2330,1231,113,1131,0,113,1102,2320,111,1002,2010,0,0,132,1002,202,1130,122,1020,1201,110,0,2010,0,0,303,1011,0,0,0,0,230,0,11,0,123,2031,0,0,0,0,0,330,1210,0,3120,202,1000,0,2111,0,0,2211,2320,0,1210,0,101,231,0,0,0,0,0,0,0,0,1311,3,1002,0,20,0,0,2001,0,0,1202,2200,0,0,0,0,320,1001,0,103,132,0,1012,2010,0,1010,0,0,0,0,0,0,0,0,0,0,0,0],"split_type":[0,0,0,0,0,0,0,0,0,0,0,0,0,0,0,0,0,0,0,0,0,0,0,0,0,0,0,0,0,0,0,0,0,0,0,0,0,0,0,0,0,0,0,0,0,0,0,0,0,0,0,0,0,0,0,0,0,0,0,0,0,0,0,0,0,0,0,0,0,0,0,0,0,0,0,0,0,0,0,0,0,0,0,0,0,0,0,0,0,0,0,0,0,0,0,0,0,0,0,0,0,0,0,0,0,0,0,0,0],"sum_hessian":[1.7019086E3,6.804138E2,1.02149475E3,1.6699739E2,5.1341644E2,9.1269977E2,1.08795006E2,1.6072432E1,1.5092496E2,4.0641364E2,1.0700279E2,8.923566E2,2.0343092E1,8.980358E1,1.8991425E1,1.4659882E1,1.4125493E0,4.0004913E2,6.364502E0,7.8809006E1,2.8193785E1,2.8104958E1,8.642517E2,1.7341272E1,3.0018206E0,1.10850115E1,7.871857E1,1.7934214E1,1.0572115E0,3.80279E2,1.977015E1,3.7684946E0,2.5960073E0,1.8866426E0,7.692236E1,2.3735453E1,4.4583306E0,1.7650162E1,1.0454796E1,8.3845935E2,2.579233E1,1.2247245E0,1.6116547E1,1.8263845E0,1.1754363E0,2.003102E0,7.671547E1,3.7841272E2,1.8662794E0,1.3884349E1,5.885801E0,2.2316244E1,1.4192085E0,1.5829271E1,1.8208901E0,2.5395863E0,8.359198E2,1.8503494E1,7.288837E0,7.55022E1,1.2132702E0,3.7479352E2,3.619188E0,1.1015652E0,1.27827835E1,1.3036294E0,4.5821714E0,2.103371E1,1.2825352E0,1.4230025E1,1.5992459E0,8.335369E2,2.3828347E0,2.664645E0,1.5838848E1,7.359819E1,1.9040096E0,1.6199976E0,3.7317352E2,2.469038E0,1.15015E0,7.273229E2,1.0621407E2,1.1105837E0,1.2722509E0,1.2823488E0,1.3822963E0,7.0324844E1,3.273347E0,3.6995712E2,3.2163978E0,7.251073E2,2.2155862E0,8.243202E1,2.3782053E1,1.1117257E0,6.921312E1,2.054074E0,1.2192729E0,1.0006886E0,2.215709E0,1.1547095E0,7.239526E2,7.943612E1,2.9959052E0,1.5432894E1,8.34916E0,6.809914E1,1.1139827E0],"tree_param":{"num_deleted":"0","num_feature":"3333","num_nodes":"109","size_leaf_vector":"0"}},{"base_weights":[-3.643637E-1,-6.0344607E-1,9.567587E-1,-6.163801E-1,1.0937926E0,1.1338059E0,-5.547919E-1,7.619278E-1,-6.187245E-1,-4.650173E-1,1.1609579E0,-5.942692E-1,1.3363549E-1,-6.1954457E-1,1.3504195E-1,1.1700695E0,-7.655707E-3,1.1762493E0,8.37007E-2],"categories":[],"categories_nodes":[],"categories_segments":[],"categories_sizes":[],"default_left":[1,1,1,1,0,1,1,0,1,0,1,0,0,0,0,0,0,0,0],"id":6,"left_children":[1,3,5,7,-1,9,11,-1,13,-1,15,-1,-1,-1,-1,17,-1,-1,-1],"loss_changes":[4.367711E2,2.6357819E1,5.7365128E1,4.225464E0,0E0,8.792603E0,7.0177317E-1,0E0,8.0093384E-1,0E0,2.002411E0,0E0,0E0,0E0,0E0,1.1487579E0,0E0,0E0,0E0],"parents":[2147483647,0,0,1,1,2,2,3,3,5,5,6,6,8,8,10,10,15,15],"right_children":[2,4,6,8,-1,10,12,-1,14,-1,16,-1,-1,-1,-1,18,-1,-1,-1],"split_conditions":[1.705E2,1.22E2,2.9E1,3E0,3.281378E-1,6.85E1,2.015E2,2.2857834E-1,7.7E1,-1.395052E-1,4.35E1,-1.7828077E-1,4.009065E-2,-1.8586338E-1,4.0512588E-2,2.505E2,-2.2967122E-3,3.528748E-1,2.5110211E-2],"split_indices":[2,202,2301,1032,0,1002,2,0,1130,0,122,0,0,0,0,330,0,0,0],"split_type":[0,0,0,0,0,0,0,0,0,0,0,0,0,0,0,0,0,0,0],"sum_hessian":[1.3799847E3,1.1689789E3,2.1100583E2,1.1607699E3,8.208992E0,1.8910585E2,2.189997E1,1.4208678E0,1.159349E3,2.8885665E0,1.8621729E2,2.0841599E1,1.0583704E0,1.158267E3,1.0820929E0,1.8477538E2,1.441918E0,1.8364796E2,1.1274116E0],"tree_param":{"num_deleted":"0","num_feature":"3333","num_nodes":"19","size_leaf_vector":"0"}},{"base_weights":[-1.8570359E-1,6.974541E-1,-4.112759E-1,1.0321954E0,-2.6195705E-1,-5.2277064E-1,3.0147588E-2,1.1034245E0,-4.7451514E-1,-4.9805018E-1,8.9295E-1,-5.5148107E-1,7.7785206E-1,9.54399E-1,-2.1509522E-1,1.1364533E0,-1.1527261E-1,-5.529938E-1,1.0207744E-1,-5.7777154E-1,7.580221E-2,1.0273572E0,-3.3749044E-1,-5.7106954E-1,6.447562E-2,1.1417971E0,-5.033644E-1,-4.9027067E-1,1.0859947E0,-2.9781228E-1,7.1448064E-1,1.1575358E0,-8.540495E-2,-5.0202805E-1,7.0231897E-1,2.5512996E-1,-6.1069065E-1,9.3781537E-1,-3.862835E-1,8.904867E-2,1.1132936E0,6.3089155E-2,-5.86706E-1,8.993917E-1,-4.4265538E-1,1.1344892E0,-3.4307796E-1,-4.4735545E-1,3.4760007E-1,-4.8390988E-1,1.0819093E0,1.1714826E0,5.510101E-2,4.184469E-1,-4.3393052E-1,1.270718E-1,-5.148321E-1,-4.0816844E-1,1.059375E0,-5.909461E-1,7.243405E-1,-3.846281E-1,1.1561337E0,-5.87832E-1,4.8409027E-1,-1.9718423E-3,1.172872E0,-5.543172E-1,8.7736666E-2,-3.601759E-1,1.0040354E0,8.6993136E-2,1.1760035E0,1.1765267E0,4.6952474E-1,-3.4334326E-1,4.2229912E-1,-5.193155E-1,4.7962743E-1,2.4918486E-1,-5.941633E-1,1.2091746E0,4.696977E-2,1.2279914E-1,-5.689908E-1,6.037717E-1,-5.7045174E-1,-5.737292E-1,4.1062948E-1,1.149397E0,-3.749903E-1,1.1822686E0,5.404526E-1,-5.778981E-1,9.149402E-2,-3.7695566E-1,8.204655E-1,-3.7377146E-1,-6.0437846E-1,4.7153825E-1,-3.2428005E-1,-5.7690126E-1,1.3278884E-1,8.8432974E-1,-4.5160437E-1,8.537987E-1,-3.428604E-1,2.8347215E-1,1.2294562E0,8.6825244E-2,7.11617E-1,1.1426377E0,-6.022464E-1,-6.055129E-1,1.1036623E-1,9.27475E-2,-5.844507E-1,-3.867915E-1,1.1353483E0,-6.131612E-1,-4.772518E-1,-6.0018617E-1,-2.4491374E-1],"categories":[],"categories_nodes":[],"categories_segments":[],"categories_sizes":[],"default_left":[1,1,1,1,1,1,1,1,0,1,1,1,0,0,1,1,0,0,0,1,1,1,0,1,0,0,0,0,1,1,1,1,1,0,0,0,0,0,1,0,0,1,1,1,1,1,0,1,0,0,1,1,1,0,0,0,0,1,0,1,0,0,0,0,0,0,0,1,1,1,1,0,0,1,0,0,0,1,0,1,0,0,0,1,1,1,0,0,1,1,0,0,1,0,0,0,0,1,1,0,0,1,0,1,0,0,0,0,0,0,0,0,0,1,0,0,1,0,0,0,0,0,0],"id":7,"left_children":[1,3,5,7,9,11,13,15,17,19,21,23,25,27,29,31,33,-1,-1,35,37,39,-1,41,43,-1,-1,-1,45,47,49,51,53,-1,-1,-1,-1,-1,55,-1,-1,57,59,61,63,65,-1,67,69,-1,71,73,75,-1,-1,-1,-1,77,-1,79,-1,-1,-1,-1,-1,-1,81,83,85,87,89,-1,-1,91,-1,-1,-1,93,-1,95,97,-1,-1,99,101,103,-1,-1,105,107,-1,-1,109,-1,-1,-1,-1,111,113,-1,-1,115,-1,117,-1,-1,-1,-1,-1,-1,-1,-1,-1,119,-1,-1,121,-1,-1,-1,-1,-1,-1],"loss_changes":[2.8590744E2,9.406793E1,5.6253372E1,2.3782532E1,2.126052E1,3.449556E1,5.2646824E1,8.472794E0,5.3077126E-1,2.9728909E0,2.5488386E0,1.081366E1,9.955776E0,9.790939E0,1.433474E1,5.2988586E0,2.3688018E0,0E0,0E0,1.7003517E0,3.8252113E0,8.887577E-1,0E0,8.621796E0,1.2434792E1,0E0,0E0,0E0,3.5040283E0,1.6501495E1,7.261167E0,2.9875488E0,9.463844E-1,0E0,0E0,0E0,0E0,0E0,4.8565817E-1,0E0,0E0,1.06376505E1,5.1254272E0,4.0947294E0,2.754174E0,1.908638E0,0E0,7.943371E0,1.5425037E1,0E0,1.0229578E0,1.4154053E-1,6.6135424E-1,0E0,0E0,0E0,0E0,1.7763891E0,0E0,2.426178E0,0E0,0E0,0E0,0E0,0E0,0E0,1.6711769E0,1.2134247E0,8.442553E0,2.9247491E0,3.855816E0,0E0,0E0,6.92749E-2,0E0,0E0,0E0,5.62279E-1,0E0,1.7114184E0,1.6650391E0,0E0,0E0,6.6177875E-1,7.029724E-1,4.5003843E0,0E0,0E0,1.6708517E0,7.400112E-1,0E0,0E0,2.1594119E-1,0E0,0E0,0E0,0E0,1.4486593E1,7.1643066E-1,0E0,0E0,6.192093E-1,0E0,4.0382214E0,0E0,0E0,0E0,0E0,0E0,0E0,0E0,0E0,0E0,4.9212646E-1,0E0,0E0,4.4419098E-1,0E0,0E0,0E0,0E0,0E0,0E0],"parents":[2147483647,0,0,1,1,2,2,3,3,4,4,5,5,6,6,7,7,8,8,9,9,10,10,11,11,12,12,13,13,14,14,15,15,16,16,19,19,20,20,21,21,23,23,24,24,28,28,29,29,30,30,31,31,32,32,38,38,41,41,42,42,43,43,44,44,45,45,47,47,48,48,50,50,51,51,52,52,57,57,59,59,66,66,67,67,68,68,69,69,70,70,73,73,77,77,79,79,80,80,83,83,84,84,85,85,88,88,89,89,92,92,97,97,98,98,101,101,103,103,113,113,116,116],"right_children":[2,4,6,8,10,12,14,16,18,20,22,24,26,28,30,32,34,-1,-1,36,38,40,-1,42,44,-1,-1,-1,46,48,50,52,54,-1,-1,-1,-1,-1,56,-1,-1,58,60,62,64,66,-1,68,70,-1,72,74,76,-1,-1,-1,-1,78,-1,80,-1,-1,-1,-1,-1,-1,82,84,86,88,90,-1,-1,92,-1,-1,-1,94,-1,96,98,-1,-1,100,102,104,-1,-1,106,108,-1,-1,110,-1,-1,-1,-1,112,114,-1,-1,116,-1,118,-1,-1,-1,-1,-1,-1,-1,-1,-1,120,-1,-1,122,-1,-1,-1,-1,-1,-1],"split_conditions":[2.25E1,3.25E1,1.385E2,8.05E1,9.35E1,1.215E2,1.075E2,1.835E2,1.175E2,4.25E1,6.75E1,1.055E2,1.175E2,5.9E1,2.715E2,1.17E2,4.59E2,-1.6589814E-1,3.0623233E-2,3.35E1,7.8E1,3.9E1,-1.0124714E-1,4.85E1,6.5E1,3.4253913E-1,-1.5100932E-1,-1.4708121E-1,1.575E2,1.165E2,4.45E1,5.65E1,1.445E2,-1.5060842E-1,2.106957E-1,7.6538995E-2,-1.832072E-1,2.8134462E-1,3.55E1,2.6714602E-2,3.339881E-1,1.765E2,2.075E2,7.5E1,1.015E2,6.35E1,-1.0292339E-1,9.15E1,1.175E2,-1.4517297E-1,7.2E1,5.65E1,3.8E1,1.2553407E-1,-1.3017917E-1,3.812154E-2,-1.5444963E-1,1.505E2,3.1781253E-1,1.75E1,2.1730216E-1,-1.1538843E-1,3.468401E-1,-1.763496E-1,1.4522709E-1,-5.915527E-4,5.5E1,4.25E1,1.025E2,5.05E1,9.55E1,2.6097942E-2,3.5280105E-1,7.35E1,1.4085743E-1,-1.0300298E-1,1.2668975E-1,1.035E2,1.4388824E-1,3.7E1,2.5E1,3.627524E-1,1.4090932E-2,8.25E1,7.85E1,1.005E2,-1.7113553E-1,-1.7211877E-1,7.65E1,6.5E0,-1.124971E-1,3.546806E-1,2.05E1,-1.7336944E-1,2.7448205E-2,-1.130867E-1,2.4613966E-1,4.85E1,1.165E2,1.4146148E-1,-9.728402E-2,5.4E1,3.9836653E-2,1.705E2,-1.3548131E-1,2.561396E-1,-1.02858126E-1,8.504165E-2,3.6883688E-1,2.6047574E-2,2.134851E-1,3.4279132E-1,-1.8067393E-1,7.85E1,3.310987E-2,2.7824251E-2,1.125E2,-1.1603745E-1,3.406045E-1,-1.8394837E-1,-1.4317554E-1,-1.8005586E-1,-7.3474124E-2],"split_indices":[202,232,1321,320,1220,122,212,2120,1112,2220,222,1020,1202,3120,1021,3210,2121,0,0,232,1001,101,0,203,3300,0,0,0,1022,1012,2000,2020,212,0,0,0,0,0,1311,0,0,1000,1021,10,203,1001,0,3110,1112,0,21,1010,1,0,0,0,0,212,0,302,0,0,0,0,0,0,2330,120,2011,2020,3110,0,0,111,0,0,0,11,0,1,2031,0,0,2,2220,2101,0,0,310,130,0,0,3,0,0,0,0,2130,311,0,0,2001,0,1021,0,0,0,0,0,0,0,0,0,102,0,0,1012,0,0,0,0,0,0],"split_type":[0,0,0,0,0,0,0,0,0,0,0,0,0,0,0,0,0,0,0,0,0,0,0,0,0,0,0,0,0,0,0,0,0,0,0,0,0,0,0,0,0,0,0,0,0,0,0,0,0,0,0,0,0,0,0,0,0,0,0,0,0,0,0,0,0,0,0,0,0,0,0,0,0,0,0,0,0,0,0,0,0,0,0,0,0,0,0,0,0,0,0,0,0,0,0,0,0,0,0,0,0,0,0,0,0,0,0,0,0,0,0,0,0,0,0,0,0,0,0,0,0,0,0],"sum_hessian":[1.4327238E3,2.9106357E2,1.1416602E3,2.1572174E2,7.5341805E1,9.1129974E2,2.303604E2,2.0623952E2,9.482226E0,6.3026333E1,1.23154745E1,8.921814E2,1.911836E1,4.7700172E1,1.8266022E2,2.0086328E2,5.3762403E0,8.382264E0,1.0999625E0,5.5332535E1,7.6938E0,1.1251469E1,1.0640057E0,8.647536E2,2.7427809E1,1.4973715E1,4.1446457E0,3.7547383E0,4.3945435E1,1.6835867E2,1.4301542E1,1.9750801E2,3.3552651E0,3.9117732E0,1.464467E0,1.8471324E0,5.34854E1,2.3257065E0,5.3680935E0,1.1148659E0,1.0136602E1,2.0736078E1,8.440175E2,1.00721E1,1.7355711E1,4.2702496E1,1.2429382E0,1.36937E2,3.1421679E1,3.2815506E0,1.1019991E1,1.9497874E2,2.529272E0,1.2898916E0,2.0653737E0,1.077323E0,4.2907705E0,1.4478058E1,6.2580194E0,8.418442E2,2.1733549E0,1.5953436E0,8.476756E0,1.53213005E1,2.03441E0,1.4261062E0,4.127639E1,1.1409431E2,2.2842695E1,1.5336743E1,1.6084934E1,1.1184508E0,9.901541E0,1.9291641E2,2.0623355E0,1.2441825E0,1.2850897E0,1.3236032E1,1.2420259E0,2.9198534E0,8.389243E2,3.9915424E1,1.3609631E0,2.2637756E0,1.1183053E2,1.2850377E1,9.992318E0,1.2209697E1,3.127047E0,1.4701754E1,1.3831809E0,1.9033951E2,2.5768971E0,1.2126832E1,1.1091998E0,1.5553265E0,1.364527E0,3.882678E1,8.0009753E2,1.2410219E0,1.0227537E0,1.1075999E2,1.0705373E0,1.0279718E1,2.5706587E0,1.8851563E0,1.2418907E0,1.6285077E0,1.3073246E1,1.1188729E0,1.4580243E0,4.5600634E0,3.4266716E1,7.989822E2,1.1153672E0,1.1089544E0,1.0965104E2,1.606047E0,8.673672E0,7.5045197E2,4.8530205E1,1.040608E2,5.5902348E0],"tree_param":{"num_deleted":"0","num_feature":"3333","num_nodes":"123","size_leaf_vector":"0"}},{"base_weights":[-7.003631E-2,-3.2770076E-1,6.143867E-1,-4.4849288E-1,6.051654E-1,8.1611586E-1,-4.7057572E-1,-4.980761E-1,7.148901E-1,-5.6147915E-1,8.8824075E-1,-5.3354657E-1,8.5760266E-1,5.080638E-1,-5.7849205E-1,2.6821432E-1,-5.1912326E-1,8.7642425E-1,-4.7136244E-1,8.818805E-1,-1.10844016E-1,7.604996E-1,-3.1975952E-1,-5.252743E-1,7.453467E-1,-5.419894E-1,-1.6749313E-2,8.960945E-1,2.6598406E-1,-1.7475215E-1,8.920156E-1,-5.0298303E-1,7.176939E-1,-3.390867E-1,8.712516E-1,-5.74266E-1,-3.2348138E-1,-5.611238E-1,7.9375404E-1,1.553465E-1,-3.6979654E-1,8.951005E-1,6.933426E-2,-5.7690376E-1,3.8812393E-1,-4.462133E-1,5.9452915E-1,8.447103E-1,6.6291206E-2,8.97094E-1,2.771009E-1,-5.7826525E-1,-3.7861545E-2,3.8421956E-1,-5.206749E-1,-4.1674677E-1,8.6990905E-1,8.9902794E-1,2.854839E-1,-5.869858E-1,-5.0825465E-1,7.863898E-1,-4.1649526E-1,-5.501007E-1,3.6965692E-1,9.246047E-1,3.0098832E-1,-5.4469687E-1,5.836055E-1,-5.7153046E-1,5.8305476E-2],"categories":[],"categories_nodes":[],"categories_segments":[],"categories_sizes":[],"default_left":[1,1,1,1,1,1,1,1,1,0,0,0,1,1,0,0,1,1,0,1,1,0,0,0,1,1,1,0,0,1,1,0,0,0,0,1,1,0,1,0,0,1,0,1,0,0,1,0,0,1,0,1,0,1,1,0,1,0,0,0,1,0,0,1,0,0,0,0,0,0,0],"id":8,"left_children":[1,3,5,7,9,11,13,15,17,-1,-1,-1,19,21,-1,23,25,27,-1,29,31,-1,-1,-1,33,35,37,-1,-1,39,41,-1,-1,-1,-1,43,45,-1,47,-1,-1,49,-1,51,-1,53,55,-1,-1,57,-1,59,-1,61,63,-1,65,-1,-1,-1,67,-1,-1,69,-1,-1,-1,-1,-1,-1,-1],"loss_changes":[2.277487E2,1.0597414E2,7.769966E1,4.8296875E1,3.615395E1,1.7156647E1,6.209982E0,1.3004822E1,7.001713E0,0E0,0E0,0E0,6.909668E0,1.517081E0,0E0,8.714498E0,8.913422E0,1.2923431E-1,0E0,3.1838684E0,2.951679E0,0E0,0E0,0E0,2.226305E0,5.0535126E0,1.5820176E1,0E0,0E0,2.842396E-1,6.491089E-1,0E0,0E0,0E0,0E0,1.8637543E0,1.1295588E1,0E0,4.783497E-1,0E0,0E0,9.526062E-2,0E0,4.5118713E-1,0E0,5.575157E0,3.6970596E0,0E0,0E0,7.18689E-2,0E0,9.4177246E-2,0E0,2.816235E0,2.304428E0,0E0,2.4633408E-2,0E0,0E0,0E0,3.4480515E0,0E0,0E0,1.0507298E0,0E0,0E0,0E0,0E0,0E0,0E0,0E0],"parents":[2147483647,0,0,1,1,2,2,3,3,4,4,5,5,6,6,7,7,8,8,12,12,13,13,15,15,16,16,17,17,19,19,20,20,24,24,25,25,26,26,29,29,30,30,35,35,36,36,38,38,41,41,43,43,45,45,46,46,49,49,51,51,53,53,54,54,56,56,60,60,63,63],"right_children":[2,4,6,8,10,12,14,16,18,-1,-1,-1,20,22,-1,24,26,28,-1,30,32,-1,-1,-1,34,36,38,-1,-1,40,42,-1,-1,-1,-1,44,46,-1,48,-1,-1,50,-1,52,-1,54,56,-1,-1,58,-1,60,-1,62,64,-1,66,-1,-1,-1,68,-1,-1,70,-1,-1,-1,-1,-1,-1,-1],"split_conditions":[1.385E2,1.155E2,1.565E2,1.555E2,6.5E1,9.55E1,1.26E2,1.85E1,1.435E2,-1.6844375E-1,2.6647225E-1,-1.6006398E-1,4.5E1,3.95E1,-1.7354763E-1,5.9E1,1.015E2,1.545E2,-1.4140874E-1,8.05E1,1.095E2,2.2814989E-1,-9.592786E-2,-1.5758228E-1,5.65E1,9.05E1,2.3E1,2.6882836E-1,7.979522E-2,1.235E2,1.305E2,-1.5089491E-1,2.1530819E-1,-1.0172602E-1,2.613755E-1,1.79E2,9.95E1,-1.6833714E-1,1.19E2,4.660395E-2,-1.10938966E-1,9.85E1,2.080028E-2,1.295E2,1.1643718E-1,1.9E1,3.15E1,2.534131E-1,1.9887362E-2,1.03E2,8.313027E-2,9.05E1,-1.1358464E-2,7.75E1,7.65E1,-1.2502404E-1,8.3E1,2.697084E-1,8.564517E-2,-1.7609575E-1,1.185E2,2.3591696E-1,-1.2494858E-1,1.2E2,1.1089708E-1,2.7738142E-1,9.02965E-2,-1.6340907E-1,1.7508167E-1,-1.7145914E-1,1.7491644E-2],"split_indices":[312,230,1321,1231,21,1120,1102,1301,1321,0,0,0,2301,101,0,1202,230,121,0,1331,120,0,0,0,32,1220,1122,0,0,1031,1012,0,0,0,0,2031,22,0,10,0,0,1001,0,322,0,2301,302,0,0,3110,0,2200,0,1101,2020,0,1,0,0,0,321,0,0,21,0,0,0,0,0,0,0],"split_type":[0,0,0,0,0,0,0,0,0,0,0,0,0,0,0,0,0,0,0,0,0,0,0,0,0,0,0,0,0,0,0,0,0,0,0,0,0,0,0,0,0,0,0,0,0,0,0,0,0,0,0,0,0,0,0,0,0,0,0,0,0,0,0,0,0,0,0,0,0,0,0],"sum_hessian":[1.289306E3,9.370546E2,3.5225137E2,8.300897E2,1.069649E2,2.972339E2,5.5017475E1,7.967061E2,3.3383633E1,2.0694147E1,8.627075E1,8.510399E0,2.8872348E2,5.096044E0,4.9921432E1,2.0983639E1,7.757225E2,2.9612436E1,3.7711961E0,2.8174973E2,6.9737606E0,3.9675183E0,1.1285259E0,7.841703E0,1.3141935E1,7.418762E2,3.384628E1,2.8234678E1,1.3777564E0,2.5225117E0,2.7922723E2,5.0001597E0,1.9736006E0,1.1909493E0,1.1950986E1,6.449763E2,9.689989E1,2.043129E1,1.34149885E1,1.0124854E0,1.5100265E0,2.7809637E2,1.1308336E0,6.4361285E2,1.3634819E0,8.592608E1,1.0973811E1,1.2386205E1,1.0287837E0,2.7675204E2,1.3443451E0,6.419187E2,1.6941166E0,6.7283354E0,7.919774E1,2.2388275E0,8.734984E0,2.7541125E2,1.340795E0,5.642512E2,7.766747E1,4.490706E0,2.23763E0,7.703388E1,2.1638603E0,7.3985057E0,1.3364781E0,7.564389E1,2.023582E0,7.44714E1,2.5624835E0],"tree_param":{"num_deleted":"0","num_feature":"3333","num_nodes":"71","size_leaf_vector":"0"}},{"base_weights":[4.22383E-1,-9.965526E-2,7.267342E-1,7.8791744E-1,-4.4457245E-1,8.070727E-1,-3.0750023E-2,-3.7926123E-1,8.9291406E-1,-5.28906E-1,-1.4077283E-1,8.281565E-1,-2.5224707E-1,-2.4495816E-1,8.4399545E-1,-5.430127E-1,6.240758E-1,-5.545341E-1,1.1554176E-1,-5.2990365E-1,7.1067846E-1,2.1929651E-1,8.4649783E-1,-4.4891572E-1,5.53667E-1,8.060505E-1,-4.4021818E-1,-1.3201232E-2,9.0537685E-1,-5.619124E-1,4.1934097E-1,-5.1856816E-1,8.295973E-1,6.816136E-1,-5.7873553E-1,9.0071E-1,-4.7683555E-1,6.0765046E-1,-5.4280245E-1,8.649308E-1,5.0055385E-1,4.0839472E-1,-5.548311E-1,4.5896526E-2,7.338138E-1,8.611013E-1,7.642732E-2,-4.9257872E-1,3.5866845E-1,-5.6915635E-1,3.8612112E-1,9.419466E-1,8.993076E-2,-1.8979106E-2,9.5154095E-1,7.3380756E-1,-4.1139975E-1,9.69816E-2,8.726343E-1,-3.490522E-1,8.166641E-1,6.534541E-2,-5.428568E-1,-3.565656E-1,7.275293E-1,-5.745303E-1,-4.5490168E-2,9.745786E-1,2.9970562E-1,8.49985E-1,-3.4728238E-1,-4.791347E-1,4.870117E-1,6.7127985E-1,8.834189E-1,6.6335905E-1,-5.847095E-1,8.831633E-1,-1.8467805E-1,-4.40311E-1,5.918163E-1,-5.704204E-1,-1.1793742E-2,-5.771785E-1,1.2901244E-1,-4.0625584E-1,4.927797E-1,8.837262E-1,2.8060728E-1,7.37168E-1,-3.2216772E-1,-6.0686428E-2,7.9753464E-1,8.850133E-1,1.310286E-1,9.1628355E-1,1.7863724E-1,8.8862345E-2,7.8142554E-1,8.7929375E-2,-5.849464E-1,-3.8213226E-1,4.4302142E-1,-5.7961935E-1,8.927859E-2,6.899166E-1,-6.786439E-1,2.2708379E-1,8.617578E-1,8.9523834E-1,7.474752E-1,-5.820728E-1,8.8251844E-2,6.8290657E-1,-4.0491146E-1,9.02601E-1,3.0097845E-1,8.961532E-1,2.5571346E-1,8.1094676E-1,-1.03886835E-1],"categories":[],"categories_nodes":[],"categories_segments":[],"categories_sizes":[],"default_left":[1,1,1,1,1,0,1,1,0,1,1,1,1,1,1,0,0,1,1,1,1,1,1,0,1,1,1,0,0,1,0,0,1,0,0,1,0,1,0,1,0,0,0,0,0,0,0,1,1,1,0,0,0,0,0,0,0,1,1,1,1,1,1,0,0,1,1,0,0,1,0,0,1,1,1,0,0,1,0,0,1,1,1,1,0,0,0,0,0,0,0,1,1,1,0,0,0,0,0,0,0,0,0,1,0,0,0,0,1,1,1,0,0,0,0,0,0,0,0,0,0],"id":9,"left_children":[1,3,5,7,9,11,13,15,-1,17,19,21,23,25,27,-1,-1,29,31,33,35,37,39,41,43,45,47,-1,-1,49,-1,-1,51,-1,-1,53,-1,55,-1,57,59,-1,-1,-1,-1,-1,-1,61,63,65,-1,-1,-1,-1,67,69,-1,71,73,75,77,79,81,-1,-1,83,85,-1,-1,87,-1,-1,89,91,93,-1,-1,95,-1,-1,97,99,101,103,-1,-1,-1,-1,-1,-1,-1,105,107,109,-1,-1,-1,-1,-1,-1,-1,-1,-1,111,-1,-1,-1,113,115,117,119,-1,-1,-1,-1,-1,-1,-1,-1,-1,-1],"loss_changes":[2.56585E2,1.8264839E2,6.2097046E1,2.0805283E1,1.0928726E1,2.0806396E1,1.8714159E1,2.7188127E0,0E0,5.6099777E0,3.1745687E1,9.914856E0,3.2225366E0,1.6796352E1,1.046073E0,0E0,0E0,2.5574493E0,6.6200204E0,4.2726364E0,7.227523E0,8.55739E0,5.1637573E0,1.6462939E0,3.4396386E-1,4.5255756E-1,3.0299492E0,0E0,0E0,2.4250336E0,0E0,0E0,4.8158407E-1,0E0,0E0,1.2482471E0,0E0,2.73E0,0E0,4.836792E0,1.2846766E1,0E0,0E0,0E0,0E0,0E0,0E0,1.843009E0,1.5189873E0,8.718262E-1,0E0,0E0,0E0,0E0,8.2675934E-2,2.451151E0,0E0,2.342653E0,1.1952515E0,3.5810664E0,2.4529877E0,1.9162526E0,8.60096E-1,0E0,0E0,6.627579E-1,1.0404977E0,0E0,0E0,5.5368423E-2,0E0,0E0,1.4709436E0,4.302164E0,8.178711E-1,0E0,0E0,5.928116E-1,0E0,0E0,2.6181555E-1,5.895958E-1,8.3343256E-1,5.637665E-1,0E0,0E0,0E0,0E0,0E0,0E0,0E0,4.040135E0,1.2451572E0,4.2303467E-1,0E0,0E0,0E0,0E0,0E0,0E0,0E0,0E0,0E0,5.6547546E-1,0E0,0E0,0E0,1.8141284E0,5.297718E-1,1.9091797E-1,3.315815E0,0E0,0E0,0E0,0E0,0E0,0E0,0E0,0E0,0E0,0E0],"parents":[2147483647,0,0,1,1,2,2,3,3,4,4,5,5,6,6,7,7,9,9,10,10,11,11,12,12,13,13,14,14,17,17,18,18,19,19,20,20,21,21,22,22,23,23,24,24,25,25,26,26,29,29,32,32,35,35,37,37,39,39,40,40,47,47,48,48,49,49,54,54,55,55,57,57,58,58,59,59,60,60,61,61,62,62,65,65,66,66,69,69,72,72,73,73,74,74,77,77,80,80,81,81,82,82,83,83,91,91,92,92,93,93,103,103,107,107,108,108,109,109,110,110],"right_children":[2,4,6,8,10,12,14,16,-1,18,20,22,24,26,28,-1,-1,30,32,34,36,38,40,42,44,46,48,-1,-1,50,-1,-1,52,-1,-1,54,-1,56,-1,58,60,-1,-1,-1,-1,-1,-1,62,64,66,-1,-1,-1,-1,68,70,-1,72,74,76,78,80,82,-1,-1,84,86,-1,-1,88,-1,-1,90,92,94,-1,-1,96,-1,-1,98,100,102,104,-1,-1,-1,-1,-1,-1,-1,106,108,110,-1,-1,-1,-1,-1,-1,-1,-1,-1,112,-1,-1,-1,114,116,118,120,-1,-1,-1,-1,-1,-1,-1,-1,-1,-1],"split_conditions":[7.25E1,5.65E1,9.35E1,2.9E1,7.05E1,1.335E2,1.74E2,9.4E1,2.6787424E-1,7.75E1,3.35E1,4.45E1,7.4E1,4.55E1,8.9E1,-1.6290382E-1,1.8722273E-1,1.8E2,8.6E1,3.3E1,6.1E1,8.8E1,9.85E1,1.36E2,6.5E1,9.35E1,7.95E1,-3.9603696E-3,2.7161306E-1,8.95E1,1.258023E-1,-1.5557045E-1,6.05E1,2.0448409E-1,-1.7362067E-1,2.2E1,-1.4305067E-1,8.8E1,-1.6284074E-1,3.65E1,6.1E1,1.2251842E-1,-1.6644934E-1,1.3768959E-2,2.2014415E-1,2.583304E-1,2.2928197E-2,9.45E1,4.3E1,1.895E2,1.15836345E-1,2.82584E-1,2.6979228E-2,-5.693732E-3,9.95E1,1.695E2,-1.2341993E-1,4.55E1,3.65E1,6.9E1,1.01E2,7.9E1,5.05E1,-1.06969684E-1,2.182588E-1,1.41E2,4.55E1,2.923736E-1,8.991169E-2,1.535E2,-1.0418472E-1,-1.4374042E-1,1.71E2,1.235E2,8.65E1,1.9900772E-1,-1.7541286E-1,8.65E1,-5.5403415E-2,-1.3209331E-1,6.6E1,4.45E1,1.005E2,1.785E2,3.8703732E-2,-1.21876754E-1,1.4783391E-1,2.6511785E-1,8.418219E-2,2.2115041E-1,-9.6650325E-2,8.35E1,7.55E1,6.35E1,3.9308578E-2,2.748851E-1,5.3591173E-2,2.6658705E-2,2.3442768E-1,2.6378814E-2,-1.7548393E-1,-1.14639685E-1,1.3290644E-1,2.2E2,2.678358E-2,2.06975E-1,-2.0359318E-1,2.155E2,2.35E1,1.265E2,8.35E1,-1.7462185E-1,2.6475554E-2,2.0487198E-1,-1.2147344E-1,2.7078032E-1,9.029354E-2,2.6884598E-1,7.671404E-2,2.4328403E-1,-3.1166052E-2],"split_indices":[1001,1002,1220,3300,2330,1231,1022,1131,0,111,1102,2320,111,1002,1200,0,0,1011,210,202,1130,122,2200,1201,21,31,113,0,0,113,0,0,2000,0,0,1110,0,11,0,132,3300,0,0,0,0,0,0,1220,132,1210,0,0,0,0,1330,2111,0,2230,232,32,203,12,2130,0,0,3020,101,0,0,2,0,0,2,2120,2201,0,0,1002,0,0,213,3200,121,221,0,0,0,0,0,0,0,211,1001,220,0,0,0,0,0,0,0,0,0,1022,0,0,0,1121,3020,1020,1220,0,0,0,0,0,0,0,0,0,0],"split_type":[0,0,0,0,0,0,0,0,0,0,0,0,0,0,0,0,0,0,0,0,0,0,0,0,0,0,0,0,0,0,0,0,0,0,0,0,0,0,0,0,0,0,0,0,0,0,0,0,0,0,0,0,0,0,0,0,0,0,0,0,0,0,0,0,0,0,0,0,0,0,0,0,0,0,0,0,0,0,0,0,0,0,0,0,0,0,0,0,0,0,0,0,0,0,0,0,0,0,0,0,0,0,0,0,0,0,0,0,0,0,0,0,0,0,0,0,0,0,0,0,0],"sum_hessian":[1.6134749E3,5.944748E2,1.01900006E3,1.6600668E2,4.2846808E2,9.212294E2,9.777069E1,1.3485466E1,1.5252122E2,3.3479062E2,9.367746E1,9.034658E2,1.7763557E1,7.9116554E1,1.8654137E1,1.1987773E1,1.4976931E0,3.221202E2,1.2670402E1,6.455304E1,2.9124424E1,2.679917E1,8.766666E2,1.46351E1,3.1284566E0,1.1905546E1,6.7211006E1,1.2989613E0,1.7355175E1,3.2011792E2,2.0022953E0,6.855878E0,5.8145237E0,1.999021E0,6.2554016E1,2.5314928E1,3.8094964E0,1.7886929E1,8.912242E0,8.308939E2,4.577271E1,1.2952335E0,1.3339868E1,1.1478486E0,1.9806079E0,1.0902723E1,1.0028224E0,6.3436665E1,3.7743406E0,3.1808707E2,2.0308592E0,4.8103905E0,1.0041336E0,1.3586886E0,2.3956238E1,1.6165562E1,1.7213662E0,8.38711E0,8.2250684E2,1.2384043E1,3.3388664E1,5.2193313E0,5.8217335E1,1.2955525E0,2.478788E0,3.1475983E2,3.3272374E0,2.2660233E1,1.2960064E0,1.4789956E1,1.3756064E0,3.2936213E0,5.0934877E0,4.502933E1,7.774775E2,1.9956346E0,1.0388408E1,3.1420076E1,1.9685874E0,2.7457716E0,2.4735596E0,5.5274345E1,2.94299E0,3.1375842E2,1.0013928E0,2.1389208E0,1.1883167E0,1.3441336E1,1.3486204E0,3.9586668E0,1.1348213E0,6.7007627E0,3.8328568E1,7.7565753E2,1.8199422E0,2.9722246E1,1.6978308E0,1.0792967E0,1.3942628E0,1.0841696E0,5.4190174E1,1.710226E0,1.232764E0,3.1274332E2,1.0151091E0,2.9730706E0,3.7276921E0,4.337487E0,3.399108E1,7.16855E2,5.880259E1,3.1172665E2,1.0166831E0,2.4731712E0,1.8643163E0,3.1115316E1,2.8757637E0,7.1543024E2,1.4247522E0,5.476702E1,4.0355697E0],"tree_param":{"num_deleted":"0","num_feature":"3333","num_nodes":"121","size_leaf_vector":"0"}},{"base_weights":[-3.3432907E-1,-5.7076496E-1,7.434713E-1,-5.842138E-1,8.3689666E-1,8.650512E-1,-5.144202E-1,6.1688256E-1,-5.867683E-1,-4.2268205E-1,8.838179E-1,-5.58524E-1,1.410138E-1,-5.8772E-1,1.2775992E-1,8.9122754E-1,-5.604844E-2,3.9940856E-2,8.9596146E-1,3.0388415E-1,8.98446E-1],"categories":[],"categories_nodes":[],"categories_segments":[],"categories_sizes":[],"default_left":[1,1,1,1,0,1,1,0,1,0,1,0,0,0,0,1,0,0,1,0,0],"id":10,"left_children":[1,3,5,7,-1,9,11,-1,13,-1,15,-1,-1,-1,-1,17,-1,-1,19,-1,-1],"loss_changes":[2.9736334E2,1.8590698E1,3.2571182E1,3.2697754E0,0E0,5.0117035E0,6.320777E-1,0E0,7.1847534E-1,0E0,1.3695831E0,0E0,0E0,0E0,0E0,7.2210693E-1,0E0,0E0,2.0446777E-3,0E0,0E0],"parents":[2147483647,0,0,1,1,2,2,3,3,5,5,6,6,8,8,10,10,15,15,18,18],"right_children":[2,4,6,8,-1,10,12,-1,14,-1,16,-1,-1,-1,-1,18,-1,-1,20,-1,-1],"split_conditions":[1.705E2,1.22E2,2.9E1,3E0,2.51069E-1,6.85E1,5.55E1,1.8506478E-1,7.7E1,-1.2680462E-1,4.7E1,-1.6755721E-1,4.2304143E-2,-1.76316E-1,3.8327977E-2,1.55E2,-1.6814534E-2,1.19822575E-2,3.65E1,9.1165245E-2,2.695338E-1],"split_indices":[2,202,2301,1032,0,1002,111,0,1130,0,132,0,0,0,0,1000,0,0,202,0,0],"split_type":[0,0,0,0,0,0,0,0,0,0,0,0,0,0,0,0,0,0,0,0,0],"sum_hessian":[1.1642402E3,9.55175E2,2.0906526E2,9.46715E2,8.459964E0,1.9092404E2,1.8141212E1,1.4988519E0,9.452162E2,2.4332957E0,1.8849075E2,1.7135996E1,1.0052161E0,9.441362E2,1.0799373E0,1.870677E2,1.4230403E0,1.0866958E0,1.8598102E2,1.2924596E0,1.8468855E2],"tree_param":{"num_deleted":"0","num_feature":"3333","num_nodes":"21","size_leaf_vector":"0"}},{"base_weights":[-1.620806E-1,5.5884516E-1,-3.731579E-1,7.958489E-1,-2.2781555E-1,-4.8448813E-1,3.0078614E-2,8.41531E-1,-5.152797E-1,-4.559309E-1,6.982321E-1,-5.13534E-1,6.1923766E-1,7.424889E-1,-1.8665239E-1,8.5875005E-1,-4.2837057E-1,-5.398375E-1,7.8308664E-2,8.2061183E-1,-1.0158505E-1,-5.339668E-1,6.426885E-2,8.7823737E-1,-4.628901E-1,-4.4873455E-1,8.334984E-1,-4.4289342E-1,4.57476E-2,8.7349236E-1,-2.1942042E-1,2.1945408E-1,-5.7664883E-1,5.9522325E-1,-4.6618107E-1,8.667165E-1,2.712468E-1,7.068339E-2,-5.504949E-1,6.0664386E-1,-4.876914E-1,8.6906224E-1,-3.1623667E-1,-4.9812952E-1,1.7356606E-1,4.79016E-1,-4.4471842E-1,8.8349915E-1,-3.4855258E-1,-3.7512895E-1,7.8628376E-2,1.8368954E-2,7.8540313E-1,-3.5876876E-1,8.379049E-1,-5.550766E-1,5.746718E-1,8.449973E-1,-4.1738182E-1,-5.482731E-1,1.3286111E-1,-2.0796398E-3,9.005188E-1,3.8104725E-1,-5.3317726E-1,-4.4734964E-1,7.7677333E-1,7.5844735E-1,-2.4861002E-1,6.9972765E-1,-5.3762656E-1,8.878516E-1,3.7680037E-2,-4.7831872E-1,4.341271E-1,2.267389E-1,-5.585821E-1,7.22192E-2,9.1307586E-1,9.2522055E-1,1.032306E-2,4.8600614E-2,5.3503144E-1,3.0439878E-1,-5.564388E-1,8.668033E-1,-4.2691365E-1,-5.347075E-1,2.918294E-1,-5.8177096E-1,4.3136576E-1,8.9353824E-1,1.5321556E-1,1.12723455E-1,-5.4196125E-1,-3.3669254E-1,6.61812E-1,-3.331927E-1,-5.693853E-1,1.23962976E-1,-5.7041985E-1,9.1962427E-1,-7.228682E-2,6.691416E-1,-3.646051E-1,9.008107E-1,4.295347E-1,8.840676E-1,-5.682206E-1,-5.707371E-1,1.3138297E-1,-5.8189684E-1,-2.1427172E-1,9.4763327E-1,7.3551565E-2,9.034346E-1,3.0344072E-1,7.206175E-1,-3.3766487E-1,-5.797515E-1,-4.266516E-1,-3.704754E-1,9.715848E-2,9.685239E-1,2.9657772E-1],"categories":[],"categories_nodes":[],"categories_segments":[],"categories_sizes":[],"default_left":[1,1,1,1,1,1,1,1,0,1,1,1,0,0,1,1,0,1,1,1,0,1,0,0,0,0,1,0,1,1,1,0,0,0,0,0,0,1,1,1,1,1,0,0,0,1,0,1,0,0,0,0,0,1,0,1,0,1,0,0,0,0,1,1,1,0,0,1,1,0,1,0,0,1,0,1,0,0,0,0,0,0,0,0,0,1,0,0,1,0,0,1,0,0,0,0,0,1,1,0,1,1,0,0,0,1,1,0,0,1,0,0,1,1,0,0,0,0,0,0,0,0,0,0,0],"id":11,"left_children":[1,3,5,7,9,11,13,15,-1,17,19,21,23,25,27,29,-1,31,33,35,-1,37,39,-1,-1,-1,41,43,45,47,49,-1,-1,51,-1,-1,-1,53,55,57,59,61,-1,63,65,67,69,71,-1,-1,-1,-1,-1,73,-1,75,-1,77,-1,-1,-1,-1,79,81,83,-1,-1,85,87,-1,89,91,-1,93,-1,95,97,-1,-1,-1,-1,-1,-1,-1,99,101,-1,-1,103,-1,-1,105,-1,-1,-1,-1,-1,107,109,-1,111,113,-1,-1,-1,115,117,-1,-1,119,-1,-1,121,123,-1,-1,-1,-1,-1,-1,-1,-1,-1,-1,-1],"loss_changes":[1.8984406E2,5.2876396E1,4.3316162E1,1.345607E1,1.4305914E1,2.4552216E1,3.2506042E1,4.970352E0,0E0,2.4509048E0,1.403007E0,8.736542E0,5.96613E0,5.697027E0,9.639581E0,3.4977264E0,0E0,1.4280844E0,2.576104E0,6.3857555E-2,0E0,7.154724E0,8.099838E0,0E0,0E0,0E0,2.1542683E0,2.7056189E0,1.8406122E1,2.819641E0,1.9679554E-1,0E0,0E0,4.9337685E-1,0E0,0E0,0E0,6.8348427E0,3.8925018E0,3.6706738E0,5.7939553E-1,1.2309608E0,0E0,2.386345E0,2.994354E0,9.528866E0,4.7010536E0,7.175751E-1,0E0,0E0,0E0,0E0,0E0,1.4792516E0,0E0,2.0201874E0,0E0,5.315876E-1,0E0,0E0,0E0,0E0,9.424019E-1,1.4289808E-1,1.5050182E0,0E0,0E0,4.664953E0,2.2433698E0,0E0,1.8843832E0,7.108154E-1,0E0,5.174787E-1,0E0,1.1531913E0,1.485733E0,0E0,0E0,0E0,0E0,0E0,0E0,0E0,7.085781E-1,1.6026039E0,0E0,0E0,1.5615765E0,0E0,0E0,2.9185486E-1,0E0,0E0,0E0,0E0,0E0,1.0196051E1,6.957092E-1,0E0,1.4460945E-1,6.268196E-1,0E0,0E0,0E0,3.4851074E-2,1.3633883E0,0E0,0E0,6.022644E-1,0E0,0E0,2.1305156E-1,9.8558426E-2,0E0,0E0,0E0,0E0,0E0,0E0,0E0,0E0,0E0,0E0,0E0],"parents":[2147483647,0,0,1,1,2,2,3,3,4,4,5,5,6,6,7,7,9,9,10,10,11,11,12,12,13,13,14,14,15,15,17,17,18,18,19,19,21,21,22,22,26,26,27,27,28,28,29,29,30,30,33,33,37,37,38,38,39,39,40,40,41,41,43,43,44,44,45,45,46,46,47,47,53,53,55,55,57,57,62,62,63,63,64,64,67,67,68,68,70,70,71,71,73,73,75,75,76,76,84,84,85,85,88,88,91,91,97,97,98,98,100,100,101,101,105,105,106,106,109,109,112,112,113,113],"right_children":[2,4,6,8,10,12,14,16,-1,18,20,22,24,26,28,30,-1,32,34,36,-1,38,40,-1,-1,-1,42,44,46,48,50,-1,-1,52,-1,-1,-1,54,56,58,60,62,-1,64,66,68,70,72,-1,-1,-1,-1,-1,74,-1,76,-1,78,-1,-1,-1,-1,80,82,84,-1,-1,86,88,-1,90,92,-1,94,-1,96,98,-1,-1,-1,-1,-1,-1,-1,100,102,-1,-1,104,-1,-1,106,-1,-1,-1,-1,-1,108,110,-1,112,114,-1,-1,-1,116,118,-1,-1,120,-1,-1,122,124,-1,-1,-1,-1,-1,-1,-1,-1,-1,-1,-1],"split_conditions":[2.25E1,3.25E1,1.385E2,8.2E1,9.35E1,1.215E2,1.075E2,6.05E1,-1.5458392E-1,4.25E1,1.16E2,1.055E2,1.175E2,5.9E1,6.45E1,1.21E2,-1.2851118E-1,3.35E1,9.6E1,1.435E2,-3.0475518E-2,4.85E1,6.85E1,2.6347122E-1,-1.3886704E-1,-1.3462037E-1,1.065E2,1.265E2,8E1,8.45E1,7.2E1,6.583623E-2,-1.7299466E-1,1.6E1,-1.3985433E-1,2.6001495E-1,8.137404E-2,1.765E2,2.075E2,5.05E1,6.55E1,3.25E1,-9.487101E-2,5.75E1,5.2E1,6.35E1,1.195E2,1.145E2,-1.0456578E-1,-1.1253869E-1,2.3588514E-2,5.5106864E-3,2.3562095E-1,1.505E2,2.5137147E-1,1.75E1,1.7240155E-1,9.2E1,-1.2521455E-1,-1.6448194E-1,3.9858334E-2,-6.2389194E-4,7.4E1,9.85E1,4.5E1,-1.342049E-1,2.33032E-1,1.855E2,7.45E1,2.099183E-1,1.425E2,2.03E2,1.1304012E-2,8.45E1,1.3023813E-1,3.7E1,2.5E1,2.1665761E-2,2.7392277E-1,2.7756616E-1,3.096918E-3,1.4580185E-2,1.6050944E-1,9.1319636E-2,1.115E2,7.85E1,-1.280741E-1,-1.6041225E-1,5.25E1,-1.745313E-1,1.2940973E-1,1.795E2,4.596467E-2,3.3817038E-2,-1.6258839E-1,-1.0100777E-1,1.9854361E-1,4.85E1,1.165E2,3.7188895E-2,1.435E2,7.85E1,-2.1686047E-2,2.0074248E-1,-1.09381534E-1,5E1,2.45E1,2.6522028E-1,-1.7046618E-1,7.85E1,3.9414894E-2,-1.7456906E-1,6.55E1,5.55E1,2.206547E-2,2.710304E-1,9.103222E-2,2.1618526E-1,-1.01299465E-1,-1.7392546E-1,-1.2799549E-1,-1.1114263E-1,2.9147545E-2,2.9055718E-1,8.897332E-2],"split_indices":[202,232,1321,320,1220,122,212,2020,0,2220,221,1020,1202,3120,2201,3210,0,232,3210,112,0,203,2330,0,0,0,110,1112,1131,222,120,0,0,33,0,0,0,1000,1021,201,220,301,0,1231,123,132,1202,1001,0,0,0,0,0,212,0,302,0,332,0,0,0,0,1010,21,2200,0,0,1210,2201,0,121,3120,0,212,0,1,2031,0,0,0,0,0,0,0,1211,1020,0,0,101,0,0,1011,0,0,0,0,0,2130,311,0,1012,113,0,0,0,1310,1,0,0,102,0,0,1100,103,0,0,0,0,0,0,0,0,0,0,0],"split_type":[0,0,0,0,0,0,0,0,0,0,0,0,0,0,0,0,0,0,0,0,0,0,0,0,0,0,0,0,0,0,0,0,0,0,0,0,0,0,0,0,0,0,0,0,0,0,0,0,0,0,0,0,0,0,0,0,0,0,0,0,0,0,0,0,0,0,0,0,0,0,0,0,0,0,0,0,0,0,0,0,0,0,0,0,0,0,0,0,0,0,0,0,0,0,0,0,0,0,0,0,0,0,0,0,0,0,0,0,0,0,0,0,0,0,0,0,0,0,0,0,0,0,0,0,0],"sum_hessian":[1.2451997E3,2.81636E2,9.635637E2,2.164213E2,6.521471E1,7.549319E2,2.0863187E2,2.0948077E2,6.9405217E0,5.273262E1,1.2482081E1,7.3609534E2,1.8836538E1,4.8099506E1,1.6053236E2,2.0699779E2,2.4829948E0,4.5565685E1,7.166935E0,1.0803103E1,1.6789781E0,7.110273E2,2.5068068E1,1.5350839E1,3.4857001E0,3.1349902E0,4.4964516E1,7.591918E1,8.461318E1,2.0439287E2,2.6049194E0,1.8775105E0,4.3688175E1,3.628767E0,3.538168E0,9.4337225E0,1.3693807E0,1.8831646E1,6.921956E2,1.2593849E1,1.2474218E1,4.3852192E1,1.1123238E0,6.985223E1,6.066958E0,4.493861E1,3.9674572E1,2.0300755E2,1.3853092E0,1.5411606E0,1.0637587E0,1.1716131E0,2.457154E0,1.2414827E1,6.416819E0,6.8989307E2,2.3025553E0,1.0357786E1,2.2360628E0,1.1470848E1,1.0033699E0,1.5608428E0,4.2291348E1,2.2993932E0,6.755283E1,3.1169178E0,2.9500399E0,3.2438747E1,1.2499862E1,2.4885938E0,3.7185978E1,2.0191882E2,1.088728E0,1.1132981E1,1.2818463E0,2.795331E0,6.870977E2,1.005452E0,9.352335E0,4.1111217E1,1.1801299E0,1.1443661E0,1.155027E0,1.4988295E0,6.6054E1,2.9968058E1,2.4706893E0,8.180095E0,4.3197675E0,3.5947914E1,1.2380667E0,2.0015318E2,1.7656443E0,1.0072788E0,1.0125703E1,1.3165227E0,1.4788083E0,3.28834E1,6.542143E2,1.1715754E0,6.488242E1,2.8391832E1,1.5762255E0,2.7307823E0,1.5889852E0,1.9613765E2,4.01553E0,4.8747053E0,2.8008696E1,6.531399E2,1.0744164E0,6.2242767E1,2.6396577E0,2.7365854E1,1.0259782E0,1.947698E2,1.3678427E0,2.955067E0,1.0604634E0,6.1183813E2,4.1301792E1,1.6316695E0,1.0079882E0,2.6042597E1,1.3232578E0],"tree_param":{"num_deleted":"0","num_feature":"3333","num_nodes":"125","size_leaf_vector":"0"}},{"base_weights":[-6.423297E-2,-3.0491495E-1,5.261968E-1,-4.2147407E-1,5.193993E-1,6.882416E-1,-4.4293308E-1,-4.707751E-1,6.0378516E-1,-5.334462E-1,7.4541837E-1,-5.0185114E-1,7.216096E-1,4.2847577E-1,-5.531862E-1,2.294501E-1,-4.9181104E-1,7.340001E-1,-4.3602893E-1,7.505964E-1,2.2265987E-1,7.414046E-1,-9.4535775E-2,-8.4986486E-2,6.206944E-1,-4.9295852E-1,6.1766315E-1,-5.147138E-1,-1.28381215E-2,7.5291425E-1,1.8772365E-1,-1.9795705E-1,7.497982E-1,-4.6874917E-1,5.9338087E-1,-3.09725E-1,7.231401E-1,-5.4861915E-1,-2.9642382E-1,-5.3301775E-1,6.650636E-1,1.5820181E-2,-3.0967173E-1,7.560183E-1,-1.1595189E-2,-5.51594E-1,3.1808466E-1,-4.160134E-1,4.905382E-1,7.0798403E-1,1.7332478E-1,2.3709899E-1,7.57656E-1,-5.532161E-1,-1.9876512E-2,8.737936E-2,-5.369993E-1,-3.8417873E-1,7.094194E-1,-5.6368685E-1,-4.7227126E-1,6.4191407E-1,-4.9681675E-1,-5.6238073E-1,3.7131137E-1,7.578801E-1,2.1760342E-1,-5.138792E-1,4.7208157E-1,-8.2847476E-2,8.1344736E-1],"categories":[],"categories_nodes":[],"categories_segments":[],"categories_sizes":[],"default_left":[1,1,1,1,1,1,1,1,1,0,1,0,1,1,0,0,1,1,0,0,0,1,1,0,0,0,1,1,1,0,0,0,1,0,0,0,0,1,1,0,1,0,0,1,0,1,0,0,1,0,0,0,0,1,0,1,1,0,1,0,1,1,0,0,0,0,0,0,0,0,0],"id":12,"left_children":[1,3,5,7,9,11,13,15,17,-1,19,-1,21,23,-1,25,27,29,-1,-1,-1,31,33,-1,-1,-1,35,37,39,-1,-1,41,43,-1,-1,-1,-1,45,47,-1,49,-1,-1,51,-1,53,-1,55,57,-1,-1,-1,-1,59,-1,61,63,-1,65,-1,67,69,-1,-1,-1,-1,-1,-1,-1,-1,-1],"loss_changes":[1.5465198E2,7.448604E1,4.9804245E1,3.4542274E1,2.3290983E1,1.110141E1,4.6335974E0,9.646362E0,4.589679E0,0E0,4.839325E-2,0E0,4.3266144E0,6.156324E-1,0E0,5.789615E0,6.8897095E0,1.5206718E-1,0E0,0E0,0E0,2.1774902E0,2.1125393E0,0E0,0E0,0E0,1.5118208E0,4.277725E0,1.0832633E1,0E0,0E0,7.822294E-2,1.2177277E0,0E0,0E0,0E0,0E0,1.511322E0,7.999695E0,0E0,1.589675E-1,0E0,0E0,3.5568237E-2,0E0,4.346466E-1,0E0,4.459196E0,2.4524946E0,0E0,0E0,0E0,0E0,1.7036438E-1,0E0,5.145268E0,1.5586205E0,0E0,6.051159E-2,0E0,2.8031368E0,1.0718274E0,0E0,0E0,0E0,0E0,0E0,0E0,0E0,0E0,0E0],"parents":[2147483647,0,0,1,1,2,2,3,3,4,4,5,5,6,6,7,7,8,8,10,10,12,12,13,13,15,15,16,16,17,17,21,21,22,22,26,26,27,27,28,28,31,31,32,32,37,37,38,38,40,40,43,43,45,45,47,47,48,48,53,53,55,55,56,56,58,58,60,60,61,61],"right_children":[2,4,6,8,10,12,14,16,18,-1,20,-1,22,24,-1,26,28,30,-1,-1,-1,32,34,-1,-1,-1,36,38,40,-1,-1,42,44,-1,-1,-1,-1,46,48,-1,50,-1,-1,52,-1,54,-1,56,58,-1,-1,-1,-1,60,-1,62,64,-1,66,-1,68,70,-1,-1,-1,-1,-1,-1,-1,-1,-1],"split_conditions":[1.385E2,1.155E2,1.565E2,1.555E2,6.5E1,9.55E1,1.26E2,1.85E1,1.435E2,-1.6003387E-1,1.38E2,-1.5055534E-1,4.5E1,5.85E1,-1.6595586E-1,5.9E1,1.015E2,3.3E1,-1.3080868E-1,2.2517893E-1,6.6797964E-2,4.65E1,1.095E2,-2.5495946E-2,1.8620832E-1,-1.4788756E-1,5.65E1,9.05E1,3.95E1,2.2587429E-1,5.63171E-2,3.35E2,1.07E2,-1.4062476E-1,1.7801426E-1,-9.29175E-2,2.1694204E-1,1.79E2,9.95E1,-1.5990533E-1,6.35E1,4.7460543E-3,-9.290152E-2,2.45E1,-3.4785566E-3,1.295E2,9.5425405E-2,2.7E1,3.15E1,2.1239522E-1,5.1997434E-2,7.11297E-2,2.272968E-1,9.05E1,-5.962954E-3,1.5E2,6.35E1,-1.1525362E-1,8.75E1,-1.6910607E-1,1.185E2,7.05E1,-1.4904504E-1,-1.6871423E-1,1.11393414E-1,2.2736403E-1,6.5281026E-2,-1.5416376E-1,1.4162448E-1,-2.4854245E-2,2.4403422E-1],"split_indices":[312,230,1321,1231,21,1120,1102,1301,1321,0,210,0,2301,220,0,1202,230,131,0,0,0,203,120,0,0,0,32,1220,112,0,0,1212,1101,0,0,0,0,2031,22,0,12,0,0,1310,0,322,0,2301,302,0,0,0,0,2200,0,1321,231,0,1100,0,321,120,0,0,0,0,0,0,0,0,0],"split_type":[0,0,0,0,0,0,0,0,0,0,0,0,0,0,0,0,0,0,0,0,0,0,0,0,0,0,0,0,0,0,0,0,0,0,0,0,0,0,0,0,0,0,0,0,0,0,0,0,0,0,0,0,0,0,0,0,0,0,0,0,0,0,0,0,0,0,0,0,0,0,0],"sum_hessian":[1.0861584E3,7.719609E2,3.141975E2,6.767555E2,9.5205414E1,2.694359E2,4.4761604E1,6.462218E2,3.0533642E1,1.6585659E1,7.861976E1,6.96553E0,2.624704E2,4.70313E0,4.0058475E1,1.8558435E1,6.276634E2,2.7396864E1,3.136778E0,7.741709E1,1.2026665E0,2.5634454E2,6.125858E0,1.4330289E0,3.2701008E0,6.392709E0,1.2165726E1,5.9894916E2,2.8714209E1,2.6114416E1,1.2824465E0,2.0702498E0,2.5427428E2,4.173921E0,1.9519365E0,1.0446242E0,1.1121101E1,5.171161E2,8.1833084E1,1.6368084E1,1.2346125E1,1.005161E0,1.0650889E0,2.5222086E2,2.0534225E0,5.1570953E2,1.4065505E0,7.144709E1,1.0385988E1,1.0950571E1,1.395554E0,1.2521396E0,2.5096872E2,5.141008E2,1.6087216E0,1.389813E1,5.754896E1,1.9275818E0,8.458406E0,4.499347E2,6.416614E1,7.0793867E0,6.818744E0,5.635505E1,1.1939135E0,7.207262E0,1.2511444E0,6.1894905E1,2.271231E0,1.4538031E0,5.6255836E0],"tree_param":{"num_deleted":"0","num_feature":"3333","num_nodes":"71","size_leaf_vector":"0"}},{"base_weights":[3.658635E-1,-8.966949E-2,6.1137164E-1,6.209853E-1,-4.3721306E-1,6.754229E-1,-2.5306495E-2,-3.0507863E-1,7.467033E-1,-5.0551665E-1,-1.2296823E-1,6.9223624E-1,-2.1871407E-1,-2.3889202E-1,6.455061E-1,-5.324769E-1,5.992804E-1,7.5406325E-1,-5.3127486E-2,-5.1484597E-1,4.7781268E-1,-3.6477736E-1,5.463537E-1,1.7634192E-1,7.0747143E-1,-4.136564E-1,4.6746254E-1,6.3688886E-1,-4.6018618E-1,7.454265E-1,-3.6342865E-1,-5.3292125E-1,-1.5986559E-1,-4.6596813E-1,3.865988E-1,-3.7992126E-1,7.016629E-1,4.9731627E-1,-5.133096E-1,7.2578675E-1,4.5837566E-1,3.4488344E-1,-5.2604306E-1,6.1598486E-1,3.2215245E-2,-1.0366598E-1,7.389522E-1,-5.0221175E-1,2.4518421E-1,-5.40433E-1,-8.1910344E-4,-5.11823E-1,6.2718016E-1,5.2878577E-1,-5.16787E-1,-3.2546163E-1,6.5712863E-1,7.5744164E-1,1.2903285E-1,6.1162937E-1,-3.9288568E-1,-1.5329073E-1,7.2970116E-1,-2.6891527E-1,6.7747724E-1,-5.4735285E-1,1.4442325E-1,-3.1537467E-1,6.406459E-1,-8.11904E-2,-5.49446E-1,5.102817E-1,-3.8755566E-1,-5.5171925E-1,1.665868E-2,7.0556617E-1,-3.1228676E-1,-3.9782497E-1,2.679514E-1,7.320651E-1,-1.5588683E-1,5.812405E-1,-5.6681746E-1,7.395712E-1,-8.549754E-3,2.2063341E-2,-5.606751E-1,-3.6497727E-1,6.137528E-1,-4.4045776E-1,5.678043E-1,-4.3539874E-2,-5.5549604E-1,3.5533887E-1,-3.217975E-1,7.358414E-1,2.1238576E-1,7.342556E-1,9.208045E-2,7.620158E-1,-3.5386194E-2,-5.215259E-1,5.0970536E-1,4.1554496E-1,-3.7207595E-1,-5.57996E-1,-1.8284151E-2,7.367312E-1,2.1292435E-1,4.9742198E-1,-3.913311E-1,-5.6387717E-1,-3.0632284E-1,6.2979734E-1,7.4647963E-1,-4.0650058E-1,6.02477E-1],"categories":[],"categories_nodes":[],"categories_segments":[],"categories_sizes":[],"default_left":[1,1,1,1,1,0,1,1,0,1,1,1,1,1,1,0,0,0,0,1,0,1,1,1,1,0,1,1,1,0,0,1,1,1,1,0,1,1,0,1,0,0,0,0,0,0,0,1,1,1,1,0,0,0,1,0,0,0,0,0,0,1,0,1,1,1,1,0,0,1,1,0,0,0,1,0,0,0,0,1,0,0,0,1,0,0,0,0,0,0,0,1,1,0,0,0,0,1,1,0,0,0,0,0,0,1,0,1,1,0,0,0,0,0,0,0,0],"id":13,"left_children":[1,3,5,7,9,11,13,15,17,19,21,23,25,27,29,-1,-1,-1,-1,31,-1,33,35,37,39,41,43,45,47,-1,-1,49,51,53,55,-1,57,59,-1,61,63,-1,-1,-1,-1,-1,-1,65,67,69,71,-1,-1,-1,73,-1,-1,-1,-1,75,-1,77,79,81,83,85,87,-1,-1,89,91,-1,-1,-1,93,95,-1,-1,-1,97,-1,-1,-1,99,101,-1,-1,-1,-1,-1,-1,103,105,-1,-1,-1,-1,107,109,-1,-1,-1,-1,-1,-1,111,-1,113,115,-1,-1,-1,-1,-1,-1,-1,-1],"loss_changes":[1.5956955E2,1.2385571E2,3.7817688E1,1.9408573E1,7.163147E0,1.2813293E1,1.2431835E1,4.5148454E0,8.956909E-1,2.7797775E0,1.0140854E1,6.374817E0,2.3744347E0,1.3031342E1,2.384468E0,0E0,0E0,0E0,0E0,1.6734238E0,0E0,3.6565642E0,2.6693478E0,5.8008947E0,3.3302917E0,1.309135E0,2.4370283E-1,1.1103954E0,1.6957169E0,0E0,0E0,1.0402756E0,4.3953433E0,2.3332539E0,1.3645442E0,0E0,3.7036037E-1,2.0316834E0,0E0,2.679535E0,9.377494E0,0E0,0E0,0E0,0E0,0E0,0E0,1.5500641E0,1.0122589E0,1.0181198E0,1.1121616E0,0E0,0E0,0E0,7.410536E-1,0E0,0E0,0E0,0E0,1.6082401E0,0E0,5.3247035E-1,1.6696777E0,3.8942008E0,1.9074631E0,3.7129688E-1,1.199363E0,0E0,0E0,1.6759585E0,7.460022E-1,0E0,0E0,0E0,5.023065E-1,6.503487E-2,0E0,0E0,0E0,9.715271E-1,0E0,0E0,0E0,7.3900414E-1,1.5134249E0,0E0,0E0,0E0,0E0,0E0,0E0,7.6677585E-1,3.236313E-1,0E0,0E0,0E0,0E0,7.963257E-1,9.141408E-1,0E0,0E0,0E0,0E0,0E0,0E0,1.934433E-1,0E0,2.9571533E-1,1.4265647E0,0E0,0E0,0E0,0E0,0E0,0E0,0E0,0E0],"parents":[2147483647,0,0,1,1,2,2,3,3,4,4,5,5,6,6,7,7,8,8,9,9,10,10,11,11,12,12,13,13,14,14,19,19,21,21,22,22,23,23,24,24,25,25,26,26,27,27,28,28,31,31,32,32,33,33,34,34,36,36,37,37,39,39,40,40,47,47,48,48,49,49,50,50,54,54,59,59,61,61,62,62,63,63,64,64,65,65,66,66,69,69,70,70,74,74,75,75,79,79,83,83,84,84,91,91,92,92,97,97,98,98,105,105,107,107,108,108],"right_children":[2,4,6,8,10,12,14,16,18,20,22,24,26,28,30,-1,-1,-1,-1,32,-1,34,36,38,40,42,44,46,48,-1,-1,50,52,54,56,-1,58,60,-1,62,64,-1,-1,-1,-1,-1,-1,66,68,70,72,-1,-1,-1,74,-1,-1,-1,-1,76,-1,78,80,82,84,86,88,-1,-1,90,92,-1,-1,-1,94,96,-1,-1,-1,98,-1,-1,-1,100,102,-1,-1,-1,-1,-1,-1,104,106,-1,-1,-1,-1,108,110,-1,-1,-1,-1,-1,-1,112,-1,114,116,-1,-1,-1,-1,-1,-1,-1,-1],"split_conditions":[7.25E1,6.05E1,9.35E1,3.3E1,6.65E1,1.335E2,7.75E1,8.85E1,9E1,3.84E2,5.75E1,4.45E1,7.4E1,4.85E1,5.4E1,-1.5974307E-1,1.7978413E-1,2.2621898E-1,-1.5938247E-2,5.25E1,1.433438E-1,1.57E2,2.4E1,8.8E1,9.55E1,1.36E2,5.75E1,9.05E1,1.64E2,2.2362795E-1,-1.090286E-1,1.585E2,7E1,3.35E1,1.65E1,-1.1397638E-1,5.05E1,8.8E1,-1.5399289E-1,1.3E1,5.35E1,1.03465036E-1,-1.5781292E-1,1.8479547E-1,9.664574E-3,-3.1099794E-2,2.2168568E-1,5.05E1,7.85E1,4.65E1,2.06E2,-1.535469E-1,1.8815406E-1,1.5863574E-1,5.5E1,-9.7638495E-2,1.971386E-1,2.272325E-1,3.8709857E-2,1.695E2,-1.1786571E-1,7.25E1,1.905E2,1E2,6.75E1,5.35E1,6.4E1,-9.4612405E-2,1.9219379E-1,5E0,1.45E1,1.5308452E-1,-1.16266705E-1,-1.6551578E-1,1.8E1,3.615E2,-9.368603E-2,-1.193475E-1,8.0385424E-2,8.65E1,-4.676605E-2,1.7437215E-1,-1.7004524E-1,1.005E2,5.6E1,6.6190027E-3,-1.6820253E-1,-1.0949319E-1,1.8412584E-1,-1.3213733E-1,1.7034128E-1,8.4E1,6.85E1,1.0660166E-1,-9.653925E-2,2.2075243E-1,6.371573E-2,1.39E2,5.85E1,2.2860475E-1,-1.0615858E-2,-1.5645778E-1,1.5291162E-1,1.24663495E-1,-1.1162279E-1,1.815E2,-5.4852455E-3,4.05E1,7.3E1,1.492266E-1,-1.17399335E-1,-1.6916315E-1,-9.1896854E-2,1.8893921E-1,2.239439E-1,-1.2195018E-1,1.8074311E-1],"split_indices":[1001,1002,1220,3300,1001,1231,113,1131,1330,33,2330,2320,111,1002,201,0,0,0,0,1230,0,1011,3120,122,2200,1201,11,212,1210,0,0,3200,1100,3100,202,0,1130,11,0,2301,2330,0,0,0,0,0,0,2130,110,310,2,0,0,0,1301,0,0,0,0,2111,0,311,2111,310,230,2010,10,0,0,3300,332,0,0,0,30,3000,0,0,0,2201,0,0,0,203,123,0,0,0,0,0,0,22,132,0,0,0,0,1002,11,0,0,0,0,0,0,2000,0,232,11,0,0,0,0,0,0,0,0],"split_type":[0,0,0,0,0,0,0,0,0,0,0,0,0,0,0,0,0,0,0,0,0,0,0,0,0,0,0,0,0,0,0,0,0,0,0,0,0,0,0,0,0,0,0,0,0,0,0,0,0,0,0,0,0,0,0,0,0,0,0,0,0,0,0,0,0,0,0,0,0,0,0,0,0,0,0,0,0,0,0,0,0,0,0,0,0,0,0,0,0,0,0,0,0,0,0,0,0,0,0,0,0,0,0,0,0,0,0,0,0,0,0,0,0,0,0,0,0],"sum_hessian":[1.4253136E3,4.9937433E2,9.2593933E2,1.6375085E2,3.3562347E2,8.412471E2,8.469223E1,1.9402376E1,1.4434848E2,2.7519824E2,6.0425205E1,8.259419E2,1.5305223E1,6.472711E1,1.996512E1,1.5832543E1,3.5698333E0,1.43089E2,1.2594693E0,2.7308383E2,2.1144388E0,4.472294E1,1.5702267E1,2.4052431E1,8.0188947E2,1.2228322E1,3.076901E0,1.2677471E1,5.204964E1,1.8403677E1,1.5614423E0,2.5937537E2,1.3708453E1,3.9749557E1,4.973381E0,2.0470846E0,1.3655182E1,1.6603703E1,7.4487295E0,7.451846E2,5.670489E1,1.3110217E0,1.09173E1,1.9844732E0,1.0924277E0,1.533675E0,1.1143796E1,4.939475E1,2.6548944E0,2.5574927E2,3.6260896E0,9.71411E0,3.9943428E0,1.4748487E0,3.827471E1,1.3133818E0,3.6599994E0,1.2149027E1,1.5061548E0,1.4991533E1,1.6121684E0,3.134359E0,7.420502E2,1.3075249E1,4.3629642E1,4.6315063E1,3.079683E0,1.181979E0,1.4729154E0,5.1153235E0,2.5063396E2,1.4243073E0,2.2017822E0,3.5890213E1,2.3844962E0,1.3822496E1,1.1690363E0,2.0183072E0,1.1160518E0,7.402476E2,1.8025984E0,3.1460147E0,9.9292345E0,3.9936813E1,3.6928282E0,1.0438272E0,4.5271236E1,1.5834177E0,1.4962654E0,3.4994419E0,1.6158814E0,3.0587287E0,2.4757523E2,1.1669211E0,1.2175751E0,1.2559466E1,1.2630305E0,7.3757574E2,2.6718345E0,3.8828938E1,1.1078782E0,1.8526944E0,1.8401339E0,1.1654006E0,1.8933282E0,2.4638995E2,1.185262E0,7.336787E2,3.897075E0,1.4375031E0,1.2343315E0,2.395515E2,6.8384647E0,6.6777664E1,6.66901E2,1.4878111E0,2.4092638E0],"tree_param":{"num_deleted":"0","num_feature":"3333","num_nodes":"117","size_leaf_vector":"0"}},{"base_weights":[-3.140446E-1,-5.471256E-1,6.307887E-1,-5.609722E-1,6.9829255E-1,7.275773E-1,-4.801765E-1,5.166875E-1,-5.6374097E-1,-3.8343883E-1,7.4275684E-1,9.314633E-2,-5.29747E-1,-5.6486297E-1,1.17445245E-1,7.494417E-1,-5.8191907E-2,3.7683062E-2,7.535115E-1,7.5562865E-1,2.3925024E-1],"categories":[],"categories_nodes":[],"categories_segments":[],"categories_sizes":[],"default_left":[1,1,1,1,0,1,1,0,1,0,1,0,0,0,0,1,0,0,1,0,0],"id":14,"left_children":[1,3,5,7,-1,9,11,-1,13,-1,15,-1,-1,-1,-1,17,-1,-1,19,-1,-1],"loss_changes":[2.106528E2,1.3610718E1,2.0718735E1,2.555008E0,0E0,3.230194E0,4.979055E-1,0E0,6.4505005E-1,0E0,9.6793365E-1,0E0,0E0,0E0,0E0,4.6774292E-1,0E0,0E0,4.585266E-3,0E0,0E0],"parents":[2147483647,0,0,1,1,2,2,3,3,5,5,6,6,8,8,10,10,15,15,18,18],"right_children":[2,4,6,8,-1,10,12,-1,14,-1,16,-1,-1,-1,-1,18,-1,-1,20,-1,-1],"split_conditions":[1.705E2,1.22E2,2.9E1,3E0,2.0948778E-1,6.85E1,6E1,1.5500626E-1,7.7E1,-1.1503165E-1,6.25E1,2.79439E-2,-1.589241E-1,-1.694589E-1,3.5233576E-2,1.55E2,-1.7457573E-2,1.1304919E-2,4.5E1,2.2668861E-1,7.177508E-2],"split_indices":[2,202,2301,1032,0,1002,321,0,1130,0,2001,0,0,0,0,1000,0,0,123,0,0],"split_type":[0,0,0,0,0,0,0,0,0,0,0,0,0,0,0,0,0,0,0,0,0],"sum_hessian":[9.539775E2,7.6554584E2,1.8843163E2,7.576716E2,7.874287E0,1.7364825E2,1.4783361E1,1.4659941E0,7.5620557E2,2.0135355E0,1.7163472E2,1.1065186E0,1.3676843E1,7.5513257E2,1.0730053E0,1.7027786E2,1.3568603E0,1.0264316E0,1.6925143E2,1.6809007E2,1.1613555E0],"tree_param":{"num_deleted":"0","num_feature":"3333","num_nodes":"21","size_leaf_vector":"0"}},{"base_weights":[-1.4517848E-1,4.071245E-1,-3.7370333E-1,-3.2894276E-2,6.845719E-1,-4.308247E-1,3.2410064E-1,-4.4818568E-1,4.291394E-1,7.220151E-1,-1.9499904E-1,-1.2965034E-1,-5.1122844E-1,-5.3891385E-1,6.2336665E-1,-5.064052E-1,3.4812275E-1,-2.5988236E-1,6.4020616E-1,7.404192E-1,-4.179847E-1,5.369766E-1,-4.883135E-1,1.737969E-1,-4.644997E-1,-5.2310455E-1,7.2302185E-2,7.39729E-1,-4.494715E-1,-5.430259E-1,4.7747827E-1,-1.00470185E-1,5.84239E-1,4.210581E-1,-5.177833E-1,7.3621404E-1,-3.045673E-1,-9.453103E-2,7.493814E-1,4.4156134E-1,-2.9452765E-1,-5.38837E-1,3.787654E-1,-5.394296E-1,-2.7490807E-1,-4.8134264E-1,6.6330117E-1,7.8691316E-1,-3.2934815E-1,-5.590583E-1,1.7506798E-1,5.776401E-1,-2.1685028E-2,7.567861E-1,-1.8955002E-2,-4.2683506E-1,7.8283116E-2,7.58304E-1,-1.24994464E-1,6.372302E-1,-2.4572007E-1,-4.5827258E-1,3.9651734E-1,-5.626472E-1,-5.6882042E-2,-3.0988625E-1,5.945266E-1,-5.410976E-1,1.21444695E-1,4.7514495E-1,-4.496822E-1,8.039085E-1,2.9124656E-1,7.7482265E-1,1.665164E-1,7.622888E-1,1.972436E-1,7.4503684E-1,1.2714069E-1,-5.1181394E-1,5.6988424E-1,3.3062395E-1,-5.1347315E-1,6.8759495E-1,-3.3701122E-1,-3.774675E-1,3.983353E-1,6.6346896E-1,2.0480275E-1,-4.3183994E-1,-5.558489E-1,-3.7256238E-1,8.386812E-1,3.794369E-1,-5.219086E-1,-1.2050966E-3,7.716373E-1,-4.1692546E-1,4.0411806E-1,-5.445568E-1,4.64795E-2,-5.556468E-1,6.683476E-1,-5.5807495E-1,7.970919E-2,-5.454959E-1,9.245092E-3,7.9284585E-1,1.0519808E-1,6.241774E-1,-2.9427284E-1,9.244949E-1,-3.142405E-1,-5.601409E-1,-1.21263795E-1,8.158677E-1,1.16422355E-1,7.3054606E-1,2.0194276E-1,-5.621856E-1,-2.5425926E-1,-3.1504244E-1,1.4942002E-1],"categories":[],"categories_nodes":[],"categories_segments":[],"categories_sizes":[],"default_left":[1,0,1,1,1,1,0,0,1,1,1,1,1,0,0,1,0,1,1,1,0,0,0,1,1,1,1,1,0,1,0,0,0,1,0,1,1,0,1,1,1,0,0,1,0,0,0,1,0,0,0,0,0,1,0,0,0,1,0,1,0,1,1,0,1,0,0,0,0,1,1,0,0,0,0,0,0,1,1,0,0,0,0,0,0,0,0,0,0,1,1,0,0,0,1,0,1,0,1,0,0,0,1,1,0,0,0,1,0,1,0,0,0,1,1,0,0,0,0,0,0,0,0],"id":15,"left_children":[1,3,5,7,9,11,13,15,17,19,21,23,25,-1,27,29,31,33,35,37,-1,-1,-1,39,41,43,45,47,-1,49,-1,-1,-1,51,-1,53,55,-1,57,59,61,63,65,67,69,-1,-1,71,-1,-1,-1,-1,-1,73,-1,-1,-1,75,-1,77,79,81,83,-1,85,-1,87,89,-1,91,93,-1,-1,-1,-1,-1,-1,95,97,-1,-1,-1,99,-1,-1,-1,-1,-1,-1,101,103,-1,-1,-1,105,-1,107,-1,109,-1,-1,-1,111,113,-1,-1,-1,115,-1,117,-1,-1,-1,119,121,-1,-1,-1,-1,-1,-1,-1,-1],"loss_changes":[1.323838E2,3.7513947E1,2.969825E1,2.3162352E1,6.3451843E0,1.65429E1,1.4975132E1,3.1217594E0,8.481673E0,4.105095E0,2.0827713E0,1.4902041E1,3.78714E0,0E0,5.644432E0,2.4071522E0,5.7995313E-1,2.6975503E0,4.2205696E0,1.405777E0,0E0,0E0,0E0,9.817099E0,4.568122E0,2.0006104E0,4.137708E0,2.2146187E0,0E0,7.6493645E-1,0E0,0E0,0E0,3.1964254E-1,0E0,6.40213E-1,2.5677243E-1,0E0,1.4726562E0,6.819827E0,3.4293082E0,7.0689964E-1,1.1094832E0,6.1309814E-1,4.7716866E0,0E0,0E0,8.1106186E-2,0E0,0E0,0E0,0E0,0E0,2.887764E-1,0E0,0E0,0E0,2.408371E-1,0E0,2.0414753E0,2.831334E0,1.2003784E0,1.5200722E0,0E0,7.550885E-1,0E0,7.234812E-4,5.5859375E-1,0E0,2.4872704E0,1.9174943E0,0E0,0E0,0E0,0E0,0E0,0E0,6.3342285E-1,1.3715422E0,0E0,0E0,0E0,4.1711235E-1,0E0,0E0,0E0,0E0,0E0,0E0,9.0106325E0,6.572113E-1,0E0,0E0,0E0,3.4122372E-1,0E0,3.5147285E-1,0E0,1.0747638E0,0E0,0E0,0E0,2.019471E0,3.2165527E-1,0E0,0E0,0E0,3.6698723E-1,0E0,6.487346E-2,0E0,0E0,0E0,1.2561035E-1,2.2061242E-1,0E0,0E0,0E0,0E0,0E0,0E0,0E0,0E0],"parents":[2147483647,0,0,1,1,2,2,3,3,4,4,5,5,6,6,7,7,8,8,9,9,10,10,11,11,12,12,14,14,15,15,16,16,17,17,18,18,19,19,23,23,24,24,25,25,26,26,27,27,29,29,33,33,35,35,36,36,38,38,39,39,40,40,41,41,42,42,43,43,44,44,47,47,53,53,57,57,59,59,60,60,61,61,62,62,64,64,66,66,67,67,69,69,70,70,77,77,78,78,82,82,89,89,90,90,94,94,96,96,98,98,102,102,103,103,107,107,109,109,113,113,114,114],"right_children":[2,4,6,8,10,12,14,16,18,20,22,24,26,-1,28,30,32,34,36,38,-1,-1,-1,40,42,44,46,48,-1,50,-1,-1,-1,52,-1,54,56,-1,58,60,62,64,66,68,70,-1,-1,72,-1,-1,-1,-1,-1,74,-1,-1,-1,76,-1,78,80,82,84,-1,86,-1,88,90,-1,92,94,-1,-1,-1,-1,-1,-1,96,98,-1,-1,-1,100,-1,-1,-1,-1,-1,-1,102,104,-1,-1,-1,106,-1,108,-1,110,-1,-1,-1,112,114,-1,-1,-1,116,-1,118,-1,-1,-1,120,122,-1,-1,-1,-1,-1,-1,-1,-1],"split_conditions":[2.55E1,3.305E2,1.035E2,8.25E1,8.7E1,7.05E1,8.5E1,1.17E2,2.15E1,6.35E1,7.8E1,1.075E2,1.115E2,-1.6167416E-1,1.05E2,1.28E2,1.615E2,1.38E2,1.585E2,1.165E2,-1.2539542E-1,1.6109298E-1,-1.4649406E-1,4.65E1,1.26E2,1.415E2,1.24E2,3.15E1,-1.3484146E-1,1.11E2,1.4324349E-1,-3.0141057E-2,1.752717E-1,3.2E1,-1.55335E-1,1.09E2,1.09E2,-2.835931E-2,1.995E2,1.375E2,7.45E1,7.1E1,1.385E2,1.165E2,6.95E1,-1.444028E-1,1.9899036E-1,1.04E2,-9.880445E-2,-1.677175E-1,5.2520394E-2,1.7329204E-1,-6.505509E-3,1.195E2,-5.6865006E-3,-1.2805052E-1,2.3484936E-2,3.55E1,-3.749834E-2,1.415E2,2.37E2,6.6E1,1.45E2,-1.6879417E-1,1.26E2,-9.296588E-2,1.435E2,3.9E1,3.643341E-2,6.8E1,5.3E1,2.4117257E-1,8.737397E-2,2.324468E-1,4.995492E-2,2.2868665E-1,5.917308E-2,5.55E1,1.175E2,-1.5354419E-1,1.7096528E-1,9.918719E-2,1.465E2,2.0627849E-1,-1.0110337E-1,-1.1324026E-1,1.195006E-1,1.990407E-1,6.144083E-2,7.25E1,1.11E2,-1.11768715E-1,2.5160438E-1,1.1383108E-1,8.35E1,-3.61529E-4,1.115E2,-1.2507765E-1,1.39E2,-1.6336705E-1,1.3943851E-2,-1.6669405E-1,6.3E1,1.025E2,2.3912758E-2,-1.6364878E-1,2.7735278E-3,1.9E1,3.1559426E-2,1.175E2,-8.8281855E-2,2.773485E-1,-9.427215E-2,2.005E2,4.9E1,2.4476032E-1,3.492671E-2,2.1916382E-1,6.0582828E-2,-1.6865568E-1,-7.627778E-2,-9.451274E-2,4.482601E-2],"split_indices":[202,1211,1020,1220,1131,320,2031,1202,3010,132,2001,2011,122,0,1212,122,2111,312,1011,1022,0,0,0,232,1012,1321,1,1130,0,322,0,0,0,3,0,110,210,0,1011,312,2201,123,2111,311,1231,0,0,1331,0,0,0,0,0,321,0,0,0,232,0,1210,2211,1101,2120,0,2210,0,1112,2031,0,1220,12,0,0,0,0,0,0,1002,1120,0,0,0,1201,0,0,0,0,0,0,122,2230,0,0,0,203,0,2101,0,1011,0,0,0,2320,1020,0,0,0,1302,0,2021,0,0,0,2000,101,0,0,0,0,0,0,0,0],"split_type":[0,0,0,0,0,0,0,0,0,0,0,0,0,0,0,0,0,0,0,0,0,0,0,0,0,0,0,0,0,0,0,0,0,0,0,0,0,0,0,0,0,0,0,0,0,0,0,0,0,0,0,0,0,0,0,0,0,0,0,0,0,0,0,0,0,0,0,0,0,0,0,0,0,0,0,0,0,0,0,0,0,0,0,0,0,0,0,0,0,0,0,0,0,0,0,0,0,0,0,0,0,0,0,0,0,0,0,0,0,0,0,0,0,0,0,0,0,0,0,0,0,0,0],"sum_hessian":[1.0466703E3,3.0610025E2,7.405701E2,1.187112E2,1.8738905E2,6.848886E2,5.5681522E1,6.2533737E1,5.6177456E1,1.7990947E2,7.479584E0,1.4486597E2,5.400226E2,1.4130789E1,4.155073E1,5.861253E1,3.9212067E0,1.3119131E1,4.3058327E1,1.7739609E2,2.5133705E0,1.9021038E0,5.577481E0,7.624877E1,6.86172E1,5.293527E2,1.0669902E1,3.776514E1,3.7855933E0,5.6941223E1,1.6713067E0,1.5503031E0,2.3709037E0,3.4300563E0,9.6890745E0,3.9286755E1,3.7715697E0,1.7825297E0,1.7561356E2,4.854839E1,2.7700382E1,6.3390114E1,5.22709E0,4.955825E2,3.3770214E1,5.6048503E0,5.065051E0,3.642159E1,1.34355E0,5.5914333E1,1.0268898E0,2.308825E0,1.1212313E0,3.8242817E1,1.0439372E0,2.771554E0,1.0000155E0,1.7397104E2,1.6425295E0,3.7846363E1,1.0702026E1,2.2666368E1,5.0340147E0,6.0246315E1,3.1438E0,1.1429272E0,4.0841627E0,4.9451562E2,1.0668628E0,6.0571194E0,2.7713093E1,3.4612907E1,1.8086812E0,3.680551E1,1.4373071E0,1.7238802E2,1.5830191E0,3.0862932E1,6.98343E0,8.350212E0,2.3518145E0,1.1559958E0,2.1510372E1,3.6487455E0,1.3852692E0,1.9449041E0,1.1988959E0,2.8734415E0,1.2107213E0,6.242574E1,4.320899E2,1.8104998E0,4.2466197E0,1.8798627E0,2.5833231E1,1.0951332E0,2.9767797E1,2.1853945E0,4.7980356E0,2.0405151E1,1.105221E0,5.6556274E1,5.869466E0,4.3070328E2,1.3866289E0,2.4708958E1,1.1242727E0,2.8665873E1,1.1019266E0,3.7292361E0,1.0687994E0,4.702667E0,1.1667988E0,4.2839478E2,2.3084788E0,2.7522987E1,1.1428852E0,2.3955605E0,1.3336755E0,4.2471783E2,3.676961E0,1.2498518E0,1.058627E0],"tree_param":{"num_deleted":"0","num_feature":"3333","num_nodes":"123","size_leaf_vector":"0"}},{"base_weights":[-5.992629E-2,-2.87426E-1,4.7046447E-1,-4.0026185E-1,4.6719334E-1,6.1119443E-1,-4.2057425E-1,-4.489977E-1,5.3126043E-1,-5.1000166E-1,6.618291E-1,-4.7227225E-1,6.4017266E-1,3.699012E-1,-5.3367096E-1,2.0056753E-1,-4.6985367E-1,6.4507276E-1,-4.036076E-1,6.672248E-1,1.6341163E-1,6.6501105E-1,8.4844686E-2,5.428522E-1,-9.356314E-2,-4.6414226E-1,5.374217E-1,-4.9274844E-1,-9.609356E-3,6.642584E-1,1.3002485E-1,6.7167944E-1,-3.0412173E-1,5.121718E-1,-4.6898574E-1,-1.0794536E-1,6.287893E-1,-5.282749E-1,-2.729655E-1,-5.098369E-1,5.849509E-1,6.7427164E-1,1.5626931E-1,1.276403E-1,5.7144237E-1,-5.316434E-1,2.6357076E-1,-4.714834E-1,1.5553184E-1,1.3145618E-1,6.246661E-1,-5.467223E-1,-4.2230546E-1,1.3923877E-1,-5.2668774E-1,5.4026717E-1,-4.274267E-1,-5.403509E-1,-4.441855E-3,-3.4572816E-1,4.940583E-1,-5.405875E-1,2.244274E-2,-2.907407E-1,6.288449E-1,-4.893305E-1,4.7837835E-2,-3.3008492E-1,1.0316484E0,6.963603E-1,2.1553633E-3],"categories":[],"categories_nodes":[],"categories_segments":[],"categories_sizes":[],"default_left":[1,1,1,1,1,1,1,1,1,0,1,0,1,1,0,0,1,1,0,0,0,1,1,0,0,0,1,1,1,0,0,1,0,1,0,0,0,1,1,0,1,0,0,0,0,1,0,0,0,0,0,0,1,1,1,1,1,0,1,0,0,0,0,0,1,0,0,0,0,0,0],"id":16,"left_children":[1,3,5,7,9,11,13,15,17,-1,19,-1,21,23,-1,25,27,29,-1,-1,-1,31,33,-1,-1,-1,35,37,39,-1,-1,41,-1,43,-1,-1,-1,45,47,-1,49,-1,-1,-1,-1,51,-1,53,55,-1,-1,-1,57,59,61,63,65,-1,67,-1,-1,-1,-1,-1,69,-1,-1,-1,-1,-1,-1],"loss_changes":[1.075302E2,5.3275978E1,3.3806137E1,2.488662E1,1.5850584E1,7.569504E0,3.5127854E0,7.091095E0,3.1811218E0,0E0,7.505417E-2,0E0,3.0589066E0,4.7020072E-1,0E0,4.0039105E0,5.271324E0,1.5925026E-1,0E0,0E0,0E0,1.600441E0,2.7999194E0,0E0,0E0,0E0,7.5138664E-1,3.579956E0,7.658428E0,0E0,0E0,1.8170929E-1,0E0,7.709873E-2,0E0,0E0,0E0,1.23246E0,5.895011E0,0E0,1.2992525E-1,0E0,0E0,0E0,0E0,4.4198608E-1,0E0,1.6585369E0,5.2594147E0,0E0,0E0,0E0,2.6541977E0,9.7761506E-1,3.4285927E-1,1.2095284E0,3.0208373E-1,0E0,4.683301E0,0E0,0E0,0E0,0E0,0E0,5.4518795E-1,0E0,0E0,0E0,0E0,0E0,0E0],"parents":[2147483647,0,0,1,1,2,2,3,3,4,4,5,5,6,6,7,7,8,8,10,10,12,12,13,13,15,15,16,16,17,17,21,21,22,22,26,26,27,27,28,28,31,31,33,33,37,37,38,38,40,40,45,45,47,47,48,48,52,52,53,53,54,54,55,55,56,56,58,58,64,64],"right_children":[2,4,6,8,10,12,14,16,18,-1,20,-1,22,24,-1,26,28,30,-1,-1,-1,32,34,-1,-1,-1,36,38,40,-1,-1,42,-1,44,-1,-1,-1,46,48,-1,50,-1,-1,-1,-1,52,-1,54,56,-1,-1,-1,58,60,62,64,66,-1,68,-1,-1,-1,-1,-1,70,-1,-1,-1,-1,-1,-1],"split_conditions":[1.385E2,1.155E2,1.565E2,1.555E2,6.5E1,9.55E1,1.26E2,1.85E1,1.435E2,-1.530005E-1,6.6E1,-1.4168169E-1,9.35E1,3.6E1,-1.601013E-1,5.9E1,1.015E2,1.115E2,-1.2108228E-1,2.0016746E-1,4.902349E-2,5.9E1,6.65E1,1.6285567E-1,-2.8068943E-2,-1.3924268E-1,5.95E1,9.05E1,2.3E1,1.9927754E-1,3.9007455E-2,1.285E2,-9.1236524E-2,7.1E1,-1.4069572E-1,-3.238361E-2,1.886368E-1,1.79E2,3.85E1,-1.5295108E-1,1.075E2,2.022815E-1,4.6880797E-2,3.8292095E-2,1.7143272E-1,9.05E1,7.907123E-2,1.9E1,5.15E1,3.9436854E-2,1.8739983E-1,-1.640167E-1,4.55E1,5.8E1,7.7E1,9.3E1,8.05E1,-1.6210528E-1,6.2E1,-1.0371845E-1,1.482175E-1,-1.6217625E-1,6.732822E-3,-8.722221E-2,9.7E1,-1.4679916E-1,1.4351351E-2,-9.902548E-2,3.0949453E-1,2.089081E-1,6.46609E-4],"split_indices":[312,230,1321,1231,21,1120,1102,1301,1321,0,232,0,1101,1230,0,1202,230,1012,0,0,0,2301,1001,0,0,0,32,1220,1122,0,0,1012,0,1320,0,0,0,2031,302,0,2030,0,0,0,0,2200,0,2301,3000,0,0,0,2201,11,2020,1120,1002,0,302,0,0,0,0,0,3110,0,0,0,0,0,0],"split_type":[0,0,0,0,0,0,0,0,0,0,0,0,0,0,0,0,0,0,0,0,0,0,0,0,0,0,0,0,0,0,0,0,0,0,0,0,0,0,0,0,0,0,0,0,0,0,0,0,0,0,0,0,0,0,0,0,0,0,0,0,0,0,0,0,0,0,0,0,0,0,0],"sum_hessian":[8.890352E2,6.2248975E2,2.6654547E2,5.419267E2,8.056303E1,2.3046075E2,3.6084717E1,5.1547577E2,2.6450932E1,1.311203E1,6.7451E1,5.604824E0,2.2485593E2,4.2323775E0,3.185234E1,1.5767745E1,4.9970804E2,2.3856579E1,2.5943522E0,6.6393555E1,1.0574402E0,2.1504022E2,9.815706E0,2.9574523E0,1.2749251E0,5.176048E0,1.0591698E1,4.7596082E2,2.3747198E1,2.2720531E1,1.136048E0,2.1387553E2,1.1646996E0,5.583094E0,4.2326117E0,1.2910488E0,9.300649E0,4.085223E2,6.743851E1,1.2974078E1,1.0773119E1,2.1249857E2,1.3769585E0,1.1667899E0,4.4163046E0,4.0711905E2,1.4032832E0,4.6018394E1,2.1420116E1,1.2145498E0,9.558569E0,3.5426202E2,5.2857006E1,3.688664E0,4.232973E1,1.294803E1,8.472085E0,4.098556E1,1.1871447E1,1.5693291E0,2.1193347E0,4.129989E1,1.0298402E0,1.0273587E0,1.1920672E1,7.469568E0,1.002517E0,9.550985E0,2.3204608E0,1.0660958E1,1.2597138E0],"tree_param":{"num_deleted":"0","num_feature":"3333","num_nodes":"71","size_leaf_vector":"0"}},{"base_weights":[3.2834348E-1,-8.231925E-2,5.385972E-1,5.550703E-1,-4.133796E-1,5.933024E-1,-2.1348517E-2,6.3928396E-1,-4.982831E-1,-4.9067605E-1,-1.3988742E-1,1.2783839E-1,6.19192E-1,-4.1390795E-1,2.8253046E-1,6.626537E-1,-2.6470724E-1,-5.010851E-1,4.06371E-1,-4.5703545E-1,2.2907883E-1,4.1175437E-1,-2.6315948E-1,-3.1705344E-1,6.2383115E-1,-4.9222982E-1,2.7932286E-1,9.327311E-3,6.086083E-1,6.694164E-1,-4.4243734E-2,-3.674959E-1,2.1699052E-2,-5.164468E-1,-1.9132434E-1,-5.1442224E-1,2.6730707E-1,-3.4564131E-1,4.2174646E-1,5.597945E-1,-4.3296176E-1,1.0929683E-1,-5.1636046E-1,-4.467607E-2,-3.9231786E-1,6.516423E-1,4.5014262E-1,3.0548632E-1,-5.358017E-1,-8.8806845E-2,5.2395844E-1,-4.2830828E-1,6.395558E-1,1.38332015E-2,6.690173E-1,-5.25438E-1,-9.538645E-2,-4.861288E-1,5.641524E-1,-5.3118896E-1,-8.26171E-3,-4.6719506E-1,1.7996547E-1,5.3609663E-1,-7.51531E-2,6.22761E-1,-1.2869552E-1,-3.468171E-1,4.8826838E-1,6.5710336E-1,1.6081008E-1,-7.440871E-2,6.482411E-1,-5.163483E-1,2.2260909E-1,-3.405194E-2,-5.3235155E-1,4.7099742E-1,-4.114379E-1,-1.1067964E-2,6.134279E-1,3.643528E-1,-4.084187E-1,6.539986E-1,1.2159361E-1,-4.3773428E-1,-3.232631E-2,9.5080726E-2,6.618571E-1,-4.8083594E-1,4.7478595E-1,5.0164163E-1,-4.5442063E-1,6.653689E-1,-4.914062E-2,-3.458172E-1,3.7054107E-1,-5.3798133E-1,2.3442011E-2,-2.955517E-1,2.9254183E-1,6.5404904E-1,6.7589255E-3,1.431549E-1,6.823307E-1,-4.1598842E-1,4.5099595E-1,6.6460806E-1,-1.371477E-1,1.07199624E-1,5.4526424E-1,6.147614E-1,-1.4096366E-1,3.9779413E-1,-6.4347064E-1,6.757683E-1,7.675606E-2,6.733719E-2,-5.4219335E-1,1.9742371E-1,6.801346E-1,6.66138E-1,8.495759E-2,6.685398E-1,1.1559416E-1,-6.8812543E-1,-4.2671494E-2,-5.461866E-1,-2.8024745E-1,6.6717696E-1,1.16814494E-1],"categories":[],"categories_nodes":[],"categories_segments":[],"categories_sizes":[],"default_left":[1,1,1,1,1,1,1,0,0,1,1,1,1,1,1,0,1,1,0,1,1,1,1,1,1,1,1,1,1,0,0,0,0,1,1,1,0,0,1,1,0,1,0,0,0,0,0,0,0,0,0,1,0,0,0,1,1,0,0,0,0,0,0,1,1,0,0,1,0,0,1,1,1,0,0,1,1,0,0,1,0,0,0,0,0,0,0,1,0,0,1,1,1,1,0,0,0,1,0,0,0,1,0,0,0,0,0,1,0,0,0,1,0,0,1,0,0,0,1,0,0,1,0,0,0,0,0,0,0,0,0],"id":17,"left_children":[1,3,5,7,9,11,13,15,-1,17,19,21,23,25,27,29,31,33,-1,35,37,39,41,43,45,47,49,51,53,-1,-1,-1,-1,55,57,59,-1,61,63,65,-1,67,-1,-1,-1,69,71,-1,-1,-1,-1,73,-1,-1,-1,75,77,-1,-1,-1,-1,-1,-1,79,81,83,-1,85,-1,87,89,91,93,-1,-1,95,97,-1,-1,99,101,-1,-1,103,-1,-1,-1,105,107,-1,109,111,113,115,-1,-1,-1,117,-1,-1,-1,119,-1,-1,-1,-1,-1,121,-1,-1,-1,123,-1,-1,125,-1,-1,-1,127,-1,-1,129,-1,-1,-1,-1,-1,-1,-1,-1,-1],"loss_changes":[1.0419832E2,8.6605E1,2.445517E1,1.2769093E1,5.6387024E0,8.681183E0,8.703919E0,2.9303207E0,0E0,2.1653252E0,7.229705E0,4.500361E0,3.1877441E0,1.8648663E0,3.6618998E0,6.386757E-1,1.2575409E-1,8.915596E-1,0E0,1.5124645E0,3.3360345E0,3.1573834E0,1.6835414E0,6.564736E-2,3.0171509E0,1.1698203E0,3.9483193E-1,6.732396E0,6.6453075E-1,0E0,0E0,0E0,0E0,6.983566E-1,2.8182008E0,2.5862408E-1,0E0,5.813433E-1,1.2919316E0,9.5891E-1,0E0,1.5189321E0,0E0,0E0,0E0,1.471817E0,1.021349E1,0E0,0E0,0E0,0E0,9.4123244E-1,0E0,0E0,0E0,6.387253E-1,1.152415E0,0E0,0E0,0E0,0E0,0E0,0E0,7.696924E-1,8.8087046E-1,2.1390867E-1,0E0,1.03877544E-1,0E0,1.4912567E0,1.7996523E0,6.2946196E0,8.8209534E-1,0E0,0E0,6.012746E-1,6.0900116E-1,0E0,0E0,3.6414155E-1,3.853202E-1,0E0,0E0,1.5437508E-1,0E0,0E0,0E0,1.2875079E0,1.3586731E0,0E0,9.0260744E-2,9.2193913E-1,3.030751E0,3.7340355E-1,0E0,0E0,0E0,5.177002E-1,0E0,0E0,0E0,4.2158604E-2,0E0,0E0,0E0,0E0,0E0,4.532013E-1,0E0,0E0,0E0,1.9001961E-1,0E0,0E0,3.5905695E-1,0E0,0E0,0E0,4.309845E-2,0E0,0E0,2.492218E-1,0E0,0E0,0E0,0E0,0E0,0E0,0E0,0E0,0E0],"parents":[2147483647,0,0,1,1,2,2,3,3,4,4,5,5,6,6,7,7,9,9,10,10,11,11,12,12,13,13,14,14,15,15,16,16,17,17,19,19,20,20,21,21,22,22,23,23,24,24,25,25,26,26,27,27,28,28,33,33,34,34,35,35,37,37,38,38,39,39,41,41,45,45,46,46,51,51,55,55,56,56,63,63,64,64,65,65,67,67,69,69,70,70,71,71,72,72,75,75,76,76,79,79,80,80,83,83,87,87,88,88,90,90,91,91,92,92,93,93,97,97,101,101,107,107,111,111,114,114,118,118,121,121],"right_children":[2,4,6,8,10,12,14,16,-1,18,20,22,24,26,28,30,32,34,-1,36,38,40,42,44,46,48,50,52,54,-1,-1,-1,-1,56,58,60,-1,62,64,66,-1,68,-1,-1,-1,70,72,-1,-1,-1,-1,74,-1,-1,-1,76,78,-1,-1,-1,-1,-1,-1,80,82,84,-1,86,-1,88,90,92,94,-1,-1,96,98,-1,-1,100,102,-1,-1,104,-1,-1,-1,106,108,-1,110,112,114,116,-1,-1,-1,118,-1,-1,-1,120,-1,-1,-1,-1,-1,122,-1,-1,-1,124,-1,-1,126,-1,-1,-1,128,-1,-1,130,-1,-1,-1,-1,-1,-1,-1,-1,-1],"split_conditions":[7.25E1,6.05E1,9.35E1,4.45E2,6.55E1,3.25E1,1.305E2,1.29E2,-1.4948493E-1,3.84E2,2.95E1,6.15E1,1.9E1,1.025E2,7.35E1,9E1,3E0,5.25E1,1.219113E-1,1.425E2,2.3E1,9.2E1,8.65E1,5.45E1,8.95E1,5.35E1,8.65E1,4.1E1,4.4E1,2.0082493E-1,-1.3273121E-2,-1.10248774E-1,6.509716E-3,1.905E2,7.95E1,5.3E1,8.019213E-2,3.9E1,6.85E1,9.15E1,-1.2988853E-1,1.545E2,-1.5490815E-1,-1.34028215E-2,-1.1769536E-1,1.365E2,6.05E1,9.16459E-2,-1.6074052E-1,-2.6642054E-2,1.5718754E-1,1.665E2,1.9186676E-1,4.149961E-3,2.007052E-1,1.45E1,2.07E2,-1.4583865E-1,1.6924573E-1,-1.593567E-1,-2.4785132E-3,-1.4015852E-1,5.398964E-2,3.25E1,6.45E1,3.3E2,-3.8608655E-2,1.28E2,1.4648052E-1,2.3E1,7.15E1,1.085E2,7.7E1,-1.549045E-1,6.678273E-2,1.6E1,6.65E1,1.4129923E-1,-1.2343138E-1,6.35E1,4.9E1,1.0930584E-1,-1.2252561E-1,4.65E1,3.6478084E-2,-1.3132028E-1,-9.697894E-3,3.7E1,1.41E2,-1.442508E-1,9.1E1,7.95E1,5.85E1,1.07E2,-1.4742187E-2,-1.0374517E-1,1.1116233E-1,4.25E1,7.0326035E-3,-8.866551E-2,8.776255E-2,6.1E1,2.0276778E-3,4.2946473E-2,2.0469923E-1,-1.2479653E-1,1.3529879E-1,1.405E2,-4.114431E-2,3.2159887E-2,1.6357929E-1,1.13E2,-4.22891E-2,1.19338244E-1,9.45E1,2.027305E-1,2.3026818E-2,2.0201158E-2,1.815E2,5.9227116E-2,2.040404E-1,1.24E2,2.548728E-2,2.0056196E-1,3.467825E-2,-2.0643763E-1,-1.2801449E-2,-1.63856E-1,-8.407424E-2,2.001531E-1,3.504435E-2],"split_indices":[1001,1002,1220,2121,1001,232,1102,2031,0,33,2130,2010,123,210,113,1330,1302,1230,0,112,2301,1110,122,1030,2200,2010,12,3300,132,0,0,0,0,2000,11,1301,0,123,220,322,0,2120,0,0,0,1112,2330,0,0,0,0,1210,0,0,0,332,2,0,0,0,0,0,0,232,1320,1212,0,312,0,2031,111,2000,230,0,0,32,132,0,0,111,1302,0,0,1202,0,0,0,130,1231,0,110,200,2010,203,0,0,0,310,0,0,0,322,0,0,0,0,0,211,0,0,0,1012,0,0,2001,0,0,0,2000,0,0,1020,0,0,0,0,0,0,0,0,0],"split_type":[0,0,0,0,0,0,0,0,0,0,0,0,0,0,0,0,0,0,0,0,0,0,0,0,0,0,0,0,0,0,0,0,0,0,0,0,0,0,0,0,0,0,0,0,0,0,0,0,0,0,0,0,0,0,0,0,0,0,0,0,0,0,0,0,0,0,0,0,0,0,0,0,0,0,0,0,0,0,0,0,0,0,0,0,0,0,0,0,0,0,0,0,0,0,0,0,0,0,0,0,0,0,0,0,0,0,0,0,0,0,0,0,0,0,0,0,0,0,0,0,0,0,0,0,0,0,0,0,0,0,0],"sum_hessian":[1.2052766E3,4.0833487E2,7.969418E2,1.3935619E2,2.689787E2,7.2595807E2,7.098372E1,1.2940369E2,9.952497E0,2.0908998E2,5.98887E1,3.8563847E1,6.873942E2,3.0814543E1,4.0169174E1,1.2640292E2,3.0007637E0,2.0712794E2,1.9620472E0,3.207751E1,2.7811186E1,2.231044E1,1.6253405E1,3.0572317E0,6.84337E2,2.7947012E1,2.8675323E0,2.2416336E1,1.775284E1,1.2525764E2,1.1452888E0,1.9998921E0,1.0008714E0,1.9670564E2,1.0422297E1,2.9991232E1,2.086279E0,6.7831955E0,2.102799E1,1.9270502E1,3.0399382E0,6.807692E0,9.445713E0,1.0069025E0,2.0503292E0,5.8751215E2,9.682484E1,1.1361027E0,2.681091E1,1.3991151E0,1.4684172E0,1.3418687E1,8.997649E0,1.7501543E0,1.6002686E1,1.9235037E2,4.3552756E0,7.753305E0,2.6689913E0,2.8981754E1,1.0094781E0,5.599392E0,1.1838039E0,1.7030031E1,3.997959E0,1.7743242E1,1.5272585E0,3.1279147E0,3.6797776E0,5.8071234E2,6.799799E0,2.6713554E1,7.011128E1,1.2002079E1,1.4166076E0,2.7509313E0,1.8959944E2,1.3842887E0,2.970987E0,2.2149332E0,1.4815098E1,1.6839324E0,2.3140266E0,1.6415142E1,1.328101E0,2.122447E0,1.0054677E0,5.046812E0,5.756655E2,2.05951E0,4.7402887E0,1.049078E1,1.6222775E1,6.847542E1,1.6358638E0,1.6357504E0,1.1151809E0,1.877299E2,1.8695308E0,1.1571859E0,1.0577472E0,1.3812168E1,1.0029297E0,1.180621E0,1.5234521E1,2.002532E0,3.04428E0,5.73858E2,1.8075559E0,1.1682416E0,3.5720472E0,8.957325E0,1.533455E0,2.744904E0,1.347787E1,6.714113E1,1.3342929E0,1.1937003E0,1.8653621E2,1.2094363E0,1.2602732E1,5.721985E2,1.6594878E0,7.779843E0,1.177482E0,1.241013E1,1.0677409E0,1.826664E2,3.8698063E0,5.709042E2,1.29434E0],"tree_param":{"num_deleted":"0","num_feature":"3333","num_nodes":"131","size_leaf_vector":"0"}},{"base_weights":[-2.996828E-1,-5.295494E-1,5.6183434E-1,-5.4604566E-1,4.8493397E-1,6.516093E-1,-3.8797963E-1,2.8180718E-1,-5.480469E-1,6.4644676E-1,-3.220924E-1,-3.4707278E-1,6.6524273E-1,-5.125946E-1,4.743076E-1,6.697555E-1,9.3601756E-2,1.734286E-1,6.721387E-1],"categories":[],"categories_nodes":[],"categories_segments":[],"categories_sizes":[],"default_left":[1,1,1,1,1,1,1,0,0,0,0,0,1,0,0,1,0,0,0],"id":18,"left_children":[1,3,5,7,9,11,13,-1,-1,-1,-1,-1,15,-1,-1,17,-1,-1,-1],"loss_changes":[1.5190347E2,1.0386688E1,1.404311E1,1.1412354E0,1.5386765E0,2.2477837E0,1.8111846E0,0E0,0E0,0E0,0E0,0E0,3.1518555E-1,0E0,0E0,5.5145264E-2,0E0,0E0,0E0],"parents":[2147483647,0,0,1,1,2,2,3,3,4,4,5,5,6,6,12,12,15,15],"right_children":[2,4,6,8,10,12,14,-1,-1,-1,-1,-1,16,-1,-1,18,-1,-1,-1],"split_conditions":[1.705E2,9.35E1,2.7E1,5E0,9.95E1,6.85E1,2.075E2,8.4542155E-2,-1.6441408E-1,1.9393404E-1,-9.662773E-2,-1.0412184E-1,7.05E1,-1.5377837E-1,1.4229229E-1,2.15E1,2.8080529E-2,5.202858E-2,2.0164162E-1],"split_indices":[2,202,2301,1032,10,1002,2,0,0,0,0,0,1021,0,0,1311,0,0,0],"split_type":[0,0,0,0,0,0,0,0,0,0,0,0,0,0,0,0,0,0,0],"sum_hessian":[7.64555E2,6.0382904E2,1.6072598E2,5.9462177E2,9.207221E0,1.4713313E2,1.3592841E1,1.0967792E0,5.93525E2,7.837628E0,1.3695928E0,1.6521425E0,1.45481E2,1.22308235E1,1.3620176E0,1.4417122E2,1.3097842E0,1.0414892E0,1.4312971E2],"tree_param":{"num_deleted":"0","num_feature":"3333","num_nodes":"19","size_leaf_vector":"0"}},{"base_weights":[-1.319293E-1,-4.00091E-1,2.7336052E-1,4.2864206E-1,-4.6148288E-1,4.3944192E-1,-2.2627668E-1,-4.7673553E-1,6.1785233E-1,-4.8659456E-1,3.654168E-2,5.5121017E-1,-2.90925E-1,2.3161608E-1,-4.011741E-1,6.577675E-1,-1.2132443E-1,-4.9845234E-1,2.8956136E-1,-4.1209194E-1,5.160149E-1,2.720521E-1,6.494372E-1,-4.4359204E-1,4.2654845E-1,-3.8387704E-1,4.2558876E-1,-4.8440662E-1,5.451381E-1,-5.0633815E-3,6.8936765E-1,3.043087E-1,-5.067405E-1,-3.705401E-1,5.923835E-1,3.110018E-1,-5.0781137E-1,6.942062E-1,-3.550761E-1,6.0386634E-1,-1.2951979E-1,6.621576E-1,-1.8040642E-1,4.064156E-1,-5.348711E-1,-3.0603954E-1,6.160805E-1,-4.523912E-1,-8.448476E-3,6.032385E-1,-2.1997431E-1,-5.048672E-1,2.0489337E-1,-3.0364543E-1,5.629299E-1,-5.106814E-1,2.8399894E-1,1.5270731E-1,7.426576E-1,6.667184E-1,-3.5345614E-1,-4.1329226E-1,3.6585265E-1,6.702802E-1,-1.406146E-1,-3.214755E-1,6.981196E-2,7.0364916E-1,-1.2990218E-1,2.6793697E-1,-4.169398E-1,2.935963E-3,-5.291688E-1,-2.5400493E-1,-5.2410215E-1,6.9364977E-1,-6.173213E-2,-4.8617116E-1,3.6953217E-1,6.315287E-1,-9.883446E-2,6.7631984E-1,-4.751688E-2,7.544135E-1,1.1680158E-1,-3.2935098E-1,3.8002434E-1,1.359411E-1,-5.4568297E-1,6.279656E-1,-5.206846E-1,-5.29178E-1,-1.3468394E-1,-5.182343E-1,-3.3103628E-3,3.435835E-1,-3.907689E-1,6.792895E-1,1.4829607E-1,-5.314008E-1,-1.35396635E-2,-4.408469E-1,4.0065855E-1,6.8127114E-1,1.8404768E-1,-5.3333646E-1,-2.3501495E-1],"categories":[],"categories_nodes":[],"categories_segments":[],"categories_sizes":[],"default_left":[1,1,1,1,1,1,1,0,1,1,1,0,1,1,0,1,0,1,1,1,1,1,1,0,0,1,1,1,0,0,0,1,1,0,0,0,0,1,0,0,1,1,0,0,0,0,0,0,0,1,0,0,0,0,0,0,0,0,0,1,0,1,1,1,0,0,0,1,0,0,0,1,0,1,1,0,0,1,0,0,1,1,0,0,0,0,0,0,0,0,0,1,1,0,0,0,0,1,0,1,0,0,0,0,0,0,0],"id":19,"left_children":[1,3,5,7,9,11,13,-1,15,17,19,21,23,25,27,29,-1,31,33,35,37,39,41,43,45,47,49,51,-1,-1,-1,53,55,-1,-1,-1,-1,57,-1,59,61,63,65,-1,-1,-1,-1,-1,-1,67,69,71,-1,-1,-1,73,-1,-1,-1,75,-1,77,79,81,-1,-1,-1,83,-1,-1,-1,85,87,89,91,-1,-1,93,-1,-1,95,97,-1,-1,-1,-1,-1,-1,-1,-1,-1,99,101,-1,-1,-1,-1,103,-1,105,-1,-1,-1,-1,-1,-1,-1],"loss_changes":[9.345642E1,2.6516487E1,2.852821E1,6.495219E0,6.0470276E0,2.11778E1,6.9905677E0,0E0,9.7599506E-1,4.3689804E0,5.3907094E0,5.9557343E0,4.003806E0,3.0811768E0,5.2018127E0,6.1037636E-1,0E0,3.164795E0,1.7266645E0,1.0571527E0,2.121571E0,8.063829E0,1.8581238E0,2.4833755E0,1.1077191E0,1.603424E-1,2.318265E0,9.2358494E-1,0E0,0E0,0E0,9.9619794E-1,1.541832E0,0E0,0E0,0E0,0E0,1.5858316E-1,0E0,2.220787E0,4.078614E0,1.1534424E0,1.3795763E-1,0E0,0E0,0E0,0E0,0E0,0E0,1.2112331E0,5.7736063E-1,7.020464E-1,0E0,0E0,0E0,1.4045486E0,0E0,0E0,0E0,6.5698814E-1,0E0,1.2198522E0,1.3841332E0,7.300339E-1,0E0,0E0,0E0,3.151126E-1,0E0,0E0,0E0,5.746104E-1,6.6924953E-1,6.0001154E0,7.653427E-1,0E0,0E0,2.6320696E-1,0E0,0E0,7.489282E-1,1.4969635E-1,0E0,0E0,0E0,0E0,0E0,0E0,0E0,0E0,0E0,4.712906E-1,1.2890815E0,0E0,0E0,0E0,0E0,3.0189514E-2,0E0,1.131134E-1,0E0,0E0,0E0,0E0,0E0,0E0,0E0],"parents":[2147483647,0,0,1,1,2,2,3,3,4,4,5,5,6,6,8,8,9,9,10,10,11,11,12,12,13,13,14,14,15,15,17,17,18,18,19,19,20,20,21,21,22,22,23,23,24,24,25,25,26,26,27,27,31,31,32,32,37,37,39,39,40,40,41,41,42,42,49,49,50,50,51,51,55,55,59,59,61,61,62,62,63,63,67,67,71,71,72,72,73,73,74,74,77,77,80,80,81,81,91,91,92,92,97,97,99,99],"right_children":[2,4,6,8,10,12,14,-1,16,18,20,22,24,26,28,30,-1,32,34,36,38,40,42,44,46,48,50,52,-1,-1,-1,54,56,-1,-1,-1,-1,58,-1,60,62,64,66,-1,-1,-1,-1,-1,-1,68,70,72,-1,-1,-1,74,-1,-1,-1,76,-1,78,80,82,-1,-1,-1,84,-1,-1,-1,86,88,90,92,-1,-1,94,-1,-1,96,98,-1,-1,-1,-1,-1,-1,-1,-1,-1,100,102,-1,-1,-1,-1,104,-1,106,-1,-1,-1,-1,-1,-1,-1],"split_conditions":[1.385E2,4.85E1,8.95E1,9.9E1,1.025E2,8.25E1,9.75E1,-1.4302066E-1,6.95E1,1.225E2,8.55E1,2.995E2,1.18E2,5.75E1,1.355E2,3.5E1,-3.639733E-2,1.9E1,2.85E1,4.65E1,5.05E1,1.095E2,1.855E2,9.8E1,2.13E2,5.55E1,7.15E1,5.65E1,1.6354144E-1,-1.5190145E-3,2.0681031E-1,3.25E1,2.075E2,-1.1116204E-1,1.7771506E-1,9.3300544E-2,