{"learner":{"attributes":{"best_iteration":"9","best_ntree_limit":"10"},"feature_names":[],"feature_types":[],"gradient_booster":{"model":{"gbtree_model_param":{"num_parallel_tree":"1","num_trees":"20","size_leaf_vector":"0"},"tree_info":[0,1,0,1,0,1,0,1,0,1,0,1,0,1,0,1,0,1,0,1],"trees":[{"base_weights":[1.2484395E-1,6.5572137E-1,-7.6627713E-1,8.261905E-1,-2.0958084E-1,2.7027026E-1,-9.089184E-1,-2.0930232E-1,8.798498E-1,8.4615386E-1,-8.6538464E-1,-6.666667E-1,8.695652E-1,-9.722222E-1,4.4E-1,-8.4E-1,6E-1,9.2115635E-1,5E-2,9.672131E-1,-6.666667E-1,-9.587629E-1,3.3333334E-1,-9.2E-1,4.2857143E-1,1.4285715E-1,9.512195E-1,2E-1,-9.919355E-1,-7.1428573E-1,8E-1,-0E0,-9.130435E-1,8.75E-1,-3.3333334E-1,-6.666667E-2,9.3850267E-1,-7.894737E-1,7.3913044E-1,-0E0,-9.7894734E-1,-5E-1,7.1428573E-1,6E-1,-0E0,-5E-1,6E-1,-6E-1,7.1428573E-1,-2E-1,-9.959432E-1,8.888889E-1,-0E0,-5E-1,-0E0,5.555556E-1,-7.5E-1,9.4623655E-1,-3.3333334E-1,-8.8235295E-1,-0E0,9.047619E-1,-5E-1,7.1428573E-1,-0E0,-5E-1,9.514825E-1,-5E-1,-0E0,9.5929444E-1,-1.4285715E-1,-0E0,9.6452934E-1,5E-1,-6E-1,5E-1,-5E-1,5E-1,9.748252E-1],"categories":[],"categories_nodes":[],"categories_segments":[],"categories_sizes":[],"default_left":[1,1,1,1,1,1,1,1,1,1,1,1,1,1,1,1,1,1,1,0,0,1,1,0,1,1,0,1,1,0,1,0,0,0,1,0,1,1,1,0,0,0,0,0,0,0,0,0,0,0,0,0,0,0,0,1,0,1,1,0,0,0,0,0,0,0,1,0,0,1,1,1,1,0,0,0,0,0,0],"id":0,"left_children":[1,3,5,7,9,11,13,15,17,19,21,23,25,27,29,31,33,35,37,-1,-1,39,41,-1,43,45,-1,47,49,-1,51,-1,-1,-1,53,55,57,59,61,-1,-1,-1,-1,-1,-1,-1,-1,-1,-1,-1,-1,-1,-1,-1,-1,63,-1,65,67,-1,-1,-1,-1,-1,-1,-1,69,-1,-1,71,73,75,77,-1,-1,-1,-1,-1,-1],"loss_changes":[3.7943637E2,7.429558E1,4.452806E1,2.3520966E1,5.8543873E1,2.1355267E1,2.2928482E1,1.147814E1,1.3648071E1,6.5968914E0,6.140167E0,4.556191E0,1.2289047E0,6.0216827E0,5.7657146E0,7.669573E-1,2.8583336E0,6.5824585E0,1.2153661E1,0E0,0E0,9.3857956E-1,1.7857141E0,0E0,2.5714284E-1,1.3285714E0,0E0,2.4857142E0,5.879364E-1,0E0,7.1111107E-1,0E0,0E0,0E0,1.6666666E-1,3.6055555E0,3.9941711E0,6.965947E-1,2.8126292E0,0E0,0E0,0E0,0E0,0E0,0E0,0E0,0E0,0E0,0E0,0E0,0E0,0E0,0E0,0E0,0E0,3.9682543E-1,0E0,3.2980652E0,1.6666666E-1,0E0,0E0,0E0,0E0,0E0,0E0,0E0,3.3087158E0,0E0,0E0,1.8505249E0,1.3285714E0,1E0,1.2654419E0,0E0,0E0,0E0,0E0,0E0,0E0],"parents":[2147483647,0,0,1,1,2,2,3,3,4,4,5,5,6,6,7,7,8,8,9,9,10,10,11,11,12,12,13,13,14,14,15,15,16,16,17,17,18,18,21,21,22,22,24,24,25,25,27,27,28,28,30,30,34,34,35,35,36,36,37,37,38,38,55,55,57,57,58,58,66,66,69,69,70,70,71,71,72,72],"right_children":[2,4,6,8,10,12,14,16,18,20,22,24,26,28,30,32,34,36,38,-1,-1,40,42,-1,44,46,-1,48,50,-1,52,-1,-1,-1,54,56,58,60,62,-1,-1,-1,-1,-1,-1,-1,-1,-1,-1,-1,-1,-1,-1,-1,-1,64,-1,66,68,-1,-1,-1,-1,-1,-1,-1,70,-1,-1,72,74,76,78,-1,-1,-1,-1,-1,-1],"split_conditions":[5.15E1,1.065E2,1.345E2,3.15E1,1.295E2,9.25E1,8.95E1,8.8E1,8.05E1,7.55E1,2.3E1,7.95E1,5.55E1,6.25E1,8.45E1,2.615E2,6.05E1,6.35E1,4E1,2.9016393E-1,-2.0000002E-1,5.65E1,1.21E2,-2.7600002E-1,1.37E2,6.05E1,2.8536585E-1,7.15E1,6.8E1,-2.1428573E-1,7.55E1,-0E0,-2.7391306E-1,2.6250002E-1,1.325E2,3.8E1,1.915E2,1.535E2,8.35E1,-0E0,-2.936842E-1,-1.5E-1,2.1428573E-1,1.8E-1,-0E0,-1.5E-1,1.8E-1,-1.8E-1,2.1428573E-1,-6.0000002E-2,-2.9878297E-1,2.6666668E-1,-0E0,-1.5E-1,-0E0,1.56E2,-2.2500001E-1,5.45E1,1.27E2,-2.647059E-1,-0E0,2.7142859E-1,-1.5E-1,2.1428573E-1,-0E0,-1.5E-1,1.725E2,-1.5E-1,-0E0,5.15E1,1.545E2,1.365E2,1.055E2,1.5E-1,-1.8E-1,1.5E-1,-1.5E-1,1.5E-1,2.9244757E-1],"split_indices":[231,1100,3100,1230,3100,2200,3010,3010,2130,102,1122,103,301,110,103,3,11,1031,3120,0,0,11,1,0,1,122,0,12,13,0,11,0,0,0,1,1302,1000,1,1330,0,0,0,0,0,0,0,0,0,0,0,0,0,0,0,0,1,0,103,1,0,0,0,0,0,0,0,1,0,0,1030,2,1,32,0,0,0,0,0,0],"split_type":[0,0,0,0,0,0,0,0,0,0,0,0,0,0,0,0,0,0,0,0,0,0,0,0,0,0,0,0,0,0,0,0,0,0,0,0,0,0,0,0,0,0,0,0,0,0,0,0,0,0,0,0,0,0,0,0,0,0,0,0,0,0,0,0,0,0,0,0,0,0,0,0,0,0,0,0,0,0,0],"sum_hessian":[8E2,5.015E2,2.985E2,4.19E2,8.25E1,3.6E1,2.625E2,2.05E1,3.985E2,3.15E1,5.1E1,1.4E1,2.2E1,2.51E2,1.15E1,1.15E1,9E0,3.795E2,1.9E1,2.95E1,2E0,4.75E1,3.5E0,1.15E1,2.5E0,2.5E0,1.95E1,4E0,2.47E2,2.5E0,9E0,1E0,1.05E1,7E0,2E0,6.5E0,3.73E2,8.5E0,1.05E1,1E0,4.65E1,1E0,2.5E0,1.5E0,1E0,1E0,1.5E0,1.5E0,2.5E0,1.5E0,2.455E2,8E0,1E0,1E0,1E0,3.5E0,3E0,3.71E2,2E0,7.5E0,1E0,9.5E0,1E0,2.5E0,1E0,1E0,3.7E2,1E0,1E0,3.675E2,2.5E0,2E0,3.655E2,1E0,1.5E0,1E0,1E0,9E0,3.565E2],"tree_param":{"num_deleted":"0","num_feature":"3333","num_nodes":"79","size_leaf_vector":"0"}},{"base_weights":[-1.2484395E-1,-6.5572137E-1,7.6627713E-1,-8.261905E-1,2.0958084E-1,-2.7027026E-1,9.089184E-1,2.0930232E-1,-8.798498E-1,-8.4615386E-1,8.6538464E-1,6.666667E-1,-8.695652E-1,9.722222E-1,-4.4E-1,8.4E-1,-6E-1,-9.2115635E-1,-5E-2,-9.672131E-1,6.666667E-1,9.587629E-1,-3.3333334E-1,9.2E-1,-4.2857143E-1,-1.4285715E-1,-9.512195E-1,-2E-1,9.919355E-1,7.1428573E-1,-8E-1,-0E0,9.130435E-1,-8.75E-1,3.3333334E-1,6.666667E-2,-9.3850267E-1,7.894737E-1,-7.3913044E-1,-0E0,9.7894734E-1,5E-1,-7.1428573E-1,-6E-1,-0E0,5E-1,-6E-1,6E-1,-7.1428573E-1,2E-1,9.959432E-1,-8.888889E-1,-0E0,5E-1,-0E0,-5.555556E-1,7.5E-1,-9.4623655E-1,3.3333334E-1,8.8235295E-1,-0E0,-9.047619E-1,5E-1,-7.1428573E-1,-0E0,5E-1,-9.514825E-1,5E-1,-0E0,-9.5929444E-1,1.4285715E-1,-0E0,-9.6452934E-1,-5E-1,6E-1,-5E-1,5E-1,-5E-1,-9.748252E-1],"categories":[],"categories_nodes":[],"categories_segments":[],"categories_sizes":[],"default_left":[1,1,1,1,1,1,1,1,1,1,1,1,1,1,1,1,1,1,1,0,0,1,1,0,1,1,0,1,1,0,1,0,0,0,1,0,1,1,1,0,0,0,0,0,0,0,0,0,0,0,0,0,0,0,0,1,0,1,1,0,0,0,0,0,0,0,1,0,0,1,1,1,1,0,0,0,0,0,0],"id":1,"left_children":[1,3,5,7,9,11,13,15,17,19,21,23,25,27,29,31,33,35,37,-1,-1,39,41,-1,43,45,-1,47,49,-1,51,-1,-1,-1,53,55,57,59,61,-1,-1,-1,-1,-1,-1,-1,-1,-1,-1,-1,-1,-1,-1,-1,-1,63,-1,65,67,-1,-1,-1,-1,-1,-1,-1,69,-1,-1,71,73,75,77,-1,-1,-1,-1,-1,-1],"loss_changes":[3.7943637E2,7.429558E1,4.452806E1,2.3520966E1,5.8543873E1,2.1355267E1,2.2928482E1,1.147814E1,1.3648071E1,6.5968914E0,6.140167E0,4.556191E0,1.2289047E0,6.0216827E0,5.7657146E0,7.669573E-1,2.8583336E0,6.5824585E0,1.2153661E1,0E0,0E0,9.3857956E-1,1.7857141E0,0E0,2.5714284E-1,1.3285714E0,0E0,2.4857142E0,5.879364E-1,0E0,7.1111107E-1,0E0,0E0,0E0,1.6666666E-1,3.6055555E0,3.9941711E0,6.965947E-1,2.8126292E0,0E0,0E0,0E0,0E0,0E0,0E0,0E0,0E0,0E0,0E0,0E0,0E0,0E0,0E0,0E0,0E0,3.9682543E-1,0E0,3.2980652E0,1.6666666E-1,0E0,0E0,0E0,0E0,0E0,0E0,0E0,3.3087158E0,0E0,0E0,1.8505249E0,1.3285714E0,1E0,1.2654419E0,0E0,0E0,0E0,0E0,0E0,0E0],"parents":[2147483647,0,0,1,1,2,2,3,3,4,4,5,5,6,6,7,7,8,8,9,9,10,10,11,11,12,12,13,13,14,14,15,15,16,16,17,17,18,18,21,21,22,22,24,24,25,25,27,27,28,28,30,30,34,34,35,35,36,36,37,37,38,38,55,55,57,57,58,58,66,66,69,69,70,70,71,71,72,72],"right_children":[2,4,6,8,10,12,14,16,18,20,22,24,26,28,30,32,34,36,38,-1,-1,40,42,-1,44,46,-1,48,50,-1,52,-1,-1,-1,54,56,58,60,62,-1,-1,-1,-1,-1,-1,-1,-1,-1,-1,-1,-1,-1,-1,-1,-1,64,-1,66,68,-1,-1,-1,-1,-1,-1,-1,70,-1,-1,72,74,76,78,-1,-1,-1,-1,-1,-1],"split_conditions":[5.15E1,1.065E2,1.345E2,3.15E1,1.295E2,9.25E1,8.95E1,8.8E1,8.05E1,7.55E1,2.3E1,7.95E1,5.55E1,6.25E1,8.45E1,2.615E2,6.05E1,6.35E1,4E1,-2.9016393E-1,2.0000002E-1,5.65E1,1.21E2,2.7600002E-1,1.37E2,6.05E1,-2.8536585E-1,7.15E1,6.8E1,2.1428573E-1,7.55E1,-0E0,2.7391306E-1,-2.6250002E-1,1.325E2,3.8E1,1.915E2,1.535E2,8.35E1,-0E0,2.936842E-1,1.5E-1,-2.1428573E-1,-1.8E-1,-0E0,1.5E-1,-1.8E-1,1.8E-1,-2.1428573E-1,6.0000002E-2,2.9878297E-1,-2.6666668E-1,-0E0,1.5E-1,-0E0,1.56E2,2.2500001E-1,5.45E1,1.27E2,2.647059E-1,-0E0,-2.7142859E-1,1.5E-1,-2.1428573E-1,-0E0,1.5E-1,1.725E2,1.5E-1,-0E0,5.15E1,1.545E2,1.365E2,1.055E2,-1.5E-1,1.8E-1,-1.5E-1,1.5E-1,-1.5E-1,-2.9244757E-1],"split_indices":[231,1100,3100,1230,3100,2200,3010,3010,2130,102,1122,103,301,110,103,3,11,1031,3120,0,0,11,1,0,1,122,0,12,13,0,11,0,0,0,1,1302,1000,1,1330,0,0,0,0,0,0,0,0,0,0,0,0,0,0,0,0,1,0,103,1,0,0,0,0,0,0,0,1,0,0,1030,2,1,32,0,0,0,0,0,0],"split_type":[0,0,0,0,0,0,0,0,0,0,0,0,0,0,0,0,0,0,0,0,0,0,0,0,0,0,0,0,0,0,0,0,0,0,0,0,0,0,0,0,0,0,0,0,0,0,0,0,0,0,0,0,0,0,0,0,0,0,0,0,0,0,0,0,0,0,0,0,0,0,0,0,0,0,0,0,0,0,0],"sum_hessian":[8E2,5.015E2,2.985E2,4.19E2,8.25E1,3.6E1,2.625E2,2.05E1,3.985E2,3.15E1,5.1E1,1.4E1,2.2E1,2.51E2,1.15E1,1.15E1,9E0,3.795E2,1.9E1,2.95E1,2E0,4.75E1,3.5E0,1.15E1,2.5E0,2.5E0,1.95E1,4E0,2.47E2,2.5E0,9E0,1E0,1.05E1,7E0,2E0,6.5E0,3.73E2,8.5E0,1.05E1,1E0,4.65E1,1E0,2.5E0,1.5E0,1E0,1E0,1.5E0,1.5E0,2.5E0,1.5E0,2.455E2,8E0,1E0,1E0,1E0,3.5E0,3E0,3.71E2,2E0,7.5E0,1E0,9.5E0,1E0,2.5E0,1E0,1E0,3.7E2,1E0,1E0,3.675E2,2.5E0,2E0,3.655E2,1E0,1.5E0,1E0,1E0,9E0,3.565E2],"tree_param":{"num_deleted":"0","num_feature":"3333","num_nodes":"79","size_leaf_vector":"0"}},{"base_weights":[9.519623E-2,5.0191134E-1,-5.904235E-1,6.326769E-1,-1.6247769E-1,2.1109705E-1,-7.02392E-1,6.969314E-1,7.9400435E-2,6.5069604E-1,-6.677392E-1,-5.07919E-1,6.750814E-1,-7.5240654E-1,3.3290666E-1,-1.6408509E-1,7.18804E-1,-6.4157397E-1,6.501884E-1,7.521531E-1,-5.4935044E-1,-7.43096E-1,2.567805E-1,-7.2036403E-1,3.571045E-1,1.1129279E-1,7.413567E-1,1.5274727E-1,-7.68373E-1,6.382113E-1,-6.091847E-1,-5.702071E-1,5.8649576E-1,7.263215E-1,-4.0548933E-1,-7.9283136E-1,3.0226046E-1,-5.217066E-1,7.502154E-1,-0E0,-7.600969E-1,-1.859648E-1,5.4205513E-1,5.02717E-1,-0E0,-5.02717E-1,5.8204585E-1,-7.723809E-1,-1.8619788E-1,1.4316718E-1,7.0734274E-1,-6.533679E-1,-1.507129E-1,7.349392E-1,-1.9743153E-1,-1.5699743E-1,-8.4078586E-1,7.499077E-1,2.1850887E-1,1.8821366E-1,-5.02717E-1,7.5792676E-1,-1.7410645E-2,6.852578E-1,-6.4300716E-1,-1.5820989E-1,7.6251453E-1,5.408187E-1,-6.73749E-1,-0E0,7.672063E-1],"categories":[],"categories_nodes":[],"categories_segments":[],"categories_sizes":[],"default_left":[1,1,1,1,1,1,1,1,1,1,1,1,1,1,1,1,1,1,1,0,0,1,1,0,1,0,0,1,1,1,0,1,0,1,0,1,0,0,0,0,0,0,0,0,0,0,0,0,0,0,0,0,0,1,1,0,0,0,1,0,0,1,1,0,0,0,1,0,0,0,0],"id":2,"left_children":[1,3,5,7,9,11,13,15,17,19,21,23,25,27,29,31,33,35,37,-1,-1,39,41,-1,43,-1,-1,45,47,49,-1,51,-1,53,-1,55,-1,-1,-1,-1,-1,-1,-1,-1,-1,-1,-1,-1,-1,-1,-1,-1,-1,57,59,-1,-1,61,63,-1,-1,65,67,-1,-1,-1,69,-1,-1,-1,-1],"loss_changes":[2.0631906E2,4.04386E1,2.487754E1,1.3742798E1,3.213153E1,1.1867102E1,1.2781578E1,6.664444E0,1.7500935E1,4.07448E0,3.5401878E0,2.8519022E0,7.180319E-1,3.45813E0,3.7958953E0,3.2076945E0,3.161316E0,2.9302502E0,3.1656313E0,0E0,0E0,5.6482506E-1,6.5230477E-1,0E0,1.7952254E-1,0E0,0E0,1.6548296E0,3.8658142E-1,2.2161889E-1,0E0,1.3259196E-1,0E0,2.8301544E0,0E0,3.7170124E-1,0E0,0E0,0E0,0E0,0E0,0E0,0E0,0E0,0E0,0E0,0E0,0E0,0E0,0E0,0E0,0E0,0E0,2.4210052E0,5.5445325E-1,0E0,0E0,2.0102692E0,4.79558E0,0E0,0E0,1.4707489E0,1.9524283E0,0E0,0E0,0E0,1.1440735E0,0E0,0E0,0E0,0E0],"parents":[2147483647,0,0,1,1,2,2,3,3,4,4,5,5,6,6,7,7,8,8,9,9,10,10,11,11,12,12,13,13,14,14,15,15,16,16,17,17,18,18,21,21,22,22,24,24,27,27,28,28,29,29,31,31,33,33,35,35,53,53,54,54,57,57,58,58,61,61,62,62,66,66],"right_children":[2,4,6,8,10,12,14,16,18,20,22,24,26,28,30,32,34,36,38,-1,-1,40,42,-1,44,-1,-1,46,48,50,-1,52,-1,54,-1,56,-1,-1,-1,-1,-1,-1,-1,-1,-1,-1,-1,-1,-1,-1,-1,-1,-1,58,60,-1,-1,62,64,-1,-1,66,68,-1,-1,-1,70,-1,-1,-1,-1],"split_conditions":[5.15E1,1.065E2,1.345E2,1.695E2,1.295E2,9.25E1,8.95E1,2.95E1,8.8E1,7.55E1,2.3E1,7.95E1,5.55E1,6.25E1,9.75E1,9.35E1,1.015E2,2.85E1,6.9E1,2.2564594E-1,-1.6480514E-1,5.65E1,1.315E2,-2.1610922E-1,1.37E2,3.3387836E-2,2.2240701E-1,7.15E1,1.2E2,1.07E2,-1.8275541E-1,1.47E2,1.7594874E-1,1.725E2,-1.216468E-1,4.8E1,9.067814E-2,-1.5651198E-1,2.2506464E-1,-0E0,-2.2802909E-1,-5.578944E-2,1.6261655E-1,1.5081511E-1,-0E0,-1.5081511E-1,1.7461376E-1,-2.3171428E-1,-5.5859365E-2,4.2950157E-2,2.1220283E-1,-1.9601037E-1,-4.5213874E-2,8.15E1,1.52E2,-4.709923E-2,-2.5223577E-1,1.16E2,8.25E1,5.6464102E-2,-1.5081511E-1,6E1,6.65E1,2.0557734E-1,-1.9290216E-1,-4.746297E-2,5.15E1,1.6224562E-1,-2.0212471E-1,-0E0,2.301619E-1],"split_indices":[231,1100,3100,3100,3100,2200,3010,1230,3010,102,1122,103,301,110,210,3010,2110,1221,1031,0,0,11,1,0,1,0,0,12,322,1,0,1,0,1,0,11,0,0,0,0,0,0,0,0,0,0,0,0,0,0,0,0,0,2130,10,0,0,1122,1330,0,0,1031,132,0,0,0,1030,0,0,0,0],"split_type":[0,0,0,0,0,0,0,0,0,0,0,0,0,0,0,0,0,0,0,0,0,0,0,0,0,0,0,0,0,0,0,0,0,0,0,0,0,0,0,0,0,0,0,0,0,0,0,0,0,0,0,0,0,0,0,0,0,0,0,0,0,0,0,0,0,0,0,0,0,0,0],"sum_hessian":[7.378249E2,4.6327463E2,2.7455026E2,3.871276E2,7.614702E1,3.3543747E1,2.4100652E2,3.4661407E2,4.0513527E1,2.9071373E1,4.707564E1,1.3119047E1,2.04247E1,2.3016084E2,1.0845662E1,8.425892E0,3.3818817E2,1.7846817E1,2.2666708E1,2.7149286E1,1.9220859E0,4.370918E1,3.3664622E0,1.0666616E1,2.4524307E0,2.430264E0,1.7994436E1,3.8410597E0,2.263198E2,8.434759E0,2.4109032E0,5.6234727E0,2.8024197E0,3.3629355E2,1.8946426E0,1.551965E1,2.327166E0,1.4510359E0,2.1215673E1,1E0,4.270918E1,1.455559E0,1.9109031E0,1.4524307E0,1E0,1.4524307E0,2.388629E0,2.244479E2,1.8718816E0,1.4098549E0,7.0249043E0,4.227832E0,1.3956409E0,3.3338776E2,2.905782E0,1.3881333E0,1.4131517E1,3.2355756E2,9.83021E0,1.4533513E0,1.4524307E0,3.202232E2,3.3343534E0,6.508597E0,3.3216128E0,1.4287616E0,3.1879443E2,1.8969579E0,1.4373956E0,1.9556665E0,3.1683878E2],"tree_param":{"num_deleted":"0","num_feature":"3333","num_nodes":"71","size_leaf_vector":"0"}},{"base_weights":[-9.51962E-2,-5.0191134E-1,5.904235E-1,-6.326769E-1,1.6247772E-1,-2.1109702E-1,7.02392E-1,-6.969314E-1,-7.940041E-2,-6.5069604E-1,6.677392E-1,5.079191E-1,-6.750814E-1,7.5240654E-1,-3.329066E-1,1.6408512E-1,-7.18804E-1,6.4157397E-1,-6.501884E-1,-7.521531E-1,5.493505E-1,7.4309605E-1,-2.5678053E-1,7.2036415E-1,-3.5710454E-1,-1.1129281E-1,-7.413567E-1,-1.5274732E-1,7.68373E-1,-6.3821125E-1,6.091847E-1,5.702071E-1,-5.864957E-1,-7.263216E-1,4.0548936E-1,7.9283136E-1,-3.0226043E-1,5.217066E-1,-7.502154E-1,-0E0,7.6009697E-1,1.8596478E-1,-5.4205513E-1,-5.02717E-1,-0E0,5.02717E-1,-5.8204585E-1,7.723809E-1,1.8619789E-1,-1.4316715E-1,-7.073427E-1,6.533679E-1,1.507129E-1,-7.349393E-1,1.9743149E-1,1.5699743E-1,8.4078586E-1,-7.499077E-1,-2.1850881E-1,-1.8821369E-1,5.02717E-1,-7.5792676E-1,1.741066E-2,-6.852578E-1,6.430071E-1,1.5820983E-1,-7.625146E-1,-5.408187E-1,6.737491E-1,-0E0,-7.672064E-1],"categories":[],"categories_nodes":[],"categories_segments":[],"categories_sizes":[],"default_left":[1,1,1,1,1,1,1,1,1,1,1,1,1,1,1,1,1,1,1,0,0,1,1,0,1,0,0,1,1,1,0,1,0,1,0,1,0,0,0,0,0,0,0,0,0,0,0,0,0,0,0,0,0,1,1,0,0,0,1,0,0,1,1,0,0,0,1,0,0,0,0],"id":3,"left_children":[1,3,5,7,9,11,13,15,17,19,21,23,25,27,29,31,33,35,37,-1,-1,39,41,-1,43,-1,-1,45,47,49,-1,51,-1,53,-1,55,-1,-1,-1,-1,-1,-1,-1,-1,-1,-1,-1,-1,-1,-1,-1,-1,-1,57,59,-1,-1,61,63,-1,-1,65,67,-1,-1,-1,69,-1,-1,-1,-1],"loss_changes":[2.0631905E2,4.0438614E1,2.487754E1,1.3742798E1,3.2131535E1,1.1867103E1,1.2781578E1,6.664444E0,1.7500935E1,4.074481E0,3.5401878E0,2.8519027E0,7.180319E-1,3.45813E0,3.7958949E0,3.2076943E0,3.1613007E0,2.9302487E0,3.1656313E0,0E0,0E0,5.6482506E-1,6.5230477E-1,0E0,1.7952254E-1,0E0,0E0,1.6548297E0,3.8658142E-1,2.2161889E-1,0E0,1.3259172E-1,0E0,2.8301697E0,0E0,3.717022E-1,0E0,0E0,0E0,0E0,0E0,0E0,0E0,0E0,0E0,0E0,0E0,0E0,0E0,0E0,0E0,0E0,0E0,2.4210052E0,5.5445325E-1,0E0,0E0,2.010254E0,4.7955794E0,0E0,0E0,1.4707642E0,1.9524285E0,0E0,0E0,0E0,1.1440735E0,0E0,0E0,0E0,0E0],"parents":[2147483647,0,0,1,1,2,2,3,3,4,4,5,5,6,6,7,7,8,8,9,9,10,10,11,11,12,12,13,13,14,14,15,15,16,16,17,17,18,18,21,21,22,22,24,24,27,27,28,28,29,29,31,31,33,33,35,35,53,53,54,54,57,57,58,58,61,61,62,62,66,66],"right_children":[2,4,6,8,10,12,14,16,18,20,22,24,26,28,30,32,34,36,38,-1,-1,40,42,-1,44,-1,-1,46,48,50,-1,52,-1,54,-1,56,-1,-1,-1,-1,-1,-1,-1,-1,-1,-1,-1,-1,-1,-1,-1,-1,-1,58,60,-1,-1,62,64,-1,-1,66,68,-1,-1,-1,70,-1,-1,-1,-1],"split_conditions":[5.15E1,1.065E2,1.345E2,1.695E2,1.295E2,9.25E1,8.95E1,2.95E1,8.8E1,7.55E1,2.3E1,7.95E1,5.55E1,6.25E1,9.75E1,9.35E1,1.015E2,2.85E1,6.9E1,-2.2564594E-1,1.6480516E-1,5.65E1,1.315E2,2.1610926E-1,1.37E2,-3.3387844E-2,-2.2240701E-1,7.15E1,1.2E2,1.07E2,1.8275541E-1,1.47E2,-1.7594871E-1,1.725E2,1.21646814E-1,4.8E1,-9.067813E-2,1.5651198E-1,-2.2506464E-1,-0E0,2.280291E-1,5.5789437E-2,-1.6261655E-1,-1.5081511E-1,-0E0,1.5081511E-1,-1.7461376E-1,2.3171428E-1,5.585937E-2,-4.2950146E-2,-2.1220282E-1,1.9601037E-1,4.5213874E-2,8.15E1,1.52E2,4.709923E-2,2.5223577E-1,1.16E2,8.25E1,-5.646411E-2,1.5081511E-1,6E1,6.65E1,-2.0557734E-1,1.9290213E-1,4.746295E-2,5.15E1,-1.6224562E-1,2.0212473E-1,-0E0,-2.3016192E-1],"split_indices":[231,1100,3100,3100,3100,2200,3010,1230,3010,102,1122,103,301,110,210,3010,2110,1221,1031,0,0,11,1,0,1,0,0,12,322,1,0,1,0,1,0,11,0,0,0,0,0,0,0,0,0,0,0,0,0,0,0,0,0,2130,10,0,0,1122,1330,0,0,1031,132,0,0,0,1030,0,0,0,0],"split_type":[0,0,0,0,0,0,0,0,0,0,0,0,0,0,0,0,0,0,0,0,0,0,0,0,0,0,0,0,0,0,0,0,0,0,0,0,0,0,0,0,0,0,0,0,0,0,0,0,0,0,0,0,0,0,0,0,0,0,0,0,0,0,0,0,0,0,0,0,0,0,0],"sum_hessian":[7.378248E2,4.6327457E2,2.7455026E2,3.8712756E2,7.614702E1,3.3543747E1,2.4100652E2,3.4661404E2,4.0513523E1,2.9071373E1,4.7075645E1,1.3119048E1,2.04247E1,2.3016084E2,1.0845661E1,8.425892E0,3.3818814E2,1.7846817E1,2.2666706E1,2.7149286E1,1.922086E0,4.3709183E1,3.3664622E0,1.0666617E1,2.4524307E0,2.430264E0,1.7994436E1,3.8410597E0,2.263198E2,8.434758E0,2.410903E0,5.623472E0,2.8024194E0,3.362935E2,1.8946425E0,1.551965E1,2.3271656E0,1.4510357E0,2.121567E1,1E0,4.2709183E1,1.455559E0,1.9109032E0,1.4524307E0,1E0,1.4524307E0,2.388629E0,2.244479E2,1.8718816E0,1.4098549E0,7.024904E0,4.2278314E0,1.3956409E0,3.3338773E2,2.905782E0,1.3881332E0,1.4131517E1,3.235575E2,9.83021E0,1.4533511E0,1.4524307E0,3.2022314E2,3.3343534E0,6.5085964E0,3.321613E0,1.4287616E0,3.187944E2,1.8969579E0,1.4373956E0,1.9556665E0,3.168387E2],"tree_param":{"num_deleted":"0","num_feature":"3333","num_nodes":"71","size_leaf_vector":"0"}},{"base_weights":[8.067778E-2,4.2654777E-1,-5.064504E-1,5.3781164E-1,-1.3893895E-1,1.8053526E-1,-6.056554E-1,1.5311313E-1,6.1181366E-1,5.544536E-1,-5.685699E-1,-3.747942E-1,6.090967E-1,-6.5095633E-1,2.7218255E-1,-2.2520171E-1,6.382959E-1,6.2255657E-1,-2.2700647E-1,6.4978886E-1,-4.721418E-1,5.123743E-1,-6.203546E-1,-6.3181466E-1,3.7619933E-1,6.5172356E-1,3.95046E-2,1.2274395E-1,-6.6585857E-1,-5.187368E-1,5.385038E-1,-5.1235193E-1,5.5578643E-1,6.5894014E-1,1.21431865E-1,6.524084E-1,3.4521863E-1,1.9998759E-1,-5.0743055E-1,-6.6234875E-1,4.990544E-2,1.3939051E-2,5.3426707E-1,-4.350532E-1,4.985675E-1,-6.5737955E-2,-6.700024E-1,6.145129E-1,6.346368E-2,1.9555086E-1,-6.905175E-1,1.1959571E-1,6.0541505E-1,6.618487E-1,-8.851288E-2,6.297777E-1,-5.319513E-1,5.190144E-1,-4.553532E-1,-7.5301987E-1,1.3335185E-1,6.6731906E-1,9.74541E-2,4.0971568E-1,-5.7306683E-1,1.1959571E-1,6.5225935E-1,3.8074806E-1,-7.649214E-1,6.8581164E-2,6.701292E-1,3.7309107E-1,-2.058622E-1,6.727792E-1,8.365126E-2],"categories":[],"categories_nodes":[],"categories_segments":[],"categories_sizes":[],"default_left":[1,1,1,1,1,1,1,1,1,1,1,1,1,1,1,1,1,1,1,0,0,0,1,0,1,0,0,1,1,0,1,1,1,0,0,1,1,0,0,0,0,0,0,0,0,0,0,0,0,1,1,0,0,0,1,1,1,0,0,0,0,1,1,0,0,0,0,0,0,0,1,0,0,0,0],"id":4,"left_children":[1,3,5,7,9,11,13,15,17,19,21,23,25,27,29,31,33,35,37,-1,-1,-1,39,-1,41,-1,-1,43,45,-1,47,49,51,-1,-1,53,55,-1,-1,-1,-1,-1,-1,-1,-1,-1,-1,-1,-1,57,59,-1,-1,61,63,65,67,-1,-1,-1,-1,69,71,-1,-1,-1,-1,-1,-1,-1,73,-1,-1,-1,-1],"loss_changes":[1.2730178E2,2.4887642E1,1.5951679E1,9.293388E0,1.986729E1,7.392463E0,8.263855E0,1.0152817E1,2.6303253E0,2.8137484E0,2.6138535E0,2.8880672E0,3.9603043E-1,2.3146973E0,2.5298462E0,7.3217363E0,1.7768574E-1,2.03479E0,6.074362E-1,0E0,0E0,0E0,1.147522E0,0E0,2.2892308E-1,0E0,0E0,1.1611139E0,4.2884827E-1,0E0,2.6731706E-1,3.094314E0,1.20587826E-1,0E0,0E0,1.7745285E0,7.4865494E0,0E0,0E0,0E0,0E0,0E0,0E0,0E0,0E0,0E0,0E0,0E0,0E0,1.3937296E0,1.077054E0,0E0,0E0,6.832428E-1,1.1928675E0,1.7537212E-1,1.8987517E0,0E0,0E0,0E0,0E0,3.5762024E-1,3.6921597E-1,0E0,0E0,0E0,0E0,0E0,0E0,0E0,3.1459808E-1,0E0,0E0,0E0,0E0],"parents":[2147483647,0,0,1,1,2,2,3,3,4,4,5,5,6,6,7,7,8,8,9,9,10,10,11,11,12,12,13,13,14,14,15,15,16,16,17,17,18,18,22,22,24,24,27,27,28,28,30,30,31,31,32,32,35,35,36,36,49,49,50,50,53,53,54,54,55,55,56,56,61,61,62,62,70,70],"right_children":[2,4,6,8,10,12,14,16,18,20,22,24,26,28,30,32,34,36,38,-1,-1,-1,40,-1,42,-1,-1,44,46,-1,48,50,52,-1,-1,54,56,-1,-1,-1,-1,-1,-1,-1,-1,-1,-1,-1,-1,58,60,-1,-1,62,64,66,68,-1,-1,-1,-1,70,72,-1,-1,-1,-1,-1,-1,-1,74,-1,-1,-1,-1],"split_conditions":[5.15E1,1.065E2,1.345E2,3.95E1,1.295E2,9.35E1,8.95E1,1.405E2,1.725E2,7.55E1,4E1,7.95E1,1.815E2,6.25E1,8.45E1,7.05E1,9.65E1,1.645E2,1.37E2,1.9493666E-1,-1.4164254E-1,1.5371229E-1,2.3E1,-1.8954441E-1,3.15E1,1.9551708E-1,1.1851381E-2,7.15E1,6.8E1,-1.5562104E-1,7.55E1,5.35E1,1.495E2,1.9768205E-1,3.642956E-2,9.55E1,3.45E1,5.999628E-2,-1.5222917E-1,-1.9870463E-1,1.4971633E-2,4.1817157E-3,1.6028012E-1,-1.3051596E-1,1.4957026E-1,-1.9721387E-2,-2.0100074E-1,1.8435389E-1,1.9039106E-2,5.55E1,1.095E2,3.5878714E-2,1.8162452E-1,6.5E1,6.15E1,1.29E2,1.66E2,1.5570433E-1,-1.3660596E-1,-2.2590597E-1,4.0005557E-2,3.6E1,1.47E2,1.2291471E-1,-1.7192006E-1,3.5878714E-2,1.9567782E-1,1.1422443E-1,-2.2947644E-1,2.057435E-2,6.65E1,1.1192732E-1,-6.175866E-2,2.0183377E-1,2.5095379E-2],"split_indices":[231,1100,3100,1230,3100,2200,3010,320,1,102,220,103,2,110,103,321,22,3100,20,0,0,0,1122,0,222,0,0,12,13,0,22,1320,2,0,0,2110,211,0,0,0,0,0,0,0,0,0,0,0,0,1130,1030,0,0,1302,302,32,33,0,0,0,0,312,2,0,0,0,0,0,0,0,1130,0,0,0,0],"split_type":[0,0,0,0,0,0,0,0,0,0,0,0,0,0,0,0,0,0,0,0,0,0,0,0,0,0,0,0,0,0,0,0,0,0,0,0,0,0,0,0,0,0,0,0,0,0,0,0,0,0,0,0,0,0,0,0,0,0,0,0,0,0,0,0,0,0,0,0,0,0,0,0,0,0,0],"sum_hessian":[6.248223E2,3.9336774E2,2.3145459E2,3.2873544E2,6.463228E1,2.9102495E1,2.023521E2,5.3529945E1,2.752055E2,2.461498E1,4.0017292E1,1.2731061E1,1.6371433E1,1.926679E2,9.684197E0,3.037853E1,2.3151417E1,2.7198004E2,3.225479E0,2.2859198E1,1.755784E0,1.4228418E0,3.859445E1,9.603164E0,3.1278975E0,1.5097391E1,1.2740432E0,3.504105E0,1.8916379E2,2.2007215E0,7.4834757E0,2.2463297E1,7.915235E0,2.199791E1,1.1535066E0,2.443288E2,2.7651228E1,1.3923001E0,1.8331788E0,3.6330048E1,2.2644029E0,1.2807813E0,1.8471162E0,1.3471162E0,2.156989E0,1.4128555E0,1.8775093E2,6.1981363E0,1.2853394E0,4.4971704E0,1.7966125E1,1.1569046E0,6.7583303E0,2.4136029E2,2.968513E0,2.1091164E1,6.560064E0,3.1395917E0,1.357579E0,1.6779179E1,1.1869467E0,2.3886278E2,2.4975176E0,1.5397537E0,1.4287593E0,1.1569046E0,1.993426E1,1.2049907E0,5.355073E0,1.2345214E0,2.3762825E2,1.1879423E0,1.3095754E0,2.3641284E2,1.2154051E0],"tree_param":{"num_deleted":"0","num_feature":"3333","num_nodes":"75","size_leaf_vector":"0"}},{"base_weights":[-8.0677755E-2,-4.265478E-1,5.064505E-1,-5.378116E-1,1.3893889E-1,-1.8053529E-1,6.0565543E-1,-1.5311314E-1,-6.1181366E-1,-5.544536E-1,5.685699E-1,3.747942E-1,-6.090967E-1,6.509564E-1,-2.7218255E-1,2.252017E-1,-6.382959E-1,-6.2255657E-1,2.2700645E-1,-6.4978886E-1,4.7214186E-1,-5.123743E-1,6.203546E-1,6.3181466E-1,-3.7619936E-1,-6.517235E-1,-3.9504573E-2,-1.22743994E-1,6.658586E-1,5.187368E-1,-5.3850377E-1,5.1235193E-1,-5.5578643E-1,-6.5894014E-1,-1.21431865E-1,-6.524084E-1,-3.4521863E-1,-1.9998762E-1,5.074305E-1,6.623488E-1,-4.9905434E-2,-1.3939051E-2,-5.3426707E-1,4.3505317E-1,-4.9856752E-1,6.573798E-2,6.7000246E-1,-6.145129E-1,-6.346365E-2,-1.9555087E-1,6.905175E-1,-1.1959574E-1,-6.0541505E-1,-6.6184866E-1,8.851287E-2,-6.297777E-1,5.319513E-1,-5.1901436E-1,4.5535323E-1,7.5301987E-1,-1.3335188E-1,-6.67319E-1,-9.745409E-2,-4.097157E-1,5.730669E-1,-1.1959574E-1,-6.5225935E-1,-3.8074806E-1,7.649215E-1,-6.858117E-2,-6.701291E-1,-3.7309104E-1,2.0586218E-1,-6.727792E-1,-8.365127E-2],"categories":[],"categories_nodes":[],"categories_segments":[],"categories_sizes":[],"default_left":[1,1,1,1,1,1,1,1,1,1,1,1,1,1,1,1,1,1,1,0,0,0,1,0,1,0,0,1,1,0,1,1,1,0,0,1,1,0,0,0,0,0,0,0,0,0,0,0,0,1,1,0,0,0,1,1,1,0,0,0,0,1,1,0,0,0,0,0,0,0,1,0,0,0,0],"id":5,"left_children":[1,3,5,7,9,11,13,15,17,19,21,23,25,27,29,31,33,35,37,-1,-1,-1,39,-1,41,-1,-1,43,45,-1,47,49,51,-1,-1,53,55,-1,-1,-1,-1,-1,-1,-1,-1,-1,-1,-1,-1,57,59,-1,-1,61,63,65,67,-1,-1,-1,-1,69,71,-1,-1,-1,-1,-1,-1,-1,73,-1,-1,-1,-1],"loss_changes":[1.2730183E2,2.4887634E1,1.5951683E1,9.293388E0,1.9867292E1,7.3924623E0,8.263855E0,1.0152818E1,2.6303253E0,2.8137488E0,2.6138535E0,2.8880677E0,3.960309E-1,2.3146973E0,2.5298462E0,7.3217363E0,1.7768478E-1,2.03479E0,6.074362E-1,0E0,0E0,0E0,1.147521E0,0E0,2.2892308E-1,0E0,0E0,1.1611139E0,4.288559E-1,0E0,2.6731706E-1,3.094314E0,1.20587826E-1,0E0,0E0,1.7745285E0,7.4865503E0,0E0,0E0,0E0,0E0,0E0,0E0,0E0,0E0,0E0,0E0,0E0,0E0,1.3937298E0,1.077055E0,0E0,0E0,6.832428E-1,1.1928675E0,1.7537117E-1,1.8987517E0,0E0,0E0,0E0,0E0,3.5762024E-1,3.692159E-1,0E0,0E0,0E0,0E0,0E0,0E0,0E0,3.1459808E-1,0E0,0E0,0E0,0E0],"parents":[2147483647,0,0,1,1,2,2,3,3,4,4,5,5,6,6,7,7,8,8,9,9,10,10,11,11,12,12,13,13,14,14,15,15,16,16,17,17,18,18,22,22,24,24,27,27,28,28,30,30,31,31,32,32,35,35,36,36,49,49,50,50,53,53,54,54,55,55,56,56,61,61,62,62,70,70],"right_children":[2,4,6,8,10,12,14,16,18,20,22,24,26,28,30,32,34,36,38,-1,-1,-1,40,-1,42,-1,-1,44,46,-1,48,50,52,-1,-1,54,56,-1,-1,-1,-1,-1,-1,-1,-1,-1,-1,-1,-1,58,60,-1,-1,62,64,66,68,-1,-1,-1,-1,70,72,-1,-1,-1,-1,-1,-1,-1,74,-1,-1,-1,-1],"split_conditions":[5.15E1,1.065E2,1.345E2,3.95E1,1.295E2,9.35E1,8.95E1,1.405E2,1.725E2,7.55E1,4E1,7.95E1,1.815E2,6.25E1,8.45E1,7.05E1,9.65E1,1.645E2,1.37E2,-1.9493666E-1,1.4164257E-1,-1.5371229E-1,2.3E1,1.8954441E-1,3.15E1,-1.9551706E-1,-1.1851372E-2,7.15E1,6.8E1,1.5562104E-1,7.55E1,5.35E1,1.495E2,-1.9768205E-1,-3.642956E-2,9.55E1,3.45E1,-5.999629E-2,1.5222916E-1,1.9870465E-1,-1.4971631E-2,-4.1817157E-3,-1.6028012E-1,1.3051596E-1,-1.4957026E-1,1.9721394E-2,2.0100075E-1,-1.8435389E-1,-1.9039096E-2,5.55E1,1.095E2,-3.5878725E-2,-1.8162452E-1,6.5E1,6.15E1,1.29E2,1.66E2,-1.5570432E-1,1.3660598E-1,2.2590597E-1,-4.0005565E-2,3.6E1,1.47E2,-1.2291472E-1,1.7192008E-1,-3.5878725E-2,-1.9567782E-1,-1.1422443E-1,2.2947645E-1,-2.0574352E-2,6.65E1,-1.11927316E-1,6.1758656E-2,-2.0183377E-1,-2.509538E-2],"split_indices":[231,1100,3100,1230,3100,2200,3010,320,1,102,220,103,2,110,103,321,22,3100,20,0,0,0,1122,0,222,0,0,12,13,0,22,1320,2,0,0,2110,211,0,0,0,0,0,0,0,0,0,0,0,0,1130,1030,0,0,1302,302,32,33,0,0,0,0,312,2,0,0,0,0,0,0,0,1130,0,0,0,0],"split_type":[0,0,0,0,0,0,0,0,0,0,0,0,0,0,0,0,0,0,0,0,0,0,0,0,0,0,0,0,0,0,0,0,0,0,0,0,0,0,0,0,0,0,0,0,0,0,0,0,0,0,0,0,0,0,0,0,0,0,0,0,0,0,0,0,0,0,0,0,0,0,0,0,0,0,0],"sum_hessian":[6.248224E2,3.9336777E2,2.314546E2,3.287355E2,6.463227E1,2.9102493E1,2.0235211E2,5.3529953E1,2.7520554E2,2.4614985E1,4.001729E1,1.2731059E1,1.6371433E1,1.9266792E2,9.684197E0,3.0378532E1,2.3151419E1,2.7198007E2,3.225479E0,2.2859201E1,1.755784E0,1.4228417E0,3.8594448E1,9.603162E0,3.1278975E0,1.5097391E1,1.2740432E0,3.5041053E0,1.8916382E2,2.2007213E0,7.4834757E0,2.2463297E1,7.9152355E0,2.1997911E1,1.1535068E0,2.4432884E2,2.7651228E1,1.3923001E0,1.8331788E0,3.6330044E1,2.2644029E0,1.2807813E0,1.8471162E0,1.3471162E0,2.156989E0,1.4128555E0,1.8775096E2,6.1981363E0,1.2853394E0,4.497171E0,1.7966125E1,1.1569047E0,6.758331E0,2.4136032E2,2.9685133E0,2.1091164E1,6.560064E0,3.139592E0,1.357579E0,1.6779179E1,1.1869467E0,2.3886281E2,2.4975178E0,1.5397539E0,1.4287593E0,1.1569047E0,1.993426E1,1.2049909E0,5.355073E0,1.2345215E0,2.3762828E2,1.1879423E0,1.3095754E0,2.3641287E2,1.2154052E0],"tree_param":{"num_deleted":"0","num_feature":"3333","num_nodes":"75","size_leaf_vector":"0"}},{"base_weights":[7.325133E-2,3.8266918E-1,-4.5586228E-1,5.4800326E-1,7.054568E-2,1.6125117E-1,-5.489216E-1,5.707297E-1,-7.89256E-2,4.8272103E-1,-4.631134E-1,-4.866513E-1,4.6068144E-1,3.1691495E-1,-5.8820397E-1,5.7905173E-1,-2.8895858E-1,-5.017126E-1,4.1176274E-1,-5.5286366E-2,5.543333E-1,-5.817779E-1,4.2249972E-1,-5.876269E-1,1.2680568E-1,5.818684E-1,-3.1585315E-1,5.311422E-1,-1.471078E-1,-5.9905165E-1,8.310637E-3,5.908311E-1,-1.1852895E-2,4.7605905E-1,-4.6917754E-1,5.8177066E-1,-1.9781227E-1,-6.1616296E-1,2.2398253E-1,-1.112154E-3,5.2318436E-1,6.0497606E-1,1.2551577E-1,1.368253E-1,-3.3855832E-1,-6.105488E-1,-4.6702046E-2,4.6841735E-1,-3.8539007E-1,5.940733E-1,2.383488E-3,4.671285E-1,-4.728373E-1,-1.3819979E-1,-5.1922256E-1,6.1209685E-1,1.5166874E-1,6.985743E-3,-6.4421475E-1,-1.3504995E-1,-6.1375463E-1,-4.6879557E-1,4.1625074E-1,6.0550874E-1,3.5662025E-1,-3.7086132E-1,4.5368886E-1,-1.4801161E-1,-6.5357745E-1,8.155829E-2,6.090182E-1,5.5280256E-1,-2.9103664E-1,-6.6458726E-1,-1.7171724E-1,1.4714952E-1,6.115432E-1,-3.6242744E-1,-6.284473E-2,6.16679E-1,3.5961816E-1],"categories":[],"categories_nodes":[],"categories_segments":[],"categories_sizes":[],"default_left":[1,1,1,1,1,1,1,1,0,1,1,1,0,0,1,1,0,0,0,1,1,1,1,0,0,1,0,0,1,1,1,1,1,0,1,1,0,1,0,0,0,0,0,0,0,1,1,0,0,1,0,0,0,0,0,0,1,0,1,0,0,0,0,0,1,0,0,0,0,0,1,0,1,0,0,0,1,0,0,0,0],"id":6,"left_children":[1,3,5,7,9,11,13,15,17,19,21,23,25,27,29,31,-1,-1,-1,33,35,37,39,-1,-1,41,-1,-1,43,45,47,49,51,-1,53,55,-1,57,-1,-1,-1,-1,-1,-1,-1,59,61,-1,-1,63,-1,-1,-1,-1,-1,-1,65,-1,67,-1,-1,-1,-1,69,71,-1,-1,-1,73,-1,75,-1,77,-1,-1,-1,79,-1,-1,-1,-1],"loss_changes":[8.3617325E1,1.6585773E1,1.0915268E1,3.04348E0,2.5013584E1,5.1667805E0,5.7660904E0,1.6211395E0,1.9161263E0,2.4994545E0,5.460778E0,6.0345626E-1,1.87186E0,8.50489E-1,1.0227127E0,1.4101868E0,0E0,0E0,0E0,2.0787308E0,1.283989E0,1.3620882E0,2.7537382E-1,0E0,0E0,9.1402054E-2,0E0,0E0,2.2229359E-1,9.525337E-1,8.6803776E-1,3.757248E-1,1.307321E0,0E0,1.5139103E-2,6.2327003E-1,0E0,7.498512E-1,0E0,0E0,0E0,0E0,0E0,0E0,0E0,1.4767456E-1,1.0222781E0,0E0,0E0,3.1786346E-1,0E0,0E0,0E0,0E0,0E0,0E0,9.487328E-1,0E0,9.287262E-2,0E0,0E0,0E0,0E0,2.925644E-1,1.6176326E0,0E0,0E0,0E0,9.6838E-2,0E0,1.254425E-1,0E0,3.1318724E-2,0E0,0E0,0E0,1.5525818E-2,0E0,0E0,0E0,0E0],"parents":[2147483647,0,0,1,1,2,2,3,3,4,4,5,5,6,6,7,7,8,8,9,9,10,10,11,11,12,12,13,13,14,14,15,15,19,19,20,20,21,21,22,22,25,25,28,28,29,29,30,30,31,31,32,32,34,34,35,35,37,37,45,45,46,46,49,49,56,56,58,58,63,63,64,64,68,68,70,70,72,72,76,76],"right_children":[2,4,6,8,10,12,14,16,18,20,22,24,26,28,30,32,-1,-1,-1,34,36,38,40,-1,-1,42,-1,-1,44,46,48,50,52,-1,54,56,-1,58,-1,-1,-1,-1,-1,-1,-1,60,62,-1,-1,64,-1,-1,-1,-1,-1,-1,66,-1,68,-1,-1,-1,-1,70,72,-1,-1,-1,74,-1,76,-1,78,-1,-1,-1,80,-1,-1,-1,-1],"split_conditions":[5.15E1,1.445E2,1.345E2,1.215E2,8.75E1,9.15E1,7.75E1,8.85E1,1.7E1,4.1E1,9.4E1,2.56E2,6.3E1,4.7E1,1.53E2,1.695E2,-8.668758E-2,-1.505138E-1,1.2352883E-1,6.3E1,8.2E1,8.85E1,2.385E2,-1.7628807E-1,3.8041703E-2,1.415E2,-9.475595E-2,1.5934266E-1,1.105E2,9.2E1,1.035E2,1.015E2,1.36E2,1.4281772E-1,1.195E2,7.45E1,-5.9343684E-2,5.2E1,6.719476E-2,-3.336462E-4,1.5695532E-1,1.8149282E-1,3.7654735E-2,4.1047588E-2,-1.015675E-1,1.355E2,5.2E1,1.405252E-1,-1.1561703E-1,1.105E2,7.150464E-4,1.4013855E-1,-1.418512E-1,-4.145994E-2,-1.5576677E-1,1.8362907E-1,6.75E1,2.095723E-3,4.45E1,-4.0514987E-2,-1.8412639E-1,-1.4063868E-1,1.24875225E-1,3E0,6.45E1,-1.112584E-1,1.3610667E-1,-4.4403486E-2,2.95E1,2.4467487E-2,5.15E1,1.6584077E-1,1.48E2,-1.9937618E-1,-5.1515173E-2,4.4144858E-2,1.945E2,-1.0872824E-1,-1.885342E-2,1.8500371E-1,1.0788545E-1],"split_indices":[231,3100,3100,1100,1100,1331,1100,1102,1122,1032,3010,3,1302,1302,32,1,0,0,0,220,2130,312,3,0,0,100,0,0,13,3010,13,1330,20,0,23,202,0,1020,0,0,0,0,0,0,0,3100,12,0,0,1100,0,0,0,0,0,0,311,0,311,0,0,0,0,1122,2010,0,0,0,1112,0,1030,0,1,0,0,0,200,0,0,0,0],"split_type":[0,0,0,0,0,0,0,0,0,0,0,0,0,0,0,0,0,0,0,0,0,0,0,0,0,0,0,0,0,0,0,0,0,0,0,0,0,0,0,0,0,0,0,0,0,0,0,0,0,0,0,0,0,0,0,0,0,0,0,0,0,0,0,0,0,0,0,0,0,0,0,0,0,0,0,0,0,0,0,0,0],"sum_hessian":[5.086769E2,3.2114993E2,1.8752698E2,2.0944806E2,1.11701866E2,2.4477055E1,1.6304993E2,2.022076E2,7.240466E0,6.3078327E1,4.862354E1,7.5390086E0,1.6938046E1,6.7696676E0,1.5628026E2,2.0059224E2,1.6153522E0,3.8772674E0,3.363199E0,7.43662E0,5.5641705E1,4.318077E1,5.442768E0,6.5096245E0,1.0293841E0,1.4868357E1,2.0696886E0,4.532489E0,2.2371788E0,1.5348486E2,2.7953954E0,1.9667181E2,3.9204288E0,3.1905065E0,4.2461133E0,5.3901947E1,1.7397584E0,4.163916E1,1.5416098E0,1.2351326E0,4.207636E0,1.3841792E1,1.0265645E0,1.0158833E0,1.2212955E0,1.50252E2,3.2328653E0,1.2014799E0,1.5939155E0,1.9558463E2,1.0871859E0,1.9161468E0,2.004282E0,1.0517523E0,3.1943612E0,4.9956413E1,3.9455323E0,1.8260432E0,3.9813118E1,1.2950239E0,1.4895697E2,1.6844556E0,1.5484097E0,1.8511949E2,1.0465135E1,1.3616987E0,2.5838337E0,1.0485903E0,3.8764526E1,1.3929696E0,1.8372653E2,8.1445265E0,2.3206081E0,3.7527855E1,1.2366698E0,1.3212624E0,1.8240526E2,1.3195301E0,1.0010781E0,1.7734206E2,5.063215E0],"tree_param":{"num_deleted":"0","num_feature":"3333","num_nodes":"81","size_leaf_vector":"0"}},{"base_weights":[-7.325132E-2,-3.8266918E-1,4.5586222E-1,-5.4800326E-1,-7.0545666E-2,-1.6125116E-1,5.489215E-1,-5.707297E-1,7.892556E-2,-4.8272103E-1,4.6311343E-1,4.8665136E-1,-4.6068147E-1,-3.16915E-1,5.882039E-1,-5.7905173E-1,2.889586E-1,5.017126E-1,-4.1176274E-1,5.5286366E-2,-5.543333E-1,5.817779E-1,-4.2249972E-1,5.8762693E-1,-1.2680565E-1,-5.8186847E-1,3.1585318E-1,-5.311422E-1,1.4710778E-1,5.990516E-1,-8.310641E-3,-5.908311E-1,1.1852874E-2,-4.7605905E-1,4.691775E-1,-5.8177066E-1,1.9781226E-1,6.1616296E-1,-2.2398251E-1,1.1121541E-3,-5.2318436E-1,-6.049762E-1,-1.2551576E-1,-1.368253E-1,3.385583E-1,6.1054873E-1,4.6702057E-2,-4.6841735E-1,3.8539004E-1,-5.940733E-1,-2.3834237E-3,-4.6712852E-1,4.728373E-1,1.3819975E-1,5.1922256E-1,-6.1209685E-1,-1.5166873E-1,-6.985754E-3,6.4421475E-1,1.3504997E-1,6.137546E-1,4.6879557E-1,-4.1625074E-1,-6.0550874E-1,-3.5662028E-1,3.7086132E-1,-4.5368886E-1,1.4801162E-1,6.5357745E-1,-8.1558265E-2,-6.090182E-1,-5.5280256E-1,2.910366E-1,6.6458726E-1,1.7171724E-1,-1.471495E-1,-6.1154324E-1,3.6242744E-1,6.284472E-2,-6.16679E-1,-3.5961813E-1],"categories":[],"categories_nodes":[],"categories_segments":[],"categories_sizes":[],"default_left":[1,1,1,1,1,1,1,1,0,1,1,1,0,0,1,1,0,0,0,1,1,1,1,0,0,1,0,0,1,1,1,1,1,0,1,1,0,1,0,0,0,0,0,0,0,1,1,0,0,1,0,0,0,0,0,0,1,0,1,0,0,0,0,0,1,0,0,0,0,0,1,0,1,0,0,0,1,0,0,0,0],"id":7,"left_children":[1,3,5,7,9,11,13,15,17,19,21,23,25,27,29,31,-1,-1,-1,33,35,37,39,-1,-1,41,-1,-1,43,45,47,49,51,-1,53,55,-1,57,-1,-1,-1,-1,-1,-1,-1,59,61,-1,-1,63,-1,-1,-1,-1,-1,-1,65,-1,67,-1,-1,-1,-1,69,71,-1,-1,-1,73,-1,75,-1,77,-1,-1,-1,79,-1,-1,-1,-1],"loss_changes":[8.361731E1,1.6585773E1,1.0915268E1,3.043476E0,2.501358E1,5.1667824E0,5.7660904E0,1.6211395E0,1.916126E0,2.4994526E0,5.4607773E0,6.0345626E-1,1.8718607E0,8.50489E-1,1.0227127E0,1.4101868E0,0E0,0E0,0E0,2.0787306E0,1.2839909E0,1.3620882E0,2.7537358E-1,0E0,0E0,9.1402054E-2,0E0,0E0,2.2229354E-1,9.525337E-1,8.680377E-1,3.757248E-1,1.307321E0,0E0,1.5139103E-2,6.232681E-1,0E0,7.498512E-1,0E0,0E0,0E0,0E0,0E0,0E0,0E0,1.4767456E-1,1.0222781E0,0E0,0E0,3.1786346E-1,0E0,0E0,0E0,0E0,0E0,0E0,9.4873285E-1,0E0,9.287262E-2,0E0,0E0,0E0,0E0,2.925644E-1,1.6176323E0,0E0,0E0,0E0,9.6838E-2,0E0,1.254425E-1,0E0,3.1318724E-2,0E0,0E0,0E0,1.5525818E-2,0E0,0E0,0E0,0E0],"parents":[2147483647,0,0,1,1,2,2,3,3,4,4,5,5,6,6,7,7,8,8,9,9,10,10,11,11,12,12,13,13,14,14,15,15,19,19,20,20,21,21,22,22,25,25,28,28,29,29,30,30,31,31,32,32,34,34,35,35,37,37,45,45,46,46,49,49,56,56,58,58,63,63,64,64,68,68,70,70,72,72,76,76],"right_children":[2,4,6,8,10,12,14,16,18,20,22,24,26,28,30,32,-1,-1,-1,34,36,38,40,-1,-1,42,-1,-1,44,46,48,50,52,-1,54,56,-1,58,-1,-1,-1,-1,-1,-1,-1,60,62,-1,-1,64,-1,-1,-1,-1,-1,-1,66,-1,68,-1,-1,-1,-1,70,72,-1,-1,-1,74,-1,76,-1,78,-1,-1,-1,80,-1,-1,-1,-1],"split_conditions":[5.15E1,1.445E2,1.345E2,1.215E2,8.75E1,9.15E1,7.75E1,8.85E1,1.7E1,4.1E1,9.4E1,2.56E2,6.3E1,4.7E1,1.53E2,1.695E2,8.668759E-2,1.505138E-1,-1.2352883E-1,6.3E1,8.2E1,8.85E1,2.385E2,1.7628808E-1,-3.8041696E-2,1.415E2,9.4755955E-2,-1.5934266E-1,1.105E2,9.2E1,1.035E2,1.015E2,1.36E2,-1.4281772E-1,1.195E2,7.45E1,5.934368E-2,5.2E1,-6.719476E-2,3.3364625E-4,-1.5695532E-1,-1.8149287E-1,-3.7654728E-2,-4.1047588E-2,1.0156749E-1,1.355E2,5.2E1,-1.405252E-1,1.15617014E-1,1.105E2,-7.1502716E-4,-1.4013857E-1,1.418512E-1,4.1459925E-2,1.5576677E-1,-1.8362907E-1,6.75E1,-2.0957263E-3,4.45E1,4.051499E-2,1.8412638E-1,1.4063868E-1,-1.24875225E-1,3E0,6.45E1,1.112584E-1,-1.3610667E-1,4.440349E-2,2.95E1,-2.4467481E-2,5.15E1,-1.6584077E-1,1.48E2,1.9937618E-1,5.1515173E-2,-4.4144854E-2,1.945E2,1.0872824E-1,1.8853419E-2,-1.8500371E-1,-1.0788544E-1],"split_indices":[231,3100,3100,1100,1100,1331,1100,1102,1122,1032,3010,3,1302,1302,32,1,0,0,0,220,2130,312,3,0,0,100,0,0,13,3010,13,1330,20,0,23,202,0,1020,0,0,0,0,0,0,0,3100,12,0,0,1100,0,0,0,0,0,0,311,0,311,0,0,0,0,1122,2010,0,0,0,1112,0,1030,0,1,0,0,0,200,0,0,0,0],"split_type":[0,0,0,0,0,0,0,0,0,0,0,0,0,0,0,0,0,0,0,0,0,0,0,0,0,0,0,0,0,0,0,0,0,0,0,0,0,0,0,0,0,0,0,0,0,0,0,0,0,0,0,0,0,0,0,0,0,0,0,0,0,0,0,0,0,0,0,0,0,0,0,0,0,0,0,0,0,0,0,0,0],"sum_hessian":[5.0867688E2,3.2114987E2,1.8752698E2,2.0944803E2,1.1170185E2,2.4477055E1,1.6304993E2,2.0220757E2,7.2404656E0,6.307832E1,4.862353E1,7.5390096E0,1.6938046E1,6.7696676E0,1.5628026E2,2.0059221E2,1.615352E0,3.8772666E0,3.363199E0,7.4366198E0,5.5641697E1,4.3180763E1,5.442767E0,6.5096254E0,1.0293843E0,1.4868357E1,2.0696888E0,4.532489E0,2.2371788E0,1.5348486E2,2.7953954E0,1.9667178E2,3.9204285E0,3.1905062E0,4.2461133E0,5.390194E1,1.7397583E0,4.1639156E1,1.5416095E0,1.2351323E0,4.207635E0,1.3841792E1,1.0265645E0,1.0158833E0,1.2212955E0,1.50252E2,3.2328656E0,1.2014798E0,1.5939155E0,1.955846E2,1.0871859E0,1.9161468E0,2.004282E0,1.0517523E0,3.194361E0,4.995641E1,3.945532E0,1.8260431E0,3.981311E1,1.2950238E0,1.4895697E2,1.6844558E0,1.5484098E0,1.8511946E2,1.0465136E1,1.3616986E0,2.5838332E0,1.0485902E0,3.8764523E1,1.3929694E0,1.837265E2,8.144527E0,2.320608E0,3.752785E1,1.2366695E0,1.3212622E0,1.8240523E2,1.3195299E0,1.001078E0,1.7734203E2,5.063214E0],"tree_param":{"num_deleted":"0","num_feature":"3333","num_nodes":"81","size_leaf_vector":"0"}},{"base_weights":[6.7369826E-2,3.50119E-1,-4.2058995E-1,4.5004314E-1,-9.2080705E-2,5.144453E-2,-5.2948534E-1,1.2850885E-1,5.143103E-1,4.699002E-1,-4.5735195E-1,-3.7089694E-1,5.127654E-1,-5.678051E-1,3.0491856E-1,-1.7572813E-1,5.243525E-1,-1.866775E-1,5.2390116E-1,5.537922E-1,-3.7189618E-1,-5.27309E-1,2.7358887E-1,-5.575229E-1,2.4695063E-1,-1.1532323E-1,5.730708E-1,-1.1018663E-1,-5.775894E-1,4.8533702E-1,-2.9543528E-1,-4.032378E-1,4.414098E-1,5.5188817E-1,7.88231E-2,7.0358865E-2,-3.5481894E-1,5.4132843E-1,1.8066844E-1,-5.775185E-1,1.8891014E-1,3.672948E-1,4.6675853E-2,4.5072204E-1,-1.5258287E-1,3.2571065E-1,-4.014634E-1,7.015088E-2,-5.791519E-1,4.8801652E-1,1.1113283E-1,5.486138E-1,-1.8260857E-1,-2.8633675E-1,4.3544224E-1,4.3436947E-1,-4.27825E-1,-6.056147E-1,-1.5813951E-1,5.5523884E-1,-2.2922927E-1,1.06353514E-1,-4.6007076E-1,5.4030757E-2,4.9252707E-1,5.6191766E-1,-1.2032447E-2,5.6654227E-1,-7.6253876E-2,5.719322E-1,-1.4134731E-2],"categories":[],"categories_nodes":[],"categories_segments":[],"categories_sizes":[],"default_left":[1,1,1,1,1,1,1,1,1,1,1,1,0,1,1,1,1,1,1,0,0,1,1,0,1,0,0,1,0,0,0,1,1,0,0,0,0,1,0,0,0,0,0,0,0,0,0,1,1,0,0,1,0,1,1,0,0,0,0,1,0,0,0,0,0,1,0,1,0,0,0],"id":8,"left_children":[1,3,5,7,9,11,13,15,17,19,21,23,25,27,29,31,33,35,37,-1,-1,39,41,-1,43,-1,-1,45,-1,-1,-1,47,49,-1,-1,-1,-1,51,53,-1,-1,-1,-1,-1,-1,-1,-1,55,57,-1,-1,59,-1,61,63,-1,-1,-1,-1,65,-1,-1,-1,-1,-1,67,-1,69,-1,-1,-1],"loss_changes":[5.6447166E1,1.1481312E1,7.7457294E0,4.3012543E0,1.01811495E1,5.8518176E0,4.0771637E0,4.492656E0,1.2797852E0,1.5914245E0,1.6748166E0,1.9538124E0,6.080394E-1,4.6061707E-1,7.9455227E-1,3.1840048E0,1.5438366E-1,1.5938434E-1,9.4120026E-1,0E0,0E0,1.1037436E0,5.2448094E-2,0E0,4.226695E-1,0E0,0E0,5.988594E-1,0E0,0E0,0E0,1.3868165E0,4.1882753E-2,0E0,0E0,0E0,0E0,9.6938324E-1,1.3018997E0,0E0,0E0,0E0,0E0,0E0,0E0,0E0,0E0,1.1419591E0,3.6738634E-2,0E0,0E0,9.6939087E-1,0E0,3.2835665E-1,1.21409535E-1,0E0,0E0,0E0,0E0,6.217613E-1,0E0,0E0,0E0,0E0,0E0,5.1675415E-1,0E0,5.0704575E-1,0E0,0E0,0E0],"parents":[2147483647,0,0,1,1,2,2,3,3,4,4,5,5,6,6,7,7,8,8,9,9,10,10,11,11,12,12,13,13,14,14,15,15,16,16,17,17,18,18,21,21,22,22,24,24,27,27,31,31,32,32,37,37,38,38,47,47,48,48,51,51,53,53,54,54,59,59,65,65,67,67],"right_children":[2,4,6,8,10,12,14,16,18,20,22,24,26,28,30,32,34,36,38,-1,-1,40,42,-1,44,-1,-1,46,-1,-1,-1,48,50,-1,-1,-1,-1,52,54,-1,-1,-1,-1,-1,-1,-1,-1,56,58,-1,-1,60,-1,62,64,-1,-1,-1,-1,66,-1,-1,-1,-1,-1,68,-1,70,-1,-1,-1],"split_conditions":[5.15E1,1.055E2,1.425E2,3.95E1,1.295E2,9.35E1,9.75E1,1.405E2,6E1,7.55E1,4.75E1,1.02E2,1.3E1,6.35E1,9.85E1,7.05E1,7E1,2.655E2,7.95E1,1.6613767E-1,-1.1156886E-1,1.37E2,1.535E2,-1.6725688E-1,5.45E1,-3.4596972E-2,1.7192125E-1,6.5E1,-1.7327683E-1,1.4560111E-1,-8.863059E-2,4.45E1,7.05E1,1.6556646E-1,2.364693E-2,2.110766E-2,-1.06445685E-1,1.575E2,9E0,-1.7325556E-1,5.6673046E-2,1.1018844E-1,1.4002756E-2,1.3521662E-1,-4.5774862E-2,9.77132E-2,-1.2043902E-1,1.185E2,6.35E1,1.4640497E-1,3.333985E-2,7.15E1,-5.4782573E-2,6.2E1,1.33E2,1.3031085E-1,-1.283475E-1,-1.8168442E-1,-4.7441855E-2,1.725E2,-6.8768784E-2,3.1906057E-2,-1.3802123E-1,1.6209228E-2,1.4775813E-1,1.04E2,-3.6097344E-3,2.025E2,-2.2876164E-2,1.7157966E-1,-4.2404197E-3],"split_indices":[231,1100,3100,1230,3100,2200,103,320,1031,102,1220,3030,1122,110,210,321,11,3,2130,0,0,3030,2,0,1130,0,0,130,0,0,0,2310,11,0,0,0,0,31,1122,0,0,0,0,0,0,0,0,13,232,0,0,1110,0,11,2,0,0,0,0,1,0,0,0,0,0,1330,0,3100,0,0,0],"split_type":[0,0,0,0,0,0,0,0,0,0,0,0,0,0,0,0,0,0,0,0,0,0,0,0,0,0,0,0,0,0,0,0,0,0,0,0,0,0,0,0,0,0,0,0,0,0,0,0,0,0,0,0,0,0,0,0,0,0,0,0,0,0,0,0,0,0,0,0,0,0,0],"sum_hessian":[4.0705838E2,2.5790018E2,1.4915822E2,2.103496E2,4.7550568E1,2.805862E1,1.210996E2,3.5539917E1,1.7480968E2,1.8618696E1,2.8931871E1,1.4750488E1,1.3308132E1,1.16087814E2,5.0117908E0,2.0409601E1,1.5130316E1,2.110238E0,1.7269945E2,1.7242472E1,1.376224E0,2.6658976E1,2.2728958E0,1.140358E1,3.3469079E0,1.085911E0,1.2222221E1,2.6867802E0,1.1340103E2,4.0009933E0,1.0107976E0,1.5165424E1,5.244177E0,1.4024798E1,1.1055176E0,1.0644982E0,1.0457399E0,1.6380527E2,8.894183E0,2.509349E1,1.5654854E0,1.1707602E0,1.1021357E0,2.131614E0,1.2152939E0,1.0288634E0,1.6579168E0,4.2716217E0,1.0893803E1,4.177128E0,1.0670493E0,1.62413E2,1.3922591E0,3.0957425E0,5.7984405E0,2.5409243E0,1.7306972E0,9.837024E0,1.0567784E0,1.6132513E2,1.0878603E0,1.0684857E0,2.0272567E0,1.0082606E0,4.7901797E0,1.594572E2,1.8679483E0,1.5842142E2,1.0357744E0,1.5697937E2,1.4420532E0],"tree_param":{"num_deleted":"0","num_feature":"3333","num_nodes":"71","size_leaf_vector":"0"}},{"base_weights":[-6.736985E-2,-3.5011896E-1,4.205899E-1,-4.500431E-1,9.208074E-2,-5.144454E-2,5.294853E-1,-1.285088E-1,-5.143103E-1,-4.6990022E-1,4.5735198E-1,3.7089694E-1,-5.127654E-1,5.6780505E-1,-3.049186E-1,1.7572816E-1,-5.243525E-1,1.8667752E-1,-5.2390116E-1,-5.537922E-1,3.7189618E-1,5.2730906E-1,-2.7358884E-1,5.575229E-1,-2.4695064E-1,1.15323216E-1,-5.7307076E-1,1.1018665E-1,5.7758933E-1,-4.8533702E-1,2.9543525E-1,4.0323782E-1,-4.4140977E-1,-5.5188817E-1,-7.882311E-2,-7.035888E-2,3.5481897E-1,-5.4132843E-1,-1.8066844E-1,5.775185E-1,-1.889101E-1,-3.672948E-1,-4.667581E-2,-4.507221E-1,1.5258288E-1,-3.2571062E-1,4.014634E-1,-7.01509E-2,5.79152E-1,-4.8801652E-1,-1.111328E-1,-5.486138E-1,1.8260857E-1,2.8633672E-1,-4.3544224E-1,-4.3436947E-1,4.2782497E-1,6.056147E-1,1.5813951E-1,-5.5523884E-1,2.2922926E-1,-1.06353536E-1,4.6007076E-1,-5.4030728E-2,-4.9252707E-1,-5.6191766E-1,1.2032437E-2,-5.6654227E-1,7.6253854E-2,-5.719322E-1,1.4134712E-2],"categories":[],"categories_nodes":[],"categories_segments":[],"categories_sizes":[],"default_left":[1,1,1,1,1,1,1,1,1,1,1,1,0,1,1,1,1,1,1,0,0,1,1,0,1,0,0,1,0,0,0,1,1,0,0,0,0,1,0,0,0,0,0,0,0,0,0,1,1,0,0,1,0,1,1,0,0,0,0,1,0,0,0,0,0,1,0,1,0,0,0],"id":9,"left_children":[1,3,5,7,9,11,13,15,17,19,21,23,25,27,29,31,33,35,37,-1,-1,39,41,-1,43,-1,-1,45,-1,-1,-1,47,49,-1,-1,-1,-1,51,53,-1,-1,-1,-1,-1,-1,-1,-1,55,57,-1,-1,59,-1,61,63,-1,-1,-1,-1,65,-1,-1,-1,-1,-1,67,-1,69,-1,-1,-1],"loss_changes":[5.644714E1,1.14813175E1,7.7457256E0,4.301258E0,1.0181152E1,5.851817E0,4.0771637E0,4.4926558E0,1.2797813E0,1.5914245E0,1.6748166E0,1.9538126E0,6.080394E-1,4.6061707E-1,7.9455215E-1,3.1840048E0,1.5438414E-1,1.593844E-1,9.412041E-1,0E0,0E0,1.103744E0,5.2448153E-2,0E0,4.2266956E-1,0E0,0E0,5.988594E-1,0E0,0E0,0E0,1.3868163E0,4.1882873E-2,0E0,0E0,0E0,0E0,9.6938324E-1,1.3018997E0,0E0,0E0,0E0,0E0,0E0,0E0,0E0,0E0,1.141959E0,3.6738873E-2,0E0,0E0,9.6938705E-1,0E0,3.283567E-1,1.21409535E-1,0E0,0E0,0E0,0E0,6.2176514E-1,0E0,0E0,0E0,0E0,0E0,5.1675415E-1,0E0,5.0704193E-1,0E0,0E0,0E0],"parents":[2147483647,0,0,1,1,2,2,3,3,4,4,5,5,6,6,7,7,8,8,9,9,10,10,11,11,12,12,13,13,14,14,15,15,16,16,17,17,18,18,21,21,22,22,24,24,27,27,31,31,32,32,37,37,38,38,47,47,48,48,51,51,53,53,54,54,59,59,65,65,67,67],"right_children":[2,4,6,8,10,12,14,16,18,20,22,24,26,28,30,32,34,36,38,-1,-1,40,42,-1,44,-1,-1,46,-1,-1,-1,48,50,-1,-1,-1,-1,52,54,-1,-1,-1,-1,-1,-1,-1,-1,56,58,-1,-1,60,-1,62,64,-1,-1,-1,-1,66,-1,-1,-1,-1,-1,68,-1,70,-1,-1,-1],"split_conditions":[5.15E1,1.055E2,1.425E2,3.95E1,1.295E2,9.35E1,9.75E1,1.405E2,6E1,7.55E1,4.75E1,1.02E2,1.3E1,6.35E1,9.85E1,7.05E1,7E1,2.655E2,7.95E1,-1.6613767E-1,1.1156886E-1,1.37E2,1.535E2,1.6725688E-1,5.45E1,3.4596965E-2,-1.7192124E-1,6.5E1,1.7327681E-1,-1.4560111E-1,8.863058E-2,4.45E1,7.05E1,-1.6556646E-1,-2.3646934E-2,-2.1107664E-2,1.0644569E-1,1.575E2,9E0,1.7325556E-1,-5.667303E-2,-1.1018844E-1,-1.4002743E-2,-1.3521664E-1,4.5774866E-2,-9.7713195E-2,1.2043902E-1,1.185E2,6.35E1,-1.4640497E-1,-3.3339843E-2,7.15E1,5.4782573E-2,6.2E1,1.33E2,-1.3031085E-1,1.283475E-1,1.8168442E-1,4.7441855E-2,1.725E2,6.876878E-2,-3.190606E-2,1.3802123E-1,-1.6209219E-2,-1.4775813E-1,1.04E2,3.6097313E-3,2.025E2,2.2876156E-2,-1.7157966E-1,4.2404137E-3],"split_indices":[231,1100,3100,1230,3100,2200,103,320,1031,102,1220,3030,1122,110,210,321,11,3,2130,0,0,3030,2,0,1130,0,0,130,0,0,0,2310,11,0,0,0,0,31,1122,0,0,0,0,0,0,0,0,13,232,0,0,1110,0,11,2,0,0,0,0,1,0,0,0,0,0,1330,0,3100,0,0,0],"split_type":[0,0,0,0,0,0,0,0,0,0,0,0,0,0,0,0,0,0,0,0,0,0,0,0,0,0,0,0,0,0,0,0,0,0,0,0,0,0,0,0,0,0,0,0,0,0,0,0,0,0,0,0,0,0,0,0,0,0,0,0,0,0,0,0,0,0,0,0,0,0,0],"sum_hessian":[4.0705835E2,2.5790015E2,1.491582E2,2.1034958E2,4.7550575E1,2.805862E1,1.2109958E2,3.5539917E1,1.7480966E2,1.8618698E1,2.8931877E1,1.4750487E1,1.3308132E1,1.1608778E2,5.0117903E0,2.0409601E1,1.5130315E1,2.1102383E0,1.7269943E2,1.7242474E1,1.3762238E0,2.6658981E1,2.2728958E0,1.140358E1,3.346908E0,1.0859108E0,1.2222221E1,2.6867805E0,1.1340101E2,4.000993E0,1.0107975E0,1.5165424E1,5.244177E0,1.4024797E1,1.1055176E0,1.0644983E0,1.0457399E0,1.6380524E2,8.894183E0,2.5093496E1,1.5654855E0,1.17076E0,1.1021358E0,2.1316142E0,1.2152939E0,1.0288634E0,1.657917E0,4.2716217E0,1.0893803E1,4.1771274E0,1.0670493E0,1.6241298E2,1.392259E0,3.0957425E0,5.7984405E0,2.5409243E0,1.7306972E0,9.837025E0,1.0567783E0,1.6132512E2,1.0878603E0,1.0684859E0,2.0272565E0,1.0082606E0,4.7901797E0,1.5945717E2,1.8679483E0,1.584214E2,1.0357744E0,1.5697935E2,1.4420533E0],"tree_param":{"num_deleted":"0","num_feature":"3333","num_nodes":"71","size_leaf_vector":"0"}},{"base_weights":[6.27409E-2,3.2392457E-1,-3.9575118E-1,4.7562146E-1,4.8605595E-2,1.3004714E-1,-4.8622468E-1,4.9748525E-1,-6.206825E-2,4.1523892E-1,-3.9852002E-1,-3.1951332E-1,3.1113E-1,-7.660065E-2,-5.4560417E-1,5.0746804E-1,-2.142681E-1,-4.228096E-1,3.5162687E-1,5.1603615E-1,5.340362E-2,-4.9664125E-1,4.009628E-1,-4.493788E-1,1.1232855E-1,4.435139E-1,-2.9154727E-2,-4.3669367E-1,3.6595798E-1,-1.20143965E-1,-5.4916704E-1,5.209198E-1,-1.602765E-2,5.318241E-1,1.2055555E-2,-3.1912252E-1,4.5559755E-1,5.032154E-2,-5.4278916E-1,5.1282007E-1,1.3346019E-3,-3.1638867E-1,3.688251E-1,-4.4929553E-3,-5.0040215E-1,-1.2793219E-1,5.0662154E-1,-1.5662438E-1,-5.5358464E-1,3.5994747E-1,5.471631E-1,3.949454E-1,-4.008519E-1,5.457407E-1,7.4267924E-2,-4.7238082E-1,1.8399948E-1,3.064723E-1,-2.075898E-1,-5.674763E-1,9.119139E-3,-2.251262E-1,5.264699E-1,5.5724585E-1,3.410013E-1,-1.4086674E-1,-5.783786E-1,-6.271005E-1,3.5743383E-1,4.769153E-1,-2.1060215E-1,-5.8930486E-1,-1.5927616E-1],"categories":[],"categories_nodes":[],"categories_segments":[],"categories_sizes":[],"default_left":[1,1,1,1,1,1,1,1,1,0,1,1,1,1,1,1,0,0,0,0,1,1,0,0,0,1,0,1,1,0,1,1,1,1,0,1,0,1,1,0,0,0,0,0,0,0,0,0,0,1,1,0,0,0,0,0,0,0,0,1,0,1,0,0,1,0,1,0,0,0,0,0,0],"id":10,"left_children":[1,3,5,7,9,11,13,15,17,19,21,23,25,27,29,31,-1,-1,-1,33,35,37,-1,-1,-1,39,41,43,45,-1,47,49,51,53,-1,55,-1,57,59,-1,-1,-1,-1,-1,-1,-1,-1,-1,-1,61,63,-1,-1,-1,-1,-1,-1,-1,-1,65,-1,67,-1,-1,69,-1,71,-1,-1,-1,-1,-1,-1],"loss_changes":[3.877965E1,8.587925E0,5.656986E0,1.5923004E0,1.2355143E1,1.5689654E0,2.403574E0,1.0163708E0,1.0558571E0,1.4804311E0,2.8672423E0,3.6883754E-1,6.154531E-1,2.3736691E0,6.687546E-2,8.9753723E-1,0E0,0E0,0E0,2.4997711E-1,1.6622335E0,8.032441E-1,0E0,0E0,0E0,2.9629385E-1,6.5217835E-1,2.2121263E-1,5.355865E-1,0E0,6.352997E-2,3.2323837E-1,8.1204116E-1,1.5827084E-1,0E0,5.3752553E-1,0E0,2.8209344E-1,3.925848E-1,0E0,0E0,0E0,0E0,0E0,0E0,0E0,0E0,0E0,0E0,2.084976E0,2.6063919E-2,0E0,0E0,0E0,0E0,0E0,0E0,0E0,0E0,4.518318E-2,0E0,1.4353744E0,0E0,0E0,6.570144E-1,0E0,2.6257515E-2,0E0,0E0,0E0,0E0,0E0,0E0],"parents":[2147483647,0,0,1,1,2,2,3,3,4,4,5,5,6,6,7,7,8,8,9,9,10,10,11,11,12,12,13,13,14,14,15,15,19,19,20,20,21,21,25,25,26,26,27,27,28,28,30,30,31,31,32,32,33,33,35,35,37,37,38,38,49,49,50,50,59,59,61,61,64,64,66,66],"right_children":[2,4,6,8,10,12,14,16,18,20,22,24,26,28,30,32,-1,-1,-1,34,36,38,-1,-1,-1,40,42,44,46,-1,48,50,52,54,-1,56,-1,58,60,-1,-1,-1,-1,-1,-1,-1,-1,-1,-1,62,64,-1,-1,-1,-1,-1,-1,-1,-1,66,-1,68,-1,-1,70,-1,72,-1,-1,-1,-1,-1,-1],"split_conditions":[5.15E1,1.445E2,8.65E1,1.215E2,8.75E1,4.85E1,6.65E1,8.85E1,3.7E1,4.1E1,1.015E2,1.345E2,7.1E1,4.15E1,1.85E1,1.695E2,-6.4280435E-2,-1.2684289E-1,1.0548807E-1,1.08E2,1.425E2,4.65E1,1.2028884E-1,-1.3481364E-1,3.3698566E-2,8.65E1,4.1E1,8.4E1,7.7E1,-3.604319E-2,1.155E2,7.45E1,1.36E2,1.85E2,3.6166667E-3,6.6E1,1.3667928E-1,6.95E1,4.8E1,1.5384603E-1,4.0038058E-4,-9.4916604E-2,1.1064754E-1,-1.3478866E-3,-1.5012065E-1,-3.8379658E-2,1.5198646E-1,-4.6987314E-2,-1.660754E-1,1.205E2,1.105E2,1.18483625E-1,-1.20255575E-1,1.6372222E-1,2.2280378E-2,-1.4171425E-1,5.5199847E-2,9.194169E-2,-6.2276945E-2,2.65E1,2.735742E-3,7.6E1,1.5794097E-1,1.6717376E-1,4.25E1,-4.2260025E-2,2.25E2,-1.8813017E-1,1.0723015E-1,1.430746E-1,-6.318065E-2,-1.7679146E-1,-4.778285E-2],"split_indices":[231,3100,1100,1100,1100,312,1320,1102,1311,1302,103,32,2130,1220,1301,1,0,0,0,1122,32,2010,0,0,0,110,2121,21,322,0,3100,3110,20,1000,0,1200,0,22,1220,0,0,0,0,0,0,0,0,0,0,320,1100,0,0,0,0,0,0,0,0,1022,0,312,0,0,1022,0,3300,0,0,0,0,0,0],"split_type":[0,0,0,0,0,0,0,0,0,0,0,0,0,0,0,0,0,0,0,0,0,0,0,0,0,0,0,0,0,0,0,0,0,0,0,0,0,0,0,0,0,0,0,0,0,0,0,0,0,0,0,0,0,0,0,0,0,0,0,0,0,0,0,0,0,0,0,0,0,0,0,0,0],"sum_hessian":[3.2176617E2,2.0517825E2,1.1658792E2,1.3181984E2,7.335842E1,1.70518E1,9.9536125E1,1.26741005E2,5.0788293E0,4.034649E1,3.3011932E1,4.676745E0,1.2375055E1,1.2891982E1,8.664414E1,1.2527102E2,1.4699873E0,2.7012835E0,2.3775458E0,3.1222582E1,9.123906E0,2.9740635E1,3.271297E0,3.5642712E0,1.1124735E0,8.690682E0,3.6843731E0,7.1155686E0,5.7764134E0,1.0078855E0,8.563625E1,1.221375E2,3.1335227E0,3.022063E1,1.0019515E0,4.84388E0,4.280026E0,2.3069792E0,2.7433655E1,7.3749876E0,1.3156948E0,2.258999E0,1.4253739E0,1.0516514E0,6.063917E0,1.3005393E0,4.475874E0,1.3586938E0,8.4277565E1,1.9183691E1,1.02953804E2,1.5025615E0,1.6309613E0,2.9141556E1,1.079075E0,3.7597163E0,1.0841637E0,1.0629749E0,1.2440042E0,2.6232073E1,1.2015816E0,4.172335E0,1.5011356E1,9.652989E1,6.423908E0,1.0005677E0,2.5231506E1,2.4235773E0,1.7487578E0,5.262613E0,1.1612954E0,2.4194626E1,1.0368801E0],"tree_param":{"num_deleted":"0","num_feature":"3333","num_nodes":"73","size_leaf_vector":"0"}},{"base_weights":[-6.274096E-2,-3.2392454E-1,3.9575115E-1,-4.7562143E-1,-4.860557E-2,-1.3004717E-1,4.8622465E-1,-4.9748522E-1,6.2068284E-2,-4.1523892E-1,3.9852002E-1,3.195133E-1,-3.1113E-1,7.6600604E-2,5.4560417E-1,-5.0746804E-1,2.1426813E-1,4.2280963E-1,-3.5162687E-1,-5.1603615E-1,-5.3403605E-2,4.9664125E-1,-4.009628E-1,4.4937876E-1,-1.1232859E-1,-4.4351387E-1,2.9154683E-2,4.366936E-1,-3.65958E-1,1.20143846E-1,5.4916704E-1,-5.2091974E-1,1.6027628E-2,-5.3182405E-1,-1.2055592E-2,3.1912252E-1,-4.5559752E-1,-5.0321523E-2,5.4278916E-1,-5.1282007E-1,-1.3345955E-3,3.1638864E-1,-3.688251E-1,4.492825E-3,5.0040215E-1,1.2793218E-1,-5.066215E-1,1.566245E-1,5.535846E-1,-3.599474E-1,-5.471631E-1,-3.9494544E-1,4.008519E-1,-5.457407E-1,-7.4267924E-2,4.7238082E-1,-1.8399942E-1,-3.064723E-1,2.0758983E-1,5.674763E-1,-9.1191325E-3,2.2512619E-1,-5.264698E-1,-5.572458E-1,-3.410012E-1,1.4086679E-1,5.783786E-1,6.271006E-1,-3.5743383E-1,-4.7691524E-1,2.1060221E-1,5.8930486E-1,1.5927617E-1],"categories":[],"categories_nodes":[],"categories_segments":[],"categories_sizes":[],"default_left":[1,1,1,1,1,1,1,1,1,0,1,1,1,1,1,1,0,0,0,0,1,1,0,0,0,1,0,1,1,0,1,1,1,1,0,1,0,1,1,0,0,0,0,0,0,0,0,0,0,1,1,0,0,0,0,0,0,0,0,1,0,1,0,0,1,0,1,0,0,0,0,0,0],"id":11,"left_children":[1,3,5,7,9,11,13,15,17,19,21,23,25,27,29,31,-1,-1,-1,33,35,37,-1,-1,-1,39,41,43,45,-1,47,49,51,53,-1,55,-1,57,59,-1,-1,-1,-1,-1,-1,-1,-1,-1,-1,61,63,-1,-1,-1,-1,-1,-1,-1,-1,65,-1,67,-1,-1,69,-1,71,-1,-1,-1,-1,-1,-1],"loss_changes":[3.8779633E1,8.587925E0,5.6569824E0,1.5923004E0,1.2355143E1,1.5689647E0,2.403572E0,1.0163708E0,1.0558573E0,1.4804306E0,2.8672428E0,3.688376E-1,6.1545277E-1,2.3736687E0,6.687546E-2,8.9753723E-1,0E0,0E0,0E0,2.4997711E-1,1.6622334E0,8.032441E-1,0E0,0E0,0E0,2.9629374E-1,6.5217817E-1,2.2121286E-1,5.355863E-1,0E0,6.352997E-2,3.2323837E-1,8.1204116E-1,1.5827179E-1,0E0,5.375254E-1,0E0,2.8209344E-1,3.9258385E-1,0E0,0E0,0E0,0E0,0E0,0E0,0E0,0E0,0E0,0E0,2.084976E0,2.6063919E-2,0E0,0E0,0E0,0E0,0E0,0E0,0E0,0E0,4.5184135E-2,0E0,1.4353745E0,0E0,0E0,6.570145E-1,0E0,2.6256561E-2,0E0,0E0,0E0,0E0,0E0,0E0],"parents":[2147483647,0,0,1,1,2,2,3,3,4,4,5,5,6,6,7,7,8,8,9,9,10,10,11,11,12,12,13,13,14,14,15,15,19,19,20,20,21,21,25,25,26,26,27,27,28,28,30,30,31,31,32,32,33,33,35,35,37,37,38,38,49,49,50,50,59,59,61,61,64,64,66,66],"right_children":[2,4,6,8,10,12,14,16,18,20,22,24,26,28,30,32,-1,-1,-1,34,36,38,-1,-1,-1,40,42,44,46,-1,48,50,52,54,-1,56,-1,58,60,-1,-1,-1,-1,-1,-1,-1,-1,-1,-1,62,64,-1,-1,-1,-1,-1,-1,-1,-1,66,-1,68,-1,-1,70,-1,72,-1,-1,-1,-1,-1,-1],"split_conditions":[5.15E1,1.445E2,8.65E1,1.215E2,8.75E1,4.85E1,6.65E1,8.85E1,3.7E1,4.1E1,1.015E2,1.345E2,7.1E1,4.15E1,1.85E1,1.695E2,6.428044E-2,1.268429E-1,-1.0548807E-1,1.08E2,1.425E2,4.65E1,-1.2028884E-1,1.3481364E-1,-3.3698577E-2,8.65E1,4.1E1,8.4E1,7.7E1,3.6043156E-2,1.155E2,7.45E1,1.36E2,1.85E2,-3.6166776E-3,6.6E1,-1.3667926E-1,6.95E1,4.8E1,-1.5384603E-1,-4.0037866E-4,9.49166E-2,-1.1064754E-1,1.3478475E-3,1.5012065E-1,3.8379654E-2,-1.5198645E-1,4.698735E-2,1.6607538E-1,1.205E2,1.105E2,-1.1848364E-1,1.20255575E-1,-1.6372222E-1,-2.2280378E-2,1.4171425E-1,-5.5199828E-2,-9.194169E-2,6.2276952E-2,2.65E1,-2.7357398E-3,7.6E1,-1.5794095E-1,-1.6717374E-1,4.25E1,4.2260036E-2,2.25E2,1.8813019E-1,-1.0723015E-1,-1.4307457E-1,6.318066E-2,1.7679146E-1,4.7782853E-2],"split_indices":[231,3100,1100,1100,1100,312,1320,1102,1311,1302,103,32,2130,1220,1301,1,0,0,0,1122,32,2010,0,0,0,110,2121,21,322,0,3100,3110,20,1000,0,1200,0,22,1220,0,0,0,0,0,0,0,0,0,0,320,1100,0,0,0,0,0,0,0,0,1022,0,312,0,0,1022,0,3300,0,0,0,0,0,0],"split_type":[0,0,0,0,0,0,0,0,0,0,0,0,0,0,0,0,0,0,0,0,0,0,0,0,0,0,0,0,0,0,0,0,0,0,0,0,0,0,0,0,0,0,0,0,0,0,0,0,0,0,0,0,0,0,0,0,0,0,0,0,0,0,0,0,0,0,0,0,0,0,0,0,0],"sum_hessian":[3.2176614E2,2.0517825E2,1.16587875E2,1.3181984E2,7.335842E1,1.7051796E1,9.953608E1,1.26741005E2,5.0788302E0,4.0346485E1,3.3011932E1,4.6767435E0,1.2375053E1,1.2891979E1,8.6644104E1,1.2527102E2,1.4699873E0,2.7012842E0,2.3775463E0,3.122258E1,9.123906E0,2.9740635E1,3.2712972E0,3.56427E0,1.1124732E0,8.6906805E0,3.6843724E0,7.1155667E0,5.776412E0,1.0078851E0,8.5636215E1,1.221375E2,3.1335227E0,3.0220629E1,1.0019516E0,4.84388E0,4.280026E0,2.3069792E0,2.7433657E1,7.374986E0,1.3156946E0,2.2589986E0,1.4253738E0,1.0516511E0,6.0639157E0,1.3005388E0,4.4758735E0,1.3586941E0,8.427752E1,1.9183691E1,1.02953804E2,1.5025616E0,1.6309613E0,2.9141554E1,1.0790749E0,3.7597163E0,1.0841637E0,1.0629749E0,1.2440044E0,2.6232075E1,1.2015815E0,4.1723356E0,1.5011356E1,9.65299E1,6.4239063E0,1.0005679E0,2.5231506E1,2.4235773E0,1.7487581E0,5.262611E0,1.1612954E0,2.4194628E1,1.03688E0],"tree_param":{"num_deleted":"0","num_feature":"3333","num_nodes":"73","size_leaf_vector":"0"}},{"base_weights":[5.919963E-2,3.0437118E-1,-3.7145975E-1,4.506957E-1,4.6418868E-2,5.6215633E-2,-4.8101836E-1,4.861027E-1,9.674195E-2,-3.2979754E-1,4.3008772E-1,-3.0206698E-1,4.427712E-1,-5.2385867E-1,2.5447077E-1,6.6194804E-3,5.034717E-1,-4.373442E-1,4.691734E-1,-4.828468E-1,3.9899832E-1,5.196346E-1,-8.266544E-2,-4.899014E-1,2.35911E-1,-6.415505E-2,5.083069E-1,-8.5404955E-2,-5.3494054E-1,-1.6494542E-1,4.1554332E-1,3.1170326E-1,-3.7521797E-1,-1.7197008E-1,5.143819E-1,-3.3198457E-2,-5.3035897E-1,8.792756E-2,4.4505057E-1,5.300179E-1,1.5260588E-1,2.157755E-1,-4.074809E-1,-3.5779588E-2,3.6433417E-1,5.2473617E-1,1.1208186E-1,2.6067972E-1,-3.2762685E-1,-1.5706933E-1,-5.5760044E-1,-2.5784913E-2,3.275715E-1,5.399581E-1,3.004188E-1,3.240429E-1,-1.9189316E-1,-2.4056262E-1,4.4460496E-1],"categories":[],"categories_nodes":[],"categories_segments":[],"categories_sizes":[],"default_left":[1,1,1,1,1,1,1,1,1,1,1,1,1,1,1,1,1,0,0,1,1,1,1,0,1,0,0,0,0,0,0,0,0,0,1,1,1,0,0,0,0,1,0,0,0,1,1,0,0,0,0,0,0,0,1,0,0,0,0],"id":12,"left_children":[1,3,5,7,9,11,13,15,17,19,21,23,25,27,29,31,33,-1,-1,35,37,39,41,-1,43,-1,-1,-1,-1,-1,-1,-1,-1,-1,45,47,49,-1,-1,-1,-1,51,-1,-1,-1,53,55,-1,-1,-1,-1,-1,-1,-1,57,-1,-1,-1,-1],"loss_changes":[2.6990078E1,6.1223345E0,4.3749723E0,1.2530174E0,8.805803E0,2.8786035E0,2.4641666E0,7.799492E-1,2.3298862E0,3.6361854E0,1.4273753E0,1.2150167E0,3.6279845E-1,2.9555893E-1,3.890812E-1,6.180161E-1,7.572231E-1,0E0,0E0,5.3713655E-1,4.546827E-2,1.74613E-2,6.061097E-1,0E0,1.348294E-1,0E0,0E0,0E0,0E0,0E0,0E0,0E0,0E0,0E0,3.1425095E-1,3.924283E-1,1.5055656E-1,0E0,0E0,0E0,0E0,1.0133605E-1,0E0,0E0,0E0,1.3499069E-1,2.8890306E-1,0E0,0E0,0E0,0E0,0E0,0E0,0E0,7.1422446E-1,0E0,0E0,0E0,0E0],"parents":[2147483647,0,0,1,1,2,2,3,3,4,4,5,5,6,6,7,7,8,8,9,9,10,10,11,11,12,12,13,13,14,14,15,15,16,16,19,19,20,20,21,21,22,22,24,24,34,34,35,35,36,36,41,41,45,45,46,46,54,54],"right_children":[2,4,6,8,10,12,14,16,18,20,22,24,26,28,30,32,34,-1,-1,36,38,40,42,-1,44,-1,-1,-1,-1,-1,-1,-1,-1,-1,46,48,50,-1,-1,-1,-1,52,-1,-1,-1,54,56,-1,-1,-1,-1,-1,-1,-1,58,-1,-1,-1,-1],"split_conditions":[5.15E1,1.445E2,1.425E2,8.05E1,8.75E1,9.35E1,9.75E1,6.45E1,3E1,5.05E1,6.85E1,7.95E1,7.35E1,6.35E1,8.65E1,4.75E1,4.75E1,-1.3120326E-1,1.4075203E-1,5.75E1,3.35E1,3.8E1,1.22E2,-1.4697042E-1,3.65E1,-1.9246515E-2,1.5249208E-1,-2.5621487E-2,-1.6048217E-1,-4.948363E-2,1.24663E-1,9.3510985E-2,-1.125654E-1,-5.1591028E-2,1.945E2,9.95E1,8.35E1,2.6378268E-2,1.3351518E-1,1.5900537E-1,4.5781765E-2,4.95E1,-1.22244276E-1,-1.0733876E-2,1.09300256E-1,1.115E2,1.83E2,7.820392E-2,-9.828806E-2,-4.71208E-2,-1.6728014E-1,-7.7354745E-3,9.827146E-2,1.6198744E-1,8.55E1,9.721287E-2,-5.756795E-2,-7.216879E-2,1.333815E-1],"split_indices":[231,3100,3100,2110,3010,2200,103,1031,1202,1220,220,103,1031,110,301,1130,321,0,0,1020,1202,1110,13,0,1130,0,0,0,0,0,0,0,0,0,200,110,1100,0,0,0,0,1310,0,0,0,1100,2,0,0,0,0,0,0,0,3110,0,0,0,0],"split_type":[0,0,0,0,0,0,0,0,0,0,0,0,0,0,0,0,0,0,0,0,0,0,0,0,0,0,0,0,0,0,0,0,0,0,0,0,0,0,0,0,0,0,0,0,0,0,0,0,0,0,0,0,0,0,0,0,0,0,0],"sum_hessian":[2.5355232E2,1.6175787E2,9.179445E1,1.0273425E2,5.902363E1,1.8819014E1,7.297543E1,9.305258E1,9.68167E0,2.987214E1,2.9151487E1,9.88011E0,8.938904E0,6.923067E1,3.744763E0,3.301219E0,8.975136E1,3.9059868E0,5.7756834E0,2.4966562E1,4.9055786E0,2.4805967E1,4.34552E0,7.3894553E0,2.4906547E0,1.0257416E0,7.913162E0,1.9212986E0,6.730937E1,1.0324156E0,2.7123473E0,1.937141E0,1.364078E0,1.1920166E0,8.855934E1,2.5483248E0,2.2418238E1,1.007756E0,3.8978226E0,2.3691652E1,1.1143154E0,2.4396572E0,1.9058628E0,1.0309601E0,1.4596945E0,8.604051E1,2.5188327E0,1.3327198E0,1.215605E0,1.9849038E0,2.0433334E1,1.0152781E0,1.4243792E0,7.925521E1,6.7852974E0,1.4451294E0,1.0737033E0,1.2872322E0,5.4980655E0],"tree_param":{"num_deleted":"0","num_feature":"3333","num_nodes":"59","size_leaf_vector":"0"}},{"base_weights":[-5.919976E-2,-3.0437115E-1,3.7145963E-1,-4.506957E-1,-4.6418857E-2,-5.6215655E-2,4.810183E-1,-4.861027E-1,-9.674191E-2,3.2979754E-1,-4.3008772E-1,3.0206698E-1,-4.427712E-1,5.2385867E-1,-2.5447077E-1,-6.619515E-3,-5.034717E-1,4.3734422E-1,-4.691734E-1,4.8284683E-1,-3.9899832E-1,-5.196346E-1,8.266545E-2,4.8990142E-1,-2.3591104E-1,6.415502E-2,-5.083069E-1,8.5405E-2,5.3494054E-1,1.6494544E-1,-4.1554332E-1,-3.1170326E-1,3.7521794E-1,1.719701E-1,-5.143819E-1,3.3198435E-2,5.3035897E-1,-8.7927625E-2,-4.450506E-1,-5.300179E-1,-1.5260586E-1,-2.1577549E-1,4.0748093E-1,3.577954E-2,-3.643342E-1,-5.2473617E-1,-1.1208174E-1,-2.606797E-1,3.2762682E-1,1.5706931E-1,5.5760044E-1,2.5784958E-2,-3.2757154E-1,-5.399581E-1,-3.004188E-1,-3.2404283E-1,1.9189328E-1,2.4056263E-1,-4.44605E-1],"categories":[],"categories_nodes":[],"categories_segments":[],"categories_sizes":[],"default_left":[1,1,1,1,1,1,1,1,1,1,1,1,1,1,1,1,1,0,0,1,1,1,1,0,1,0,0,0,0,0,0,0,0,0,1,1,1,0,0,0,0,1,0,0,0,1,1,0,0,0,0,0,0,0,1,0,0,0,0],"id":13,"left_children":[1,3,5,7,9,11,13,15,17,19,21,23,25,27,29,31,33,-1,-1,35,37,39,41,-1,43,-1,-1,-1,-1,-1,-1,-1,-1,-1,45,47,49,-1,-1,-1,-1,51,-1,-1,-1,53,55,-1,-1,-1,-1,-1,-1,-1,57,-1,-1,-1,-1],"loss_changes":[2.6990057E1,6.1223354E0,4.3749723E0,1.2530174E0,8.805805E0,2.8786035E0,2.4641666E0,7.799511E-1,2.3298867E0,3.636186E0,1.4273753E0,1.2150171E0,3.6279845E-1,2.9555702E-1,3.8908127E-1,6.18016E-1,7.572212E-1,0E0,0E0,5.3713655E-1,4.546821E-2,1.74613E-2,6.0610974E-1,0E0,1.3482939E-1,0E0,0E0,0E0,0E0,0E0,0E0,0E0,0E0,0E0,3.1425095E-1,3.924282E-1,1.5055704E-1,0E0,0E0,0E0,0E0,1.0133611E-1,0E0,0E0,0E0,1.3499069E-1,2.889031E-1,0E0,0E0,0E0,0E0,0E0,0E0,0E0,7.142246E-1,0E0,0E0,0E0,0E0],"parents":[2147483647,0,0,1,1,2,2,3,3,4,4,5,5,6,6,7,7,8,8,9,9,10,10,11,11,12,12,13,13,14,14,15,15,16,16,19,19,20,20,21,21,22,22,24,24,34,34,35,35,36,36,41,41,45,45,46,46,54,54],"right_children":[2,4,6,8,10,12,14,16,18,20,22,24,26,28,30,32,34,-1,-1,36,38,40,42,-1,44,-1,-1,-1,-1,-1,-1,-1,-1,-1,46,48,50,-1,-1,-1,-1,52,-1,-1,-1,54,56,-1,-1,-1,-1,-1,-1,-1,58,-1,-1,-1,-1],"split_conditions":[5.15E1,1.445E2,1.425E2,8.05E1,8.75E1,9.35E1,9.75E1,6.45E1,3E1,5.05E1,6.85E1,7.95E1,7.35E1,6.35E1,8.65E1,4.75E1,4.75E1,1.3120328E-1,-1.4075203E-1,5.75E1,3.35E1,3.8E1,1.22E2,1.4697044E-1,3.65E1,1.9246507E-2,-1.5249208E-1,2.5621502E-2,1.6048217E-1,4.9483635E-2,-1.24663E-1,-9.3510985E-2,1.1256539E-1,5.159103E-2,1.945E2,9.95E1,8.35E1,-2.6378289E-2,-1.3351518E-1,-1.5900537E-1,-4.578176E-2,4.95E1,1.2224428E-1,1.0733862E-2,-1.0930026E-1,1.115E2,1.83E2,-7.820391E-2,9.828805E-2,4.7120795E-2,1.6728014E-1,7.7354875E-3,-9.827147E-2,-1.6198744E-1,8.55E1,-9.721285E-2,5.7567988E-2,7.216879E-2,-1.333815E-1],"split_indices":[231,3100,3100,2110,3010,2200,103,1031,1202,1220,220,103,1031,110,301,1130,321,0,0,1020,1202,1110,13,0,1130,0,0,0,0,0,0,0,0,0,200,110,1100,0,0,0,0,1310,0,0,0,1100,2,0,0,0,0,0,0,0,3110,0,0,0,0],"split_type":[0,0,0,0,0,0,0,0,0,0,0,0,0,0,0,0,0,0,0,0,0,0,0,0,0,0,0,0,0,0,0,0,0,0,0,0,0,0,0,0,0,0,0,0,0,0,0,0,0,0,0,0,0,0,0,0,0,0,0],"sum_hessian":[2.5355228E2,1.6175789E2,9.1794395E1,1.0273425E2,5.902364E1,1.8819016E1,7.297538E1,9.305258E1,9.68167E0,2.9872147E1,2.9151491E1,9.88011E0,8.938905E0,6.923061E1,3.7447627E0,3.301219E0,8.9751366E1,3.9059873E0,5.775683E0,2.4966566E1,4.905579E0,2.4805971E1,4.3455205E0,7.3894553E0,2.490655E0,1.0257418E0,7.913163E0,1.9212989E0,6.730932E1,1.0324155E0,2.7123473E0,1.9371412E0,1.3640779E0,1.1920166E0,8.855935E1,2.5483246E0,2.2418242E1,1.0077562E0,3.8978229E0,2.3691656E1,1.1143157E0,2.4396577E0,1.9058629E0,1.0309602E0,1.4596946E0,8.604051E1,2.518832E0,1.3327198E0,1.2156048E0,1.9849038E0,2.0433338E1,1.0152782E0,1.4243795E0,7.925521E1,6.7852993E0,1.4451289E0,1.073703E0,1.2872325E0,5.4980664E0],"tree_param":{"num_deleted":"0","num_feature":"3333","num_nodes":"59","size_leaf_vector":"0"}},{"base_weights":[5.6814685E-2,2.8678122E-1,-3.5123E-1,4.6452385E-1,9.317506E-2,1.5878825E-1,-4.3899718E-1,4.9128756E-1,-1.6631098E-2,3.1727287E-1,-2.7732015E-1,3.4023342E-1,-2.1387543E-1,-4.7541767E-2,-5.176619E-1,-2.6836647E-3,5.009574E-1,-3.4514573E-1,3.085026E-1,-1.8558212E-1,4.4132766E-1,1.3623361E-1,-4.7601077E-1,-8.995596E-2,4.1801316E-1,1.0116184E-1,-3.701245E-1,-3.40992E-1,4.281196E-1,5.1150924E-1,7.7523455E-2,-4.846898E-1,2.6748353E-1,4.8422894E-1,-7.532734E-2,-3.1024525E-1,3.715086E-1,-5.2644E-1,-4.0519964E-2,4.6360746E-1,7.454965E-2,1.5360478E-1,-4.560733E-1,1.026339E-1,5.173908E-1,-5.7966936E-1,-4.1987214E-2,3.716593E-1,-2.4016252E-2,5.044155E-1,-3.1029766E-2,-3.2468596E-1,2.1163796E-1,3.9363552E-2,4.3007785E-1,1.500866E-1,5.2131915E-1,7.5271025E-2,5.1727676E-1],"categories":[],"categories_nodes":[],"categories_segments":[],"categories_sizes":[],"default_left":[1,1,1,1,1,1,1,1,1,1,1,1,1,1,0,0,1,0,0,1,1,0,1,0,1,0,0,1,0,1,0,1,1,0,1,0,1,0,0,0,0,0,0,0,1,0,0,0,0,1,0,0,0,0,0,0,0,0,0],"id":14,"left_children":[1,3,5,7,9,11,13,15,17,19,21,23,25,27,-1,-1,29,-1,-1,31,33,35,37,-1,39,-1,-1,41,-1,43,-1,45,47,49,51,-1,53,-1,-1,-1,-1,-1,-1,-1,55,-1,-1,-1,-1,57,-1,-1,-1,-1,-1,-1,-1,-1,-1],"loss_changes":[1.8855347E1,4.37438E0,3.3145351E0,8.66827E-1,5.2935057E0,8.4207714E-1,1.8880491E0,3.0321884E-1,5.850733E-1,2.5480394E0,2.0503442E0,3.0654544E-1,2.5105405E-1,1.750388E0,0E0,0E0,2.3731709E-1,0E0,0E0,1.285173E0,7.4589777E-1,1.0206674E0,3.42005E-1,0E0,7.4808955E-2,0E0,0E0,5.0635684E-1,0E0,9.191799E-2,0E0,2.0657587E-1,1.3146293E-1,3.2443476E-1,3.062359E-1,0E0,1.0173243E-1,0E0,0E0,0E0,0E0,0E0,0E0,0E0,7.1792603E-3,0E0,0E0,0E0,0E0,1.1905861E-1,0E0,0E0,0E0,0E0,0E0,0E0,0E0,0E0,0E0],"parents":[2147483647,0,0,1,1,2,2,3,3,4,4,5,5,6,6,7,7,8,8,9,9,10,10,11,11,12,12,13,13,16,16,19,19,20,20,21,21,22,22,24,24,27,27,29,29,31,31,32,32,33,33,34,34,36,36,44,44,49,49],"right_children":[2,4,6,8,10,12,14,16,18,20,22,24,26,28,-1,-1,30,-1,-1,32,34,36,38,-1,40,-1,-1,42,-1,44,-1,46,48,50,52,-1,54,-1,-1,-1,-1,-1,-1,-1,56,-1,-1,-1,-1,58,-1,-1,-1,-1,-1,-1,-1,-1,-1],"split_conditions":[5.15E1,5.65E1,8.45E1,7.95E1,9.25E1,7.1E1,1.415E2,5.95E1,7.8E1,3.5E1,1.405E2,2.95E1,1.01E2,8.85E1,-1.5529859E-1,-8.0509944E-4,6.85E1,-1.0354372E-1,9.2550784E-2,1.355E2,1.265E2,1.3E1,9.6E1,-2.698679E-2,6.1E1,3.0348552E-2,-1.1103735E-1,5.3E1,1.2843588E-1,1.9E1,2.3257038E-2,1.5E1,4.2E1,5.9E1,1.285E2,-9.307358E-2,5.95E1,-1.5793201E-1,-1.215599E-2,1.3908224E-1,2.2364896E-2,4.6081435E-2,-1.36822E-1,3.079017E-2,3.35E1,-1.7390081E-1,-1.2596165E-2,1.114978E-1,-7.204876E-3,3.15E1,-9.3089305E-3,-9.740579E-2,6.349139E-2,1.1809066E-2,1.2902336E-1,4.5025982E-2,1.5639575E-1,2.258131E-2,1.5518303E-1],"split_indices":[231,1320,1100,2110,1100,2130,3100,1031,312,3120,3100,1230,1300,3110,0,0,2210,0,0,32,13,1122,301,0,1102,0,0,211,0,2031,0,1212,131,1302,23,0,312,0,0,0,0,0,0,0,1301,0,0,0,0,1230,0,0,0,0,0,0,0,0,0],"split_type":[0,0,0,0,0,0,0,0,0,0,0,0,0,0,0,0,0,0,0,0,0,0,0,0,0,0,0,0,0,0,0,0,0,0,0,0,0,0,0,0,0,0,0,0,0,0,0,0,0,0,0,0,0,0,0,0,0,0,0],"sum_hessian":[1.9886464E2,1.27375374E2,7.148926E1,6.5678795E1,6.1696583E1,1.0377286E1,6.111197E1,6.2198036E1,3.4807568E0,3.85331E1,2.3163486E1,7.0377293E0,3.339557E0,1.049426E1,5.061771E1,1.2080684E0,6.0989967E1,1.7007606E0,1.7799962E0,7.5269017E0,3.1006197E1,7.6192193E0,1.5544267E1,1.0536402E0,5.984089E0,1.2240753E0,2.1154819E0,6.665331E0,3.828929E0,5.930413E1,1.685838E0,4.491726E0,3.035176E0,2.8686897E1,2.3192997E0,2.5194452E0,5.0997744E0,1.3743898E1,1.8003681E0,4.9739966E0,1.0100923E0,1.1949446E0,5.4703865E0,1.1026101E0,5.820152E1,3.4435434E0,1.0481825E0,2.033468E0,1.001708E0,2.7625637E1,1.0612605E0,1.1706319E0,1.1486678E0,1.0151222E0,4.084652E0,1.030758E0,5.717076E1,1.0032294E0,2.6622408E1],"tree_param":{"num_deleted":"0","num_feature":"3333","num_nodes":"59","size_leaf_vector":"0"}},{"base_weights":[-5.6814708E-2,-2.8678128E-1,3.5123006E-1,-4.6452388E-1,-9.3175165E-2,-1.5878813E-1,4.3899724E-1,-4.912876E-1,1.6630951E-2,-3.172729E-1,2.7732006E-1,-3.402333E-1,2.1387549E-1,4.754171E-2,5.176619E-1,2.6836547E-3,-5.009574E-1,3.4514573E-1,-3.0850273E-1,1.8558207E-1,-4.413277E-1,-1.3623364E-1,4.7601074E-1,8.9956045E-2,-4.180131E-1,-1.01161726E-1,3.7012452E-1,3.4099194E-1,-4.281196E-1,-5.1150924E-1,-7.7523544E-2,4.846898E-1,-2.674836E-1,-4.8422894E-1,7.532738E-2,3.1024525E-1,-3.7150863E-1,5.2644E-1,4.0519897E-2,-4.6360743E-1,-7.45495E-2,-1.536048E-1,4.5607328E-1,-1.0263392E-1,-5.173908E-1,5.796694E-1,4.1987155E-2,-3.716593E-1,2.401617E-2,-5.044155E-1,3.1029796E-2,3.2468596E-1,-2.1163793E-1,-3.936359E-2,-4.3007785E-1,-1.5008661E-1,-5.2131915E-1,-7.5271E-2,-5.1727676E-1],"categories":[],"categories_nodes":[],"categories_segments":[],"categories_sizes":[],"default_left":[1,1,1,1,1,1,1,1,1,1,1,1,1,1,0,0,1,0,0,1,1,0,1,0,1,0,0,1,0,1,0,1,1,0,1,0,1,0,0,0,0,0,0,0,1,0,0,0,0,1,0,0,0,0,0,0,0,0,0],"id":15,"left_children":[1,3,5,7,9,11,13,15,17,19,21,23,25,27,-1,-1,29,-1,-1,31,33,35,37,-1,39,-1,-1,41,-1,43,-1,45,47,49,51,-1,53,-1,-1,-1,-1,-1,-1,-1,55,-1,-1,-1,-1,57,-1,-1,-1,-1,-1,-1,-1,-1,-1],"loss_changes":[1.8855358E1,4.374379E0,3.3145332E0,8.6682606E-1,5.2935047E0,8.42077E-1,1.8880501E0,3.0321884E-1,5.8507353E-1,2.5480392E0,2.050344E0,3.0654556E-1,2.5105387E-1,1.7503877E0,0E0,0E0,2.3731709E-1,0E0,0E0,1.2851734E0,7.4589777E-1,1.0206674E0,3.4200525E-1,0E0,7.4808955E-2,0E0,0E0,5.0635684E-1,0E0,9.191799E-2,0E0,2.0657587E-1,1.3146284E-1,3.2443476E-1,3.0623585E-1,0E0,1.0173243E-1,0E0,0E0,0E0,0E0,0E0,0E0,0E0,7.1792603E-3,0E0,0E0,0E0,0E0,1.1905861E-1,0E0,0E0,0E0,0E0,0E0,0E0,0E0,0E0,0E0],"parents":[2147483647,0,0,1,1,2,2,3,3,4,4,5,5,6,6,7,7,8,8,9,9,10,10,11,11,12,12,13,13,16,16,19,19,20,20,21,21,22,22,24,24,27,27,29,29,31,31,32,32,33,33,34,34,36,36,44,44,49,49],"right_children":[2,4,6,8,10,12,14,16,18,20,22,24,26,28,-1,-1,30,-1,-1,32,34,36,38,-1,40,-1,-1,42,-1,44,-1,46,48,50,52,-1,54,-1,-1,-1,-1,-1,-1,-1,56,-1,-1,-1,-1,58,-1,-1,-1,-1,-1,-1,-1,-1,-1],"split_conditions":[5.15E1,5.65E1,8.45E1,7.95E1,9.25E1,7.1E1,1.415E2,5.95E1,7.8E1,3.5E1,1.405E2,2.95E1,1.01E2,8.85E1,1.5529859E-1,8.050964E-4,6.85E1,1.0354372E-1,-9.255082E-2,1.355E2,1.265E2,1.3E1,9.6E1,2.6986815E-2,6.1E1,-3.0348519E-2,1.1103736E-1,5.3E1,-1.2843588E-1,1.9E1,-2.3257064E-2,1.5E1,4.2E1,5.9E1,1.285E2,9.307358E-2,5.95E1,1.5793201E-1,1.215597E-2,-1.3908224E-1,-2.2364851E-2,-4.6081442E-2,1.3682199E-1,-3.0790178E-2,3.35E1,1.7390083E-1,1.2596147E-2,-1.114978E-1,7.204851E-3,3.15E1,9.308939E-3,9.740579E-2,-6.349138E-2,-1.1809077E-2,-1.2902336E-1,-4.5025986E-2,-1.5639575E-1,-2.2581302E-2,-1.5518303E-1],"split_indices":[231,1320,1100,2110,1100,2130,3100,1031,312,3120,3100,1230,1300,3110,0,0,2210,0,0,32,13,1122,301,0,1102,0,0,211,0,2031,0,1212,131,1302,23,0,312,0,0,0,0,0,0,0,1301,0,0,0,0,1230,0,0,0,0,0,0,0,0,0],"split_type":[0,0,0,0,0,0,0,0,0,0,0,0,0,0,0,0,0,0,0,0,0,0,0,0,0,0,0,0,0,0,0,0,0,0,0,0,0,0,0,0,0,0,0,0,0,0,0,0,0,0,0,0,0,0,0,0,0,0,0],"sum_hessian":[1.9886465E2,1.2737539E2,7.1489265E1,6.56788E1,6.1696587E1,1.0377284E1,6.111198E1,6.2198048E1,3.480757E0,3.8533104E1,2.3163483E1,7.0377274E0,3.339557E0,1.0494259E1,5.061772E1,1.2080684E0,6.098998E1,1.7007602E0,1.7799968E0,7.5269017E0,3.1006203E1,7.6192203E0,1.5544262E1,1.0536404E0,5.984087E0,1.2240752E0,2.1154816E0,6.66533E0,3.828929E0,5.930414E1,1.6858381E0,4.4917254E0,3.035176E0,2.8686903E1,2.3192997E0,2.5194454E0,5.099775E0,1.3743894E1,1.8003678E0,4.973995E0,1.0100919E0,1.1949447E0,5.4703856E0,1.1026106E0,5.820153E1,3.4435432E0,1.0481825E0,2.0334682E0,1.0017079E0,2.762564E1,1.0612606E0,1.170632E0,1.1486677E0,1.0151222E0,4.084653E0,1.030758E0,5.7170773E1,1.0032295E0,2.6622412E1],"tree_param":{"num_deleted":"0","num_feature":"3333","num_nodes":"59","size_leaf_vector":"0"}},{"base_weights":[5.340197E-2,3.5451457E-1,-2.2343422E-1,4.4493145E-1,4.2772006E-2,2.9488042E-1,-4.2799905E-1,9.009625E-2,4.845438E-1,-4.3354398E-1,4.0192837E-1,-2.2991073E-1,3.926399E-1,-4.6316808E-1,1.6362545E-1,3.2014534E-1,-2.209424E-1,4.9786726E-1,-2.3333602E-2,9.095095E-2,-5.301136E-1,-1.01274826E-1,4.6401772E-1,1.1498794E-1,-3.7673798E-1,4.3789947E-1,-1.6633973E-1,2.1073146E-1,-4.8380733E-1,-1.769683E-1,3.3211994E-1,4.8967928E-2,3.8632882E-1,-3.436483E-1,3.935848E-2,1.24489866E-1,5.033336E-1,4.7452575E-1,4.141922E-2,9.862598E-2,-5.0425583E-1,7.9078585E-2,4.934908E-1,-5.103565E-1,-9.759607E-2,-5.197905E-1,-1.8804057E-1,-2.9175308E-1,1.087104E-2],"categories":[],"categories_nodes":[],"categories_segments":[],"categories_sizes":[],"default_left":[1,1,1,1,1,1,1,1,1,1,1,1,1,1,1,1,1,1,0,0,0,0,0,0,0,1,0,0,1,0,0,0,0,0,0,0,0,1,0,0,1,0,0,1,0,0,1,0,0],"id":16,"left_children":[1,3,5,7,9,11,13,15,17,19,21,23,25,27,29,31,33,35,-1,-1,-1,-1,-1,-1,-1,37,-1,-1,39,-1,-1,-1,-1,-1,-1,-1,-1,41,-1,-1,43,-1,-1,45,-1,-1,47,-1,-1],"loss_changes":[1.330006E1,2.1332111E0,8.952608E0,7.868061E-1,3.300327E0,1.3292112E0,1.3261929E0,5.831908E-1,3.6971855E-1,4.7046244E-1,3.887012E-1,2.67297E-1,5.972018E-1,8.945446E-1,2.946914E-1,6.2298536E-2,1.2967977E-1,4.26836E-2,0E0,0E0,0E0,0E0,0E0,0E0,0E0,2.6277947E-1,0E0,0E0,7.118635E-1,0E0,0E0,0E0,0E0,0E0,0E0,0E0,0E0,9.378576E-2,0E0,0E0,8.3844185E-2,0E0,0E0,6.293106E-2,0E0,0E0,6.649289E-2,0E0,0E0],"parents":[2147483647,0,0,1,1,2,2,3,3,4,4,5,5,6,6,7,7,8,8,9,9,10,10,11,11,12,12,13,13,14,14,15,15,16,16,17,17,25,25,28,28,37,37,40,40,43,43,46,46],"right_children":[2,4,6,8,10,12,14,16,18,20,22,24,26,28,30,32,34,36,-1,-1,-1,-1,-1,-1,-1,38,-1,-1,40,-1,-1,-1,-1,-1,-1,-1,-1,42,-1,-1,44,-1,-1,46,-1,-1,48,-1,-1],"split_conditions":[6.35E1,3.95E1,8.45E1,6.1E1,4.15E1,5.05E1,9.35E1,5.35E1,8.7E1,1.265E2,4E1,6.55E1,8.5E1,6.85E1,5.3E1,4.25E1,4.5E1,3.15E1,-7.000081E-3,2.7285287E-2,-1.5903407E-1,-3.0382449E-2,1.3920532E-1,3.4496382E-2,-1.13021396E-1,8.85E1,-4.990192E-2,6.321944E-2,1.155E2,-5.3090494E-2,9.963599E-2,1.4690379E-2,1.1589865E-1,-1.03094496E-1,1.1807545E-2,3.7346963E-2,1.510001E-1,4.85E1,1.2425766E-2,2.9587796E-2,1.185E2,2.3723576E-2,1.4804724E-1,8.75E1,-2.9278822E-2,-1.5593715E-1,5.5E1,-8.752593E-2,3.2613121E-3],"split_indices":[1320,221,1100,3210,2021,2320,3010,2010,2130,3100,1220,22,2130,13,12,312,1230,1230,0,0,0,0,0,0,0,130,0,0,3100,0,0,0,0,0,0,0,0,12,0,0,2200,0,0,3010,0,0,321,0,0],"split_type":[0,0,0,0,0,0,0,0,0,0,0,0,0,0,0,0,0,0,0,0,0,0,0,0,0,0,0,0,0,0,0,0,0,0,0,0,0,0,0,0,0,0,0,0,0,0,0,0,0],"sum_hessian":[1.576016E2,7.535641E1,8.2245186E1,5.8082962E1,1.7273447E1,2.3149303E1,5.909588E1,6.1618085E0,5.1921154E1,7.3365455E0,9.936902E0,3.422874E0,1.9726429E1,5.5984985E1,3.1108942E0,3.525221E0,2.6365874E0,5.06131E1,1.3080568E0,1.1498095E0,6.186736E0,1.0221088E0,8.914793E0,1.0868055E0,2.3360686E0,1.8449236E1,1.2771926E0,1.3899791E0,5.4595005E1,1.012977E0,2.0979173E0,1.0329081E0,2.492313E0,1.5742764E0,1.062311E0,1.0733342E0,4.9539764E1,1.670885E1,1.740385E0,1.7220788E0,5.287293E1,1.0012438E0,1.5707608E1,5.184023E1,1.0326973E0,4.9770798E1,2.069432E0,1.0534273E0,1.0160046E0],"tree_param":{"num_deleted":"0","num_feature":"3333","num_nodes":"49","size_leaf_vector":"0"}},{"base_weights":[-5.3401805E-2,-3.5451454E-1,2.2343434E-1,-4.4493142E-1,-4.2771917E-2,-2.9488042E-1,4.2799914E-1,-9.009618E-2,-4.8454377E-1,4.3354398E-1,-4.019283E-1,2.2991078E-1,-3.926399E-1,4.6316814E-1,-1.6362534E-1,-3.201453E-1,2.2094245E-1,-4.9786726E-1,2.3333596E-2,-9.095095E-2,5.301136E-1,1.0127483E-1,-4.640177E-1,-1.1498793E-1,3.76738E-1,-4.378995E-1,1.6633968E-1,-2.1073145E-1,4.8380736E-1,1.7696841E-1,-3.3211988E-1,-4.8967946E-2,-3.8632876E-1,3.4364828E-1,-3.935834E-2,-1.24489926E-1,-5.033336E-1,-4.7452575E-1,-4.141927E-2,-9.862601E-2,5.042559E-1,-7.907874E-2,-4.934908E-1,5.1035655E-1,9.7596206E-2,5.1979053E-1,1.8804064E-1,2.9175308E-1,-1.0870934E-2],"categories":[],"categories_nodes":[],"categories_segments":[],"categories_sizes":[],"default_left":[1,1,1,1,1,1,1,1,1,1,1,1,1,1,1,1,1,1,0,0,0,0,0,0,0,1,0,0,1,0,0,0,0,0,0,0,0,1,0,0,1,0,0,1,0,0,1,0,0],"id":17,"left_children":[1,3,5,7,9,11,13,15,17,19,21,23,25,27,29,31,33,35,-1,-1,-1,-1,-1,-1,-1,37,-1,-1,39,-1,-1,-1,-1,-1,-1,-1,-1,41,-1,-1,43,-1,-1,45,-1,-1,47,-1,-1],"loss_changes":[1.3300064E1,2.1332111E0,8.952611E0,7.868061E-1,3.3003263E0,1.3292112E0,1.3261919E0,5.8319086E-1,3.697195E-1,4.7046268E-1,3.8870108E-1,2.672969E-1,5.972018E-1,8.9454365E-1,2.946915E-1,6.2298477E-2,1.2967958E-1,4.2682648E-2,0E0,0E0,0E0,0E0,0E0,0E0,0E0,2.6277947E-1,0E0,0E0,7.118645E-1,0E0,0E0,0E0,0E0,0E0,0E0,0E0,0E0,9.378576E-2,0E0,0E0,8.384323E-2,0E0,0E0,6.293106E-2,0E0,0E0,6.6492796E-2,0E0,0E0],"parents":[2147483647,0,0,1,1,2,2,3,3,4,4,5,5,6,6,7,7,8,8,9,9,10,10,11,11,12,12,13,13,14,14,15,15,16,16,17,17,25,25,28,28,37,37,40,40,43,43,46,46],"right_children":[2,4,6,8,10,12,14,16,18,20,22,24,26,28,30,32,34,36,-1,-1,-1,-1,-1,-1,-1,38,-1,-1,40,-1,-1,-1,-1,-1,-1,-1,-1,42,-1,-1,44,-1,-1,46,-1,-1,48,-1,-1],"split_conditions":[6.35E1,3.95E1,8.45E1,6.1E1,4.15E1,5.05E1,9.35E1,5.35E1,8.7E1,1.265E2,4E1,6.55E1,8.5E1,6.85E1,5.3E1,4.25E1,4.5E1,3.15E1,7.000079E-3,-2.7285287E-2,1.5903407E-1,3.038245E-2,-1.392053E-1,-3.4496382E-2,1.1302141E-1,8.85E1,4.9901906E-2,-6.3219436E-2,1.155E2,5.3090524E-2,-9.9635966E-2,-1.4690384E-2,-1.1589863E-1,1.0309449E-1,-1.1807502E-2,-3.7346978E-2,-1.510001E-1,4.85E1,-1.2425782E-2,-2.9587803E-2,1.185E2,-2.3723623E-2,-1.4804724E-1,8.75E1,2.9278863E-2,1.5593717E-1,5.5E1,8.752593E-2,-3.2612805E-3],"split_indices":[1320,221,1100,3210,2021,2320,3010,2010,2130,3100,1220,22,2130,13,12,312,1230,1230,0,0,0,0,0,0,0,130,0,0,3100,0,0,0,0,0,0,0,0,12,0,0,2200,0,0,3010,0,0,321,0,0],"split_type":[0,0,0,0,0,0,0,0,0,0,0,0,0,0,0,0,0,0,0,0,0,0,0,0,0,0,0,0,0,0,0,0,0,0,0,0,0,0,0,0,0,0,0,0,0,0,0,0,0],"sum_hessian":[1.576016E2,7.535639E1,8.224521E1,5.8082947E1,1.7273443E1,2.3149302E1,5.9095905E1,6.1618075E0,5.192114E1,7.336545E0,9.936899E0,3.4228737E0,1.9726427E1,5.598501E1,3.1108944E0,3.5252202E0,2.6365871E0,5.0613083E1,1.3080573E0,1.1498094E0,6.1867356E0,1.0221087E0,8.91479E0,1.0868052E0,2.3360684E0,1.8449236E1,1.2771926E0,1.389979E0,5.459503E1,1.0129772E0,2.097917E0,1.032908E0,2.4923122E0,1.5742762E0,1.0623109E0,1.0733346E0,4.9539745E1,1.670885E1,1.7403849E0,1.7220787E0,5.287295E1,1.0012438E0,1.5707606E1,5.1840256E1,1.0326978E0,4.9770824E1,2.069432E0,1.0534275E0,1.0160046E0],"tree_param":{"num_deleted":"0","num_feature":"3333","num_nodes":"49","size_leaf_vector":"0"}},{"base_weights":[4.9742106E-2,2.4557923E-1,-3.3948755E-1,3.9546645E-1,1.7921843E-2,2.1571409E-2,-4.4597545E-1,4.545232E-1,1.2383654E-1,-2.905334E-1,3.6941087E-1,-2.4520679E-1,3.6904216E-1,-4.8164853E-1,2.3203057E-1,4.822929E-1,6.4796045E-2,3.8697636E-1,-4.240484E-1,-4.1578558E-1,3.3675876E-1,4.7044325E-1,-5.8382586E-2,-4.2723948E-1,1.822279E-1,1.0318597E-1,4.1074973E-1,-1.1679755E-1,-5.016795E-1,4.9293625E-1,6.878482E-2,-2.7857518E-1,3.294325E-1,1.4360421E-2,4.4346136E-1,-5.330584E-1,-6.8968214E-2,-4.5613167E-1,-1.19314445E-2,2.00298E-1,-3.3086118E-1,5.012562E-1,1.0554411E-1,-4.7997263E-1,-6.7742914E-2],"categories":[],"categories_nodes":[],"categories_segments":[],"categories_sizes":[],"default_left":[1,1,1,1,1,1,1,1,1,1,1,1,1,1,0,1,1,1,0,1,0,0,1,0,0,0,0,0,0,1,0,0,0,0,0,0,0,0,0,0,0,0,0,0,0],"id":18,"left_children":[1,3,5,7,9,11,13,15,17,19,21,23,25,27,-1,29,31,33,35,37,-1,-1,39,-1,-1,-1,-1,-1,-1,41,-1,-1,-1,-1,-1,-1,-1,43,-1,-1,-1,-1,-1,-1,-1],"loss_changes":[9.72472E0,2.884046E0,1.653573E0,7.62516E-1,3.867777E0,1.0816358E0,9.114895E-1,4.1845512E-1,1.6764534E0,1.6354282E0,7.471664E-1,5.952117E-1,1.3534248E-2,1.7335272E-1,0E0,1.361227E-1,4.4788998E-1,1.5378809E-1,1.1344671E-1,2.603538E-1,0E0,0E0,3.5320815E-1,0E0,0E0,0E0,0E0,0E0,0E0,6.796646E-2,0E0,0E0,0E0,0E0,0E0,0E0,0E0,1.0456467E-1,0E0,0E0,0E0,0E0,0E0,0E0,0E0],"parents":[2147483647,0,0,1,1,2,2,3,3,4,4,5,5,6,6,7,7,8,8,9,9,10,10,11,11,12,12,13,13,15,15,16,16,17,17,18,18,19,19,22,22,29,29,37,37],"right_children":[2,4,6,8,10,12,14,16,18,20,22,24,26,28,-1,30,32,34,36,38,-1,-1,40,-1,-1,-1,-1,-1,-1,42,-1,-1,-1,-1,-1,-1,-1,44,-1,-1,-1,-1,-1,-1,-1],"split_conditions":[5.25E1,1.435E2,1.425E2,1.015E2,8.85E1,9.35E1,2.35E2,8.55E1,3.65E1,3.25E1,6.85E1,1.02E2,7.8E1,8.05E1,6.960917E-2,1.19E2,7.85E1,4.4E1,1.3E1,1.435E2,1.0102763E-1,1.4113298E-1,8.1E1,-1.2817185E-1,5.466837E-2,3.0955791E-2,1.2322492E-1,-3.503927E-2,-1.5050384E-1,1.025E2,2.0635447E-2,-8.357256E-2,9.882975E-2,4.3081264E-3,1.3303842E-1,-1.5991753E-1,-2.0690465E-2,3.8E1,-3.5794335E-3,6.0089402E-2,-9.9258356E-2,1.5037687E-1,3.1663235E-2,-1.439918E-1,-2.0322874E-2],"split_indices":[231,3100,3100,1300,3010,2200,3300,2110,221,1202,220,3030,1200,1100,0,1100,312,312,1212,320,0,0,130,0,0,0,0,0,0,1001,0,0,0,0,0,0,0,1212,0,0,0,0,0,0,0],"split_type":[0,0,0,0,0,0,0,0,0,0,0,0,0,0,0,0,0,0,0,0,0,0,0,0,0,0,0,0,0,0,0,0,0,0,0,0,0,0,0,0,0,0,0,0,0],"sum_hessian":[1.2548438E2,8.372701E1,4.1757366E1,5.0042465E1,3.3684544E1,9.692228E0,3.206514E1,4.05524E1,9.4900675E0,1.8032892E1,1.5651653E1,5.649224E0,4.0430045E0,3.0737505E1,1.3276345E0,3.763335E1,2.9190493E0,6.609384E0,2.8806841E0,1.5312584E1,2.720308E0,1.2580749E1,3.070904E0,3.9622622E0,1.6869619E0,1.0193576E0,3.023647E0,1.9552236E0,2.8782282E1,3.6501743E1,1.1316075E0,1.2475963E0,1.6714529E0,1.0351329E0,5.574251E0,1.8205416E0,1.0601424E0,1.3804074E1,1.5085095E0,1.7112312E0,1.3596728E0,3.5446533E1,1.055208E0,1.278356E1,1.0205147E0],"tree_param":{"num_deleted":"0","num_feature":"3333","num_nodes":"45","size_leaf_vector":"0"}},{"base_weights":[-4.974207E-2,-2.4557921E-1,3.394876E-1,-3.9546645E-1,-1.792183E-2,-2.1571323E-2,4.4597545E-1,-4.545232E-1,-1.2383654E-1,2.905334E-1,-3.6941087E-1,2.4520685E-1,-3.6904213E-1,4.8164853E-1,-2.3203063E-1,-4.822929E-1,-6.479603E-2,-3.8697636E-1,4.2404836E-1,4.1578558E-1,-3.3675876E-1,-4.7044325E-1,5.8382597E-2,4.272395E-1,-1.8222785E-1,-1.03185855E-1,-4.1074973E-1,1.1679751E-1,5.016795E-1,-4.9293622E-1,-6.878484E-2,2.7857512E-1,-3.2943246E-1,-1.4360412E-2,-4.4346136E-1,5.330584E-1,6.8968214E-2,4.5613167E-1,1.1931413E-2,-2.00298E-1,3.3086118E-1,-5.012562E-1,-1.0554405E-1,4.7997266E-1,6.7742884E-2],"categories":[],"categories_nodes":[],"categories_segments":[],"categories_sizes":[],"default_left":[1,1,1,1,1,1,1,1,1,1,1,1,1,1,0,1,1,1,0,1,0,0,1,0,0,0,0,0,0,1,0,0,0,0,0,0,0,0,0,0,0,0,0,0,0],"id":19,"left_children":[1,3,5,7,9,11,13,15,17,19,21,23,25,27,-1,29,31,33,35,37,-1,-1,39,-1,-1,-1,-1,-1,-1,41,-1,-1,-1,-1,-1,-1,-1,43,-1,-1,-1,-1,-1,-1,-1],"loss_changes":[9.724724E0,2.8840466E0,1.6535726E0,7.6251554E-1,3.8677778E0,1.0816358E0,9.114895E-1,4.1845512E-1,1.6764535E0,1.6354283E0,7.471664E-1,5.9521157E-1,1.3534427E-2,1.733532E-1,0E0,1.361227E-1,4.4788986E-1,1.5378809E-1,1.1344677E-1,2.6035404E-1,0E0,0E0,3.5320818E-1,0E0,0E0,0E0,0E0,0E0,0E0,6.7967415E-2,0E0,0E0,0E0,0E0,0E0,0E0,0E0,1.0456443E-1,0E0,0E0,0E0,0E0,0E0,0E0,0E0],"parents":[2147483647,0,0,1,1,2,2,3,3,4,4,5,5,6,6,7,7,8,8,9,9,10,10,11,11,12,12,13,13,15,15,16,16,17,17,18,18,19,19,22,22,29,29,37,37],"right_children":[2,4,6,8,10,12,14,16,18,20,22,24,26,28,-1,30,32,34,36,38,-1,-1,40,-1,-1,-1,-1,-1,-1,42,-1,-1,-1,-1,-1,-1,-1,44,-1,-1,-1,-1,-1,-1,-1],"split_conditions":[5.25E1,1.435E2,1.425E2,1.015E2,8.85E1,9.35E1,2.35E2,8.55E1,3.65E1,3.25E1,6.85E1,1.02E2,7.8E1,8.05E1,-6.9609195E-2,1.19E2,7.85E1,4.4E1,1.3E1,1.435E2,-1.0102763E-1,-1.4113298E-1,8.1E1,1.2817186E-1,-5.4668356E-2,-3.0955758E-2,-1.2322492E-1,3.5039254E-2,1.5050384E-1,1.025E2,-2.0635452E-2,8.357254E-2,-9.882974E-2,-4.3081236E-3,-1.3303842E-1,1.5991753E-1,2.0690465E-2,3.8E1,3.579424E-3,-6.0089402E-2,9.9258356E-2,-1.5037687E-1,-3.1663217E-2,1.439918E-1,2.0322867E-2],"split_indices":[231,3100,3100,1300,3010,2200,3300,2110,221,1202,220,3030,1200,1100,0,1100,312,312,1212,320,0,0,130,0,0,0,0,0,0,1001,0,0,0,0,0,0,0,1212,0,0,0,0,0,0,0],"split_type":[0,0,0,0,0,0,0,0,0,0,0,0,0,0,0,0,0,0,0,0,0,0,0,0,0,0,0,0,0,0,0,0,0,0,0,0,0,0,0,0,0,0,0,0,0],"sum_hessian":[1.254844E2,8.372702E1,4.1757378E1,5.004247E1,3.3684547E1,9.692228E0,3.2065147E1,4.0552402E1,9.490069E0,1.8032894E1,1.5651653E1,5.6492243E0,4.043004E0,3.0737513E1,1.3276347E0,3.763335E1,2.9190488E0,6.609385E0,2.8806849E0,1.5312586E1,2.720308E0,1.25807495E1,3.070904E0,3.9622626E0,1.6869617E0,1.0193572E0,3.0236468E0,1.9552234E0,2.878229E1,3.6501743E1,1.1316074E0,1.2475963E0,1.6714526E0,1.0351331E0,5.5742517E0,1.8205421E0,1.0601426E0,1.3804075E1,1.50851E0,1.7112311E0,1.3596728E0,3.5446537E1,1.0552082E0,1.2783561E1,1.0205146E0],"tree_param":{"num_deleted":"0","num_feature":"3333","num_nodes":"45","size_leaf_vector":"0"}}]},"name":"gbtree"},"learner_model_param":{"base_score":"5E-1","num_class":"2","num_feature":"3333","num_target":"1"},"objective":{"name":"multi:softprob","softmax_multiclass_param":{"num_class":"2"}}},"version":[1,6,1]}