{"learner":{"attributes":{"best_iteration":"9","best_ntree_limit":"10"},"feature_names":[],"feature_types":[],"gradient_booster":{"model":{"gbtree_model_param":{"num_parallel_tree":"1","num_trees":"30","size_leaf_vector":"0"},"tree_info":[0,1,2,0,1,2,0,1,2,0,1,2,0,1,2,0,1,2,0,1,2,0,1,2,0,1,2,0,1,2],"trees":[{"base_weights":[5.3399783E-1,-7.293234E-1,1.4639112E0,-2.5544848E-8,-7.3670894E-1,7.31707E-2,1.4915041E0,-7.442456E-1,-2.5544848E-8,8.571428E-1,-5.172414E-1],"categories":[],"categories_nodes":[],"categories_segments":[],"categories_sizes":[],"default_left":[1,1,1,0,1,1,0,0,0,0,0],"id":0,"left_children":[1,3,5,-1,7,9,-1,-1,-1,-1,-1],"loss_changes":[3.677293E2,7.1640015E-1,6.8025513E0,0E0,7.310562E-1,2.5519645E0,0E0,0E0,0E0,0E0,0E0],"parents":[2147483647,0,0,1,1,2,2,4,4,5,5],"right_children":[2,4,6,-1,8,10,-1,-1,-1,-1,-1],"split_conditions":[9.95E1,3.4E1,9.2E1,-7.663455E-9,9.25E1,1.65E1,4.4745123E-1,-2.2327368E-1,-7.663455E-9,2.5714284E-1,-1.5517244E-1],"split_indices":[1012,10,1112,0,120,30,0,0,0,0,0],"split_type":[0,0,0,0,0,0,0,0,0,0,0],"sum_hessian":[3.1111108E2,1.3199998E2,1.791111E2,1.3333333E0,1.3066666E2,3.5555553E0,1.7555554E2,1.2933333E2,1.3333333E0,1.3333333E0,2.222222E0],"tree_param":{"num_deleted":"0","num_feature":"3333","num_nodes":"11","size_leaf_vector":"0"}},{"base_weights":[-1.0679962E-1,7.2932327E-1,-7.2362745E-1,1.4269663E0,-6.6666675E-1,5.454545E-1,-7.457734E-1,1.4713376E0,-4.8000002E-1,8.571428E-1,-7.328245E-1,-2.5544848E-8,8.571428E-1],"categories":[],"categories_nodes":[],"categories_segments":[],"categories_sizes":[],"default_left":[1,1,1,1,1,1,0,0,0,0,0,0,0],"id":1,"left_children":[1,3,5,7,9,11,-1,-1,-1,-1,-1,-1,-1],"loss_changes":[1.6149715E2,1.3048035E2,5.468811E0,8.236938E0,5.164667E0,6.233767E-1,0E0,0E0,0E0,0E0,0E0,0E0,0E0],"parents":[2147483647,0,0,1,1,2,2,3,3,4,4,5,5],"right_children":[2,4,6,8,10,12,-1,-1,-1,-1,-1,-1,-1],"split_conditions":[9.95E1,8.8E1,8.9E1,1.35E2,6.3E1,4.9E1,-2.2373202E-1,4.4140127E-1,-1.4400001E-1,2.5714284E-1,-2.1984737E-1,-7.663455E-9,2.5714284E-1],"split_indices":[1012,1020,1112,3120,132,1,0,0,0,0,0,0,0],"split_type":[0,0,0,0,0,0,0,0,0,0,0,0,0],"sum_hessian":[3.1111108E2,1.3199998E2,1.791111E2,8.799999E1,4.3999996E1,2.6666665E0,1.7644443E2,8.622221E1,1.7777777E0,1.3333333E0,4.2666664E1,1.3333333E0,1.3333333E0],"tree_param":{"num_deleted":"0","num_feature":"3333","num_nodes":"13","size_leaf_vector":"0"}},{"base_weights":[-4.2719835E-1,-7.359668E-1,1.3801453E0,-7.471604E-1,1.6216213E-1,-4.8000002E-1,1.465995E0,8.571428E-1,-4.8000002E-1],"categories":[],"categories_nodes":[],"categories_segments":[],"categories_sizes":[],"default_left":[1,1,1,0,1,0,0,0,0],"id":2,"left_children":[1,3,5,-1,7,-1,-1,-1,-1],"loss_changes":[1.7518954E2,2.8076172E0,8.031807E0,0E0,2.2461777E0,0E0,0E0,0E0,0E0],"parents":[2147483647,0,0,1,1,2,2,4,4],"right_children":[2,4,6,-1,8,-1,-1,-1,-1],"split_conditions":[8.8E1,4.75E1,6.3E1,-2.2414812E-1,7E1,-1.4400001E-1,4.397985E-1,2.5714284E-1,-1.4400001E-1],"split_indices":[1020,131,132,0,10,0,0,0,0],"split_type":[0,0,0,0,0,0,0,0,0],"sum_hessian":[3.1111108E2,2.662222E2,4.4888885E1,2.6311108E2,3.111111E0,1.7777777E0,4.3111107E1,1.3333333E0,1.7777777E0],"tree_param":{"num_deleted":"0","num_feature":"3333","num_nodes":"9","size_leaf_vector":"0"}},{"base_weights":[4.0079167E-1,-6.48013E-1,9.896395E-1,-6.5611494E-1,5.2805606E-2,5.795072E-2,1.0059032E0,-6.64383E-1,3.840476E-2,6.9557375E-1,-4.7532067E-1],"categories":[],"categories_nodes":[],"categories_segments":[],"categories_sizes":[],"default_left":[1,1,1,1,0,1,0,0,0,0,0],"id":3,"left_children":[1,3,5,7,-1,9,-1,-1,-1,-1,-1],"loss_changes":[1.9505736E2,6.807785E-1,3.0026093E0,6.719322E-1,0E0,1.8698667E0,0E0,0E0,0E0,0E0,0E0],"parents":[2147483647,0,0,1,1,2,2,3,3,5,5],"right_children":[2,4,6,8,-1,10,-1,-1,-1,-1,-1],"split_conditions":[9.95E1,6.95E1,9.2E1,9.25E1,1.5841683E-2,1.65E1,3.01771E-1,-1.993149E-1,1.1521428E-2,2.0867214E-1,-1.425962E-1],"split_indices":[1012,222,1112,120,0,30,0,0,0,0,0],"split_type":[0,0,0,0,0,0,0,0,0,0,0],"sum_hessian":[3.1379977E2,1.1279631E2,2.0100346E2,1.1157027E2,1.2260389E0,3.5268466E0,1.9747662E2,1.1030057E2,1.2697048E0,1.4676507E0,2.059196E0],"tree_param":{"num_deleted":"0","num_feature":"3333","num_nodes":"11","size_leaf_vector":"0"}},{"base_weights":[-8.6452976E-2,5.35156E-1,-6.417103E-1,9.6688366E-1,-5.844953E-1,4.3739474E-1,-6.6475827E-1,9.954001E-1,-4.4443738E-1,6.8202984E-1,-6.5268713E-1,-3.603491E-2,7.1617216E-1,1.0050949E0,3.5282838E-1],"categories":[],"categories_nodes":[],"categories_segments":[],"categories_sizes":[],"default_left":[1,1,1,1,1,1,0,1,0,0,0,0,0,0,0],"id":4,"left_children":[1,3,5,7,9,11,-1,13,-1,-1,-1,-1,-1,-1,-1],"loss_changes":[1.00553986E2,6.704453E1,4.1161346E0,4.452217E0,3.8044443E0,5.2991533E-1,0E0,2.556839E-1,0E0,0E0,0E0,0E0,0E0,0E0,0E0],"parents":[2147483647,0,0,1,1,2,2,3,3,4,4,5,5,7,7],"right_children":[2,4,6,8,10,12,-1,14,-1,-1,-1,-1,-1,-1,-1],"split_conditions":[9.95E1,8.8E1,8.9E1,1.35E2,6.3E1,1.75E1,-1.9942749E-1,1.005E2,-1.3333122E-1,2.0460896E-1,-1.9580615E-1,-1.0810473E-2,2.1485166E-1,3.0152848E-1,1.0584852E-1],"split_indices":[1012,1020,1112,3120,132,30,0,2001,0,0,0,0,0,0,0],"split_type":[0,0,0,0,0,0,0,0,0,0,0,0,0,0,0],"sum_hessian":[2.893367E2,1.3652904E2,1.5280768E2,9.863334E1,3.78957E1,2.8195362E0,1.4998813E2,9.696874E1,1.6645973E0,1.4762219E0,3.641948E1,1.3676627E0,1.4518735E0,9.497169E1,1.9970524E0],"tree_param":{"num_deleted":"0","num_feature":"3333","num_nodes":"15","size_leaf_vector":"0"}},{"base_weights":[-3.6358497E-1,-6.54771E-1,9.4085187E-1,-6.664784E-1,1.586834E-1,-4.394091E-1,9.957899E-1,6.9559824E-1,-4.180309E-1],"categories":[],"categories_nodes":[],"categories_segments":[],"categories_sizes":[],"default_left":[1,1,1,0,1,0,0,0,0],"id":5,"left_children":[1,3,5,-1,7,-1,-1,-1,-1],"loss_changes":[1.0620152E2,2.2755814E0,4.3153496E0,0E0,1.5418426E0,0E0,0E0,0E0,0E0],"parents":[2147483647,0,0,1,1,2,2,4,4],"right_children":[2,4,6,-1,8,-1,-1,-1,-1],"split_conditions":[8.8E1,4.75E1,6.3E1,-1.9994353E-1,7E1,-1.3182274E-1,2.98737E-1,2.0867948E-1,-1.2540928E-1],"split_indices":[1020,131,132,0,10,0,0,0,0],"split_type":[0,0,0,0,0,0,0,0,0],"sum_hessian":[2.7697818E2,2.2683945E2,5.013873E1,2.2379915E2,3.0402887E0,1.6513743E0,4.8487354E1,1.4677184E0,1.5725703E0],"tree_param":{"num_deleted":"0","num_feature":"3333","num_nodes":"9","size_leaf_vector":"0"}},{"base_weights":[3.3563313E-1,-5.943994E-1,7.9203975E-1,9.367741E-2,-6.0360503E-1,8.033196E-1,-6.2091284E-2,-6.1315846E-1,5.9456147E-2,8.065297E-1,2.0561457E-1,-3.574935E-1,2.4211846E-1],"categories":[],"categories_nodes":[],"categories_segments":[],"categories_sizes":[],"default_left":[1,1,1,0,1,1,1,0,0,0,0,0,0],"id":6,"left_children":[1,3,5,-1,7,9,11,-1,-1,-1,-1,-1,-1],"loss_changes":[1.2101744E2,6.523285E-1,1.8894119E0,0E0,6.252632E-1,1.9586945E-1,3.9361104E-1,0E0,0E0,0E0,0E0,0E0,0E0],"parents":[2147483647,0,0,1,1,2,2,4,4,5,5,6,6],"right_children":[2,4,6,-1,8,10,12,-1,-1,-1,-1,-1,-1],"split_conditions":[9.95E1,3.75E1,6.35E1,2.8103223E-2,9.25E1,1.01E2,5.4E1,-1.8394755E-1,1.7836845E-2,2.4195892E-1,6.1684374E-2,-1.0724805E-1,7.263554E-2],"split_indices":[1012,1020,1000,0,120,21,31,0,0,0,0,0,0],"split_type":[0,0,0,0,0,0,0,0,0,0,0,0,0],"sum_hessian":[2.8299136E2,9.305936E1,1.89932E2,1.1074362E0,9.195192E1,1.8751512E2,2.4168797E0,9.072007E1,1.2318444E0,1.8616591E2,1.3492213E0,1.1373265E0,1.2795532E0],"tree_param":{"num_deleted":"0","num_feature":"3333","num_nodes":"13","size_leaf_vector":"0"}},{"base_weights":[-7.477787E-2,4.320851E-1,-6.0137177E-1,7.482588E-1,-5.288836E-1,2.6578498E-1,-6.136127E-1,7.801331E-1,-4.5189488E-1,5.666259E-1,-6.0004526E-1,7.937087E-1,-1.1219883E-1,8.030327E-1,6.580308E-4,8.077484E-1,2.556096E-1],"categories":[],"categories_nodes":[],"categories_segments":[],"categories_sizes":[],"default_left":[1,1,1,1,1,0,0,1,0,0,0,1,0,1,0,0,0],"id":7,"left_children":[1,3,5,7,9,-1,-1,11,-1,-1,-1,13,-1,15,-1,-1,-1],"loss_changes":[6.742561E1,3.9530853E1,1.4775848E0,4.0758667E0,2.8715572E0,0E0,0E0,1.242054E0,0E0,0E0,0E0,6.9364166E-1,0E0,3.3058167E-2,0E0,0E0,0E0],"parents":[2147483647,0,0,1,1,2,2,3,3,4,4,7,7,11,11,13,13],"right_children":[2,4,6,8,10,-1,-1,12,-1,-1,-1,14,-1,16,-1,-1,-1],"split_conditions":[1.025E2,8.8E1,8.5E1,1.35E2,6.3E1,7.9735495E-2,-1.8408382E-1,9E1,-1.3556847E-1,1.6998777E-1,-1.8001358E-1,1.075E2,-3.3659652E-2,8E1,1.9740924E-4,2.4232452E-1,7.668288E-2],"split_indices":[1012,1020,1112,3120,132,0,0,120,0,0,0,2011,0,113,0,0,0],"split_type":[0,0,0,0,0,0,0,0,0,0,0,0,0,0,0,0,0],"sum_hessian":[2.5064114E2,1.27804665E2,1.2283648E2,9.633146E1,3.1473206E1,1.421525E0,1.2141495E2,9.4180145E1,2.1513138E0,1.4950413E0,2.9978165E1,9.287766E1,1.3024793E0,9.1785934E1,1.0917261E0,9.0530525E1,1.2554097E0],"tree_param":{"num_deleted":"0","num_feature":"3333","num_nodes":"17","size_leaf_vector":"0"}},{"base_weights":[-3.257553E-1,-6.0284454E-1,7.516943E-1,-6.15414E-1,1.5531386E-1,-4.0076467E-1,7.970935E-1,5.876669E-1,-3.678279E-1],"categories":[],"categories_nodes":[],"categories_segments":[],"categories_sizes":[],"default_left":[1,1,1,0,1,0,0,0,0],"id":8,"left_children":[1,3,5,-1,7,-1,-1,-1,-1],"loss_changes":[7.056395E1,1.8809967E0,2.856184E0,0E0,1.0878567E0,0E0,0E0,0E0,0E0],"parents":[2147483647,0,0,1,1,2,2,4,4],"right_children":[2,4,6,-1,8,-1,-1,-1,-1],"split_conditions":[8.8E1,4.75E1,6.3E1,-1.8462421E-1,7E1,-1.2022941E-1,2.3912807E-1,1.7630008E-1,-1.1034837E-1],"split_indices":[1020,131,132,0,10,0,0,0,0],"split_type":[0,0,0,0,0,0,0,0,0],"sum_hessian":[2.3383797E2,1.8635364E2,4.7484337E1,1.8349966E2,2.853961E0,1.5030043E0,4.598133E1,1.4950379E0,1.3589231E0],"tree_param":{"num_deleted":"0","num_feature":"3333","num_nodes":"9","size_leaf_vector":"0"}},{"base_weights":[2.9737958E-1,-5.5619913E-1,6.853039E-1,-5.680903E-1,8.2101025E-2,1.1066503E-2,6.9843245E-1,-5.7901245E-1,1.08564734E-1,4.9190703E-1,-4.155538E-1],"categories":[],"categories_nodes":[],"categories_segments":[],"categories_sizes":[],"default_left":[1,1,1,1,0,1,0,0,0,0,0],"id":9,"left_children":[1,3,5,7,-1,9,-1,-1,-1,-1,-1],"loss_changes":[8.026565E1,6.229954E-1,1.4644699E0,6.147289E-1,0E0,1.0644939E0,0E0,0E0,0E0,0E0,0E0],"parents":[2147483647,0,0,1,1,2,2,3,3,5,5],"right_children":[2,4,6,8,-1,10,-1,-1,-1,-1,-1],"split_conditions":[9.95E1,1.005E2,9.2E1,1.045E2,2.4630308E-2,1.65E1,2.0952974E-1,-1.7370375E-1,3.2569423E-2,1.4757212E-1,-1.2466615E-1],"split_indices":[1012,2001,1112,2011,0,30,0,0,0,0,0],"split_type":[0,0,0,0,0,0,0,0,0,0,0],"sum_hessian":[2.4025249E2,7.4934586E1,1.653179E2,7.3672104E1,1.2624779E0,3.1927238E0,1.6212517E2,7.264384E1,1.028272E0,1.4290358E0,1.7636878E0],"tree_param":{"num_deleted":"0","num_feature":"3333","num_nodes":"11","size_leaf_vector":"0"}},{"base_weights":[-6.737155E-2,3.792055E-1,-5.649645E-1,6.438509E-1,-4.8768592E-1,-5.791701E-1,2.3042738E-1,6.7292804E-1,-4.1580245E-1,4.850086E-1,-5.626347E-1,6.862398E-1,-1.0691503E-1,6.996066E-1,1.20873444E-1,-1.721957E-2,1.9503416E-1],"categories":[],"categories_nodes":[],"categories_segments":[],"categories_sizes":[],"default_left":[1,1,1,1,1,0,0,1,0,0,0,1,0,0,1,0,0],"id":10,"left_children":[1,3,5,7,9,-1,-1,11,-1,-1,-1,13,-1,-1,15,-1,-1],"loss_changes":[4.6674118E1,2.5730312E1,1.2553635E0,2.9082222E0,2.2033143E0,0E0,0E0,9.3925095E-1,0E0,0E0,0E0,5.362129E-1,0E0,0E0,3.516845E-2,0E0,0E0],"parents":[2147483647,0,0,1,1,2,2,3,3,4,4,7,7,11,11,14,14],"right_children":[2,4,6,8,10,-1,-1,12,-1,-1,-1,14,-1,-1,16,-1,-1],"split_conditions":[1.025E2,8.8E1,1.95E1,1.35E2,6.3E1,-1.7375104E-1,6.9128215E-2,9E1,-1.2474074E-1,1.4550258E-1,-1.6879041E-1,1.395E2,-3.207451E-2,2.0988199E-1,6.5E1,-5.165871E-3,5.851025E-2],"split_indices":[1012,1020,3000,3120,132,0,0,120,0,0,0,1112,0,0,120,0,0],"split_type":[0,0,0,0,0,0,0,0,0,0,0,0,0,0,0,0,0],"sum_hessian":[2.0807759E2,1.0978565E2,9.829193E1,8.430595E1,2.5479708E1,9.683432E1,1.4576126E0,8.240956E1,1.896383E0,1.4314164E0,2.404829E1,8.114448E1,1.2650882E0,7.903835E1,2.1061227E0,1.0041412E0,1.1019815E0],"tree_param":{"num_deleted":"0","num_feature":"3333","num_nodes":"17","size_leaf_vector":"0"}},{"base_weights":[-3.008364E-1,-5.671249E-1,6.470011E-1,-5.808434E-1,1.5194002E-1,-3.6845767E-1,6.895697E-1,5.0958776E-1,-3.2487258E-1],"categories":[],"categories_nodes":[],"categories_segments":[],"categories_sizes":[],"default_left":[1,1,1,0,1,0,0,0,0],"id":11,"left_children":[1,3,5,-1,7,-1,-1,-1,-1],"loss_changes":[4.8741074E1,1.569458E0,2.0913239E0,0E0,7.800972E-1,0E0,0E0,0E0,0E0],"parents":[2147483647,0,0,1,1,2,2,4,4],"right_children":[2,4,6,-1,8,-1,-1,-1,-1],"split_conditions":[8.8E1,4.75E1,6.3E1,-1.7425302E-1,7E1,-1.10537305E-1,2.0687093E-1,1.5287633E-1,-9.746178E-2],"split_indices":[1020,131,132,0,10,0,0,0,0],"split_type":[0,0,0,0,0,0,0,0,0],"sum_hessian":[1.9065802E2,1.4915547E2,4.150255E1,1.4655174E2,2.6037214E0,1.3617975E0,4.014075E1,1.4484954E0,1.155226E0],"tree_param":{"num_deleted":"0","num_feature":"3333","num_nodes":"9","size_leaf_vector":"0"}},{"base_weights":[2.7275643E-1,-5.2663773E-1,6.2059796E-1,-5.5375534E-1,-1.01117104E-1,1.7185203E-3,6.337049E-1,-4.148207E-1,4.8833907E-1,4.2202026E-1,-3.7859836E-1],"categories":[],"categories_nodes":[],"categories_segments":[],"categories_sizes":[],"default_left":[1,1,1,0,1,1,0,0,0,0,0],"id":12,"left_children":[1,3,5,-1,7,9,-1,-1,-1,-1,-1],"loss_changes":[5.5192104E1,6.405754E-1,1.1178818E0,0E0,1.0975474E0,7.7736986E-1,0E0,0E0,0E0,0E0,0E0],"parents":[2147483647,0,0,1,1,2,2,4,4,5,5],"right_children":[2,4,6,-1,8,10,-1,-1,-1,-1,-1],"split_conditions":[9.95E1,6.05E1,9.2E1,-1.6612661E-1,7.15E1,1.65E1,1.9011147E-1,-1.2444621E-1,1.4650172E-1,1.2660608E-1,-1.1357951E-1],"split_indices":[1012,222,1112,0,120,30,0,0,0,0,0],"split_type":[0,0,0,0,0,0,0,0,0,0,0],"sum_hessian":[1.9631276E2,5.936612E1,1.3694664E2,5.5526184E1,3.8399353E0,2.863634E0,1.34083E2,2.6995323E0,1.1404029E0,1.3082197E0,1.5554144E0],"tree_param":{"num_deleted":"0","num_feature":"3333","num_nodes":"11","size_leaf_vector":"0"}},{"base_weights":[-6.2126074E-2,3.442179E-1,-5.3809327E-1,5.5891967E-1,-5.321654E-1,-5.5423224E-1,2.1222527E-1,5.85994E-1,-3.852368E-1,6.0506207E-1,-3.0497885E-1,6.192245E-1,-1.1468379E-1,6.321355E-1,1.0496466E-1],"categories":[],"categories_nodes":[],"categories_segments":[],"categories_sizes":[],"default_left":[1,1,1,1,0,0,0,1,0,1,0,1,0,0,0],"id":13,"left_children":[1,3,5,7,-1,-1,-1,9,-1,11,-1,13,-1,-1,-1],"loss_changes":[3.2867188E1,1.7564487E1,1.0647354E0,2.122408E0,0E0,0E0,0E0,1.4166756E0,0E0,7.982197E-1,0E0,3.9922333E-1,0E0,0E0,0E0],"parents":[2147483647,0,0,1,1,2,2,3,3,7,7,9,9,11,11],"right_children":[2,4,6,8,-1,-1,-1,10,-1,12,-1,14,-1,-1,-1],"split_conditions":[1.025E2,8.55E1,1.04E2,1.35E2,-1.5964963E-1,-1.6626967E-1,6.366759E-2,1.035E2,-1.15571044E-1,9E1,-9.149366E-2,1.395E2,-3.440514E-2,1.8964066E-1,3.14894E-2],"split_indices":[1012,132,21,3120,0,0,0,1020,0,120,0,1112,0,0,0],"split_type":[0,0,0,0,0,0,0,0,0,0,0,0,0,0,0],"sum_hessian":[1.6798079E2,9.07674E1,7.721338E1,7.319732E1,1.7570086E1,7.584337E1,1.3700129E0,7.152562E1,1.6716999E0,7.034112E1,1.1845002E0,6.91207E1,1.2204235E0,6.720425E1,1.916447E0],"tree_param":{"num_deleted":"0","num_feature":"3333","num_nodes":"15","size_leaf_vector":"0"}},{"base_weights":[-2.8353885E-1,-5.4799175E-1,5.604415E-1,-5.570331E-1,2.0227489E-1,-3.527477E-1,6.129932E-1,1.0856712E-1,6.256201E-1],"categories":[],"categories_nodes":[],"categories_segments":[],"categories_sizes":[],"default_left":[1,1,1,0,0,0,1,0,0],"id":14,"left_children":[1,3,5,-1,-1,-1,7,-1,-1],"loss_changes":[3.440745E1,9.052353E-1,1.9892569E0,0E0,0E0,0E0,1.5692234E-1,0E0,0E0],"parents":[2147483647,0,0,1,1,2,2,6,6],"right_children":[2,4,6,-1,-1,-1,8,-1,-1],"split_conditions":[7.1E1,5.35E1,8.2E1,-1.6710994E-1,6.0682468E-2,-1.05824314E-1,6.8E1,3.257014E-2,1.8768604E-1],"split_indices":[132,202,2031,0,0,0,203,0,0],"split_type":[0,0,0,0,0,0,0,0,0],"sum_hessian":[1.5178403E2,1.1583803E2,3.5946E1,1.14713196E2,1.1248367E0,1.6451895E0,3.4300808E1,1.0720537E0,3.3228756E1],"tree_param":{"num_deleted":"0","num_feature":"3333","num_nodes":"9","size_leaf_vector":"0"}},{"base_weights":[2.5567427E-1,-5.0311273E-1,5.7802075E-1,-5.347397E-1,-6.670612E-2,-8.272219E-3,5.917602E-1,4.4937035E-1,-3.8332996E-1,3.669092E-1,-3.4701872E-1],"categories":[],"categories_nodes":[],"categories_segments":[],"categories_sizes":[],"default_left":[1,1,1,0,1,1,0,0,0,0,0],"id":15,"left_children":[1,3,5,-1,7,9,-1,-1,-1,-1,-1],"loss_changes":[3.8837536E1,6.202488E-1,8.996277E-1,0E0,8.836828E-1,5.7589996E-1,0E0,0E0,0E0,0E0,0E0],"parents":[2147483647,0,0,1,1,2,2,4,4,5,5],"right_children":[2,4,6,-1,8,10,-1,-1,-1,-1,-1],"split_conditions":[9.95E1,6.05E1,9.2E1,-1.6042191E-1,5.3E1,1.65E1,1.7752807E-1,1.3481112E-1,-1.1499899E-1,1.1007277E-1,-1.0410562E-1],"split_indices":[1012,222,1112,0,2220,30,0,0,0,0,0],"split_type":[0,0,0,0,0,0,0,0,0,0,0],"sum_hessian":[1.5659583E2,4.652279E1,1.1007304E2,4.3168953E1,3.3538337E0,2.5295515E0,1.0754349E2,1.1158363E0,2.2379975E0,1.1607809E0,1.3687705E0],"tree_param":{"num_deleted":"0","num_feature":"3333","num_nodes":"11","size_leaf_vector":"0"}},{"base_weights":[-5.896664E-2,3.1711775E-1,-5.173501E-1,5.1240015E-1,-5.088879E-1,-5.358118E-1,2.0522276E-1,5.603305E-1,-4.755213E-2,5.8901733E-1,-2.0840375E-1,-4.6013147E-1,3.7035704E-1],"categories":[],"categories_nodes":[],"categories_segments":[],"categories_sizes":[],"default_left":[1,1,1,1,0,0,0,1,1,0,0,0,0],"id":16,"left_children":[1,3,5,7,-1,-1,-1,9,11,-1,-1,-1,-1],"loss_changes":[2.3307571E1,1.2256199E1,9.221649E-1,1.6542549E0,0E0,0E0,0E0,1.3563843E0,1.1538037E0,0E0,0E0,0E0,0E0],"parents":[2147483647,0,0,1,1,2,2,3,3,7,7,8,8],"right_children":[2,4,6,8,-1,-1,-1,10,12,-1,-1,-1,-1],"split_conditions":[1.025E2,8.55E1,1.95E1,4.3E1,-1.5266638E-1,-1.6074353E-1,6.156683E-2,1.865E2,1E2,1.7670521E-1,-6.252113E-2,-1.3803944E-1,1.1110712E-1],"split_indices":[1012,132,3000,131,0,0,0,2111,21,0,0,0,0],"split_type":[0,0,0,0,0,0,0,0,0,0,0,0,0],"sum_hessian":[1.3325023E2,7.336528E1,5.9884953E1,5.964403E1,1.3721246E1,5.864504E1,1.2399151E0,5.4940594E1,4.7034388E0,5.3189507E1,1.7510855E0,2.3159716E0,2.387467E0],"tree_param":{"num_deleted":"0","num_feature":"3333","num_nodes":"13","size_leaf_vector":"0"}},{"base_weights":[-2.6965064E-1,-5.327954E-1,5.0752074E-1,-5.390963E-1,-6.264603E-3,-2.4044135E-1,5.747636E-1,-4.45358E-2,-3.0835614E-1],"categories":[],"categories_nodes":[],"categories_segments":[],"categories_sizes":[],"default_left":[1,1,1,0,0,1,0,0,0],"id":17,"left_children":[1,3,5,-1,-1,7,-1,-1,-1],"loss_changes":[2.4825705E1,2.9582405E-1,1.691483E0,0E0,0E0,2.954124E-2,0E0,0E0,0E0],"parents":[2147483647,0,0,1,1,2,2,5,5],"right_children":[2,4,6,-1,-1,8,-1,-1,-1],"split_conditions":[6.95E1,4.65E1,8.15E1,-1.6172889E-1,-1.879381E-3,4.95E1,1.7242908E-1,-1.3360741E-2,-9.250684E-2],"split_indices":[132,131,1020,0,0,101,0,0,0],"split_type":[0,0,0,0,0,0,0,0,0],"sum_hessian":[1.19069756E2,8.918633E1,2.9883429E1,8.81081E1,1.0782287E0,2.2524996E0,2.7630928E1,1.0060961E0,1.2464033E0],"tree_param":{"num_deleted":"0","num_feature":"3333","num_nodes":"9","size_leaf_vector":"0"}},{"base_weights":[2.4275489E-1,-4.829156E-1,5.481019E-1,-5.1941365E-1,-4.5499004E-2,5.601637E-1,-1.0266301E-1,-3.5585475E-1,4.0522322E-1,1.5738341E-1,5.6355184E-1],"categories":[],"categories_nodes":[],"categories_segments":[],"categories_sizes":[],"default_left":[1,1,1,0,1,1,0,0,0,0,0],"id":18,"left_children":[1,3,5,-1,7,9,-1,-1,-1,-1,-1],"loss_changes":[2.7712711E1,5.7054806E-1,7.4554825E-1,0E0,6.984661E-1,2.8963089E-2,0E0,0E0,0E0,0E0,0E0],"parents":[2147483647,0,0,1,1,2,2,4,4,5,5],"right_children":[2,4,6,-1,8,10,-1,-1,-1,-1,-1],"split_conditions":[9.95E1,6.05E1,6.35E1,-1.558241E-1,1.06E2,1.14E2,-3.0798905E-2,-1.0675643E-1,1.2156697E-1,4.7215026E-2,1.6906556E-1],"split_indices":[1012,222,1000,0,3120,1210,0,0,0,0,0],"split_type":[0,0,0,0,0,0,0,0,0,0,0],"sum_hessian":[1.2287337E2,3.6218052E1,8.665531E1,3.3255737E1,2.9623156E0,8.521509E1,1.4402192E0,1.8789783E0,1.0833373E0,1.1066685E0,8.410842E1],"tree_param":{"num_deleted":"0","num_feature":"3333","num_nodes":"11","size_leaf_vector":"0"}},{"base_weights":[-5.5744328E-2,2.9704905E-1,-5.002764E-1,4.7803774E-1,-4.881588E-1,1.9695358E-1,-5.2116394E-1,5.1030624E-1,-2.614972E-1,5.421113E-1,-6.655075E-2,6.168767E-2,5.52535E-1,-3.8240558E-1,3.098376E-1,5.625266E-1,9.137114E-2],"categories":[],"categories_nodes":[],"categories_segments":[],"categories_sizes":[],"default_left":[1,1,1,1,0,0,0,1,0,1,1,0,1,0,0,0,0],"id":19,"left_children":[1,3,5,7,-1,-1,-1,9,-1,11,13,-1,15,-1,-1,-1,-1],"loss_changes":[1.6692787E1,8.680969E0,7.878542E-1,1.2983007E0,0E0,0E0,0E0,9.0042114E-1,0E0,1.900568E-1,5.1703036E-1,0E0,1.4987946E-1,0E0,0E0,0E0,0E0],"parents":[2147483647,0,0,1,1,2,2,3,3,7,7,9,9,10,10,12,12],"right_children":[2,4,6,8,-1,-1,-1,10,-1,12,14,-1,16,-1,-1,-1,-1],"split_conditions":[1.025E2,8.55E1,8.5E1,1.33E2,-1.4644764E-1,5.9086077E-2,-1.5634918E-1,5.15E1,-7.844916E-2,9.6E1,1.035E2,1.8506302E-2,1.015E2,-1.1472168E-1,9.295128E-2,1.6875798E-1,2.7411344E-2],"split_indices":[1012,132,1112,3120,0,0,0,231,0,1121,21,0,2011,0,0,0,0],"split_type":[0,0,0,0,0,0,0,0,0,0,0,0,0,0,0,0,0],"sum_hessian":[1.04492546E2,5.84426E1,4.604995E1,4.7813E1,1.0629598E1,1.0942582E0,4.4955692E1,4.611098E1,1.7020203E0,4.3758583E1,2.352398E0,1.0761762E0,4.2682407E1,1.2703599E0,1.082038E0,4.156212E1,1.1202863E0],"tree_param":{"num_deleted":"0","num_feature":"3333","num_nodes":"17","size_leaf_vector":"0"}},{"base_weights":[-2.5853434E-1,-5.143381E-1,4.8479965E-1,-5.257026E-1,1.1601733E-1,-2.9466105E-1,5.369351E-1,5.4896456E-1,1.4210863E-1],"categories":[],"categories_nodes":[],"categories_segments":[],"categories_sizes":[],"default_left":[1,1,1,0,0,0,1,0,0],"id":20,"left_children":[1,3,5,-1,-1,-1,7,-1,-1],"loss_changes":[1.8040882E1,5.631428E-1,1.1526227E0,0E0,0E0,0E0,3.26066E-2,0E0,0E0],"parents":[2147483647,0,0,1,1,2,2,6,6],"right_children":[2,4,6,-1,-1,-1,8,-1,-1],"split_conditions":[7.1E1,5.15E1,8.2E1,-1.5771079E-1,3.48052E-2,-8.8398315E-2,8.85E1,1.6468938E-1,4.263259E-2],"split_indices":[132,202,2031,0,0,0,122,0,0],"split_type":[0,0,0,0,0,0,0,0,0],"sum_hessian":[9.256695E1,6.909674E1,2.3470213E1,6.803615E1,1.0605897E0,1.1797844E0,2.2290428E1,2.1252516E1,1.0379121E0],"tree_param":{"num_deleted":"0","num_feature":"3333","num_nodes":"9","size_leaf_vector":"0"}},{"base_weights":[2.3206715E-1,-4.6457326E-1,5.2479595E-1,-5.0648403E-1,-2.4585895E-2,-4.2769395E-2,5.4228306E-1,-3.2442084E-1,3.5847893E-1],"categories":[],"categories_nodes":[],"categories_segments":[],"categories_sizes":[],"default_left":[1,1,1,0,1,0,0,0,0],"id":21,"left_children":[1,3,5,-1,7,-1,-1,-1,-1],"loss_changes":[1.9956907E1,5.2474594E-1,7.034168E-1,0E0,5.280145E-1,0E0,0E0,0E0,0E0],"parents":[2147483647,0,0,1,1,2,2,4,4],"right_children":[2,4,6,-1,8,-1,-1,-1,-1],"split_conditions":[9.95E1,6.05E1,9.2E1,-1.5194522E-1,8.55E1,-1.2830819E-2,1.6268492E-1,-9.732626E-2,1.07543685E-1],"split_indices":[1012,222,1112,0,1012,0,0,0,0],"split_type":[0,0,0,0,0,0,0,0,0],"sum_hessian":[9.566759E1,2.8131876E1,6.753571E1,2.554725E1,2.5846245E0,1.9754202E0,6.5560295E1,1.5356905E0,1.048934E0],"tree_param":{"num_deleted":"0","num_feature":"3333","num_nodes":"9","size_leaf_vector":"0"}},{"base_weights":[-5.3319506E-2,2.9725516E-1,-4.6519643E-1,4.5760965E-1,-4.6261296E-1,2.0019199E-1,-4.9394488E-1,4.9590513E-1,-3.2121453E-1,-4.0727523E-3,-5.0985974E-1,5.226897E-1,-4.1638453E-2,5.414031E-1,-3.6764655E-2],"categories":[],"categories_nodes":[],"categories_segments":[],"categories_sizes":[],"default_left":[1,1,1,1,0,0,1,1,0,0,0,1,0,0,0],"id":22,"left_children":[1,3,5,7,-1,-1,9,11,-1,-1,-1,13,-1,-1,-1],"loss_changes":[1.2043457E1,5.7130713E0,8.31522E-1,1.2862334E0,0E0,0E0,2.8640175E-1,5.4594517E-1,0E0,0E0,0E0,3.8373947E-1,0E0,0E0,0E0],"parents":[2147483647,0,0,1,1,2,2,3,3,6,6,7,7,11,11],"right_children":[2,4,6,8,-1,-1,10,12,-1,-1,-1,14,-1,-1,-1],"split_conditions":[9.95E1,8.55E1,8.6E1,1.34E2,-1.3878389E-1,6.00576E-2,6.8E1,6.15E1,-9.6364364E-2,-1.2218257E-3,-1.5295793E-1,1.045E2,-1.2491536E-2,1.6242094E-1,-1.1029397E-2],"split_indices":[2101,132,3120,3120,0,0,1032,1310,0,0,0,2011,0,0,0],"split_type":[0,0,0,0,0,0,0,0,0,0,0,0,0,0,0],"sum_hessian":[8.144946E1,4.4149395E1,3.7300068E1,3.6784554E1,7.3648434E0,1.2978368E0,3.600223E1,3.540683E1,1.3777219E0,1.1723449E0,3.4829887E1,3.3752644E1,1.6541847E0,3.2691406E1,1.0612406E0],"tree_param":{"num_deleted":"0","num_feature":"3333","num_nodes":"15","size_leaf_vector":"0"}},{"base_weights":[-2.4854022E-1,-5.0606567E-1,4.489508E-1,-5.146256E-1,-4.16826E-2,-2.016769E-1,5.1756597E-1],"categories":[],"categories_nodes":[],"categories_segments":[],"categories_sizes":[],"default_left":[1,1,1,0,0,0,0],"id":23,"left_children":[1,3,5,-1,-1,-1,-1],"loss_changes":[1.3262833E1,1.9111061E-1,1.0016832E0,0E0,0E0,0E0,0E0],"parents":[2147483647,0,0,1,1,2,2],"right_children":[2,4,6,-1,-1,-1,-1],"split_conditions":[6.95E1,4.75E1,8.15E1,-1.5438768E-1,-1.2504781E-2,-6.0503073E-2,1.552698E-1],"split_indices":[132,202,1020,0,0,0,0],"split_type":[0,0,0,0,0,0,0],"sum_hessian":[7.1572716E1,5.247318E1,1.9099537E1,5.1417217E1,1.0559618E0,1.6370779E0,1.7462458E1],"tree_param":{"num_deleted":"0","num_feature":"3333","num_nodes":"7","size_leaf_vector":"0"}},{"base_weights":[2.2266284E-1,-4.4791606E-1,5.067124E-1,-4.9492854E-1,-1.0596154E-2,5.273646E-1,-3.7330426E-2,-2.9226747E-1,3.094512E-1],"categories":[],"categories_nodes":[],"categories_segments":[],"categories_sizes":[],"default_left":[1,1,1,0,1,0,0,0,0],"id":24,"left_children":[1,3,5,-1,7,-1,-1,-1,-1],"loss_changes":[1.4538895E1,4.6531725E-1,6.179781E-1,0E0,3.8283974E-1,0E0,0E0,0E0,0E0],"parents":[2147483647,0,0,1,1,2,2,4,4],"right_children":[2,4,6,-1,8,-1,-1,-1,-1],"split_conditions":[9.95E1,6.05E1,9.55E1,-1.4847857E-1,8.55E1,1.5820938E-1,-1.1199128E-2,-8.768024E-2,9.283536E-2],"split_indices":[1012,222,310,0,1012,0,0,0,0],"split_type":[0,0,0,0,0,0,0,0,0],"sum_hessian":[7.413707E1,2.1887817E1,5.224925E1,1.9644299E1,2.2435188E0,5.0367905E1,1.8813434E0,1.2394698E0,1.0040491E0],"tree_param":{"num_deleted":"0","num_feature":"3333","num_nodes":"9","size_leaf_vector":"0"}},{"base_weights":[-5.0595395E-2,2.592571E-1,-4.840396E-1,4.1407353E-1,-4.4861242E-1,-4.9887323E-1,-4.892747E-2,4.5546383E-1,-3.130977E-1,4.9318928E-1,-8.6518526E-2,5.100894E-1,1.9130284E-2,8.714397E-2,5.2360594E-1],"categories":[],"categories_nodes":[],"categories_segments":[],"categories_sizes":[],"default_left":[1,1,1,1,0,0,0,1,0,1,0,1,0,0,0],"id":25,"left_children":[1,3,5,7,-1,-1,-1,9,-1,11,-1,13,-1,-1,-1],"loss_changes":[8.792472E0,4.3811445E0,1.5147114E-1,1.103704E0,0E0,0E0,0E0,6.687465E-1,0E0,2.2079134E-1,0E0,1.12995625E-1,0E0,0E0,0E0],"parents":[2147483647,0,0,1,1,2,2,3,3,7,7,9,9,11,11],"right_children":[2,4,6,8,-1,-1,-1,10,-1,12,-1,14,-1,-1,-1],"split_conditions":[1.055E2,8.55E1,8.95E1,1.35E2,-1.3458373E-1,-1.4966197E-1,-1.4678242E-2,5.15E1,-9.392931E-2,1.015E2,-2.595556E-2,1.01E2,5.7390854E-3,2.6143193E-2,1.5708178E-1],"split_indices":[1012,132,22,3120,0,0,0,231,0,2011,0,1121,0,0,0],"split_type":[0,0,0,0,0,0,0,0,0,0,0,0,0,0,0],"sum_hessian":[6.3532673E1,3.7282627E1,2.6250044E1,3.09325E1,6.3501277E0,2.5242933E1,1.0071108E0,2.962018E1,1.31232E0,2.7776766E1,1.8434145E0,2.6747227E1,1.0295384E0,1.0589476E0,2.568828E1],"tree_param":{"num_deleted":"0","num_feature":"3333","num_nodes":"15","size_leaf_vector":"0"}},{"base_weights":[-2.3932552E-1,4.0497318E-1,-5.057363E-1,-3.231915E-1,4.9762672E-1],"categories":[],"categories_nodes":[],"categories_segments":[],"categories_sizes":[],"default_left":[1,1,0,0,0],"id":26,"left_children":[1,3,-1,-1,-1],"loss_changes":[9.862244E0,1.3087118E0,0E0,0E0,0E0],"parents":[2147483647,0,0,1,1],"right_children":[2,4,-1,-1,-1],"split_conditions":[1.425E2,8.4E1,-1.517209E-1,-9.695745E-2,1.4928803E-1],"split_indices":[1121,2031,0,0,0],"split_type":[0,0,0,0,0],"sum_hessian":[5.5262974E1,1.6013987E1,3.924899E1,1.526787E0,1.44872E1],"tree_param":{"num_deleted":"0","num_feature":"3333","num_nodes":"5","size_leaf_vector":"0"}},{"base_weights":[2.1473877E-1,-4.2946634E-1,4.9093333E-1,-4.8351452E-1,3.1523395E-3,-5.8548294E-2,5.142294E-1],"categories":[],"categories_nodes":[],"categories_segments":[],"categories_sizes":[],"default_left":[1,1,1,0,0,0,0],"id":27,"left_children":[1,3,5,-1,-1,-1,-1],"loss_changes":[1.0578091E1,4.2283225E-1,5.5812454E-1,0E0,0E0,0E0,0E0],"parents":[2147483647,0,0,1,1,2,2],"right_children":[2,4,6,-1,-1,-1,-1],"split_conditions":[9.95E1,1.065E2,9.2E1,-1.4505436E-1,9.457019E-4,-1.7564489E-2,1.5426883E-1],"split_indices":[1012,1202,1112,0,0,0,0],"split_type":[0,0,0,0,0,0,0],"sum_hessian":[5.7267227E1,1.7018286E1,4.024894E1,1.5023691E1,1.9945946E0,1.5754639E0,3.8673477E1],"tree_param":{"num_deleted":"0","num_feature":"3333","num_nodes":"7","size_leaf_vector":"0"}},{"base_weights":[-4.825383E-2,3.2682914E-1,-3.8879037E-1,4.1943946E-1,-3.6646208E-1,5.5171233E-2,-4.7011933E-1,4.7268626E-1,-2.8275946E-1,3.5207835E-1,-3.2709888E-1,-4.9067387E-1,-3.8041085E-2,4.9598747E-1,7.533077E-2],"categories":[],"categories_nodes":[],"categories_segments":[],"categories_sizes":[],"default_left":[1,1,1,1,0,1,1,1,0,0,0,0,0,0,0],"id":28,"left_children":[1,3,5,7,-1,9,11,13,-1,-1,-1,-1,-1,-1,-1],"loss_changes":[6.574318E0,1.7307887E0,9.976821E-1,9.6126866E-1,0E0,6.8967384E-1,1.8427944E-1,1.5659904E-1,0E0,0E0,0E0,0E0,0E0,0E0,0E0],"parents":[2147483647,0,0,1,1,2,2,3,3,5,5,6,6,7,7],"right_children":[2,4,6,8,-1,10,12,14,-1,-1,-1,-1,-1,-1,-1],"split_conditions":[1.05E2,1.035E2,8.85E1,1.165E2,-1.0993863E-1,7E1,9.65E1,5.8E1,-8.482784E-2,1.05623506E-1,-9.812967E-2,-1.4720216E-1,-1.1412326E-2,1.4879625E-1,2.2599231E-2],"split_indices":[3120,1020,2101,1012,0,2310,3110,232,0,0,0,0,0,0,0],"split_type":[0,0,0,0,0,0,0,0,0,0,0,0,0,0,0],"sum_hessian":[4.9475826E1,2.3562849E1,2.5912977E1,2.1134668E1,2.428181E0,4.061815E0,2.1851164E1,1.9948824E1,1.1858442E0,2.3306172E0,1.7311975E0,2.0729422E1,1.1217413E0,1.8609337E1,1.3394858E0],"tree_param":{"num_deleted":"0","num_feature":"3333","num_nodes":"15","size_leaf_vector":"0"}},{"base_weights":[-2.313872E-1,-4.8651037E-1,4.08238E-1,-4.977695E-1,-8.140822E-2,-1.22089826E-1,4.8533612E-1],"categories":[],"categories_nodes":[],"categories_segments":[],"categories_sizes":[],"default_left":[1,1,1,0,0,0,0],"id":29,"left_children":[1,3,5,-1,-1,-1,-1],"loss_changes":[7.3050165E0,1.0355234E-1,5.891919E-1,0E0,0E0,0E0,0E0],"parents":[2147483647,0,0,1,1,2,2],"right_children":[2,4,6,-1,-1,-1,-1],"split_conditions":[6.95E1,1.67E2,8.8E1,-1.4933085E-1,-2.4422467E-2,-3.662695E-2,1.4560084E-1],"split_indices":[132,2031,1020,0,0,0,0],"split_type":[0,0,0,0,0,0,0],"sum_hessian":[4.254863E1,3.0587694E1,1.1960935E1,2.9537987E1,1.0497087E0,1.4440839E0,1.0516851E1],"tree_param":{"num_deleted":"0","num_feature":"3333","num_nodes":"7","size_leaf_vector":"0"}}]},"name":"gbtree"},"learner_model_param":{"base_score":"5E-1","num_class":"3","num_feature":"3333","num_target":"1"},"objective":{"name":"multi:softprob","softmax_multiclass_param":{"num_class":"3"}}},"version":[1,6,1]}