{"learner":{"attributes":{"best_iteration":"9","best_ntree_limit":"10"},"feature_names":[],"feature_types":[],"gradient_booster":{"model":{"gbtree_model_param":{"num_parallel_tree":"1","num_trees":"20","size_leaf_vector":"0"},"tree_info":[0,1,0,1,0,1,0,1,0,1,0,1,0,1,0,1,0,1,0,1],"trees":[{"base_weights":[-4.9751243E-1,8.181818E-1,-9.863946E-1,9.8E-1,-6.666667E-1,-9.931507E-1,-0E0,-8E-1,-0E0],"categories":[],"categories_nodes":[],"categories_segments":[],"categories_sizes":[],"default_left":[1,1,1,0,1,0,0,0,0],"id":0,"left_children":[1,3,5,-1,7,-1,-1,-1,-1],"loss_changes":[1.3009415E2,1.3868488E1,9.796448E-1,0E0,5.333333E-1,0E0,0E0,0E0,0E0],"parents":[2147483647,0,0,1,1,2,2,4,4],"right_children":[2,4,6,-1,8,-1,-1,-1,-1],"split_conditions":[7.45E1,1.265E2,5.75E1,2.9400003E-1,2.255E2,-2.9794523E-1,-0E0,-2.4000001E-1,-0E0],"split_indices":[130,320,201,0,2,0,0,0,0],"split_type":[0,0,0,0,0,0,0,0,0],"sum_hessian":[2E2,5.4E1,1.46E2,4.9E1,5E0,1.45E2,1E0,4E0,1E0],"tree_param":{"num_deleted":"0","num_feature":"3333","num_nodes":"9","size_leaf_vector":"0"}},{"base_weights":[4.9751243E-1,-8.181818E-1,9.863946E-1,-9.8E-1,6.666667E-1,9.931507E-1,-0E0,8E-1,-0E0],"categories":[],"categories_nodes":[],"categories_segments":[],"categories_sizes":[],"default_left":[1,1,1,0,1,0,0,0,0],"id":1,"left_children":[1,3,5,-1,7,-1,-1,-1,-1],"loss_changes":[1.3009415E2,1.3868488E1,9.796448E-1,0E0,5.333333E-1,0E0,0E0,0E0,0E0],"parents":[2147483647,0,0,1,1,2,2,4,4],"right_children":[2,4,6,-1,8,-1,-1,-1,-1],"split_conditions":[7.45E1,1.265E2,5.75E1,-2.9400003E-1,2.255E2,2.9794523E-1,-0E0,2.4000001E-1,-0E0],"split_indices":[130,320,201,0,2,0,0,0,0],"split_type":[0,0,0,0,0,0,0,0,0],"sum_hessian":[2E2,5.4E1,1.46E2,4.9E1,5E0,1.45E2,1E0,4E0,1E0],"tree_param":{"num_deleted":"0","num_feature":"3333","num_nodes":"9","size_leaf_vector":"0"}},{"base_weights":[-3.8507175E-1,-7.262448E-1,7.458775E-1,3.9499885E-1,-7.6705056E-1,1.510265E-1,7.618119E-1,6.210586E-1,-1.6949318E-1,-7.721969E-1,-1.4880744E-1],"categories":[],"categories_nodes":[],"categories_segments":[],"categories_sizes":[],"default_left":[1,1,1,1,1,0,0,0,0,0,0],"id":2,"left_children":[1,3,5,7,9,-1,-1,-1,-1,-1,-1],"loss_changes":[7.178056E1,6.8157883E0,2.9519844E-1,8.2735693E-1,3.2317352E-1,0E0,0E0,0E0,0E0,0E0,0E0],"parents":[2147483647,0,0,1,1,2,2,3,3,4,4],"right_children":[2,4,6,8,10,-1,-1,-1,-1,-1,-1],"split_conditions":[5.55E1,6.9E1,1.745E2,1.07E2,1.69E2,4.5307953E-2,2.2854358E-1,1.8631758E-1,-5.084796E-2,-2.3165907E-1,-4.4642232E-2],"split_indices":[222,130,2,13,1000,0,0,0,0,0,0],"split_type":[0,0,0,0,0,0,0,0,0,0,0],"sum_hessian":[1.8362871E2,1.4134659E2,4.2282127E1,4.6586313E0,1.3668796E2,1.3764261E0,4.09057E1,3.254934E0,1.4036975E0,1.3531256E2,1.3753853E0],"tree_param":{"num_deleted":"0","num_feature":"3333","num_nodes":"11","size_leaf_vector":"0"}},{"base_weights":[3.8507175E-1,7.2624475E-1,-7.458775E-1,-3.9499885E-1,7.670505E-1,-1.5102649E-1,-7.618119E-1,-6.210586E-1,1.6949318E-1,7.721969E-1,1.4880745E-1],"categories":[],"categories_nodes":[],"categories_segments":[],"categories_sizes":[],"default_left":[1,1,1,1,1,0,0,0,0,0,0],"id":3,"left_children":[1,3,5,7,9,-1,-1,-1,-1,-1,-1],"loss_changes":[7.178056E1,6.815796E0,2.9520035E-1,8.2735693E-1,3.2317352E-1,0E0,0E0,0E0,0E0,0E0,0E0],"parents":[2147483647,0,0,1,1,2,2,3,3,4,4],"right_children":[2,4,6,8,10,-1,-1,-1,-1,-1,-1],"split_conditions":[5.55E1,6.9E1,1.745E2,1.07E2,1.69E2,-4.530795E-2,-2.2854358E-1,-1.8631758E-1,5.084796E-2,2.3165907E-1,4.4642236E-2],"split_indices":[222,130,2,13,1000,0,0,0,0,0,0],"split_type":[0,0,0,0,0,0,0,0,0,0,0],"sum_hessian":[1.8362872E2,1.413466E2,4.2282127E1,4.6586313E0,1.3668797E2,1.3764262E0,4.09057E1,3.254934E0,1.4036975E0,1.3531258E2,1.3753853E0],"tree_param":{"num_deleted":"0","num_feature":"3333","num_nodes":"11","size_leaf_vector":"0"}},{"base_weights":[-3.301657E-1,5.4388046E-1,-6.628959E-1,-4.554387E-1,6.649534E-1,-5.681909E-2,-6.691067E-1,-8.0202796E-2,-5.549875E-1],"categories":[],"categories_nodes":[],"categories_segments":[],"categories_sizes":[],"default_left":[1,1,1,1,0,0,0,0,0],"id":4,"left_children":[1,3,5,7,-1,-1,-1,-1,-1],"loss_changes":[4.5570145E1,5.55517E0,3.8750458E-1,1.5289211E-1,0E0,0E0,0E0,0E0,0E0],"parents":[2147483647,0,0,1,1,2,2,3,3],"right_children":[2,4,6,8,-1,-1,-1,-1,-1],"split_conditions":[7.45E1,4.35E1,6.1E1,1.095E2,1.9948603E-1,-1.7045727E-2,-2.0073202E-1,-2.406084E-2,-1.6649625E-1],"split_indices":[130,1022,213,13,0,0,0,0,0],"split_type":[0,0,0,0,0,0,0,0,0],"sum_hessian":[1.5445482E2,4.2411034E1,1.12043785E2,4.28463E0,3.8126404E1,1.239466E0,1.1080431E2,1.2769607E0,3.007669E0],"tree_param":{"num_deleted":"0","num_feature":"3333","num_nodes":"9","size_leaf_vector":"0"}},{"base_weights":[3.3016568E-1,-5.438805E-1,6.628959E-1,4.554387E-1,-6.6495353E-1,5.6819063E-2,6.691067E-1,8.0202796E-2,5.5498755E-1],"categories":[],"categories_nodes":[],"categories_segments":[],"categories_sizes":[],"default_left":[1,1,1,1,0,0,0,0,0],"id":5,"left_children":[1,3,5,7,-1,-1,-1,-1,-1],"loss_changes":[4.5570152E1,5.555171E0,3.8750458E-1,1.5289211E-1,0E0,0E0,0E0,0E0,0E0],"parents":[2147483647,0,0,1,1,2,2,3,3],"right_children":[2,4,6,8,-1,-1,-1,-1,-1],"split_conditions":[7.45E1,4.35E1,6.1E1,1.095E2,-1.9948606E-1,1.704572E-2,2.0073202E-1,2.406084E-2,1.6649628E-1],"split_indices":[130,1022,213,13,0,0,0,0,0],"split_type":[0,0,0,0,0,0,0,0,0],"sum_hessian":[1.5445482E2,4.2411034E1,1.12043785E2,4.28463E0,3.8126404E1,1.239466E0,1.1080431E2,1.2769607E0,3.007669E0],"tree_param":{"num_deleted":"0","num_feature":"3333","num_nodes":"9","size_leaf_vector":"0"}},{"base_weights":[-2.997789E-1,-5.8626056E-1,5.3492314E-1,-6.074212E-1,1.1318362E-1,-2.9879394E-1,6.03392E-1,-6.126301E-1,-7.53168E-2,4.3297178E-1,-3.3630288E-1],"categories":[],"categories_nodes":[],"categories_segments":[],"categories_sizes":[],"default_left":[1,1,0,1,1,0,0,0,0,0,0],"id":6,"left_children":[1,3,5,7,9,-1,-1,-1,-1,-1,-1],"loss_changes":[3.034099E1,1.4594612E0,2.0416985E0,2.0708466E-1,6.633849E-1,0E0,0E0,0E0,0E0,0E0,0E0],"parents":[2147483647,0,0,1,1,2,2,3,3,4,4],"right_children":[2,4,6,8,10,-1,-1,-1,-1,-1,-1],"split_conditions":[4.95E1,1.63E2,1.15E1,1.83E2,1.175E2,-8.963819E-2,1.810176E-1,-1.8378904E-1,-2.259504E-2,1.2989154E-1,-1.0089087E-1],"split_indices":[2210,1000,1211,3200,1,0,0,0,0,0,0],"split_type":[0,0,0,0,0,0,0,0,0,0,0],"sum_hessian":[1.2457097E2,9.296253E1,3.160843E1,9.036038E1,2.6021538E0,2.1435356E0,2.9464895E1,8.933453E1,1.0258516E0,1.541904E0,1.0602497E0],"tree_param":{"num_deleted":"0","num_feature":"3333","num_nodes":"11","size_leaf_vector":"0"}},{"base_weights":[2.997788E-1,5.8626056E-1,-5.349232E-1,6.0742116E-1,-1.1318363E-1,2.9879388E-1,-6.03392E-1,6.1263007E-1,7.5316764E-2,-4.329718E-1,3.3630288E-1],"categories":[],"categories_nodes":[],"categories_segments":[],"categories_sizes":[],"default_left":[1,1,0,1,1,0,0,0,0,0,0],"id":7,"left_children":[1,3,5,7,9,-1,-1,-1,-1,-1,-1],"loss_changes":[3.0340994E1,1.4594612E0,2.0416985E0,2.0708466E-1,6.63385E-1,0E0,0E0,0E0,0E0,0E0,0E0],"parents":[2147483647,0,0,1,1,2,2,3,3,4,4],"right_children":[2,4,6,8,10,-1,-1,-1,-1,-1,-1],"split_conditions":[4.95E1,1.63E2,1.15E1,1.83E2,1.175E2,8.9638166E-2,-1.810176E-1,1.8378903E-1,2.259503E-2,-1.2989154E-1,1.0089087E-1],"split_indices":[2210,1000,1211,3200,1,0,0,0,0,0,0],"split_type":[0,0,0,0,0,0,0,0,0,0,0],"sum_hessian":[1.2457096E2,9.2962524E1,3.1608435E1,9.0360374E1,2.602154E0,2.1435354E0,2.9464901E1,8.933452E1,1.0258516E0,1.5419042E0,1.0602498E0],"tree_param":{"num_deleted":"0","num_feature":"3333","num_nodes":"11","size_leaf_vector":"0"}},{"base_weights":[-2.7842957E-1,5.305825E-1,-5.379847E-1,-1.0585106E-1,5.626279E-1,-5.6738687E-1,2.941286E-1,-5.7497036E-1,-1.7093318E-2],"categories":[],"categories_nodes":[],"categories_segments":[],"categories_sizes":[],"default_left":[1,1,1,0,0,1,0,0,0],"id":8,"left_children":[1,3,5,-1,-1,7,-1,-1,-1],"loss_changes":[2.1160921E1,5.6231403E-1,2.0205097E0,0E0,0E0,2.96978E-1,0E0,0E0,0E0],"parents":[2147483647,0,0,1,1,2,2,5,5],"right_children":[2,4,6,-1,-1,8,-1,-1,-1],"split_conditions":[6.95E1,5.75E1,5.55E1,-3.175532E-2,1.6878837E-1,3.55E1,8.823858E-2,-1.7249112E-1,-5.1279953E-3],"split_indices":[130,102,222,0,0,312,0,0,0],"split_type":[0,0,0,0,0,0,0,0,0],"sum_hessian":[9.841494E1,2.3651371E1,7.4763565E1,1.0233865E0,2.2627985E1,7.251929E1,2.2442796E0,7.1489265E1,1.030023E0],"tree_param":{"num_deleted":"0","num_feature":"3333","num_nodes":"9","size_leaf_vector":"0"}},{"base_weights":[2.7842957E-1,-5.305825E-1,5.379847E-1,1.05851136E-1,-5.626279E-1,5.6738687E-1,-2.941286E-1,5.7497036E-1,1.7093347E-2],"categories":[],"categories_nodes":[],"categories_segments":[],"categories_sizes":[],"default_left":[1,1,1,0,0,1,0,0,0],"id":9,"left_children":[1,3,5,-1,-1,7,-1,-1,-1],"loss_changes":[2.1160921E1,5.6231403E-1,2.0205097E0,0E0,0E0,2.96978E-1,0E0,0E0,0E0],"parents":[2147483647,0,0,1,1,2,2,5,5],"right_children":[2,4,6,-1,-1,8,-1,-1,-1],"split_conditions":[6.95E1,5.75E1,5.55E1,3.1755343E-2,-1.6878837E-1,3.55E1,-8.823858E-2,1.7249112E-1,5.1280046E-3],"split_indices":[130,102,222,0,0,312,0,0,0],"split_type":[0,0,0,0,0,0,0,0,0],"sum_hessian":[9.841495E1,2.3651375E1,7.476357E1,1.0233865E0,2.2627987E1,7.2519295E1,2.2442796E0,7.148927E1,1.030023E0],"tree_param":{"num_deleted":"0","num_feature":"3333","num_nodes":"9","size_leaf_vector":"0"}},{"base_weights":[-2.6131287E-1,4.2406037E-1,-5.4035544E-1,5.4005384E-1,-3.2963437E-1,-5.490327E-1,-4.211589E-2,-3.8170162E-1,-9.5602825E-2],"categories":[],"categories_nodes":[],"categories_segments":[],"categories_sizes":[],"default_left":[1,1,1,0,1,0,0,0,0],"id":10,"left_children":[1,3,5,-1,7,-1,-1,-1,-1],"loss_changes":[1.5113681E1,2.1956725E0,2.1790123E-1,0E0,8.583248E-3,0E0,0E0,0E0,0E0],"parents":[2147483647,0,0,1,1,2,2,4,4],"right_children":[2,4,6,-1,8,-1,-1,-1,-1],"split_conditions":[7.45E1,1.265E2,5.6E1,1.6201615E-1,2.015E2,-1.647098E-1,-1.2634767E-2,-1.1451049E-1,-2.8680848E-2],"split_indices":[130,320,2210,0,20,0,0,0,0],"split_type":[0,0,0,0,0,0,0,0,0],"sum_hessian":[7.682833E1,2.207902E1,5.474931E1,1.9379915E1,2.699106E0,5.3711926E1,1.0373813E0,1.6917437E0,1.0073621E0],"tree_param":{"num_deleted":"0","num_feature":"3333","num_nodes":"9","size_leaf_vector":"0"}},{"base_weights":[2.613128E-1,-4.2406043E-1,5.4035544E-1,-5.4005384E-1,3.296344E-1,5.490327E-1,4.211592E-2,3.8170162E-1,9.5602885E-2],"categories":[],"categories_nodes":[],"categories_segments":[],"categories_sizes":[],"default_left":[1,1,1,0,1,0,0,0,0],"id":11,"left_children":[1,3,5,-1,7,-1,-1,-1,-1],"loss_changes":[1.5113686E1,2.1956725E0,2.1790123E-1,0E0,8.583188E-3,0E0,0E0,0E0,0E0],"parents":[2147483647,0,0,1,1,2,2,4,4],"right_children":[2,4,6,-1,8,-1,-1,-1,-1],"split_conditions":[7.45E1,1.265E2,5.6E1,-1.6201615E-1,2.015E2,1.647098E-1,1.26347765E-2,1.1451049E-1,2.8680867E-2],"split_indices":[130,320,2210,0,20,0,0,0,0],"split_type":[0,0,0,0,0,0,0,0,0],"sum_hessian":[7.682835E1,2.207903E1,5.4749317E1,1.9379923E1,2.699106E0,5.3711937E1,1.0373814E0,1.6917436E0,1.0073622E0],"tree_param":{"num_deleted":"0","num_feature":"3333","num_nodes":"9","size_leaf_vector":"0"}},{"base_weights":[-2.5000376E-1,-5.113067E-1,4.273406E-1,5.4941006E-2,-5.3088874E-1,5.1428384E-1,-1.8895239E-1],"categories":[],"categories_nodes":[],"categories_segments":[],"categories_sizes":[],"default_left":[1,1,1,0,0,0,0],"id":12,"left_children":[1,3,5,-1,-1,-1,-1],"loss_changes":[1.0923447E1,5.181675E-1,1.0285478E0,0E0,0E0,0E0,0E0],"parents":[2147483647,0,0,1,1,2,2],"right_children":[2,4,6,-1,-1,-1,-1],"split_conditions":[5.05E1,6.9E1,7.7E1,1.6482303E-2,-1.5926662E-1,1.5428516E-1,-5.668572E-2],"split_indices":[2220,130,130,0,0,0,0],"split_type":[0,0,0,0,0,0,0],"sum_hessian":[5.948262E1,4.310059E1,1.6382029E1,1.380332E0,4.172026E1,1.4501725E1,1.8803035E0],"tree_param":{"num_deleted":"0","num_feature":"3333","num_nodes":"7","size_leaf_vector":"0"}},{"base_weights":[2.5000376E-1,5.1130676E-1,-4.273406E-1,-5.4941002E-2,5.308888E-1,-5.1428384E-1,1.8895245E-1],"categories":[],"categories_nodes":[],"categories_segments":[],"categories_sizes":[],"default_left":[1,1,1,0,0,0,0],"id":13,"left_children":[1,3,5,-1,-1,-1,-1],"loss_changes":[1.09234495E1,5.1816845E-1,1.0285482E0,0E0,0E0,0E0,0E0],"parents":[2147483647,0,0,1,1,2,2],"right_children":[2,4,6,-1,-1,-1,-1],"split_conditions":[5.05E1,6.9E1,7.7E1,-1.6482301E-2,1.5926665E-1,-1.5428516E-1,5.6685735E-2],"split_indices":[2220,130,130,0,0,0,0],"split_type":[0,0,0,0,0,0,0],"sum_hessian":[5.948263E1,4.3100597E1,1.6382032E1,1.3803322E0,4.172027E1,1.4501729E1,1.8803037E0],"tree_param":{"num_deleted":"0","num_feature":"3333","num_nodes":"7","size_leaf_vector":"0"}},{"base_weights":[-2.3802847E-1,3.835237E-1,-5.029835E-1,-2.9755715E-1,4.6224093E-1,-5.934113E-2,-5.1585096E-1,-2.8851996E-3,5.022801E-1],"categories":[],"categories_nodes":[],"categories_segments":[],"categories_sizes":[],"default_left":[1,1,1,0,1,0,0,0,0],"id":14,"left_children":[1,3,5,-1,7,-1,-1,-1,-1],"loss_changes":[7.938081E0,9.215598E-1,1.6009426E-1,0E0,2.5286818E-1,0E0,0E0,0E0,0E0],"parents":[2147483647,0,0,1,1,2,2,4,4],"right_children":[2,4,6,-1,8,-1,-1,-1,-1],"split_conditions":[2.22E2,4.05E1,1E2,-8.926715E-2,1.37E2,-1.7802339E-2,-1.547553E-1,-8.655599E-4,1.5068404E-1],"split_indices":[3030,222,13,0,1000,0,0,0,0],"split_type":[0,0,0,0,0,0,0,0,0],"sum_hessian":[4.6030697E1,1.3623687E1,3.240701E1,1.1234288E0,1.2500258E1,1.0716177E0,3.1335392E1,1.0643137E0,1.1435945E1],"tree_param":{"num_deleted":"0","num_feature":"3333","num_nodes":"9","size_leaf_vector":"0"}},{"base_weights":[2.3802817E-1,-3.8352376E-1,5.0298345E-1,2.975571E-1,-4.6224096E-1,5.9340943E-2,5.1585096E-1,2.8850967E-3,-5.022801E-1],"categories":[],"categories_nodes":[],"categories_segments":[],"categories_sizes":[],"default_left":[1,1,1,0,1,0,0,0,0],"id":15,"left_children":[1,3,5,-1,7,-1,-1,-1,-1],"loss_changes":[7.93808E0,9.215596E-1,1.6009426E-1,0E0,2.5286794E-1,0E0,0E0,0E0,0E0],"parents":[2147483647,0,0,1,1,2,2,4,4],"right_children":[2,4,6,-1,8,-1,-1,-1,-1],"split_conditions":[2.22E2,4.05E1,1E2,8.926713E-2,1.37E2,1.7802283E-2,1.547553E-1,8.6552906E-4,-1.5068404E-1],"split_indices":[3030,222,13,0,1000,0,0,0,0],"split_type":[0,0,0,0,0,0,0,0,0],"sum_hessian":[4.6030666E1,1.3623691E1,3.2406975E1,1.1234283E0,1.2500262E1,1.0716172E0,3.1335356E1,1.0643138E0,1.1435948E1],"tree_param":{"num_deleted":"0","num_feature":"3333","num_nodes":"9","size_leaf_vector":"0"}},{"base_weights":[-2.2792947E-1,-4.446028E-1,4.7402233E-1,-4.964965E-1,2.1725485E-1,-1.4424072E-1,-5.05555E-1],"categories":[],"categories_nodes":[],"categories_segments":[],"categories_sizes":[],"default_left":[1,1,0,1,0,0,0],"id":16,"left_children":[1,3,-1,5,-1,-1,-1],"loss_changes":[5.7907143E0,1.0884581E0,0E0,1.2526989E-2,0E0,0E0,0E0],"parents":[2147483647,0,0,1,1,3,3],"right_children":[2,4,-1,6,-1,-1,-1],"split_conditions":[5.65E1,1.63E2,1.422067E-1,8.75E1,6.517646E-2,-4.327222E-2,-1.5166649E-1],"split_indices":[222,1000,0,1330,0,0,0],"split_type":[0,0,0,0,0,0,0],"sum_hessian":[3.5687542E1,2.7550175E1,8.137365E0,2.5778803E1,1.7713729E0,1.0705788E0,2.4708223E1],"tree_param":{"num_deleted":"0","num_feature":"3333","num_nodes":"7","size_leaf_vector":"0"}},{"base_weights":[2.2792941E-1,4.446028E-1,-4.7402233E-1,4.964965E-1,-2.1725479E-1,1.4424075E-1,5.05555E-1],"categories":[],"categories_nodes":[],"categories_segments":[],"categories_sizes":[],"default_left":[1,1,0,1,0,0,0],"id":17,"left_children":[1,3,-1,5,-1,-1,-1],"loss_changes":[5.790716E0,1.0884576E0,0E0,1.2526989E-2,0E0,0E0,0E0],"parents":[2147483647,0,0,1,1,3,3],"right_children":[2,4,-1,6,-1,-1,-1],"split_conditions":[5.65E1,1.63E2,-1.422067E-1,8.75E1,-6.517644E-2,4.3272227E-2,1.5166649E-1],"split_indices":[222,1000,0,1330,0,0,0],"split_type":[0,0,0,0,0,0,0],"sum_hessian":[3.5687546E1,2.7550177E1,8.137368E0,2.5778803E1,1.7713732E0,1.0705788E0,2.4708223E1],"tree_param":{"num_deleted":"0","num_feature":"3333","num_nodes":"7","size_leaf_vector":"0"}},{"base_weights":[-2.1502604E-1,3.4900153E-1,-4.7480538E-1,-2.3183633E-1,4.5141307E-1,-4.912226E-1,-8.386533E-2],"categories":[],"categories_nodes":[],"categories_segments":[],"categories_sizes":[],"default_left":[1,1,1,0,0,0,0],"id":18,"left_children":[1,3,5,-1,-1,-1,-1],"loss_changes":[4.374514E0,6.7774975E-1,8.774567E-2,0E0,0E0,0E0,0E0],"parents":[2147483647,0,0,1,1,2,2],"right_children":[2,4,6,-1,-1,-1,-1],"split_conditions":[7.45E1,4.35E1,4.15E1,-6.95509E-2,1.3542393E-1,-1.4736678E-1,-2.51596E-2],"split_indices":[130,2220,2110,0,0,0,0],"split_type":[0,0,0,0,0,0,0],"sum_hessian":[2.77246E1,8.634374E0,1.9090227E1,1.1047719E0,7.5296016E0,1.807468E1,1.0155474E0],"tree_param":{"num_deleted":"0","num_feature":"3333","num_nodes":"7","size_leaf_vector":"0"}},{"base_weights":[2.15026E-1,-3.490016E-1,4.7480538E-1,2.3183629E-1,-4.514131E-1,4.912226E-1,8.386533E-2],"categories":[],"categories_nodes":[],"categories_segments":[],"categories_sizes":[],"default_left":[1,1,1,0,0,0,0],"id":19,"left_children":[1,3,5,-1,-1,-1,-1],"loss_changes":[4.3745165E0,6.777499E-1,8.774567E-2,0E0,0E0,0E0,0E0],"parents":[2147483647,0,0,1,1,2,2],"right_children":[2,4,6,-1,-1,-1,-1],"split_conditions":[7.45E1,4.35E1,4.15E1,6.955089E-2,-1.3542393E-1,1.4736678E-1,2.51596E-2],"split_indices":[130,2220,2110,0,0,0,0],"split_type":[0,0,0,0,0,0,0],"sum_hessian":[2.7724611E1,8.6343775E0,1.9090235E1,1.1047719E0,7.5296054E0,1.8074686E1,1.0155474E0],"tree_param":{"num_deleted":"0","num_feature":"3333","num_nodes":"7","size_leaf_vector":"0"}}]},"name":"gbtree"},"learner_model_param":{"base_score":"5E-1","num_class":"2","num_feature":"3333","num_target":"1"},"objective":{"name":"multi:softprob","softmax_multiclass_param":{"num_class":"2"}}},"version":[1,6,1]}