{"learner":{"attributes":{"best_iteration":"9","best_ntree_limit":"10"},"feature_names":[],"feature_types":[],"gradient_booster":{"model":{"gbtree_model_param":{"num_parallel_tree":"1","num_trees":"40","size_leaf_vector":"0"},"tree_info":[0,1,2,3,0,1,2,3,0,1,2,3,0,1,2,3,0,1,2,3,0,1,2,3,0,1,2,3,0,1,2,3,0,1,2,3,0,1,2,3],"trees":[{"base_weights":[-1.32626E-1,-5.812974E-1,1.4893616E0,-6.2080824E-1,1E0,-5.846154E-1,1.9411764E0,-6.4778763E-1,2.4390244E-1,1.1764706E-1,1.3043479E0,-6.547725E-1,1.1764706E-1,9.5652175E-1,-4.6153846E-1,-6.6179156E-1,-2.857143E-1,-4.6153846E-1,1.1764706E-1],"categories":[],"categories_nodes":[],"categories_segments":[],"categories_sizes":[],"default_left":[1,1,1,1,1,0,0,1,1,0,0,1,0,0,0,0,1,0,0],"id":0,"left_children":[1,3,5,7,9,-1,-1,11,13,-1,-1,15,-1,-1,-1,-1,17,-1,-1],"loss_changes":[1.3804466E2,9.891048E0,3.9671158E1,3.5494995E0,9.207163E-1,0E0,0E0,8.32222E-1,3.0178645E0,0E0,0E0,1.7390442E-1,0E0,0E0,0E0,0E0,3.6457664E-1,0E0,0E0],"parents":[2147483647,0,0,1,1,2,2,3,3,4,4,7,7,8,8,11,11,16,16],"right_children":[2,4,6,8,10,-1,-1,12,14,-1,-1,16,-1,-1,-1,-1,18,-1,-1],"split_conditions":[1.445E2,1.055E2,5.6E1,7.75E1,5.55E1,-1.7538463E-1,5.8235294E-1,9.45E1,9.5E1,3.529412E-2,3.9130437E-1,1.145E2,3.529412E-2,2.8695655E-1,-1.3846155E-1,-1.9853748E-1,4.45E1,-1.3846155E-1,3.529412E-2],"split_indices":[2210,22,2,232,102,0,0,1200,13,0,0,1210,0,0,0,0,1,0,0],"split_type":[0,0,0,0,0,0,0,0,0,0,0,0,0,0,0,0,0,0,0],"sum_hessian":[1.875E2,1.47375E2,4.0125E1,1.44375E2,3E0,7.125E0,3.3E1,1.4025E2,4.125E0,1.125E0,1.875E0,1.39125E2,1.125E0,1.875E0,2.25E0,1.3575E2,3.375E0,2.25E0,1.125E0],"tree_param":{"num_deleted":"0","num_feature":"3333","num_nodes":"19","size_leaf_vector":"0"}},{"base_weights":[-6.6313E-1],"categories":[],"categories_nodes":[],"categories_segments":[],"categories_sizes":[],"default_left":[0],"id":1,"left_children":[-1],"loss_changes":[0E0],"parents":[2147483647],"right_children":[-1],"split_conditions":[-1.9893901E-1],"split_indices":[0],"split_type":[0],"sum_hessian":[1.875E2],"tree_param":{"num_deleted":"0","num_feature":"3333","num_nodes":"1","size_leaf_vector":"0"}},{"base_weights":[-1.32626E-1,-5.8843255E-1,1.5541795E0,-6.338894E-1,3.2258064E-1,1.9136691E0,-5.660377E-1,4E-1,-6.477374E-1,1.4482758E0,-5.365854E-1,1.9405204E0,5.882353E-1,-6.5474063E-1,1.1764706E-1,-6.617647E-1,-3.1578946E-1,-4.827586E-1,1.1764706E-1],"categories":[],"categories_nodes":[],"categories_segments":[],"categories_sizes":[],"default_left":[1,1,1,1,1,1,0,0,1,0,0,0,0,1,0,0,1,0,0],"id":2,"left_children":[1,3,5,7,9,11,-1,-1,13,-1,-1,-1,-1,15,-1,-1,17,-1,-1],"loss_changes":[1.4584407E2,6.3800125E0,3.1856873E1,2.2975197E0,8.272606E0,9.525299E-2,0E0,0E0,8.321419E-1,0E0,0E0,0E0,0E0,1.2374115E-1,0E0,0E0,4.0055516E-1,0E0,0E0],"parents":[2147483647,0,0,1,1,2,2,3,3,4,4,5,5,8,8,13,13,16,16],"right_children":[2,4,6,8,10,12,-1,-1,14,-1,-1,-1,-1,16,-1,-1,18,-1,-1],"split_conditions":[6.15E1,7.55E1,1.16E2,3.4E1,1.24E2,1.44E2,-1.6981132E-1,1.20000005E-1,1.665E2,4.3448275E-1,-1.6097562E-1,5.821561E-1,1.7647061E-1,6.65E1,3.529412E-2,-1.985294E-1,1.025E2,-1.4482759E-1,3.529412E-2],"split_indices":[1301,301,2110,2031,20,2,0,0,332,0,0,0,0,131,0,0,1,0,0],"split_type":[0,0,0,0,0,0,0,0,0,0,0,0,0,0,0,0,0,0,0],"sum_hessian":[1.875E2,1.48125E2,3.9375E1,1.41375E2,6.75E0,3.375E1,5.625E0,1.5E0,1.39875E2,2.625E0,4.125E0,3.2625E1,1.125E0,1.3875E2,1.125E0,1.35E2,3.75E0,2.625E0,1.125E0],"tree_param":{"num_deleted":"0","num_feature":"3333","num_nodes":"19","size_leaf_vector":"0"}},{"base_weights":[9.28382E-1,-2.7045074E-1,1.7033806E0,1.6521739E0,-6.097087E-1,1.8295858E0,2E-1,1.8072289E0,1.1764706E-1,5.882353E-1,-6.403162E-1,-8.695652E-2,1.8650602E0,-5.714286E-1,1.5E0,1.1764706E-1,-6.559356E-1,1.8928137E0,-3.529412E-1,1.929471E0,6.2857145E-1,1.9685864E0,7.368421E-1,1.0769231E0,-3.529412E-1,1.9788079E0,5.882353E-1,1.3846154E0,-4E-1],"categories":[],"categories_nodes":[],"categories_segments":[],"categories_sizes":[],"default_left":[1,1,1,1,1,1,1,0,0,0,1,0,1,0,0,0,0,1,0,1,0,1,1,0,0,0,0,0,0],"id":3,"left_children":[1,3,5,7,9,11,13,-1,-1,-1,15,-1,17,-1,-1,-1,-1,19,-1,21,23,25,27,-1,-1,-1,-1,-1,-1],"loss_changes":[1.7559483E2,4.9845745E1,2.1382385E1,2.5236511E0,2.737032E0,7.343445E0,1.0885715E1,0E0,0E0,0E0,8.2598114E-1,0E0,7.054596E0,0E0,0E0,0E0,0E0,3.5432434E0,0E0,3.1794739E0,2.305365E0,1.8344116E-1,4.0518217E0,0E0,0E0,0E0,0E0,0E0,0E0],"parents":[2147483647,0,0,1,1,2,2,3,3,4,4,5,5,6,6,10,10,12,12,17,17,19,19,20,20,21,21,22,22],"right_children":[2,4,6,8,10,12,14,-1,-1,-1,16,-1,18,-1,-1,-1,-1,20,-1,22,24,26,28,-1,-1,-1,-1,-1,-1],"split_conditions":[8.45E1,1.1E1,1.085E2,5.45E1,5.35E1,5.8E1,8.2E1,5.421687E-1,3.529412E-2,1.7647061E-1,3.2E1,-2.6086958E-2,8.95E1,-1.7142859E-1,4.5000002E-1,3.529412E-2,-1.9678068E-1,4.35E1,-1.0588236E-1,6.25E1,4.5E1,1.3E2,1.08E2,3.2307696E-1,-1.0588236E-1,5.936424E-1,1.7647061E-1,4.1538465E-1,-1.20000005E-1],"split_indices":[3110,1212,1002,131,102,1331,213,0,0,0,101,0,2230,0,0,0,0,1230,0,131,121,222,1100,0,0,0,0,0,0],"split_type":[0,0,0,0,0,0,0,0,0,0,0,0,0,0,0,0,0,0,0,0,0,0,0,0,0,0,0,0,0],"sum_hessian":[1.875E2,7.3875E1,1.13625E2,1.05E1,6.3375E1,1.04625E2,9E0,9.375E0,1.125E0,1.125E0,6.225E1,1.875E0,1.0275E2,6E0,3E0,1.125E0,6.1125E1,1.01625E2,1.125E0,9.825E1,3.375E0,9.45E1,3.75E0,2.25E0,1.125E0,9.3375E1,1.125E0,2.25E0,1.5E0],"tree_param":{"num_deleted":"0","num_feature":"3333","num_nodes":"29","size_leaf_vector":"0"}},{"base_weights":[-1.0943791E-1,-5.2773625E-1,9.495003E-1,-5.70163E-1,7.4673116E-1,-5.3667843E-1,1.1674051E0,-5.994473E-1,2.0646359E-1,5.7582345E-2,9.844275E-1,-6.0726273E-1,1.1012237E-1,-4.3566015E-1,7.668262E-1,-6.1508673E-1,-2.3704016E-1,1.4947483E-1,-4.229657E-1],"categories":[],"categories_nodes":[],"categories_segments":[],"categories_sizes":[],"default_left":[1,1,1,1,1,0,0,1,1,0,0,1,0,0,0,0,1,0,0],"id":4,"left_children":[1,3,5,7,9,-1,-1,11,13,-1,-1,15,-1,-1,-1,-1,17,-1,-1],"loss_changes":[7.798747E1,7.2409554E0,1.678363E1,2.910839E0,6.7940927E-1,0E0,0E0,7.231941E-1,2.203994E0,0E0,0E0,1.9372559E-1,0E0,0E0,0E0,0E0,3.544733E-1,0E0,0E0],"parents":[2147483647,0,0,1,1,2,2,3,3,4,4,7,7,8,8,11,11,16,16],"right_children":[2,4,6,8,10,-1,-1,12,14,-1,-1,16,-1,-1,-1,-1,18,-1,-1],"split_conditions":[1.445E2,1.055E2,5.6E1,7.75E1,3.2E1,-1.6100353E-1,3.5022154E-1,9.45E1,7.85E1,1.7274704E-2,2.9532826E-1,1.145E2,3.3036713E-2,-1.3069806E-1,2.3004787E-1,-1.8452603E-1,7.1E1,4.484245E-2,-1.2688972E-1],"split_indices":[2210,22,2,232,2301,0,0,1200,220,0,0,1210,0,0,0,0,12,0,0],"split_type":[0,0,0,0,0,0,0,0,0,0,0,0,0,0,0,0,0,0,0],"sum_hessian":[1.7393178E2,1.2504037E2,4.8891403E1,1.2154673E2,3.49364E0,6.0647845E0,4.282662E1,1.17349945E2,4.196785E0,1.2145547E0,2.2790852E0,1.1621411E2,1.135836E0,2.0594194E0,2.1373653E0,1.1316125E2,3.052859E0,1.0552278E0,1.9976312E0],"tree_param":{"num_deleted":"0","num_feature":"3333","num_nodes":"19","size_leaf_vector":"0"}},{"base_weights":[-6.1656255E-1],"categories":[],"categories_nodes":[],"categories_segments":[],"categories_sizes":[],"default_left":[0],"id":5,"left_children":[-1],"loss_changes":[0E0],"parents":[2147483647],"right_children":[-1],"split_conditions":[-1.8496877E-1],"split_indices":[0],"split_type":[0],"sum_hessian":[1.5624933E2],"tree_param":{"num_deleted":"0","num_feature":"3333","num_nodes":"1","size_leaf_vector":"0"}},{"base_weights":[-1.0971844E-1,-5.632077E-1,9.1409475E-1,-5.925068E-1,5.9252155E-1,1.1683869E0,-5.5314684E-1,1.24353416E-1,-6.0756636E-1,1.1001031E-1,7.654176E-1,1.183581E0,3.822411E-1,4.9728006E-1,-3.368021E-1,-6.1559E-1,1.1705228E-1],"categories":[],"categories_nodes":[],"categories_segments":[],"categories_sizes":[],"default_left":[1,1,1,1,1,1,0,1,1,0,0,0,0,0,0,0,0],"id":6,"left_children":[1,3,5,7,9,11,-1,13,15,-1,-1,-1,-1,-1,-1,-1,-1],"loss_changes":[8.172333E1,4.476673E0,2.082153E1,1.3637199E0,2.0880914E-1,1.0191345E-1,0E0,7.3246956E-1,7.5252914E-1,0E0,0E0,0E0,0E0,0E0,0E0,0E0,0E0],"parents":[2147483647,0,0,1,1,2,2,3,3,4,4,5,5,7,7,8,8],"right_children":[2,4,6,8,10,12,-1,14,16,-1,-1,-1,-1,-1,-1,-1,-1],"split_conditions":[5.95E1,8.65E1,1.115E2,3.8E1,1.255E2,2.83E2,-1.6594405E-1,4.11E2,1.665E2,3.3003096E-2,2.2962528E-1,3.5507432E-1,1.1467233E-1,1.4918402E-1,-1.0104063E-1,-1.84677E-1,3.5115685E-2],"split_indices":[1301,2230,2110,2031,1,33,0,3,332,0,0,0,0,0,0,0,0],"split_type":[0,0,0,0,0,0,0,0,0,0,0,0,0,0,0,0,0],"sum_hessian":[1.7390964E2,1.2083618E2,5.3073456E1,1.1832386E2,2.5123227E0,4.5407436E1,7.6660194E0,2.28523E0,1.16038635E2,1.094399E0,1.4179237E0,4.405051E1,1.356926E0,1.2201697E0,1.0650601E0,1.1491663E2,1.1219963E0],"tree_param":{"num_deleted":"0","num_feature":"3333","num_nodes":"17","size_leaf_vector":"0"}},{"base_weights":[6.433746E-1,-2.8274432E-1,1.0318114E0,1.0022947E0,-5.5529E-1,1.101854E0,7.810599E-2,1.1164005E0,3.7598036E-2,5.3793573E-1,-5.908323E-1,1.1184943E0,-3.5833794E-1,-5.386875E-1,9.21865E-1,1.5544929E-1,-6.093486E-1,-5.979835E-2,1.134488E0,1.151192E0,4.4723576E-1,1.1596849E0,3.003379E-1,8.03599E-1,-3.6547366E-1,1.1780667E0,7.168911E-1,1.0163472E0,-3.762242E-1],"categories":[],"categories_nodes":[],"categories_segments":[],"categories_sizes":[],"default_left":[1,1,1,1,1,1,1,0,0,0,1,1,0,0,0,0,0,0,1,1,1,1,0,0,0,0,1,0,0],"id":7,"left_children":[1,3,5,7,9,11,13,-1,-1,-1,15,17,-1,-1,-1,-1,-1,-1,19,21,23,25,-1,-1,-1,-1,27,-1,-1],"loss_changes":[7.593768E1,2.2593304E1,9.824402E0,1.2091999E0,2.3598576E0,3.7571564E0,6.3392854E0,0E0,0E0,0E0,8.046551E-1,2.6462402E0,0E0,0E0,0E0,0E0,0E0,0E0,1.0353546E0,5.997772E-1,1.6953297E0,2.0993042E-1,0E0,0E0,0E0,0E0,2.9088628E0,0E0,0E0],"parents":[2147483647,0,0,1,1,2,2,3,3,4,4,5,5,6,6,10,10,11,11,18,18,19,19,20,20,21,21,26,26],"right_children":[2,4,6,8,10,12,14,-1,-1,-1,16,18,-1,-1,-1,-1,-1,-1,20,22,24,26,-1,-1,-1,-1,28,-1,-1],"split_conditions":[8.35E1,1.1E1,1.085E2,8.95E1,9.45E1,8.95E1,6.95E1,3.3492017E-1,1.1279412E-2,1.6138072E-1,4.05E1,5.8E1,-1.0750139E-1,-1.6160627E-1,2.765595E-1,4.6634786E-2,-1.8280458E-1,-1.7939506E-2,4.35E1,6.55E1,5.25E1,7.15E1,9.0101376E-2,2.410797E-1,-1.096421E-1,3.5342002E-1,6.95E1,3.0490416E-1,-1.1286726E-1],"split_indices":[3110,1212,1002,21,1100,2230,2001,0,0,0,131,1331,0,0,0,0,0,0,1230,131,1301,232,0,0,0,0,2320,0,0],"split_type":[0,0,0,0,0,0,0,0,0,0,0,0,0,0,0,0,0,0,0,0,0,0,0,0,0,0,0,0,0],"sum_hessian":[2.092803E2,6.1920425E1,1.4735988E2,1.0366303E1,5.1554123E1,1.3713312E2,1.0226762E1,9.129229E0,1.2370749E0,1.1782384E0,5.0375885E1,1.3581934E2,1.3137789E0,6.116859E0,4.109903E0,1.0405916E0,4.9335293E1,1.7822012E0,1.3403714E2,1.3019757E2,3.8395705E0,1.2855144E2,1.6461253E0,2.676964E0,1.1626065E0,1.21833206E2,6.718238E0,5.3286867E0,1.3895513E0],"tree_param":{"num_deleted":"0","num_feature":"3333","num_nodes":"29","size_leaf_vector":"0"}},{"base_weights":[-9.543033E-2,-4.881283E-1,7.3951966E-1,-5.329851E-1,5.848618E-1,-4.960906E-1,8.905316E-1,-5.646621E-1,1.7354764E-1,1.14185335E-2,7.8512925E-1,-5.738073E-1,1.1769872E-1,6.3486385E-1,-4.082055E-1,-5.828433E-1,-1.9600214E-1,-3.8496935E-1,1.5642436E-1],"categories":[],"categories_nodes":[],"categories_segments":[],"categories_sizes":[],"default_left":[1,1,1,1,1,0,0,1,1,0,0,1,0,0,0,0,1,0,0],"id":8,"left_children":[1,3,5,7,9,-1,-1,11,13,-1,-1,15,-1,-1,-1,-1,17,-1,-1],"loss_changes":[5.0797707E1,5.3761635E0,9.697302E0,2.3701706E0,5.3069353E-1,0E0,0E0,6.75354E-1,1.6335762E0,0E0,0E0,2.1446228E-1,0E0,0E0,0E0,0E0,3.1033885E-1,0E0,0E0],"parents":[2147483647,0,0,1,1,2,2,3,3,4,4,7,7,8,8,11,11,16,16],"right_children":[2,4,6,8,10,-1,-1,12,14,-1,-1,16,-1,-1,-1,-1,18,-1,-1],"split_conditions":[1.445E2,1.055E2,5.6E1,7.75E1,4.9E1,-1.4882718E-1,2.671595E-1,9.45E1,1.02E2,3.4255602E-3,2.3553878E-1,1.145E2,3.5309616E-2,1.9045916E-1,-1.22461654E-1,-1.74853E-1,4.4E1,-1.1549081E-1,4.692731E-2],"split_indices":[2210,22,2,232,131,0,0,1200,110,0,0,1210,0,0,0,0,13,0,0],"split_type":[0,0,0,0,0,0,0,0,0,0,0,0,0,0,0,0,0,0,0],"sum_hessian":[1.528253E2,1.0422231E2,4.8602993E1,1.0052317E2,3.6991389E0,5.0443096E0,4.355868E1,9.640185E1,4.1213255E0,1.2310842E0,2.4680548E0,9.5283905E1,1.1179373E0,2.2476773E0,1.8736483E0,9.252818E1,2.7557259E0,1.7337623E0,1.0219636E0],"tree_param":{"num_deleted":"0","num_feature":"3333","num_nodes":"19","size_leaf_vector":"0"}},{"base_weights":[-5.8455384E-1],"categories":[],"categories_nodes":[],"categories_segments":[],"categories_sizes":[],"default_left":[0],"id":9,"left_children":[-1],"loss_changes":[0E0],"parents":[2147483647],"right_children":[-1],"split_conditions":[-1.7536616E-1],"split_indices":[0],"split_type":[0],"sum_hessian":[1.2772672E2],"tree_param":{"num_deleted":"0","num_feature":"3333","num_nodes":"1","size_leaf_vector":"0"}},{"base_weights":[-9.585758E-2,-5.2566385E-1,7.129312E-1,-5.57335E-1,4.9313608E-1,8.8968647E-1,-5.147182E-1,1.1201327E-1,-5.740215E-1,7.64206E-2,6.435425E-1,2.6902336E-1,9.0228E-1,-5.8330154E-1,1.13948375E-1],"categories":[],"categories_nodes":[],"categories_segments":[],"categories_sizes":[],"default_left":[1,1,1,1,1,1,0,0,1,0,0,0,0,0,0],"id":10,"left_children":[1,3,5,7,9,11,-1,-1,13,-1,-1,-1,-1,-1,-1],"loss_changes":[5.378458E1,3.5306358E0,1.211923E1,1.1625538E0,1.7474687E-1,1.2731552E-1,0E0,0E0,6.8001556E-1,0E0,0E0,0E0,0E0,0E0,0E0],"parents":[2147483647,0,0,1,1,2,2,3,3,4,4,5,5,8,8],"right_children":[2,4,6,8,10,12,-1,-1,14,-1,-1,-1,-1,-1,-1],"split_conditions":[5.95E1,8.65E1,1.115E2,3.8E1,1.29E2,7E1,-1.5441546E-1,3.3603985E-2,1.665E2,2.292618E-2,1.9306277E-1,8.070701E-2,2.70684E-1,-1.7499048E-1,3.4184515E-2],"split_indices":[1301,2230,2110,2031,2,110,0,0,332,0,0,0,0,0,0],"split_type":[0,0,0,0,0,0,0,0,0,0,0,0,0,0,0],"sum_hessian":[1.5264317E2,9.990287E1,5.274029E1,9.733015E1,2.5727293E0,4.6343163E1,6.397131E0,2.2284186E0,9.510172E1,1.0822754E0,1.490454E0,1.3663328E0,4.497683E1,9.398609E1,1.1156342E0],"tree_param":{"num_deleted":"0","num_feature":"3333","num_nodes":"15","size_leaf_vector":"0"}},{"base_weights":[5.164549E-1,-2.49571E-1,7.9230297E-1,7.7108973E-1,-5.154097E-1,8.366837E-1,4.7529563E-3,8.6210704E-1,-5.4841E-3,-5.559551E-1,4.8611465E-1,8.48522E-1,-3.2423338E-1,-4.9429828E-1,6.617E-1,1.3707608E-1,-5.762115E-1,-8.7665275E-2,8.624308E-1,8.7938035E-1,3.9114213E-1,8.876193E-1,1.811452E-1,7.3142785E-1,-3.9595872E-1,8.914496E-1,3.0469447E-1],"categories":[],"categories_nodes":[],"categories_segments":[],"categories_sizes":[],"default_left":[1,1,1,1,1,1,1,0,0,1,0,1,0,0,0,0,0,0,1,1,1,1,0,0,0,0,0],"id":11,"left_children":[1,3,5,7,9,11,13,-1,-1,15,-1,17,-1,-1,-1,-1,-1,-1,19,21,23,25,-1,-1,-1,-1,-1],"loss_changes":[4.301725E1,1.5161129E1,5.211899E0,8.2775927E-1,2.0475502E0,2.2165375E0,3.266779E0,0E0,0E0,6.7605495E-1,0E0,1.9000549E0,0E0,0E0,0E0,0E0,0E0,0E0,7.596359E-1,6.017761E-1,2.0566168E0,2.0324707E-2,0E0,0E0,0E0,0E0,0E0],"parents":[2147483647,0,0,1,1,2,2,3,3,4,4,5,5,6,6,9,9,11,11,18,18,19,19,20,20,21,21],"right_children":[2,4,6,8,10,12,14,-1,-1,16,-1,18,-1,-1,-1,-1,-1,-1,20,22,24,26,-1,-1,-1,-1,-1],"split_conditions":[8.35E1,1.1E1,1.115E2,7.55E1,1.155E2,8.95E1,7.8E1,2.5863212E-1,-1.6452301E-3,9.55E1,1.458344E-1,5.8E1,-9.727002E-2,-1.4828949E-1,1.9851E-1,4.1122824E-2,-1.7286345E-1,-2.6299583E-2,5.95E1,4.6E1,4.35E1,1.66E2,5.4343563E-2,2.1942836E-1,-1.18787624E-1,2.674349E-1,9.140834E-2],"split_indices":[3110,1212,1002,1020,1031,2230,213,0,0,332,0,1331,0,0,0,0,0,0,1301,1230,101,332,0,0,0,0,0],"split_type":[0,0,0,0,0,0,0,0,0,0,0,0,0,0,0,0,0,0,0,0,0,0,0,0,0,0,0],"sum_hessian":[2.0164145E2,5.3412113E1,1.4822934E2,1.0644199E1,4.2767914E1,1.4026274E2,7.9665995E0,9.42895E0,1.2152493E0,4.153146E1,1.2364546E0,1.3911324E2,1.1494999E0,4.6680717E0,3.2985277E0,1.0156616E0,4.0515797E1,1.9589025E0,1.3715434E2,1.315571E2,5.597249E0,1.2975479E2,1.8022971E0,3.957181E0,1.640068E0,1.2838196E2,1.372838E0],"tree_param":{"num_deleted":"0","num_feature":"3333","num_nodes":"27","size_leaf_vector":"0"}},{"base_weights":[-8.4853195E-2,-4.7736752E-1,5.8787596E-1,-5.201284E-1,6.5476805E-1,7.421161E-1,-4.9490324E-1,-5.4003894E-1,2.9380472E-2,7.57263E-1,1.6719088E-1,-5.511457E-1,-4.135336E-2,4.8377216E-1,-3.5031593E-1,-5.5998456E-1,-1.6997546E-1,-3.2574067E-1,8.128718E-2],"categories":[],"categories_nodes":[],"categories_segments":[],"categories_sizes":[],"default_left":[1,1,0,1,0,1,0,1,1,0,0,1,0,0,0,0,1,0,0],"id":12,"left_children":[1,3,5,7,-1,9,-1,11,13,-1,-1,15,-1,-1,-1,-1,17,-1,-1],"loss_changes":[3.473067E1,4.355974E0,8.47068E0,8.9642715E-1,0E0,2.467308E-1,0E0,4.076786E-1,8.186344E-1,0E0,0E0,1.6068459E-1,0E0,0E0,0E0,0E0,1.5003711E-1,0E0,0E0],"parents":[2147483647,0,0,1,1,2,2,3,3,5,5,7,7,8,8,11,11,16,16],"right_children":[2,4,6,8,-1,10,-1,12,14,-1,-1,16,-1,-1,-1,-1,18,-1,-1],"split_conditions":[1.405E2,1.085E2,9.7E1,7.85E1,1.9643043E-1,7.2E1,-1.4847098E-1,1.395E2,5.7E1,2.2717892E-1,5.0157268E-2,7.75E1,-1.2406008E-2,1.4513165E-1,-1.0509478E-1,-1.6799538E-1,9.65E1,-9.77222E-2,2.4386156E-2],"split_indices":[2210,22,1122,1010,0,23,0,2210,103,0,0,232,0,0,0,0,331,0,0],"split_type":[0,0,0,0,0,0,0,0,0,0,0,0,0,0,0,0,0,0,0],"sum_hessian":[1.2946498E2,8.1943924E1,4.7521057E1,7.948244E1,2.4614856E0,4.1871193E1,5.649864E0,7.671986E1,2.7625802E0,4.0487366E1,1.3838273E0,7.494548E1,1.774378E0,1.1328132E0,1.629767E0,7.278848E1,2.1569986E0,1.1485583E0,1.0084405E0],"tree_param":{"num_deleted":"0","num_feature":"3333","num_nodes":"19","size_leaf_vector":"0"}},{"base_weights":[-5.6107837E-1],"categories":[],"categories_nodes":[],"categories_segments":[],"categories_sizes":[],"default_left":[0],"id":13,"left_children":[-1],"loss_changes":[0E0],"parents":[2147483647],"right_children":[-1],"split_conditions":[-1.6832352E-1],"split_indices":[0],"split_type":[0],"sum_hessian":[1.02488716E2],"tree_param":{"num_deleted":"0","num_feature":"3333","num_nodes":"1","size_leaf_vector":"0"}},{"base_weights":[-8.636651E-2,-4.9526176E-1,6.028602E-1,-5.2944726E-1,4.198968E-1,7.4495983E-1,-4.815996E-1,1.1643027E-1,-5.491404E-1,5.534294E-1,4.9054444E-2,1.8884665E-1,7.5719994E-1,-5.6007856E-1,9.762028E-2],"categories":[],"categories_nodes":[],"categories_segments":[],"categories_sizes":[],"default_left":[1,1,1,1,1,1,0,0,1,0,0,0,0,0,0],"id":14,"left_children":[1,3,5,7,9,11,-1,-1,13,-1,-1,-1,-1,-1,-1],"loss_changes":[3.696277E1,2.7940617E0,7.8933754E0,1.0774822E0,1.4705229E-1,1.5393448E-1,0E0,0E0,6.029606E-1,0E0,0E0,0E0,0E0,0E0,0E0],"parents":[2147483647,0,0,1,1,2,2,3,3,4,4,5,5,8,8],"right_children":[2,4,6,8,10,12,-1,-1,14,-1,-1,-1,-1,-1,-1],"split_conditions":[5.95E1,8.65E1,1.115E2,5.35E1,9.4E1,2.9E1,-1.4447989E-1,3.492908E-2,1.665E2,1.6602883E-1,1.4716334E-2,5.6653995E-2,2.2715999E-1,-1.6802357E-1,2.9286085E-2],"split_indices":[1301,2230,2110,220,11,120,0,0,332,0,0,0,0,0,0],"split_type":[0,0,0,0,0,0,0,0,0,0,0,0,0,0,0],"sum_hessian":[1.2909721E2,8.120338E1,4.789383E1,7.868556E1,2.5178113E0,4.2622017E1,5.271814E0,2.1828258E0,7.650274E1,1.4892176E0,1.0285938E0,1.2717165E0,4.13503E1,7.536222E1,1.1405214E0],"tree_param":{"num_deleted":"0","num_feature":"3333","num_nodes":"15","size_leaf_vector":"0"}},{"base_weights":[4.4262525E-1,-2.2423151E-1,6.63026E-1,6.29963E-1,-4.9180976E-1,6.9924045E-1,4.6813996E-3,7.463329E-1,-7.050138E-2,3.4046468E-1,-5.5300134E-1,7.2178495E-1,1.08901896E-1,5.6359714E-1,-4.6484712E-1,7.281041E-1,-9.448581E-3,5.517696E-1,-4.2669684E-1,7.367237E-1,1.1740815E-1,7.453795E-1,2.4868326E-1,7.5081134E-1,2.568471E-1,-6.524274E-2,4.4342074E-1,7.546004E-1,2.5341263E-1],"categories":[],"categories_nodes":[],"categories_segments":[],"categories_sizes":[],"default_left":[1,1,1,1,1,1,1,0,0,0,0,1,0,0,0,1,0,0,0,1,0,1,1,1,0,0,0,0,0],"id":15,"left_children":[1,3,5,7,9,11,13,-1,-1,-1,-1,15,17,-1,-1,19,-1,-1,-1,21,-1,23,25,27,-1,-1,-1,-1,-1],"loss_changes":[2.6836449E1,1.0790126E1,3.2565079E0,9.7989035E-1,1.9950609E0,1.6461143E0,2.3970122E0,0E0,0E0,0E0,0E0,5.8283997E-1,1.6454968E0,0E0,0E0,5.640793E-1,0E0,0E0,0E0,3.286667E-1,0E0,1.2310028E-1,2.5030506E-1,2.9716492E-2,0E0,0E0,0E0,0E0,0E0],"parents":[2147483647,0,0,1,1,2,2,3,3,4,4,5,5,6,6,11,11,12,12,15,15,19,19,21,21,22,22,23,23],"right_children":[2,4,6,8,10,12,14,-1,-1,-1,-1,16,18,-1,-1,20,-1,-1,-1,22,-1,24,26,28,-1,-1,-1,-1,-1],"split_conditions":[8.35E1,4.85E1,1.115E2,7.45E1,5.85E1,4.9E1,9E1,2.2389987E-1,-2.1150414E-2,1.02139406E-1,-1.6590041E-1,8.2E1,1.7E1,1.6907915E-1,-1.3945414E-1,6.65E1,-2.8345746E-3,1.6553089E-1,-1.2800905E-1,9.75E1,3.5222445E-2,1.33E2,1.06E2,1.66E2,7.7054136E-2,-1.9572822E-2,1.3302623E-1,2.2638012E-1,7.6023795E-2],"split_indices":[3110,1010,1002,1020,1310,2301,222,0,0,0,0,2130,1212,0,0,131,0,0,0,132,0,3120,1,332,0,0,0,0,0],"split_type":[0,0,0,0,0,0,0,0,0,0,0,0,0,0,0,0,0,0,0,0,0,0,0,0,0,0,0,0,0],"sum_hessian":[1.8057951E2,4.4852848E1,1.3572667E2,1.0375774E1,3.4477074E1,1.2859097E2,7.1356974E0,8.841441E0,1.534334E0,2.048689E0,3.2428383E1,1.2364636E2,4.944613E0,3.1662824E0,3.9694152E0,1.2259123E2,1.0551282E0,2.6900847E0,2.2545285E0,1.20681526E2,1.9097083E0,1.1806033E2,2.6211948E0,1.16231125E2,1.8292103E0,1.2580806E0,1.3631144E0,1.1483921E2,1.3919095E0],"tree_param":{"num_deleted":"0","num_feature":"3333","num_nodes":"29","size_leaf_vector":"0"}},{"base_weights":[-7.798389E-2,-4.5130008E-1,5.222435E-1,-4.9569812E-1,5.545222E-1,6.556019E-1,-4.631538E-1,-5.182749E-1,5.1018994E-2,1.1125892E-1,6.7109525E-1,-5.31457E-1,-2.1345776E-2,-3.204987E-1,4.471075E-1,-5.416125E-1,-1.5234257E-1],"categories":[],"categories_nodes":[],"categories_segments":[],"categories_sizes":[],"default_left":[1,1,0,1,0,1,0,1,1,0,0,1,0,0,0,0,0],"id":16,"left_children":[1,3,5,7,-1,9,-1,11,13,-1,-1,15,-1,-1,-1,-1,-1],"loss_changes":[2.4425234E1,3.2710476E0,5.804428E0,8.260937E-1,0E0,2.397728E-1,0E0,3.9679718E-1,6.5533453E-1,0E0,0E0,1.5101242E-1,0E0,0E0,0E0,0E0,0E0],"parents":[2147483647,0,0,1,1,2,2,3,3,5,5,7,7,8,8,11,11],"right_children":[2,4,6,8,-1,10,-1,12,14,-1,-1,16,-1,-1,-1,-1,-1],"split_conditions":[1.405E2,1.085E2,9.7E1,7.85E1,1.6635667E-1,7.75E1,-1.3894615E-1,1.395E2,8.4E1,3.3377677E-2,2.0132859E-1,7.75E1,-6.403733E-3,-9.6149616E-2,1.3413225E-1,-1.6248375E-1,-4.5702774E-2],"split_indices":[2210,22,1122,1010,0,1131,0,2210,212,0,0,232,0,0,0,0,0],"split_type":[0,0,0,0,0,0,0,0,0,0,0,0,0,0,0,0,0],"sum_hessian":[1.0695308E2,6.60937E1,4.0859383E1,6.378532E1,2.3083785E0,3.6283634E1,4.57575E0,6.1305717E1,2.4796033E0,1.2305511E0,3.505308E1,5.9653786E1,1.651932E0,1.377962E0,1.1016412E0,5.7680058E1,1.9737258E0],"tree_param":{"num_deleted":"0","num_feature":"3333","num_nodes":"17","size_leaf_vector":"0"}},{"base_weights":[-5.434011E-1],"categories":[],"categories_nodes":[],"categories_segments":[],"categories_sizes":[],"default_left":[0],"id":17,"left_children":[-1],"loss_changes":[0E0],"parents":[2147483647],"right_children":[-1],"split_conditions":[-1.6302034E-1],"split_indices":[0],"split_type":[0],"sum_hessian":[8.111346E1],"tree_param":{"num_deleted":"0","num_feature":"3333","num_nodes":"1","size_leaf_vector":"0"}},{"base_weights":[-7.813661E-2,-4.6903664E-1,5.3661984E-1,-5.176197E-1,2.2733825E-1,6.5970254E-1,-4.5105496E-1,-5.428191E-1,7.8430496E-2,6.047881E-1,-3.4768376E-1,1.3151984E-1,6.722267E-1,4.600144E-1,-3.0864796E-1],"categories":[],"categories_nodes":[],"categories_segments":[],"categories_sizes":[],"default_left":[1,1,1,1,1,1,0,0,1,0,0,0,0,0,0],"id":18,"left_children":[1,3,5,7,9,11,-1,-1,13,-1,-1,-1,-1,-1,-1],"loss_changes":[2.6117226E1,2.3617735E0,5.440301E0,9.7847366E-1,1.2999645E0,1.6310883E-1,0E0,0E0,6.443485E-1,0E0,0E0,0E0,0E0,0E0,0E0],"parents":[2147483647,0,0,1,1,2,2,3,3,4,4,5,5,8,8],"right_children":[2,4,6,8,10,12,-1,-1,14,-1,-1,-1,-1,-1,-1],"split_conditions":[5.95E1,1.1E2,1.115E2,9.3E1,1.095E2,5.85E1,-1.3531649E-1,-1.6284573E-1,1.525E2,1.8143645E-1,-1.0430513E-1,3.9455954E-2,2.0166802E-1,1.3800433E-1,-9.259439E-2],"split_indices":[1301,2300,2110,130,32,132,0,0,2,0,0,0,0,0,0],"split_type":[0,0,0,0,0,0,0,0,0,0,0,0,0,0,0],"sum_hessian":[1.0663478E2,6.53306E1,4.130418E1,6.130996E1,4.020639E0,3.7022545E1,4.2816353E0,5.8908764E1,2.4011922E0,2.3960705E0,1.6245686E0,1.1239355E0,3.589861E1,1.1142913E0,1.2869009E0],"tree_param":{"num_deleted":"0","num_feature":"3333","num_nodes":"15","size_leaf_vector":"0"}},{"base_weights":[3.9462745E-1,-2.0498346E-1,5.8332705E-1,5.42415E-1,-4.649667E-1,2.822538E-1,6.5362704E-1,6.475114E-1,-6.397647E-2,2.9218987E-1,-5.3221196E-1,6.3363844E-1,-2.5467524E-1,6.6578054E-1,1.3407776E-1,-5.223388E-1,3.2020184E-1,6.7158073E-1,1.902422E-1,3.6866188E-1,-1.5097083E-1,8.05171E-2,4.1414705E-1,6.7987406E-1,3.195204E-1,-4.423921E-2,4.9074036E-1],"categories":[],"categories_nodes":[],"categories_segments":[],"categories_sizes":[],"default_left":[1,1,1,1,1,1,1,0,0,0,0,0,1,1,1,0,1,1,0,0,0,0,0,0,1,0,0],"id":19,"left_children":[1,3,5,7,9,11,13,-1,-1,-1,-1,-1,15,17,19,-1,21,23,-1,-1,-1,-1,-1,-1,25,-1,-1],"loss_changes":[1.773814E1,7.638704E0,2.327877E0,6.9606113E-1,1.618896E0,4.7327805E0,5.135727E-1,0E0,0E0,0E0,0E0,0E0,1.7518058E0,1.2885284E-1,2.8531027E-1,0E0,5.4277807E-2,4.998398E-2,0E0,0E0,0E0,0E0,0E0,0E0,2.704042E-1,0E0,0E0],"parents":[2147483647,0,0,1,1,2,2,3,3,4,4,5,5,6,6,12,12,13,13,14,14,16,16,17,17,24,24],"right_children":[2,4,6,8,10,12,14,-1,-1,-1,-1,-1,16,18,20,-1,22,24,-1,-1,-1,-1,-1,-1,26,-1,-1],"split_conditions":[8.35E1,4.85E1,9.15E1,7.45E1,5.85E1,1.2E1,7.75E1,1.9425343E-1,-1.9192941E-2,8.765696E-2,-1.5966359E-1,1.9009154E-1,8.6E1,6.65E1,6.95E1,-1.5670165E-1,6.8E1,1.155E2,5.707266E-2,1.1059857E-1,-4.5291252E-2,2.415513E-2,1.24244116E-1,2.0396222E-1,7.95E1,-1.3271764E-2,1.4722212E-1],"split_indices":[3110,1010,3110,1020,1310,1212,1010,0,0,0,0,0,1331,131,1,0,12,1002,0,0,0,0,0,0,10,0,0],"split_type":[0,0,0,0,0,0,0,0,0,0,0,0,0,0,0,0,0,0,0,0,0,0,0,0,0,0,0],"sum_hessian":[1.5471489E2,3.7013783E1,1.177011E2,9.272088E0,2.7741695E1,2.3229832E1,9.4471275E1,7.8446803E0,1.4274071E0,1.9899921E0,2.5751703E1,1.3932085E1,9.297747E0,9.203684E1,2.4344304E0,6.4063373E0,2.8914092E0,9.05205E1,1.5163395E0,1.1745174E0,1.2599131E0,1.3370991E0,1.55431E0,8.752753E1,2.9929774E0,1.1952571E0,1.7977203E0],"tree_param":{"num_deleted":"0","num_feature":"3333","num_nodes":"27","size_leaf_vector":"0"}},{"base_weights":[-7.254691E-2,-4.2733642E-1,4.7553504E-1,-4.7337142E-1,4.834998E-1,5.968726E-1,-4.3341777E-1,-5.037914E-1,4.5236092E-2,6.755797E-2,6.13315E-1,-5.272555E-1,-3.391885E-2,-3.4163356E-1,5.1921606E-1,-3.1903407E-1,2.8525317E-1],"categories":[],"categories_nodes":[],"categories_segments":[],"categories_sizes":[],"default_left":[1,1,0,1,0,1,0,1,1,0,0,0,1,0,0,0,0],"id":20,"left_children":[1,3,5,7,-1,9,-1,11,13,-1,-1,-1,15,-1,-1,-1,-1],"loss_changes":[1.7260633E1,2.483735E0,4.1126027E0,8.3832264E-1,0E0,2.3052883E-1,0E0,5.2138424E-1,8.7085235E-1,0E0,0E0,0E0,3.9996552E-1,0E0,0E0,0E0,0E0],"parents":[2147483647,0,0,1,1,2,2,3,3,5,5,7,7,8,8,12,12],"right_children":[2,4,6,8,-1,10,-1,12,14,-1,-1,-1,16,-1,-1,-1,-1],"split_conditions":[1.405E2,1.085E2,9.7E1,9E1,1.4504994E-1,3.15E1,-1.3002534E-1,7.75E1,5.95E1,2.0267392E-2,1.839945E-1,-1.5817665E-1,9.7E1,-1.02490075E-1,1.5576482E-1,-9.5710225E-2,8.557595E-2],"split_indices":[2210,22,1122,1212,0,1202,0,232,1,0,0,0,21,0,0,0,0],"split_type":[0,0,0,0,0,0,0,0,0,0,0,0,0,0,0,0,0],"sum_hessian":[8.671969E1,5.2776325E1,3.394336E1,5.0694447E1,2.0818822E0,3.0248745E1,3.6946135E0,4.79126E1,2.7818434E0,1.0652376E0,2.9183508E1,4.5517464E1,2.3951359E0,1.6854098E0,1.0964335E0,1.2652894E0,1.1298463E0],"tree_param":{"num_deleted":"0","num_feature":"3333","num_nodes":"17","size_leaf_vector":"0"}},{"base_weights":[-5.2960247E-1],"categories":[],"categories_nodes":[],"categories_segments":[],"categories_sizes":[],"default_left":[0],"id":21,"left_children":[-1],"loss_changes":[0E0],"parents":[2147483647],"right_children":[-1],"split_conditions":[-1.5888074E-1],"split_indices":[0],"split_type":[0],"sum_hessian":[6.3465458E1],"tree_param":{"num_deleted":"0","num_feature":"3333","num_nodes":"1","size_leaf_vector":"0"}},{"base_weights":[-7.278003E-2,-5.15996E-1,4.117031E-1,5.697419E-4,-5.2762896E-1,5.757713E-1,-4.6588868E-1,-3.1893432E-1,6.18057E-1,6.3247746E-1,9.267652E-2],"categories":[],"categories_nodes":[],"categories_segments":[],"categories_sizes":[],"default_left":[1,1,1,0,0,0,0,0,1,0,0],"id":22,"left_children":[1,3,5,-1,-1,7,-1,-1,9,-1,-1],"loss_changes":[1.896112E1,2.7697754E-1,6.3545585E0,0E0,0E0,1.5613842E0,0E0,0E0,2.0483208E-1,0E0,0E0],"parents":[2147483647,0,0,1,1,2,2,5,5,8,8],"right_children":[2,4,6,-1,-1,8,-1,-1,10,-1,-1],"split_conditions":[5.55E1,3.5E1,4.7E1,1.7092258E-4,-1.5828869E-1,1.95E1,-1.397666E-1,-9.5680304E-2,7.5E1,1.8974325E-1,2.7802957E-2],"split_indices":[1301,2031,2211,0,0,121,0,0,2031,0,0],"split_type":[0,0,0,0,0,0,0,0,0,0,0],"sum_hessian":[8.631256E1,4.504205E1,4.127051E1,1.0129474E0,4.4029102E1,3.505989E1,6.210621E0,1.2869767E0,3.3772915E1,3.267229E1,1.1006233E0],"tree_param":{"num_deleted":"0","num_feature":"3333","num_nodes":"11","size_leaf_vector":"0"}},{"base_weights":[3.624627E-1,-1.8820785E-1,5.314432E-1,4.01282E-1,-4.8641682E-1,2.5273356E-1,5.9604734E-1,6.004124E-1,-2.1150795E-1,2.1868227E-2,-5.1368886E-1,5.60434E-1,-2.6433975E-1,6.0862875E-1,1.10631384E-1,2.5469406E-2,-3.2047424E-1,3.5595828E-1,-4.929871E-1,6.149753E-1,1.624511E-1,-1.60136E-1,3.39316E-1,6.233383E-1,2.8117564E-1,4.3446258E-1,-5.1671907E-2],"categories":[],"categories_nodes":[],"categories_segments":[],"categories_sizes":[],"default_left":[1,1,1,1,1,1,1,0,1,0,0,0,1,1,1,0,0,0,0,1,0,0,0,0,1,0,0],"id":23,"left_children":[1,3,5,7,9,11,13,-1,15,-1,-1,-1,17,19,21,-1,-1,-1,-1,23,-1,-1,-1,-1,25,-1,-1],"loss_changes":[1.2129932E1,5.661373E0,1.6352844E0,1.4685074E0,3.0373526E-1,3.3939886E0,4.199314E-1,0E0,9.6883684E-2,0E0,0E0,0E0,1.3513176E0,1.1968422E-1,2.54825E-1,0E0,0E0,0E0,0E0,3.7174225E-2,0E0,0E0,0E0,0E0,2.1029922E-1,0E0,0E0],"parents":[2147483647,0,0,1,1,2,2,3,3,4,4,5,5,6,6,8,8,12,12,13,13,14,14,19,19,24,24],"right_children":[2,4,6,8,10,12,14,-1,16,-1,-1,-1,18,20,22,-1,-1,-1,-1,24,-1,-1,-1,-1,26,-1,-1],"split_conditions":[8.35E1,6.35E1,9.15E1,5.95E1,9.75E1,1.7E1,7.75E1,1.8012373E-1,1.145E2,6.5604686E-3,-1.5410666E-1,1.681302E-1,5.1E1,6.65E1,8.5E1,7.640822E-3,-9.614228E-2,1.0678749E-1,-1.4789614E-1,1.155E2,4.873533E-2,-4.8040804E-2,1.0179481E-1,1.870015E-1,7.85E1,1.3033877E-1,-1.5501573E-2],"split_indices":[3110,1310,3110,1301,332,1212,1010,0,2,0,0,0,2230,131,10,0,0,0,0,1002,0,0,0,0,11,0,0],"split_type":[0,0,0,0,0,0,0,0,0,0,0,0,0,0,0,0,0,0,0,0,0,0,0,0,0,0,0],"sum_hessian":[1.2828078E2,3.0094755E1,9.818603E1,9.993764E0,2.010099E1,1.9400808E1,7.878522E1,7.557953E0,2.4358113E0,1.0336878E0,1.9067303E1,1.2110327E1,7.2904816E0,7.654738E1,2.2378426E0,1.0085986E0,1.4272128E0,1.8135893E0,5.4768925E0,7.5100815E1,1.4465648E0,1.161891E0,1.0759516E0,7.2419014E1,2.6817994E0,1.6271534E0,1.054646E0],"tree_param":{"num_deleted":"0","num_feature":"3333","num_nodes":"27","size_leaf_vector":"0"}},{"base_weights":[-6.714455E-2,-4.1954282E-1,4.217297E-1,-4.695089E-1,4.2788494E-1,5.570791E-1,-4.2562923E-1,-5.007148E-1,8.461986E-2,-6.4977896E-3,5.8100116E-1,-5.145038E-1,-1.1375111E-1],"categories":[],"categories_nodes":[],"categories_segments":[],"categories_sizes":[],"default_left":[1,1,0,1,0,0,0,1,0,0,0,0,0],"id":24,"left_children":[1,3,5,7,-1,9,-1,11,-1,-1,-1,-1,-1],"loss_changes":[1.2291409E1,1.9523845E0,3.6725745E0,7.260704E-1,0E0,3.5783672E-1,0E0,1.4196873E-1,0E0,0E0,0E0,0E0,0E0],"parents":[2147483647,0,0,1,1,2,2,3,3,5,5,7,7],"right_children":[2,4,6,8,-1,10,-1,12,-1,-1,-1,-1,-1],"split_conditions":[1.395E2,1.085E2,9.7E1,7.85E1,1.2836549E-1,3.15E1,-1.2768878E-1,7.75E1,2.538596E-2,-1.949337E-3,1.7430036E-1,-1.5435115E-1,-3.4125336E-2],"split_indices":[2210,22,1122,1010,0,121,0,232,0,0,0,0,0],"split_type":[0,0,0,0,0,0,0,0,0,0,0,0,0],"sum_hessian":[6.931915E1,4.0364662E1,2.8954493E1,3.8538326E1,1.8263373E0,2.526195E1,3.692542E0,3.657499E1,1.9633372E0,1.0582877E0,2.4203663E1,3.4998276E1,1.5767128E0],"tree_param":{"num_deleted":"0","num_feature":"3333","num_nodes":"13","size_leaf_vector":"0"}},{"base_weights":[-5.182827E-1],"categories":[],"categories_nodes":[],"categories_segments":[],"categories_sizes":[],"default_left":[0],"id":25,"left_children":[-1],"loss_changes":[0E0],"parents":[2147483647],"right_children":[-1],"split_conditions":[-1.5548483E-1],"split_indices":[0],"split_type":[0],"sum_hessian":[4.9201878E1],"tree_param":{"num_deleted":"0","num_feature":"3333","num_nodes":"1","size_leaf_vector":"0"}},{"base_weights":[-6.9399E-2,-5.016974E-1,3.8169685E-1,-5.1525444E-1,-1.805069E-2,5.326511E-1,-4.421277E-1,-1.8172716E-1,5.836739E-1],"categories":[],"categories_nodes":[],"categories_segments":[],"categories_sizes":[],"default_left":[1,1,1,0,0,1,0,0,0],"id":26,"left_children":[1,3,5,-1,-1,7,-1,-1,-1],"loss_changes":[1.3817979E1,2.2749043E-1,4.55859E0,0E0,0E0,1.1934671E0,0E0,0E0,0E0],"parents":[2147483647,0,0,1,1,2,2,5,5],"right_children":[2,4,6,-1,-1,8,-1,-1,-1],"split_conditions":[5.55E1,8.55E1,4.7E1,-1.5457633E-1,-5.415207E-3,8E0,-1.3263832E-1,-5.451815E-2,1.7510217E-1],"split_indices":[1301,2230,2211,0,0,1212,0,0,0],"split_type":[0,0,0,0,0,0,0,0,0],"sum_hessian":[6.8876526E1,3.511378E1,3.3762745E1,3.409278E1,1.0210025E0,2.8832952E1,4.9297934E0,1.7512807E0,2.7081673E1],"tree_param":{"num_deleted":"0","num_feature":"3333","num_nodes":"9","size_leaf_vector":"0"}},{"base_weights":[3.384342E-1,-1.7517187E-1,4.9394494E-1,3.6505464E-1,-4.6674833E-1,5.261248E-1,3.6245134E-2,5.0539476E-1,-2.9888943E-1,8.783882E-3,-4.9773172E-1,5.5591094E-1,1.489876E-1,-3.8826275E-1,4.1485858E-1,5.413961E-1,1.5659222E-1,5.730616E-1,1.6034923E-1,4.7344145E-1,-3.1082326E-1,1.5730907E-1,5.7752866E-1,-3.1835902E-1,4.4875452E-1,-3.8736343E-1,-6.436011E-2],"categories":[],"categories_nodes":[],"categories_segments":[],"categories_sizes":[],"default_left":[1,1,1,1,1,1,1,0,0,0,0,1,1,0,0,0,0,1,1,0,1,0,0,0,0,0,0],"id":27,"left_children":[1,3,5,7,9,11,13,15,-1,-1,-1,17,19,-1,-1,-1,-1,21,23,-1,25,-1,-1,-1,-1,-1,-1],"loss_changes":[8.485771E0,4.1364546E0,1.1736794E0,1.0257304E0,2.5177097E-1,7.6628685E-1,1.1886789E0,1.7196894E-2,0E0,0E0,0E0,3.8088608E-1,1.1764055E0,0E0,0E0,0E0,0E0,3.2474518E-2,7.343908E-1,0E0,4.0299E-2,0E0,0E0,0E0,0E0,0E0,0E0],"parents":[2147483647,0,0,1,1,2,2,3,3,4,4,5,5,6,6,7,7,11,11,12,12,17,17,18,18,20,20],"right_children":[2,4,6,8,10,12,14,16,-1,-1,-1,18,20,-1,-1,-1,-1,22,24,-1,26,-1,-1,-1,-1,-1,-1],"split_conditions":[8.35E1,6.35E1,1.085E2,4.1E1,4.75E1,4.05E1,6.95E1,3.5E1,-8.966683E-2,2.6351647E-3,-1.4931951E-1,6.25E1,1.8E1,-1.1647883E-1,1.24457575E-1,1.6241883E-1,4.697767E-2,6E1,9.5E1,1.4203244E-1,8.05E1,4.7192723E-2,1.732586E-1,-9.550771E-2,1.3462636E-1,-1.1620904E-1,-1.9308034E-2],"split_indices":[3110,1310,1002,2301,321,1230,2001,121,0,0,0,131,1212,0,0,0,0,1331,1331,0,22,0,0,0,0,0,0],"split_type":[0,0,0,0,0,0,0,0,0,0,0,0,0,0,0,0,0,0,0,0,0,0,0,0,0,0,0],"sum_hessian":[1.041598E2,2.41786E1,7.998119E1,8.387121E0,1.5791479E1,7.4587616E1,5.393583E0,7.120777E0,1.2663438E0,1.0097877E0,1.4781691E1,6.868858E1,5.8990335E0,2.5306683E0,2.8629146E0,5.954077E0,1.1667001E0,6.540408E1,3.2844937E0,3.4411967E0,2.4578369E0,1.0802447E0,6.4323845E1,1.1957965E0,2.0886974E0,1.4391987E0,1.0186381E0],"tree_param":{"num_deleted":"0","num_feature":"3333","num_nodes":"27","size_leaf_vector":"0"}},{"base_weights":[-6.2051788E-2,-3.9979246E-1,3.9588946E-1,-4.5103216E-1,3.8031146E-1,5.25047E-1,-3.9912286E-1,-4.8720473E-1,8.413386E-2,1.4340379E-2,5.4976654E-1,-5.0351393E-1,-1.04022965E-1],"categories":[],"categories_nodes":[],"categories_segments":[],"categories_sizes":[],"default_left":[1,1,0,1,0,1,0,1,0,0,0,0,0],"id":28,"left_children":[1,3,5,7,-1,9,-1,11,-1,-1,-1,-1,-1],"loss_changes":[8.842043E0,1.483069E0,2.708257E0,6.458669E-1,0E0,2.618413E-1,0E0,1.3145018E-1,0E0,0E0,0E0,0E0,0E0],"parents":[2147483647,0,0,1,1,2,2,3,3,5,5,7,7],"right_children":[2,4,6,8,-1,10,-1,12,-1,-1,-1,-1,-1],"split_conditions":[1.395E2,1.085E2,9.7E1,7.85E1,1.14093445E-1,1.035E2,-1.19736865E-1,7.75E1,2.524016E-2,4.302114E-3,1.6492997E-1,-1.5105419E-1,-3.1206891E-2],"split_indices":[2210,22,1122,1010,0,1021,0,232,0,0,0,0,0],"split_type":[0,0,0,0,0,0,0,0,0,0,0,0,0],"sum_hessian":[5.514552E1,3.181115E1,2.333437E1,3.0246307E1,1.5648419E0,2.0365387E1,2.9689837E0,2.8415298E1,1.8310082E0,1.0131781E0,1.935221E1,2.6954033E1,1.4612656E0],"tree_param":{"num_deleted":"0","num_feature":"3333","num_nodes":"13","size_leaf_vector":"0"}},{"base_weights":[-5.086698E-1],"categories":[],"categories_nodes":[],"categories_segments":[],"categories_sizes":[],"default_left":[0],"id":29,"left_children":[-1],"loss_changes":[0E0],"parents":[2147483647],"right_children":[-1],"split_conditions":[-1.5260094E-1],"split_indices":[0],"split_type":[0],"sum_hessian":[3.7957787E1],"tree_param":{"num_deleted":"0","num_feature":"3333","num_nodes":"1","size_leaf_vector":"0"}},{"base_weights":[-6.525468E-2,-4.8858708E-1,3.5882932E-1,-5.043217E-1,-3.189908E-2,5.0040823E-1,-4.1924003E-1,-1.8649372E-1,5.456015E-1,1.4547086E-1,5.5717963E-1],"categories":[],"categories_nodes":[],"categories_segments":[],"categories_sizes":[],"default_left":[1,1,1,0,0,1,0,0,1,0,0],"id":30,"left_children":[1,3,5,-1,-1,7,-1,-1,9,-1,-1],"loss_changes":[1.0170662E1,1.8716955E-1,3.3371413E0,0E0,0E0,8.61536E-1,0E0,0E0,2.6513577E-2,0E0,0E0],"parents":[2147483647,0,0,1,1,2,2,5,5,8,8],"right_children":[2,4,6,-1,-1,8,-1,-1,10,-1,-1],"split_conditions":[5.55E1,7.55E1,1.115E2,-1.5129651E-1,-9.569724E-3,3.9E1,-1.2577201E-1,-5.594812E-2,6.25E1,4.3641258E-2,1.671539E-1],"split_indices":[1301,301,2110,0,0,1101,0,0,3010,0,0],"split_type":[0,0,0,0,0,0,0,0,0,0,0],"sum_hessian":[5.4675518E1,2.7285889E1,2.7389627E1,2.627627E1,1.009619E0,2.3474945E1,3.9146833E0,1.256134E0,2.2218811E1,1.0062956E0,2.1212515E1],"tree_param":{"num_deleted":"0","num_feature":"3333","num_nodes":"11","size_leaf_vector":"0"}},{"base_weights":[3.1815043E-1,-1.6258122E-1,4.6347618E-1,3.3625674E-1,-4.478599E-1,1.979548E-1,5.2565134E-1,5.045091E-1,-1.5784727E-1,-4.820777E-1,-1.2147335E-2,5.0043434E-1,-2.250006E-1,5.4108757E-1,5.1724367E-2,-4.3973944E-1,2.26628E-1,5.4858685E-1,1.218557E-1,5.579141E-1,2.2199835E-1],"categories":[],"categories_nodes":[],"categories_segments":[],"categories_sizes":[],"default_left":[1,1,1,1,1,1,1,0,0,0,0,0,1,1,0,0,0,1,0,0,0],"id":31,"left_children":[1,3,5,7,9,11,13,-1,-1,-1,-1,-1,15,17,-1,-1,-1,19,-1,-1,-1],"loss_changes":[5.9897184E0,3.0524821E0,9.734001E-1,7.4388367E-1,1.9394898E-1,1.9020488E0,3.5446072E-1,0E0,0E0,0E0,0E0,0E0,7.3217165E-1,9.199524E-2,0E0,0E0,0E0,2.6473045E-2,0E0,0E0,0E0],"parents":[2147483647,0,0,1,1,2,2,3,3,4,4,5,5,6,6,12,12,13,13,17,17],"right_children":[2,4,6,8,10,12,14,-1,-1,-1,-1,-1,16,18,-1,-1,-1,20,-1,-1,-1],"split_conditions":[8.35E1,6.35E1,9.15E1,5.95E1,1.205E2,1.2E1,7.75E1,1.5135273E-1,-4.7354184E-2,-1.4462331E-1,-3.6442007E-3,1.501303E-1,8.6E1,6.65E1,1.551731E-2,-1.3192184E-1,6.79884E-2,1.155E2,3.655671E-2,1.6737422E-1,6.659951E-2],"split_indices":[3110,1310,3110,1301,3200,1212,1010,0,0,0,0,0,1331,131,0,0,0,1002,0,0,0],"split_type":[0,0,0,0,0,0,0,0,0,0,0,0,0,0,0,0,0,0,0,0,0],"sum_hessian":[8.365702E1,1.9391611E1,6.42654E1,6.9900765E0,1.2401535E1,1.2987148E1,5.127826E1,5.198742E0,1.7913345E0,1.1399858E1,1.0016761E0,7.4651847E0,5.521964E0,4.9523525E1,1.7547321E0,3.7603369E0,1.761627E0,4.835008E1,1.173446E0,4.6318916E1,2.0311625E0],"tree_param":{"num_deleted":"0","num_feature":"3333","num_nodes":"21","size_leaf_vector":"0"}},{"base_weights":[-5.7366632E-2,-4.917379E-1,2.606977E-1,-4.5193568E-1,5.116162E-1,5.392526E-1,2.7088858E-2],"categories":[],"categories_nodes":[],"categories_segments":[],"categories_sizes":[],"default_left":[1,0,1,0,1,0,0],"id":32,"left_children":[1,-1,3,-1,5,-1,-1],"loss_changes":[6.3183513E0,0E0,4.9731245E0,0E0,2.5430298E-1,0E0,0E0],"parents":[2147483647,0,0,2,2,4,4],"right_children":[2,-1,4,-1,6,-1,-1],"split_conditions":[9.55E1,-1.4752138E-1,4.25E1,-1.355807E-1,1.03E2,1.6177578E-1,8.126657E-3],"split_indices":[1321,0,2230,0,3200,0,0],"split_type":[0,0,0,0,0,0,0],"sum_hessian":[4.380491E1,1.828609E1,2.551882E1,6.436734E0,1.9082087E1,1.7945564E1,1.1365219E0],"tree_param":{"num_deleted":"0","num_feature":"3333","num_nodes":"7","size_leaf_vector":"0"}},{"base_weights":[-4.9997872E-1],"categories":[],"categories_nodes":[],"categories_segments":[],"categories_sizes":[],"default_left":[0],"id":33,"left_children":[-1],"loss_changes":[0E0],"parents":[2147483647],"right_children":[-1],"split_conditions":[-1.4999363E-1],"split_indices":[0],"split_type":[0],"sum_hessian":[2.9252617E1],"tree_param":{"num_deleted":"0","num_feature":"3333","num_nodes":"1","size_leaf_vector":"0"}},{"base_weights":[-6.1686967E-2,-4.7582194E-1,3.3831245E-1,-4.9371976E-1,-5.680552E-2,4.8976332E-1,-3.282077E-1,-1.4574265E-1,5.330904E-1,-3.886557E-1,-4.6827853E-2],"categories":[],"categories_nodes":[],"categories_segments":[],"categories_sizes":[],"default_left":[1,1,1,0,0,1,1,0,0,0,0],"id":34,"left_children":[1,3,5,-1,-1,7,9,-1,-1,-1,-1],"loss_changes":[7.5011444E0,1.3833714E-1,2.4950254E0,0E0,0E0,6.075692E-1,6.480861E-2,0E0,0E0,0E0,0E0],"parents":[2147483647,0,0,1,1,2,2,5,5,6,6],"right_children":[2,4,6,-1,-1,8,10,-1,-1,-1,-1],"split_conditions":[5.55E1,1.355E2,8.85E1,-1.4811593E-1,-1.7041657E-2,3.9E1,1.505E2,-4.3722797E-2,1.5992713E-1,-1.1659671E-1,-1.4048357E-2],"split_indices":[1301,1,2210,0,0,1101,3,0,0,0,0],"split_type":[0,0,0,0,0,0,0,0,0,0,0],"sum_hessian":[4.3310307E1,2.118603E1,2.2124277E1,2.0147182E1,1.0388469E0,1.8243963E1,3.8803136E0,1.0135665E0,1.7230398E1,2.8802984E0,1.0000154E0],"tree_param":{"num_deleted":"0","num_feature":"3333","num_nodes":"11","size_leaf_vector":"0"}},{"base_weights":[3.011813E-1,-1.5115988E-1,4.3853432E-1,3.9150393E-1,-3.9079487E-1,5.2546525E-1,2.3522548E-1,4.5066154E-1,6.641066E-2,1.6618554E-1,-4.7049928E-1,5.3345203E-1,1.3041756E-1,-2.414522E-1,4.987334E-1,3.139219E-1,-4.2932186E-1],"categories":[],"categories_nodes":[],"categories_segments":[],"categories_sizes":[],"default_left":[1,1,1,1,1,1,1,0,0,0,0,0,0,1,0,0,0],"id":35,"left_children":[1,3,5,7,9,11,13,-1,-1,-1,-1,-1,-1,15,-1,-1,-1],"loss_changes":[4.2806396E0,2.3042648E0,8.0052185E-1,7.713461E-2,6.098479E-1,4.3435097E-2,2.3149707E0,0E0,0E0,0E0,0E0,0E0,0E0,8.540426E-1,0E0,0E0,0E0],"parents":[2147483647,0,0,1,1,2,2,3,3,4,4,5,5,6,6,13,13],"right_children":[2,4,6,8,10,12,14,-1,-1,-1,-1,-1,-1,16,-1,-1,-1],"split_conditions":[8.35E1,4.85E1,5.55E1,5.75E1,5.85E1,5.65E1,7.25E1,1.3519847E-1,1.9923199E-2,4.9855664E-2,-1.4114979E-1,1.6003561E-1,3.9125267E-2,8.5E1,1.4962003E-1,9.4176576E-2,-1.2879656E-1],"split_indices":[3110,1010,1010,102,1310,101,2001,0,0,0,0,0,0,1002,0,0,0],"split_type":[0,0,0,0,0,0,0,0,0,0,0,0,0,0,0,0,0],"sum_hessian":[6.683071E1,1.5542959E1,5.128775E1,4.5670123E0,1.0975947E1,3.4816376E1,1.6471375E1,3.5371075E0,1.0299047E0,1.2382109E0,9.737736E0,3.3783024E1,1.0333525E0,5.893648E0,1.0577727E1,1.3201394E0,4.5735087E0],"tree_param":{"num_deleted":"0","num_feature":"3333","num_nodes":"17","size_leaf_vector":"0"}},{"base_weights":[-5.59878E-2,-4.731258E-1,2.5278297E-1,-4.30752E-1,4.9218687E-1,5.200326E-1,1.2031639E-1],"categories":[],"categories_nodes":[],"categories_segments":[],"categories_sizes":[],"default_left":[1,0,1,0,1,0,0],"id":36,"left_children":[1,-1,3,-1,5,-1,-1],"loss_changes":[4.6834064E0,0E0,3.6506376E0,0E0,1.03414774E-1,0E0,0E0],"parents":[2147483647,0,0,2,2,4,4],"right_children":[2,-1,4,-1,6,-1,-1],"split_conditions":[5.7E1,-1.4193775E-1,4.25E1,-1.2922561E-1,4.95E1,1.5600978E-1,3.609492E-2],"split_indices":[2121,0,2230,0,1330,0,0],"split_type":[0,0,0,0,0,0,0],"sum_hessian":[3.4433292E1,1.4420048E1,2.0013245E1,4.983971E0,1.5029273E1,1.361161E1,1.4176629E0],"tree_param":{"num_deleted":"0","num_feature":"3333","num_nodes":"7","size_leaf_vector":"0"}},{"base_weights":[-4.9122062E-1],"categories":[],"categories_nodes":[],"categories_segments":[],"categories_sizes":[],"default_left":[0],"id":37,"left_children":[-1],"loss_changes":[0E0],"parents":[2147483647],"right_children":[-1],"split_conditions":[-1.473662E-1],"split_indices":[0],"split_type":[0],"sum_hessian":[2.2449385E1],"tree_param":{"num_deleted":"0","num_feature":"3333","num_nodes":"1","size_leaf_vector":"0"}},{"base_weights":[-5.885976E-2,-4.614357E-1,3.2045412E-1,-4.8274833E-1,-5.8804438E-2,4.520227E-1,-3.7121078E-1,-1.3599445E-1,5.0165683E-1],"categories":[],"categories_nodes":[],"categories_segments":[],"categories_sizes":[],"default_left":[1,1,1,0,0,1,0,0,0],"id":38,"left_children":[1,3,5,-1,-1,7,-1,-1,-1],"loss_changes":[5.5122423E0,1.21370316E-1,1.8674734E0,0E0,0E0,5.393791E-1,0E0,0E0,0E0],"parents":[2147483647,0,0,1,1,2,2,5,5],"right_children":[2,4,6,-1,-1,8,-1,-1,-1],"split_conditions":[5.55E1,1.345E2,1.115E2,-1.448245E-1,-1.7641332E-2,8E0,-1.1136324E-1,-4.0798336E-2,1.5049705E-1],"split_indices":[1301,1,2110,0,0,1212,0,0,0],"split_type":[0,0,0,0,0,0,0,0,0],"sum_hessian":[3.412954E1,1.6452045E1,1.7677496E1,1.5435983E1,1.0160621E0,1.514339E1,2.5341058E0,1.0433118E0,1.4100078E1],"tree_param":{"num_deleted":"0","num_feature":"3333","num_nodes":"9","size_leaf_vector":"0"}},{"base_weights":[2.8902012E-1,-1.5656013E-2,4.812113E-1,4.6081793E-1,-3.2962883E-1,5.011056E-1,1.5569805E-2,2.7160433E-1,-4.1967055E-1,1.1564978E-1,5.108983E-1,-4.7462067E-1,7.387766E-2,5.2181375E-1,1.7224234E-1],"categories":[],"categories_nodes":[],"categories_segments":[],"categories_sizes":[],"default_left":[1,1,1,0,1,1,0,0,1,0,1,0,0,0,0],"id":39,"left_children":[1,3,5,-1,7,9,-1,-1,11,-1,13,-1,-1,-1,-1],"loss_changes":[3.1621227E0,3.4142036E0,2.985096E-1,0E0,8.5716236E-1,6.0492516E-2,0E0,0E0,3.6953425E-1,0E0,2.3243427E-2,0E0,0E0,0E0,0E0],"parents":[2147483647,0,0,1,1,2,2,4,4,5,5,8,8,10,10],"right_children":[2,4,6,-1,8,10,-1,-1,12,-1,14,-1,-1,-1,-1],"split_conditions":[9.15E1,1.1E1,7.75E1,1.3824539E-1,9.55E1,4.5E1,4.6709417E-3,8.14813E-2,1.115E2,3.4694936E-2,1.155E2,-1.4238621E-1,2.21633E-2,1.5654413E-1,5.1672705E-2],"split_indices":[3110,1212,1010,0,332,2031,0,0,32,0,1002,0,0,0,0],"split_type":[0,0,0,0,0,0,0,0,0,0,0,0,0,0,0],"sum_hessian":[5.2872974E1,2.0806871E1,3.2066105E1,8.078908E0,1.27279625E1,3.0679188E1,1.3869158E0,1.395227E0,1.1332736E1,1.0774858E0,2.9601704E1,1.0231898E1,1.1008372E0,2.815343E1,1.4482709E0],"tree_param":{"num_deleted":"0","num_feature":"3333","num_nodes":"15","size_leaf_vector":"0"}}]},"name":"gbtree"},"learner_model_param":{"base_score":"5E-1","num_class":"4","num_feature":"3333","num_target":"1"},"objective":{"name":"multi:softprob","softmax_multiclass_param":{"num_class":"4"}}},"version":[1,6,1]}